SVM-light Version V6.02
2 # kernel type
3 # kernel parameter -d 
1 # kernel parameter -g 
1 # kernel parameter -s 
1 # kernel parameter -r 
empty# kernel parameter -u 
6 # highest feature index 
74672 # number of training documents 
14183 # number of support vectors plus 1 
-1.1288194 # threshold b, each following line is a SV (starting with alpha*y)
-0.80010622142262510791965723910835 1:0.21696 2:0.58333331 3:1 4:0.066293336 5:0.0059822663 6:0 #
0.80010622142262510791965723910835 1:0.22149999 2:0.12820514 3:0 4:0.031500001 5:0.010139567 6:0 #
0.80010622142262510791965723910835 1:0.50400001 2:0.12222222 3:0 4:0.1205 5:0.011107825 6:0 #
-0.80010622142262510791965723910835 1:0.25600001 2:0.024096385 3:0 4:0.016846154 5:0.0035172575 6:0 #
0.80010622142262510791965723910835 1:0.18755555 2:0.1875 3:0 4:0.038844444 5:0.0091200266 6:0 #
-0.80010622142262510791965723910835 1:0.479 2:0.24137931 3:0 4:0.1275 5:0.033563916 6:0 #
0.80010622142262510791965723910835 1:0.17753845 2:0.84615386 3:1 4:0.025846153 5:0.0062828641 6:0 #
-0.80010622142262510791965723910835 1:0.14399999 2:0.41666666 3:1 4:0.043333333 5:0.0031559486 6:0 #
0.80010622142262510791965723910835 1:0.14414285 2:0.63999999 3:1 4:0.059904762 5:0.0040696468 6:0 #
0.80010622142262510791965723910835 1:0.368 2:0.043010753 3:0 4:0.093857139 5:0.0072769206 6:0 #
-0.80010622142262510791965723910835 1:0.32025 2:1 3:1 4:0.051673077 5:0.0014405994 6:0 #
0.80010622142262510791965723910835 1:0.31885713 2:0.35294119 3:0 4:0.056000002 5:0.016551083 6:0 #
-0.80010622142262510791965723910835 1:0.42866668 2:0.12765957 3:0 4:0.045128204 5:0.0020540173 6:0 #
0.80010622142262510791965723910835 1:0.204 2:0.66666669 3:1 4:0.052000001 5:0.0079530617 6:0 #
-0.80010622142262510791965723910835 1:0.493 2:0.28 3:0 4:0.096000001 5:0.0080541661 6:0 #
-0.80010622142262510791965723910835 1:0.37555555 2:0.18032786 3:0 4:0.034119658 5:0.00081053335 6:0 #
0.80010622142262510791965723910835 1:0.32159999 2:0.484375 3:1 4:0.018433332 5:0.0022444499 6:0 #
0.80010622142262510791965723910835 1:0.19400001 2:0.5 3:1 4:0.039657142 5:0.0065874043 6:0 #
0.80010622142262510791965723910835 1:0.41714287 2:0.65217394 3:0 4:0.11242857 5:0.0074873851 6:0 #
-0.80010622142262510791965723910835 1:0.19264001 2:0.61702126 3:1 4:0.024768 5:0.0041711177 6:0 #
-0.80010622142262510791965723910835 1:0.19721739 2:0.62068963 3:1 4:0.032014493 5:0.0023254214 6:0 #
0.80010622142262510791965723910835 1:0.29542857 2:0.29545453 3:0 4:0.045371428 5:0.0092264488 6:0 #
-0.80010622142262510791965723910835 1:0.29457143 2:0.625 3:1 4:0.060142856 5:0.0060164197 6:0 #
-0.80010622142262510791965723910835 1:0.27966666 2:0.61702126 3:1 4:0.038205128 5:0.0025135155 6:0 #
0.80010622142262510791965723910835 1:0.48666668 2:0.5272727 3:0 4:0.1 5:0.017255759 6:0 #
0.80010622142262510791965723910835 1:0.48742858 2:0.22727273 3:0 4:0.032285713 5:0.0034233166 6:0 #
-0.80010622142262510791965723910835 1:0.454 2:0.54385966 3:0 4:0.087333336 5:0.0039496101 6:0 #
0.80010622142262510791965723910835 1:0.152 2:0.375 3:1 4:0.028373333 5:0.0059706643 6:0 #
-0.80010622142262510791965723910835 1:0.454 2:0.60000002 3:0 4:0.087333336 5:0.0039496101 6:0 #
0.80010622142262510791965723910835 1:0.14906667 2:0.33333334 3:1 4:0.03664 5:0.0059669912 6:0 #
-0.80010622142262510791965723910835 1:0.479 2:0.40000001 3:0 4:0.1275 5:0.033563916 6:0 #
-0.80010622142262510791965723910835 1:0.39899999 2:0.48571429 3:0 4:0.0605 5:0.0075936834 6:0 #
0.80010622142262510791965723910835 1:0.169 2:0.75 3:1 4:0.041466668 5:0.0071248319 6:0 #
0.80010622142262510791965723910835 1:0.36861539 2:0.2 3:1 4:0.062745564 5:0.0021724363 6:0 #
-0.80010622142262510791965723910835 1:0.1462 2:0.11111111 3:1 4:0.030733334 5:0.0062067006 6:0 #
0.80010622142262510791965723910835 1:0.461 2:0.91489363 3:0 4:0.11625 5:0.013427936 6:0 #
-0.80010622142262510791965723910835 1:0.14568421 2:0.40963855 3:1 4:0.029813765 5:0.00057431805 6:0 #
0.80010622142262510791965723910835 1:0.38114285 2:0.5625 3:0 4:0.083857141 5:0.0064026429 6:0 #
-0.80010622142262510791965723910835 1:0.19013333 2:0.25 3:1 4:0.036738463 5:0.0031152132 6:0 #
-0.80010622142262510791965723910835 1:0.17925 2:0.25 3:1 4:0.050416667 5:0.0092189182 6:0 #
0.80010622142262510791965723910835 1:0.34666666 2:0.18461539 3:0 4:0.087499999 5:0.0074335313 6:0 #
0.80010622142262510791965723910835 1:0.3137143 2:0.031007752 3:0 4:0.077571429 5:0.0063766693 6:0 #
-0.80010622142262510791965723910835 1:0.33750001 2:0.53846157 3:0 4:0.1345 5:0.023110284 6:0 #
0.80010622142262510791965723910835 1:0.15446153 2:0.125 3:1 4:0.046892308 5:0.0071884538 6:0 #
-0.80010622142262510791965723910835 1:0.244 2:0.027027028 3:0 4:0.046564102 5:0.0080909133 6:0 #
0.80010622142262510791965723910835 1:0.39120001 2:0.25862068 3:1 4:0.021033334 5:0.0022540798 6:0 #
-0.80010622142262510791965723910835 1:0.29333332 2:0.016949153 3:0 4:0.13422222 5:0.0044975067 6:0 #
-0.80010622142262510791965723910835 1:0.292 2:0.021276595 3:0 4:0.069750004 5:0.010583567 6:0 #
0.80010622142262510791965723910835 1:0.28725001 2:0.75 3:1 4:0.043650001 5:0.0057748179 6:0 #
0.80010622142262510791965723910835 1:0.12899999 2:0.56410259 3:1 4:0.040150002 5:0.0055823782 6:0 #
-0.80010622142262510791965723910835 1:0.303 2:0.73809522 3:1 4:0.018557692 5:0.00042685674 6:0 #
0.80010622142262510791965723910835 1:0.30685714 2:0.007751938 3:0 4:0.084428571 5:0.0064306548 6:0 #
-0.80010622142262510791965723910835 1:0.31008697 2:0.70588237 3:1 4:0.04805797 5:0.0096502127 6:0 #
0.80010622142262510791965723910835 1:0.37466666 2:0.25 3:0 4:0.052703705 5:0.0034920506 6:0 #
-0.80010622142262510791965723910835 1:0.3624 2:0.36842105 3:1 4:0.014866667 5:0.00081189931 6:0 #
-0.80010622142262510791965723910835 1:0.3664 2:0.52941179 3:1 4:0.10791111 5:0.014860697 6:0 #
0.80010622142262510791965723910835 1:0.252 2:0.06666667 3:0 4:0.045166668 5:0.015147205 6:0 #
0.80010622142262510791965723910835 1:0.27955556 2:0.8125 3:0 4:0.029155556 5:0.0058837309 6:0 #
-0.80010622142262510791965723910835 1:0.29300001 2:0.82608694 3:0 4:0 5:0 6:0 #
0.80010622142262510791965723910835 1:0.15054545 2:0.97435898 3:1 4:0.030909091 5:0.0076094572 6:0 #
-0.80010622142262510791965723910835 1:0.3168889 2:0.82857144 3:0 4:0.041333333 5:0.010132176 6:0 #
0.80010622142262510791965723910835 1:0.38514286 2:0.81034482 3:1 4:0.018642858 5:0.0016572184 6:0 #
-0.80010622142262510791965723910835 1:0.24888889 2:1 3:0 4:0.078905985 5:0.00338902 6:0 #
-0.80010622142262510791965723910835 1:0.242 2:0.98901099 3:0 4:0.045538463 5:0.0061358633 6:0 #
0.80010622142262510791965723910835 1:0.36836365 2:0.15151516 3:1 4:0.020515151 5:0.0020865237 6:0 #
0.80010622142262510791965723910835 1:0.213 2:0.15000001 3:1 4:0.055349998 5:0.0060225823 6:0 #
-0.80010622142262510791965723910835 1:0.32499999 2:0.0094339624 3:1 4:0.069576927 5:0.00099554076 6:0 #
0.80010622142262510791965723910835 1:0.19499999 2:0.64705884 3:0 4:0.042399999 5:0.0068945759 6:0 #
-0.80010622142262510791965723910835 1:0.32499999 2:0.02 3:1 4:0.069576927 5:0.00099554076 6:0 #
0.80010622142262510791965723910835 1:0.31600001 2:0.95652175 3:0 4:0.112 5:0.010213955 6:0 #
-0.80010622142262510791965723910835 1:0.29771429 2:0.08510638 3:1 4:0.017999999 5:0.00062088069 6:0 #
-0.80010622142262510791965723910835 1:0.27200001 2:0.14102565 3:1 4:0.017410256 5:0.0007400614 6:0 #
0.80010622142262510791965723910835 1:0.25333333 2:0.59574467 3:0 4:0.041066665 5:0.012155861 6:0 #
0.80010622142262510791965723910835 1:0.39866668 2:0.69230771 3:0 4:0.056592591 5:0.0037776302 6:0 #
-0.80010622142262510791965723910835 1:0.37133333 2:0.59154928 3:0 4:0.043025643 5:0.0039721658 6:0 #
0.80010622142262510791965723910835 1:0.24625 2:0.083333336 3:1 4:0.0575625 5:0.0030031083 6:0 #
-0.80010622142262510791965723910835 1:0.34959999 2:0.55223882 3:0 4:0.091600001 5:0.0046823719 6:0 #
0.80010622142262510791965723910835 1:0.38981819 2:0.15000001 3:1 4:0.040545456 5:0.0024485479 6:0 #
-0.80010622142262510791965723910835 1:0.236 2:0.46666667 3:0 4:0.055 5:0.0070481016 6:0 #
-0.80010622142262510791965723910835 1:0.2656 2:0.4375 3:0 4:0.046933334 5:0.00050703686 6:0 #
0.80010622142262510791965723910835 1:0.31200001 2:0.36923078 3:1 4:0.082400002 5:0.0055135917 6:0 #
0.80010622142262510791965723910835 1:0.46826667 2:0.31818181 3:1 4:0.044199999 5:0.0024585885 6:0 #
-0.80010622142262510791965723910835 1:0.32228571 2:0.52777779 3:1 4:0.025318682 5:0.0023365812 6:0 #
0.80010622142262510791965723910835 1:0.29733333 2:0.34408602 3:0 4:0.079444446 5:0.0051922123 6:0 #
-0.80010622142262510791965723910835 1:0.31726316 2:0.5714286 3:1 4:0.070526317 5:0.0092358394 6:0 #
0.80010622142262510791965723910835 1:0.51111114 2:0.30303031 3:0 4:0.080555558 5:0.0084495116 6:0 #
-0.80010622142262510791965723910835 1:0.38685715 2:0.29545453 3:1 4:0.064444445 5:0.011375248 6:0 #
-0.80010622142262510791965723910835 1:0.38685715 2:0.27083334 3:1 4:0.064444445 5:0.011375248 6:0 #
0.80010622142262510791965723910835 1:0.192 2:0.72897196 3:0 4:0.013041667 5:0.0019894533 6:0 #
0.80010622142262510791965723910835 1:0.29288888 2:0.71028036 3:0 4:0.016555555 5:0.0024534652 6:0 #
-0.80010622142262510791965723910835 1:0.38 2:0.42857143 3:0 4:0.020500001 5:0.007317028 6:0 #
0.80010622142262510791965723910835 1:0.4226 2:0.57692307 3:1 4:0.057016667 5:0.0028337876 6:0 #
-0.80010622142262510791965723910835 1:0.34400001 2:0.64788735 3:0 4:0.047794871 5:0.0041493173 6:0 #
0.80010622142262510791965723910835 1:0.29866666 2:0.6111111 3:1 4:0.069416665 5:0.0041274186 6:0 #
-0.80010622142262510791965723910835 1:0.38857144 2:0.65454543 3:0 4:0.078637362 5:0.0033974978 6:0 #
-0.80010622142262510791965723910835 1:0.45649999 2:0.63636363 3:0 4:0.075499997 5:0.011249591 6:0 #
0.80010622142262510791965723910835 1:0.15173334 2:0.25 3:1 4:0.040693332 5:0.0057656476 6:0 #
0.80010622142262510791965723910835 1:0.14336842 2:0.5 3:1 4:0.048757896 5:0.0088012395 6:0 #
-0.80010622142262510791965723910835 1:0.14542857 2:0.45714286 3:1 4:0.03678022 5:0.0023968858 6:0 #
0.80010622142262510791965723910835 1:0.4955 2:0.69999999 3:0 4:0.049291667 5:0.0043281689 6:0 #
0.80010622142262510791965723910835 1:0.29866666 2:0.99290782 3:1 4:0.026210826 5:0.0022984212 6:0 #
0.80010622142262510791965723910835 1:0.38080001 2:0.20560747 3:0 4:0.084533334 5:0.0027012331 6:0 #
-0.80010622142262510791965723910835 1:0.15624243 2:0.6785714 3:1 4:0.039353535 5:0.000731865 6:0 #
0.80010622142262510791965723910835 1:0.34799999 2:0.53750002 3:0 4:0.024933333 5:0.0041543045 6:0 #
-0.80010622142262510791965723910835 1:0.28533334 2:0.028571429 3:0 4:0.13033333 5:0.003992538 6:0 #
-0.80010622142262510791965723910835 1:0.30342856 2:0.048387095 3:0 4:0.059999999 5:0.0032832732 6:0 #
0.80010622142262510791965723910835 1:0.30426666 2:0.84615386 3:1 4:0.046974357 5:0.0013354165 6:0 #
0.80010622142262510791965723910835 1:0.35155556 2:0.6875 3:1 4:0.088444442 5:0.0052212412 6:0 #
0.80010622142262510791965723910835 1:0.24114285 2:0.4074074 3:0 4:0.041999999 5:0.0025325478 6:0 #
-0.80010622142262510791965723910835 1:0.38333333 2:0.89130437 3:1 4:0.058794871 5:0.0050285659 6:0 #
0.80010622142262510791965723910835 1:0.47333333 2:0.16666667 3:0 4:0.13866666 5:0.014782985 6:0 #
-0.80010622142262510791965723910835 1:0.34644446 2:0.78787881 3:1 4:0.078814812 5:0.012729318 6:0 #
-0.80010622142262510791965723910835 1:0.41600001 2:0.73913044 3:0 4:0.08779487 5:0.0046597356 6:0 #
0.80010622142262510791965723910835 1:0.19326316 2:0.625 3:1 4:0.033178948 5:0.004613264 6:0 #
-0.25558055986795125136268325150013 1:0.14988235 2:0.52631581 3:1 4:0.049647059 5:0.0032944607 6:0 #
0.80010622142262510791965723910835 1:0.36933333 2:0.37037036 3:0 4:0.046555556 5:0.0033324636 6:0 #
-0.80010622142262510791965723910835 1:0.25545454 2:0.52941179 3:1 4:0.037318181 5:0.0030009593 6:0 #
-0.80010622142262510791965723910835 1:0.25775 2:0.5625 3:1 4:0.035687499 5:0.0017118576 6:0 #
0.80010622142262510791965723910835 1:0.29644445 2:0.91111112 3:0 4:0.074555553 5:0.0055854744 6:0 #
0.80010622142262510791965723910835 1:0.30899999 2:0.85000002 3:0 4:0.104375 5:0.0061241863 6:0 #
-0.80010622142262510791965723910835 1:0.41600001 2:0.73913044 3:0 4:0.08779487 5:0.0046597356 6:0 #
0.80010622142262510791965723910835 1:0.31433332 2:0.91379309 3:1 4:0.055 5:0.0019270763 6:0 #
-0.80010622142262510791965723910835 1:0.35699999 2:0.7368421 3:0 4:0.0605 5:0.0075936834 6:0 #
-0.80010622142262510791965723910835 1:0.352 2:0.70909089 3:0 4:0.038153846 5:0.002394543 6:0 #
0.80010622142262510791965723910835 1:0.28338462 2:0.48598132 3:1 4:0.021564102 5:0.0020322558 6:0 #
0.80010622142262510791965723910835 1:0.30199999 2:0.38749999 3:1 4:0.0239 5:0.0028243114 6:0 #
-0.80010622142262510791965723910835 1:0.382 2:0.58333331 3:1 4:0.086599998 5:0.018580841 6:0 #
0.80010622142262510791965723910835 1:0.412 2:0.75757575 3:0 4:0.066714287 5:0.010136987 6:0 #
-0.80010622142262510791965723910835 1:0.36559999 2:0.4852941 3:0 4:0.043015383 5:0.0051288991 6:0 #
0.80010622142262510791965723910835 1:0.23226666 2:0.79310346 3:1 4:0.026155556 5:0.0023681284 6:0 #
-0.80010622142262510791965723910835 1:0.32025 2:1 3:1 4:0.051673077 5:0.0014405994 6:0 #
0.80010622142262510791965723910835 1:0.33314285 2:0.68965518 3:0 4:0.050142858 5:0.0074274559 6:0 #
-0.80010622142262510791965723910835 1:0.20346667 2:0.9518072 3:1 4:0.014420513 5:0.0013307416 6:0 #
-0.80010622142262510791965723910835 1:0.2184 2:0.94949496 3:1 4:0.0231 5:0.00042714024 6:0 #
0.80010622142262510791965723910835 1:0.32266667 2:0.60000002 3:0 4:0.058333334 5:0.017236305 6:0 #
0.80010622142262510791965723910835 1:0.19644445 2:0.18644068 3:0 4:0.030629629 5:0.00063804304 6:0 #
-0.80010622142262510791965723910835 1:0.41299999 2:0.34090909 3:0 4:0.13533333 5:0.022064913 6:0 #
0.80010622142262510791965723910835 1:0.36654547 2:0.6111111 3:1 4:0.10490909 5:0.0052251099 6:0 #
-0.80010622142262510791965723910835 1:0.39771429 2:0.29411766 3:0 4:0.082095236 5:0.0037618494 6:0 #
-0.80010622142262510791965723910835 1:0.30914286 2:0.36363637 3:0 4:0.083428569 5:0.016916033 6:0 #
0.80010622142262510791965723910835 1:0.28066668 2:1 3:1 4:0.072416663 5:0.0042041657 6:0 #
0.80010622142262510791965723910835 1:0.28276923 2:0.78260869 3:1 4:0.044061538 5:0.0085666981 6:0 #
-0.80010622142262510791965723910835 1:0.382 2:0.59090906 3:1 4:0.086599998 5:0.018580841 6:0 #
0.80010622142262510791965723910835 1:0.23244445 2:0.4375 3:0 4:0.019814815 5:0.0018742731 6:0 #
-0.80010622142262510791965723910835 1:0.15264 2:0.77419353 3:1 4:0.038279999 5:0.0013053485 6:0 #
0.80010622142262510791965723910835 1:0.34545454 2:0.51249999 3:1 4:0.023272727 5:0.0021605424 6:0 #
-0.80010622142262510791965723910835 1:0.30475 2:0.53846157 3:1 4:0.067666665 5:0.013419422 6:0 #
0.80010622142262510791965723910835 1:0.28099999 2:0.2857143 3:0 4:0.1105 5:0.0024494512 6:0 #
-0.80010622142262510791965723910835 1:0.32018182 2:0.38461539 3:1 4:0.060606062 5:0.004479805 6:0 #
-0.80010622142262510791965723910835 1:0.31988236 2:0.3611111 3:1 4:0.083490193 5:0.0077560889 6:0 #
0.80010622142262510791965723910835 1:0.2105 2:0.3125 3:0 4:0.048799999 5:0.0115857 6:0 #
0.80010622142262510791965723910835 1:0.1805 2:0.17647059 3:1 4:0.03695 5:0.0062377574 6:0 #
-0.80010622142262510791965723910835 1:0.35699999 2:0.52631581 3:0 4:0.0265 5:0.000504656 6:0 #
0.80010622142262510791965723910835 1:0.38092306 2:0.33750001 3:1 4:0.02351282 5:0.0021620144 6:0 #
0.80010622142262510791965723910835 1:0.16416667 2:0.5714286 3:1 4:0.03598718 5:0.0023802109 6:0 #
-0.80010622142262510791965723910835 1:0.16181818 2:0.63636363 3:1 4:0.042909089 5:0.00082622911 6:0 #
0.80010622142262510791965723910835 1:0.2272 2:0.72000003 3:1 4:0.048080001 5:0.0093475627 6:0 #
0.80010622142262510791965723910835 1:0.42233333 2:0.58823532 3:1 4:0.018102564 5:0.0017587158 6:0 #
-0.80010622142262510791965723910835 1:0.2976 2:0.47222221 3:1 4:0.033466667 5:0.011483306 6:0 #
0.80010622142262510791965723910835 1:0.233 2:0.73134327 3:0 4:0.028541667 5:0.001032232 6:0 #
-0.80010622142262510791965723910835 1:0.28872728 2:0.48333332 3:1 4:0.021146853 5:0.0012801545 6:0 #
0.80010622142262510791965723910835 1:0.21058823 2:0.043478262 3:1 4:0.053705882 5:0.0030125487 6:0 #
-0.80010622142262510791965723910835 1:0.28777778 2:0.083333336 3:1 4:0.026307693 5:0.0030612163 6:0 #
0.80010622142262510791965723910835 1:0.33160001 2:0.61538464 3:1 4:0.063600004 5:0.0046489858 6:0 #
0.80010622142262510791965723910835 1:0.17919999 2:0.25 3:1 4:0.030719999 5:0.0043173349 6:0 #
-0.80010622142262510791965723910835 1:0.39966667 2:0.69444442 3:1 4:0.066564105 5:0.0044671218 6:0 #
-0.80010622142262510791965723910835 1:0.17236364 2:0.24390244 3:1 4:0.0083636362 5:3.0839405e-05 6:0 #
0.80010622142262510791965723910835 1:0.53222221 2:0.90909094 3:1 4:0.042277779 5:0.0022455363 6:0 #
-0.80010622142262510791965723910835 1:0.38333333 2:0.89130437 3:1 4:0.058794871 5:0.0050285659 6:0 #
0.80010622142262510791965723910835 1:0.152 2:0.25 3:1 4:0.037557896 5:0.0049382648 6:0 #
-0.80010622142262510791965723910835 1:0.41435295 2:0.8125 3:1 4:0.10062745 5:0.010110158 6:0 #
-0.80010622142262510791965723910835 1:0.42894119 2:1 3:1 4:0.08435294 5:0.010684273 6:0 #
0.80010622142262510791965723910835 1:0.12385714 2:0.14285715 3:1 4:0.036314286 5:0.0035966607 6:0 #
0.80010622142262510791965723910835 1:0.3592 2:0.2 3:1 4:0.071958974 5:0.0025103851 6:0 #
0.02959297760753543116152286529541 1:0.23268086 2:0.95081967 3:1 4:0.038088381 5:0.0014620119 6:0 #
0.80010622142262510791965723910835 1:0.19890909 2:0.80000001 3:1 4:0.063709088 5:0.0089395316 6:0 #
0.80010622142262510791965723910835 1:0.11947826 2:0.7368421 3:1 4:0.03452174 5:0.0016589151 6:0 #
-0.80010622142262510791965723910835 1:0.15294118 2:0.48837209 3:1 4:0.037529413 5:0.00036462009 6:0 #
0.80010622142262510791965723910835 1:0.264 2:0.96124029 3:1 4:0.089230768 5:0.0039252639 6:0 #
0.80010622142262510791965723910835 1:0.25924999 2:0.96428573 3:1 4:0.046437498 5:0.0028434496 6:0 #
-0.80010622142262510791965723910835 1:0.14842105 2:0.56626505 3:1 4:0.032926317 5:0.0020492608 6:0 #
0.80010622142262510791965723910835 1:0.233 2:0.73134327 3:0 4:0.028541667 5:0.001032232 6:0 #
0.80010622142262510791965723910835 1:0.085548386 2:0.17391305 3:1 4:0.026838711 5:0.00076436129 6:0 #
0.80010622142262510791965723910835 1:0.22542857 2:0.55555558 3:1 4:0.039538462 5:0.0011155518 6:0 #
0.80010622142262510791965723910835 1:0.22215384 2:0.17391305 3:1 4:0.057153847 5:0.0036226313 6:0 #
0.80010622142262510791965723910835 1:0.36633334 2:0.09589041 3:1 4:0.068916664 5:0.0060158568 6:0 #
-0.80010622142262510791965723910835 1:0.26866665 2:0.079365082 3:1 4:0.036583334 5:0.0036734783 6:0 #
0.80010622142262510791965723910835 1:0.211 2:0.63157892 3:1 4:0.055240002 5:0.006654636 6:0 #
-0.80010622142262510791965723910835 1:0.45563635 2:0.064935066 3:1 4:0.17054546 5:0.015090953 6:0 #
-0.80010622142262510791965723910835 1:0.34517646 2:0.029411765 3:1 4:0.086882353 5:0.0024552241 6:0 #
0.80010622142262510791965723910835 1:0.29703704 2:1 3:1 4:0.051691357 5:0.0016498668 6:0 #
0.80010622142262510791965723910835 1:0.30239999 2:1 3:1 4:0.059 5:0.0054992163 6:0 #
-0.80010622142262510791965723910835 1:0.29824999 2:1 3:1 4:0.079374999 5:0.00589866 6:0 #
0.80010622142262510791965723910835 1:0.29875001 2:0.15887851 3:1 4:0.051062498 5:0.0023671761 6:0 #
-0.80010622142262510791965723910835 1:0.34644446 2:0.75 3:1 4:0.078814812 5:0.012729318 6:0 #
0.80010622142262510791965723910835 1:0.34771428 2:0.1 3:1 4:0.074523807 5:0.0022284344 6:0 #
-0.80010622142262510791965723910835 1:0.30399999 2:0.94545454 3:0 4:0.043576922 5:0.0015078298 6:0 #
-0.80010622142262510791965723910835 1:0.27485713 2:0.93684208 3:0 4:0.046 5:0.0011094015 6:0 #
0.80010622142262510791965723910835 1:0.23788235 2:0.26086956 3:1 4:0.048058823 5:0.0030478439 6:0 #
0.80010622142262510791965723910835 1:0.24072728 2:0.27118644 3:1 4:0.078090906 5:0.004330439 6:0 #
-0.80010622142262510791965723910835 1:0.31619999 2:0.24242425 3:1 4:0.055 5:0.0027151124 6:0 #
0.80010622142262510791965723910835 1:0.47600001 2:0.97674417 3:0 4:0.064333335 5:0.011463106 6:0 #
-0.80010622142262510791965723910835 1:0.31619999 2:0.22222222 3:1 4:0.055 5:0.0027151124 6:0 #
0.80010622142262510791965723910835 1:0.63 2:0.98461539 3:0 4:0.048461538 5:0.0013887702 6:0 #
-0.80010622142262510791965723910835 1:0.28674999 2:0.28873238 3:1 4:0.032807693 5:0.001852438 6:0 #
-0.80010622142262510791965723910835 1:0.3028 2:0.2857143 3:1 4:0.051866665 5:0.010936603 6:0 #
0.80010622142262510791965723910835 1:0.39873683 2:0.83333331 3:1 4:0.058526315 5:0.002440888 6:0 #
0.80010622142262510791965723910835 1:0.21244444 2:0.25 3:0 4:0.019333333 5:0.0027234252 6:0 #
-0.80010622142262510791965723910835 1:0.59680003 2:0.93333334 3:0 4:0.1132 5:0.018074326 6:0 #
0.80010622142262510791965723910835 1:0.20164706 2:0.375 3:1 4:0.039482351 5:0.0051829494 6:0 #
0.80010622142262510791965723910835 1:0.40872726 2:0.34999999 3:1 4:0.033090908 5:0.003255798 6:0 #
-0.80010622142262510791965723910835 1:0.32499999 2:0.74193549 3:1 4:0.043666668 5:0.010135314 6:0 #
-0.80010622142262510791965723910835 1:0.28747827 2:0.44444445 3:1 4:0.034434784 5:0.0032215591 6:0 #
0.80010622142262510791965723910835 1:0.244 2:0.68888891 3:1 4:0.05242857 5:0.0033093328 6:0 #
-0.80010622142262510791965723910835 1:0.33238095 2:0.67605633 3:1 4:0.043912087 5:0.0025925739 6:0 #
0.80010622142262510791965723910835 1:0.31625 2:0.30434781 3:1 4:0.055687498 5:0.0029691758 6:0 #
0.80010622142262510791965723910835 1:0.22378947 2:0.64285713 3:1 4:0.026982456 5:0.0014800944 6:0 #
-0.80010622142262510791965723910835 1:0.3028 2:0.33333334 3:1 4:0.051866665 5:0.010936603 6:0 #
0.80010622142262510791965723910835 1:0.22707692 2:0.3548387 3:1 4:0.064538464 5:0.0037707784 6:0 #
-0.80010622142262510791965723910835 1:0.2455 2:0.59574467 3:1 4:0.016019231 5:0.00034013609 6:0 #
0.80010622142262510791965723910835 1:0.30599999 2:0.63636363 3:1 4:0.0319 5:0.0010040716 6:0 #
-0.80010622142262510791965723910835 1:0.245 2:0.40000001 3:1 4:0.017153846 5:0.0017178428 6:0 #
-0.80010622142262510791965723910835 1:0.30500001 2:0.62962961 3:1 4:0.029750001 5:0.0024357133 6:0 #
0.80010622142262510791965723910835 1:0.20766667 2:0.43478259 3:1 4:0.061833333 5:0.0038839018 6:0 #
-0.80010622142262510791965723910835 1:0.23999999 2:0.3859649 3:1 4:0.025494505 5:0.00097689661 6:0 #
0.80010622142262510791965723910835 1:0.271 2:0.58139533 3:1 4:0.081416667 5:0.0044721616 6:0 #
-0.80010622142262510791965723910835 1:0.21422222 2:0.42553192 3:1 4:0.048333332 5:0.0023280957 6:0 #
-0.80010622142262510791965723910835 1:0.2068 2:0.421875 3:1 4:0.053783335 5:0.001594455 6:0 #
0.80010622142262510791965723910835 1:0.37345454 2:0.49230769 3:1 4:0.097090907 5:0.0051169517 6:0 #
0.80010622142262510791965723910835 1:0.37 2:0.47499999 3:1 4:0.023595238 5:0.0026183145 6:0 #
-0.80010622142262510791965723910835 1:0.45025 2:0.6857143 3:1 4:0.090333335 5:0.014900054 6:0 #
0.80010622142262510791965723910835 1:0.25146666 2:0.53125 3:1 4:0.056200001 5:0.003495961 6:0 #
-0.80010622142262510791965723910835 1:0.38307694 2:0.734375 3:1 4:0.18492308 5:0.018070722 6:0 #
-0.80010622142262510791965723910835 1:0.35927272 2:0.63865548 3:1 4:0.19454545 5:0.01323799 6:0 #
0.80010622142262510791965723910835 1:0.16822222 2:0.2 3:1 4:0.04328889 5:0.0050730393 6:0 #
0.80010622142262510791965723910835 1:0.13933334 2:0.25 3:1 4:0.035333332 5:0.004809936 6:0 #
0.80010622142262510791965723910835 1:0.11844444 2:0.5 3:1 4:0.031166667 5:0.00079872733 6:0 #
0.80010622142262510791965723910835 1:0.42872727 2:0.89285713 3:1 4:0.086090907 5:0.0045250407 6:0 #
0.80010622142262510791965723910835 1:0.34 2:0.875 3:1 4:0.038194444 5:0.0026031467 6:0 #
-0.80010622142262510791965723910835 1:0.2709091 2:0.39130434 3:1 4:0.038303029 5:0.00065262371 6:0 #
-0.80010622142262510791965723910835 1:0.31008697 2:0.72727275 3:1 4:0.04805797 5:0.0096502127 6:0 #
0.80010622142262510791965723910835 1:0.29873684 2:0.31578946 3:1 4:0.069789477 5:0.0039772857 6:0 #
-0.80010622142262510791965723910835 1:0.30085716 2:0.80555558 3:1 4:0.0249011 5:0.0011146639 6:0 #
-0.80010622142262510791965723910835 1:0.37309092 2:0.89655173 3:1 4:0.062060606 5:0.0098900469 6:0 #
0.80010622142262510791965723910835 1:0.38628572 2:0.23529412 3:1 4:0.039119046 5:0.0028569151 6:0 #
0.80010622142262510791965723910835 1:0.24240001 2:0.33333334 3:1 4:0.037866667 5:0.0076627387 6:0 #
-0.80010622142262510791965723910835 1:0.28479999 2:0.045454547 3:1 4:0.0414 5:0.00094009732 6:0 #
0.80010622142262510791965723910835 1:0.28654546 2:1 3:1 4:0.072272725 5:0.0055675646 6:0 #
0.80010622142262510791965723910835 1:0.18775 2:0.60000002 3:1 4:0.038350001 5:0.0070593157 6:0 #
-0.80010622142262510791965723910835 1:0.27353847 2:0.2736842 3:1 4:0.031307694 5:0.0021256667 6:0 #
-0.80010622142262510791965723910835 1:0.23371428 2:0.48648649 3:1 4:0.015119048 5:0.0011470451 6:0 #
0.80010622142262510791965723910835 1:0.29374999 2:0.34615386 3:1 4:0.0119375 5:0.0013963798 6:0 #
-0.80010622142262510791965723910835 1:0.23927273 2:0.36206895 3:1 4:0.020136364 5:0.00050799223 6:0 #
0.80010622142262510791965723910835 1:0.35894737 2:0.7647059 3:1 4:0.031947367 5:0.0015047861 6:0 #
-0.80010622142262510791965723910835 1:0.2854 2:0.75438595 3:1 4:0.020276923 5:0.00037000517 6:0 #
0.80010622142262510791965723910835 1:0.1846 2:0.2857143 3:1 4:0.03624 5:0.005006921 6:0 #
0.80010622142262510791965723910835 1:0.17653333 2:0.83333331 3:1 4:0.065439999 5:0.0090772286 6:0 #
-0.80010622142262510791965723910835 1:0.25090909 2:0.32499999 3:1 4:0.017762238 5:0.0018689673 6:0 #
0.80010622142262510791965723910835 1:0.21446154 2:0.36250001 3:1 4:0.018615386 5:0.0019674851 6:0 #
-0.80010622142262510791965723910835 1:0.21963637 2:0.77272725 3:1 4:0.013370629 5:0.00060151203 6:0 #
-0.80010622142262510791965723910835 1:0.2396923 2:0.38461539 3:1 4:0.030974358 5:0.0024485907 6:0 #
0.80010622142262510791965723910835 1:0.28626087 2:0.5 3:1 4:0.049289856 5:0.0017503545 6:0 #
-0.80010622142262510791965723910835 1:0.27759999 2:0.45714286 3:1 4:0.034246154 5:0.0033021795 6:0 #
0.80010622142262510791965723910835 1:0.51753849 2:0.27272728 3:1 4:0.019668639 5:0.0017429161 6:0 #
-0.80010622142262510791965723910835 1:0.29627585 2:0.35135135 3:1 4:0.060710877 5:0.0019060936 6:0 #
0.80010622142262510791965723910835 1:0.22517647 2:0.87096775 3:1 4:0.062294118 5:0.0029479272 6:0 #
-0.80010622142262510791965723910835 1:0.3145 2:0.44 3:0 4:0.027230769 5:0.001250102 6:0 #
-0.80010622142262510791965723910835 1:0.29885715 2:0.40425533 3:0 4:0.021318682 5:0.0010582702 6:0 #
0.80010622142262510791965723910835 1:0.30239999 2:0.7368421 3:1 4:0.053893335 5:0.0017505002 6:0 #
0.80010622142262510791965723910835 1:0.29692307 2:0.77499998 3:1 4:0.040692307 5:0.0023342471 6:0 #
-0.80010622142262510791965723910835 1:0.27984616 2:1 3:1 4:0.068538465 5:0.0070056599 6:0 #
0.80010622142262510791965723910835 1:0.1952 2:0.14285715 3:1 4:0.064533331 5:0.010627973 6:0 #
-0.80010622142262510791965723910835 1:0.28872728 2:0.94915253 3:1 4:0.021146853 5:0.0012801545 6:0 #
-0.80010622142262510791965723910835 1:0.28251851 2:0.92000002 3:1 4:0.064395063 5:0.0067841583 6:0 #
0.80010622142262510791965723910835 1:0.25942856 2:0.28749999 3:0 4:0.037952382 5:0.0036160722 6:0 #
0.80010622142262510791965723910835 1:0.31422222 2:0.32499999 3:0 4:0.024777777 5:0.0030428516 6:0 #
0.80010622142262510791965723910835 1:0.22916667 2:1 3:1 4:0.061000001 5:0.0015011634 6:0 #
-0.80010622142262510791965723910835 1:0.35961905 2:0.11627907 3:1 4:0.089523807 5:0.010159177 6:0 #
0.80010622142262510791965723910835 1:0.33114284 2:0.1375 3:1 4:0.032380953 5:0.0019234281 6:0 #
-0.80010622142262510791965723910835 1:0.23999999 2:0.46153846 3:1 4:0.025494505 5:0.00097689661 6:0 #
-0.80010622142262510791965723910835 1:0.35309091 2:0.1891892 3:1 4:0.097370632 5:0.0038991803 6:0 #
0.80010622142262510791965723910835 1:0.37200001 2:0.92561984 3:1 4:0.083866663 5:0.0046190834 6:0 #
-0.80010622142262510791965723910835 1:0.248 2:0.25 3:0 4:0.013615385 5:0.0041776495 6:0 #
-0.80010622142262510791965723910835 1:0.31600001 2:0.19402985 3:0 4:0.025406593 5:0.0016716999 6:0 #
0.80010622142262510791965723910835 1:0.25866666 2:0.85714287 3:1 4:0.052761905 5:0.0087722111 6:0 #
0.80010622142262510791965723910835 1:0.4488 2:0.72727275 3:1 4:0.032307692 5:0.0017131889 6:0 #
-0.80010622142262510791965723910835 1:0.2236 2:0.7525773 3:1 4:0.011661539 5:0.0035910283 6:0 #
0.80010622142262510791965723910835 1:0.39872727 2:0.21052632 3:1 4:0.031696972 5:0.0019167645 6:0 #
-0.80010622142262510791965723910835 1:0.27599999 2:0.96363634 3:1 4:0.04356923 5:0.0028441034 6:0 #
-0.80010622142262510791965723910835 1:0.2784 2:0.96296299 3:1 4:0.074773334 5:0.0080984626 6:0 #
0.80010622142262510791965723910835 1:0.39657143 2:0.33333334 3:0 4:0.038637362 5:0.0026417787 6:0 #
0.80010622142262510791965723910835 1:0.25400001 2:0.40000001 3:0 4:0.019625001 5:0.0027043789 6:0 #
-0.80010622142262510791965723910835 1:0.30666667 2:0.42857143 3:0 4:0.048888888 5:0.0025071918 6:0 #
0.80010622142262510791965723910835 1:0.26690909 2:0.78787881 3:1 4:0.051515151 5:0.0028635592 6:0 #
-0.80010622142262510791965723910835 1:0.3204 2:0.26666668 3:1 4:0.062584616 5:0.001788604 6:0 #
-0.80010622142262510791965723910835 1:0.37815386 2:0.80645162 3:1 4:0.088512823 5:0.010367802 6:0 #
0.80010622142262510791965723910835 1:0.14618182 2:0.29032257 3:1 4:0.043345455 5:0.005249883 6:0 #
-0.80010622142262510791965723910835 1:0.27294117 2:0.2857143 3:1 4:0.032705881 5:0.0046289722 6:0 #
0.80010622142262510791965723910835 1:0.23129411 2:0.55555558 3:1 4:0.029458823 5:0.0064835274 6:0 #
-0.80010622142262510791965723910835 1:0.29374999 2:0.45833334 3:1 4:0.043583333 5:0.0075019756 6:0 #
0.80010622142262510791965723910835 1:0.264 2:0.46153846 3:1 4:0.053979933 5:0.0014730014 6:0 #
-0.80010622142262510791965723910835 1:0.27880001 2:0.44444445 3:1 4:0.032400001 5:0.011890596 6:0 #
0.80010622142262510791965723910835 1:0.26584616 2:0.13178295 3:1 4:0.056307692 5:0.0037002498 6:0 #
0.80010622142262510791965723910835 1:0.21080001 2:0.84375 3:1 4:0.0167 5:0.001214936 6:0 #
-0.80010622142262510791965723910835 1:0.27946666 2:0.24285714 3:1 4:0.032041024 5:0.0037854542 6:0 #
-0.80010622142262510791965723910835 1:0.31422222 2:0.46478873 3:0 4:0.056786325 5:0.0035691888 6:0 #
0.80010622142262510791965723910835 1:0.25850001 2:0.075000003 3:1 4:0.027562501 5:0.0019193897 6:0 #
-0.80010622142262510791965723910835 1:0.33133334 2:0.53846157 3:0 4:0.022461539 5:0.0026700911 6:0 #
-0.80010622142262510791965723910835 1:0.28457144 2:0.54098362 3:0 4:0.03643956 5:0.00068191142 6:0 #
0.80010622142262510791965723910835 1:0.27444443 2:0.10526316 3:1 4:0.026055556 5:0.0017079671 6:0 #
0.80010622142262510791965723910835 1:0.34771428 2:0.40000001 3:1 4:0.074523807 5:0.0022284344 6:0 #
-0.80010622142262510791965723910835 1:0.26066667 2:0.30952382 3:1 4:0.038972221 5:0.00060147844 6:0 #
0.80010622142262510791965723910835 1:0.2705 2:0.48750001 3:0 4:0.044374999 5:0.0033247473 6:0 #
-0.80010622142262510791965723910835 1:0.26622221 2:0.33846155 3:1 4:0.034358975 5:0.0015360817 6:0 #
0.80010622142262510791965723910835 1:0.47485715 2:0.47058824 3:0 4:0.10590477 5:0.027134836 6:0 #
0.80010622142262510791965723910835 1:0.39390478 2:0.51851851 3:1 4:0.040542126 5:0.0040656459 6:0 #
-0.80010622142262510791965723910835 1:0.292 2:0.3888889 3:1 4:0.064698413 5:0.0098232273 6:0 #
-0.80010622142262510791965723910835 1:0.30884209 2:0.5 3:1 4:0.058947369 5:0.0023119422 6:0 #
0.80010622142262510791965723910835 1:0.23031579 2:0.37931034 3:1 4:0.0431417 5:0.0011097586 6:0 #
0.80010622142262510791965723910835 1:0.31654546 2:0.60000002 3:1 4:0.048517484 5:0.0018205259 6:0 #
-0.80010622142262510791965723910835 1:0.285 2:0.44117647 3:1 4:0.060333334 5:0.0030578766 6:0 #
-0.80010622142262510791965723910835 1:0.3048 2:0.62857145 3:1 4:0.043900002 5:0.0026652864 6:0 #
-0.80010622142262510791965723910835 1:0.30711111 2:0.25999999 3:1 4:0.066222221 5:0.0029890458 6:0 #
0.80010622142262510791965723910835 1:0.26275 2:0.60000002 3:1 4:0.03503846 5:0.0010996599 6:0 #
0.80010622142262510791965723910835 1:0.17399999 2:0.048192769 3:1 4:0.0416 5:0.0048432979 6:0 #
-0.80010622142262510791965723910835 1:0.2854 2:0.7846154 3:1 4:0.020276923 5:0.00037000517 6:0 #
-0.80010622142262510791965723910835 1:0.28479999 2:0.045454547 3:1 4:0.0414 5:0.00094009732 6:0 #
0.80010622142262510791965723910835 1:0.31784615 2:0.73333335 3:1 4:0.049751479 5:0.0017713086 6:0 #
-0.80010622142262510791965723910835 1:0.16760975 2:0.85185188 3:1 4:0.030574109 5:0.0017511426 6:0 #
0.80010622142262510791965723910835 1:0.3256 2:0.34375 3:1 4:0.1131 5:0.0050239586 6:0 #
0.80010622142262510791965723910835 1:0.273 2:0.44615385 3:1 4:0.080416664 5:0.0041130236 6:0 #
-0.80010622142262510791965723910835 1:0.30379999 2:0.32352942 3:1 4:0.067933336 5:0.010314389 6:0 #
-0.80010622142262510791965723910835 1:0.26875001 2:0.49019608 3:1 4:0.0324375 5:0.0027046148 6:0 #
-0.80010622142262510791965723910835 1:0.26333332 2:0.42372882 3:1 4:0.035923079 5:0.0027429974 6:0 #
0.80010622142262510791965723910835 1:0.31435293 2:0.46153846 3:1 4:0.022254903 5:0.0018464014 6:0 #
0.80010622142262510791965723910835 1:0.33199999 2:0.175 3:1 4:0.044277776 5:0.0027439131 6:0 #
-0.80010622142262510791965723910835 1:0.28885713 2:0.51428574 3:1 4:0.059809525 5:0.0082498174 6:0 #
-0.80010622142262510791965723910835 1:0.32218182 2:0.090909094 3:1 4:0.068303034 5:0.010153797 6:0 #
0.80010622142262510791965723910835 1:0.16941176 2:0.82352942 3:1 4:0.023529412 5:0.0067644962 6:0 #
-0.80010622142262510791965723910835 1:0.31236362 2:0.80952382 3:1 4:0.048242424 5:0.0051155933 6:0 #
0.80010622142262510791965723910835 1:0.19599999 2:0.36363637 3:1 4:0.042909089 5:0.0031400127 6:0 #
-0.80010622142262510791965723910835 1:0.26899999 2:0.97183096 3:1 4:0.054000001 5:0.0033888852 6:0 #
-0.80010622142262510791965723910835 1:0.23984616 2:1 3:1 4:0.038269229 5:0.0016979267 6:0 #
0.80010622142262510791965723910835 1:0.22876923 2:0.055555556 3:1 4:0.044846155 5:0.0028984211 6:0 #
0.80010622142262510791965723910835 1:0.17399999 2:0.11111111 3:1 4:0.0416 5:0.0048432979 6:0 #
-0.80010622142262510791965723910835 1:0.21600001 2:0.054545455 3:1 4:0.017142856 5:0.0065154159 6:0 #
0.80010622142262510791965723910835 1:0.33263999 2:0.9285714 3:1 4:0.043880001 5:0.0015393782 6:0 #
0.80010622142262510791965723910835 1:0.23528571 2:0.140625 3:1 4:0.087571427 5:0.0046626641 6:0 #
-0.80010622142262510791965723910835 1:0.15507692 2:0.23333333 3:1 4:0.055692308 5:0.0020116516 6:0 #
0.80010622142262510791965723910835 1:0.25536841 2:0.98888886 3:1 4:0.067684211 5:0.0030466947 6:0 #
0.80010622142262510791965723910835 1:0.2146087 2:1 3:1 4:0.034608696 5:0.0038721778 6:0 #
-0.80010622142262510791965723910835 1:0.14591999 2:0.66666669 3:1 4:0.030293332 5:0.0048180106 6:0 #
0.80010622142262510791965723910835 1:0.38517648 2:0.66250002 3:1 4:0.031372551 5:0.0029553501 6:0 #
-0.80010622142262510791965723910835 1:0.27059999 2:1 3:1 4:0.069583334 5:0.0034988779 6:0 #
-0.80010622142262510791965723910835 1:0.23323077 2:1 3:1 4:0.030130178 5:0.0019539671 6:0 #
0.80010622142262510791965723910835 1:0.37200001 2:0.25547445 3:1 4:0.083866663 5:0.0046190834 6:0 #
0.80010622142262510791965723910835 1:0.18375 2:0.13043478 3:1 4:0.0261 5:0.0057239011 6:0 #
-0.80010622142262510791965723910835 1:0.3328889 2:0.27272728 3:1 4:0.112 5:0.0048268195 6:0 #
0.80010622142262510791965723910835 1:0.2128 2:0.75 3:1 4:0.040853333 5:0.0057290178 6:0 #
-0.80010622142262510791965723910835 1:0.32080001 2:0.21212122 3:1 4:0.095466666 5:0.015474711 6:0 #
-0.80010622142262510791965723910835 1:0.28861538 2:0.2 3:1 4:0.050538462 5:0.0027553197 6:0 #
0.80010622142262510791965723910835 1:0.15739131 2:1 3:1 4:0.042295653 5:0.0042443764 6:0 #
0.80010622142262510791965723910835 1:0.13542858 2:1 3:1 4:0.039314285 5:0.0043161325 6:0 #
-0.80010622142262510791965723910835 1:0.19956757 2:1 3:1 4:0.027126819 5:0.0019893502 6:0 #
0.80010622142262510791965723910835 1:0.20911111 2:0.050000001 3:1 4:0.03448889 5:0.0062782574 6:0 #
-0.80010622142262510791965723910835 1:0.27127272 2:0.62886596 3:1 4:0.017034965 5:0.0063667772 6:0 #
0.80010622142262510791965723910835 1:0.212 2:0.34999999 3:1 4:0.034019049 5:0.0075699179 6:0 #
0.80010622142262510791965723910835 1:0.3944 2:0.63235295 3:1 4:0.029323077 5:0.0042525632 6:0 #
-0.80010622142262510791965723910835 1:0.1688 2:0.44 3:1 4:0.0060000001 5:6.9752939e-05 6:0 #
-0.80010622142262510791965723910835 1:0.31200001 2:0.60869563 3:1 4:0.080777779 5:0.0026938627 6:0 #
0.80010622142262510791965723910835 1:0.26294738 2:0.38317758 3:1 4:0.021052632 5:0.0013257513 6:0 #
-0.80010622142262510791965723910835 1:0.26215383 2:0.38297874 3:1 4:0.037112426 5:0.0013850858 6:0 #
0.80010622142262510791965723910835 1:0.34111112 2:0.90909094 3:1 4:0.031870369 5:0.0021699073 6:0 #
0.80010622142262510791965723910835 1:0.37760001 2:0.1 3:1 4:0.068800002 5:0.011924055 6:0 #
-0.80010622142262510791965723910835 1:0.33199999 2:0.84615386 3:1 4:0.076962963 5:0.0021158969 6:0 #
-0.80010622142262510791965723910835 1:0.29481483 2:0.25454545 3:1 4:0.051156696 5:0.0022290368 6:0 #
0.80010622142262510791965723910835 1:0.17046154 2:0.72222221 3:1 4:0.041784614 5:0.0065511577 6:0 #
-0.80010622142262510791965723910835 1:0.27900001 2:0.7037037 3:1 4:0.030416667 5:0.0015070775 6:0 #
0.80010622142262510791965723910835 1:0.20618182 2:0.46153846 3:1 4:0.049363635 5:0.0032815228 6:0 #
-0.80010622142262510791965723910835 1:0.24295652 2:0.43859649 3:1 4:0.024949832 5:0.00168289 6:0 #
0.80010622142262510791965723910835 1:0.35733333 2:0.54166669 3:1 4:0.027051281 5:0.0019173826 6:0 #
0.80010622142262510791965723910835 1:0.1714 2:0.375 3:1 4:0.041999999 5:0.0051576518 6:0 #
-0.80010622142262510791965723910835 1:0.27885714 2:0.5 3:1 4:0.040285714 5:0.010887162 6:0 #
0.80010622142262510791965723910835 1:0.2386 2:0.42857143 3:1 4:0.043120001 5:0.0059008459 6:0 #
-0.80010622142262510791965723910835 1:0.25923809 2:0.36363637 3:1 4:0.041904762 5:0.00142511 6:0 #
0.80010622142262510791965723910835 1:0.46213335 2:0.94117647 3:1 4:0.037907694 5:0.0035342504 6:0 #
-0.80010622142262510791965723910835 1:0.32944444 2:1 3:1 4:0.138 5:0.024905812 6:0 #
-0.80010622142262510791965723910835 1:0.28346667 2:0.64285713 3:1 4:0.03248889 5:0.00069835153 6:0 #
0.80010622142262510791965723910835 1:0.35339999 2:0.22727273 3:1 4:0.043266665 5:0.0019098845 6:0 #
-0.80010622142262510791965723910835 1:0.26359999 2:0.20967741 3:1 4:0.02483077 5:0.00088361662 6:0 #
0.80010622142262510791965723910835 1:0.15674999 2:0.80722892 3:1 4:0.0272 5:0.0040973211 6:0 #
-0.80010622142262510791965723910835 1:0.29475001 2:0.83333331 3:1 4:0.034846153 5:0.0023379866 6:0 #
0.80010622142262510791965723910835 1:0.10977778 2:0.25 3:1 4:0.040555555 5:0.0016399872 6:0 #
-0.80010622142262510791965723910835 1:0.259 2:0.94999999 3:1 4:0.0405 5:0.0032060205 6:0 #
-0.80010622142262510791965723910835 1:0.23415385 2:0.97916669 3:1 4:0.028236687 5:0.0028302891 6:0 #
0.80010622142262510791965723910835 1:0.24027586 2:0.24242425 3:1 4:0.041793104 5:0.0040789582 6:0 #
0.80010622142262510791965723910835 1:0.21933334 2:0.27419356 3:1 4:0.06408333 5:0.0023181867 6:0 #
-0.80010622142262510791965723910835 1:0.241 2:0.060606062 3:1 4:0.030458333 5:0.0016212146 6:0 #
0.80010622142262510791965723910835 1:0.42766666 2:0.8037383 3:1 4:0.065972224 5:0.0019198683 6:0 #
-0.80010622142262510791965723910835 1:0.21230769 2:0.012048192 3:1 4:0.027035898 5:0.0032887268 6:0 #
-0.80010622142262510791965723910835 1:0.1832 2:0.015503876 3:1 4:0.023933332 5:0.0003134291 6:0 #
0.80010622142262510791965723910835 1:0.2942 2:0.96666664 3:1 4:0.033166666 5:0.0014140756 6:0 #
0.80010622142262510791965723910835 1:0.15072727 2:1 3:1 4:0.045418181 5:0.0054162326 6:0 #
-0.80010622142262510791965723910835 1:0.28752941 2:0.875 3:1 4:0.038254902 5:0.00085965107 6:0 #
0.80010622142262510791965723910835 1:0.2469091 2:0.037037037 3:1 4:0.074909091 5:0.010253095 6:0 #
-0.80010622142262510791965723910835 1:0.26723808 2:0.5 3:1 4:0.040952381 5:0.0016626444 6:0 #
0.80010622142262510791965723910835 1:0.22274999 2:0.52941179 3:1 4:0.041049998 5:0.0061844662 6:0 #
0.80010622142262510791965723910835 1:0.28766668 2:0.51937985 3:1 4:0.08691667 5:0.004581227 6:0 #
-0.80010622142262510791965723910835 1:0.24444444 2:0.52459013 3:1 4:0.02551111 5:0.0021152301 6:0 #
-0.80010622142262510791965723910835 1:0.28092307 2:0.52808988 3:1 4:0.052871794 5:0.0022448169 6:0 #
0.80010622142262510791965723910835 1:0.23431578 2:0.44999999 3:1 4:0.053389475 5:0.0095200408 6:0 #
-0.80010622142262510791965723910835 1:0.2832 2:0.46153846 3:1 4:0.071000002 5:0.00384686 6:0 #
0.80010622142262510791965723910835 1:0.22584616 2:0.8125 3:1 4:0.078153849 5:0.0038917931 6:0 #
-0.80010622142262510791965723910835 1:0.26100001 2:0.47474748 3:1 4:0.036111113 5:0.010628587 6:0 #
-0.80010622142262510791965723910835 1:0.25285715 2:0.45714286 3:1 4:0.061904762 5:0.0022321288 6:0 #
0.80010622142262510791965723910835 1:0.3449091 2:0.93103451 3:1 4:0.049363635 5:0.0044695302 6:0 #
0.80010622142262510791965723910835 1:0.26780951 2:0.89999998 3:1 4:0.056076191 5:0.0088268584 6:0 #
0.80010622142262510791965723910835 1:0.24588235 2:0.055555556 3:1 4:0.015402715 5:0.0010322314 6:0 #
-0.80010622142262510791965723910835 1:0.22352 2:1 3:1 4:0.042493332 5:0.0018127926 6:0 #
0.80010622142262510791965723910835 1:0.27706668 2:0.1 3:1 4:0.029111112 5:0.0020402705 6:0 #
0.80010622142262510791965723910835 1:0.23875 2:0.80000001 3:1 4:0.0691875 5:0.0031303463 6:0 #
-0.80010622142262510791965723910835 1:0.366 2:0.28 3:0 4:0.108 5:0.014467524 6:0 #
-0.80010622142262510791965723910835 1:0.34720001 2:0.30555555 3:0 4:0.10826667 5:0.01765193 6:0 #
0.80010622142262510791965723910835 1:0.23914285 2:0.5 3:1 4:0.069428571 5:0.0090060225 6:0 #
0.80010622142262510791965723910835 1:0.15375 2:0.375 3:1 4:0.0407 5:0.0059438408 6:0 #
-0.80010622142262510791965723910835 1:0.24295652 2:0.50769234 3:1 4:0.024949832 5:0.00168289 6:0 #
0.80010622142262510791965723910835 1:0.292 2:0.86274511 3:0 4:0.066142857 5:0.0073113632 6:0 #
-0.80010622142262510791965723910835 1:0.16850001 2:0.55555558 3:1 4:0.011604167 5:0.00033782658 6:0 #
-0.80010622142262510791965723910835 1:0.168 2:0.55882353 3:1 4:0.018666666 5:0.00046897199 6:0 #
0.80010622142262510791965723910835 1:0.36742857 2:0.41176471 3:0 4:0.10361905 5:0.0025461493 6:0 #
0.80010622142262510791965723910835 1:0.18133333 2:0.5 3:0 4:0.057518519 5:0.0016286771 6:0 #
-0.80010622142262510791965723910835 1:0.39771429 2:0.91176468 3:0 4:0.082095236 5:0.0037618494 6:0 #
-0.80010622142262510791965723910835 1:0.39771429 2:0.8888889 3:0 4:0.082095236 5:0.0037618494 6:0 #
0.80010622142262510791965723910835 1:0.21625 2:0.3877551 3:1 4:0.041076925 5:0.001167025 6:0 #
-0.80010622142262510791965723910835 1:0.37099999 2:0.875 3:0 4:0.017846154 5:0.00088305597 6:0 #
-0.80010622142262510791965723910835 1:0.33750001 2:0.85714287 3:0 4:0.054166667 5:0.0030048797 6:0 #
0.80010622142262510791965723910835 1:0.27893335 2:0.42857143 3:1 4:0.045046154 5:0.0014891264 6:0 #
0.80010622142262510791965723910835 1:0.20033333 2:0.27659574 3:1 4:0.047266666 5:0.0075407182 6:0 #
-0.80010622142262510791965723910835 1:0.23013334 2:0.2682927 3:1 4:0.071866669 5:0.0039810468 6:0 #
0.80010622142262510791965723910835 1:0.63 2:0.98245615 3:0 4:0.048461538 5:0.0013887702 6:0 #
-0.80010622142262510791965723910835 1:0.32736841 2:0.33333334 3:1 4:0.098736845 5:0.0025760643 6:0 #
0.80010622142262510791965723910835 1:0.38533333 2:0.59523809 3:0 4:0.067555554 5:0.019307673 6:0 #
-0.80010622142262510791965723910835 1:0.65600002 2:0.85714287 3:0 4:0.28266665 5:0.031099055 6:0 #
-0.80010622142262510791965723910835 1:0.63800001 2:0.78947371 3:0 4:0.28299999 5:0.045185812 6:0 #
0.80010622142262510791965723910835 1:0.16857143 2:0.30434781 3:1 4:0.046342857 5:0.0070569245 6:0 #
0.80010622142262510791965723910835 1:0.19577777 2:0.39130434 3:1 4:0.054611113 5:0.0027685636 6:0 #
-0.80010622142262510791965723910835 1:0.14761905 2:0.5714286 3:1 4:0.025873017 5:0.00054169784 6:0 #
0.80010622142262510791965723910835 1:0.65200001 2:0.93333334 3:0 4:0.13933334 5:0.035572127 6:0 #
-0.80010622142262510791965723910835 1:0.26376471 2:0.42105263 3:1 4:0.043348417 5:0.0019782369 6:0 #
0.80010622142262510791965723910835 1:0.63 2:0.9818182 3:0 4:0.048461538 5:0.0013887702 6:0 #
-0.80010622142262510791965723910835 1:0.59680003 2:0.95833331 3:0 4:0.1132 5:0.018074326 6:0 #
0.80010622142262510791965723910835 1:0.29666665 2:0.89473683 3:0 4:0.048933335 5:0.0099057546 6:0 #
-0.80010622142262510791965723910835 1:0.2008 2:0.31944445 3:1 4:0.015533334 5:0.0033768159 6:0 #
0.80010622142262510791965723910835 1:0.16190477 2:0.41666666 3:1 4:0.030704763 5:0.004518813 6:0 #
-0.80010622142262510791965723910835 1:0.59680003 2:0.95652175 3:0 4:0.1132 5:0.018074326 6:0 #
0.80010622142262510791965723910835 1:0.31420001 2:0.375 3:1 4:0.060249999 5:0.0026599632 6:0 #
-0.80010622142262510791965723910835 1:0.28400001 2:0.69565219 3:0 4:0.016000001 5:0.0017275437 6:0 #
0.80010622142262510791965723910835 1:0.30880001 2:0.3898305 3:1 4:0.067599997 5:0.003880077 6:0 #
0.80010622142262510791965723910835 1:0.63 2:0.97872341 3:0 4:0.048461538 5:0.0013887702 6:0 #
-0.80010622142262510791965723910835 1:0.21485715 2:0.33333334 3:1 4:0.034238096 5:0.0010556796 6:0 #
-0.80010622142262510791965723910835 1:0.23957895 2:0.45945945 3:1 4:0.02579757 5:0.0018202054 6:0 #
0.80010622142262510791965723910835 1:0.63 2:0.97619045 3:0 4:0.048461538 5:0.0013887702 6:0 #
-0.80010622142262510791965723910835 1:0.25082353 2:0.41843972 3:1 4:0.041846152 5:0.0022106611 6:0 #
-0.80010622142262510791965723910835 1:0.24466667 2:0.44444445 3:1 4:0.051333334 5:0.002978039 6:0 #
0.80010622142262510791965723910835 1:0.63 2:0.35135135 3:0 4:0.048461538 5:0.0013887702 6:0 #
0.80010622142262510791965723910835 1:0.63 2:0.48717949 3:0 4:0.048461538 5:0.0013887702 6:0 #
0.80010622142262510791965723910835 1:0.21490909 2:0.296875 3:1 4:0.033515152 5:0.0013021537 6:0 #
0.80010622142262510791965723910835 1:0.16752942 2:0.69230771 3:1 4:0.027294118 5:0.0056451974 6:0 #
-0.80010622142262510791965723910835 1:0.37771428 2:0.22727273 3:0 4:0.086285718 5:0.012856674 6:0 #
-0.80010622142262510791965723910835 1:0.33942857 2:0.875 3:1 4:0.090928569 5:0.0067927898 6:0 #
0.80010622142262510791965723910835 1:0.14192593 2:0.2 3:1 4:0.028118519 5:0.0033638848 6:0 #
-0.80010622142262510791965723910835 1:0.036363635 2:0.16058394 3:1 4:0.0099090906 5:0.00010647446 6:0 #
0.80010622142262510791965723910835 1:0.18038096 2:0.91666669 3:1 4:0.047047619 5:0.0041661891 6:0 #
-0.80010622142262510791965723910835 1:0.24109091 2:0.25263157 3:1 4:0.016727272 5:0.0017820667 6:0 #
0.80010622142262510791965723910835 1:0.21466666 2:0.15686275 3:1 4:0.037128206 5:0.0015187187 6:0 #
0.80010622142262510791965723910835 1:0.14811765 2:0.94736844 3:1 4:0.053823531 5:0.0018004207 6:0 #
0.80010622142262510791965723910835 1:0.2604 2:0.95934957 3:1 4:0.1144 5:0.0035188994 6:0 #
-0.80010622142262510791965723910835 1:0.25129411 2:0.19672132 3:1 4:0.016959276 5:0.00044771249 6:0 #
-0.80010622142262510791965723910835 1:0.29544446 2:0.98701298 3:1 4:0.10233333 5:0.016339744 6:0 #
-0.80010622142262510791965723910835 1:0.32499999 2:0.82926828 3:1 4:0.067777775 5:0.015790841 6:0 #
-0.80010622142262510791965723910835 1:0.27200001 2:0.38461539 3:1 4:0.057500001 5:0.0079708658 6:0 #
0.80010622142262510791965723910835 1:0.2163077 2:0.73913044 3:1 4:0.048492309 5:0.0073434752 6:0 #
0.80010622142262510791965723910835 1:0.17390476 2:0.62962961 3:1 4:0.032908425 5:0.0019092665 6:0 #
-0.80010622142262510791965723910835 1:0.25881481 2:0.69767439 3:1 4:0.046370372 5:0.0037995642 6:0 #
0.80010622142262510791965723910835 1:0.40900001 2:0.54545456 3:1 4:0.064277776 5:0.0018549672 6:0 #
0.80010622142262510791965723910835 1:0.31040001 2:0.65217394 3:1 4:0.081666663 5:0.0047513298 6:0 #
-0.80010622142262510791965723910835 1:0.49692309 2:0.93548387 3:1 4:0.090666667 5:0.012294537 6:0 #
-0.80010622142262510791965723910835 1:0.31783783 2:0.94285715 3:1 4:0.12172973 5:0.016995452 6:0 #
0.80010622142262510791965723910835 1:0.087777779 2:0.23809524 3:1 4:0.021925926 5:0.00043592596 6:0 #
0.80010622142262510791965723910835 1:0.2604 2:0.953125 3:1 4:0.1144 5:0.0035188994 6:0 #
-0.80010622142262510791965723910835 1:0.31988236 2:0.29411766 3:1 4:0.083490193 5:0.0077560889 6:0 #
-0.80010622142262510791965723910835 1:0.26719999 2:0.97142857 3:1 4:0.060600001 5:0.0027752863 6:0 #
0.80010622142262510791965723910835 1:0.24428572 2:0.3125 3:1 4:0.048880953 5:0.0013372959 6:0 #
-0.80010622142262510791965723910835 1:0.27466667 2:0.25 3:1 4:0.032879122 5:0.0031077419 6:0 #
0.80010622142262510791965723910835 1:0.26618183 2:0.89915967 3:1 4:0.11054546 5:0.0084829489 6:0 #
-0.80010622142262510791965723910835 1:0.29413334 2:0.88095236 3:1 4:0.051444445 5:0.0023863045 6:0 #
0.80010622142262510791965723910835 1:0.20625 2:0.087499999 3:1 4:0.016916666 5:0.0014252996 6:0 #
-0.80010622142262510791965723910835 1:0.26800001 2:0.94444442 3:1 4:0.056666669 5:0.0088845044 6:0 #
-0.80010622142262510791965723910835 1:0.25747368 2:0.91803277 3:1 4:0.034753036 5:0.0011931084 6:0 #
0.80010622142262510791965723910835 1:0.32550001 2:0.055555556 3:0 4:0.11883333 5:0.0073657492 6:0 #
0.80010622142262510791965723910835 1:0.22444445 2:0.083333336 3:0 4:0.030666666 5:0.0089619905 6:0 #
0.80010622142262510791965723910835 1:0.1105 2:1 3:1 4:0.021766666 5:0.0039639371 6:0 #
-0.80010622142262510791965723910835 1:0.33733332 2:0.10526316 3:0 4:0.056148149 5:0.0080456519 6:0 #
0.80010622142262510791965723910835 1:0.35214815 2:0.95652175 3:1 4:0.099148147 5:0.0056659137 6:0 #
-0.80010622142262510791965723910835 1:0.034933332 2:0.034482758 3:1 4:0.0086666662 5:3.630163e-05 6:0 #
0.80010622142262510791965723910835 1:0.13381818 2:0.2820513 3:1 4:0.032036364 5:0.0043936721 6:0 #
-0.80010622142262510791965723910835 1:0.32736841 2:0.31428573 3:1 4:0.098736845 5:0.0025760643 6:0 #
0.80010622142262510791965723910835 1:0.26774999 2:0.625 3:1 4:0.075000003 5:0.0035106069 6:0 #
0.80010622142262510791965723910835 1:0.26714286 2:0.44117647 3:1 4:0.055028573 5:0.0076092738 6:0 #
0.80010622142262510791965723910835 1:0.073241383 2:0.31707317 3:1 4:0.018793104 5:0.00026505318 6:0 #
0.80010622142262510791965723910835 1:0.14063159 2:0.8125 3:1 4:0.040926315 5:0.0052169808 6:0 #
-0.80010622142262510791965723910835 1:0.32307693 2:0.34615386 3:1 4:0.12707692 5:0.012325667 6:0 #
0.80010622142262510791965723910835 1:0.37614286 2:0.14285715 3:1 4:0.060428571 5:0.0090077287 6:0 #
-0.80010622142262510791965723910835 1:0.24589473 2:0.8611111 3:1 4:0.017813765 5:0.00067223172 6:0 #
0.80010622142262510791965723910835 1:0.25979999 2:0.87692308 3:1 4:0.055 5:0.0029108678 6:0 #
-0.80010622142262510791965723910835 1:0.28525001 2:0.17142858 3:1 4:0.049333334 5:0.013155728 6:0 #
-0.80010622142262510791965723910835 1:0.28346667 2:0.84545457 3:1 4:0.03248889 5:0.00069835153 6:0 #
0.80010622142262510791965723910835 1:0.17454545 2:0.30000001 3:1 4:0.039927274 5:0.0043408475 6:0 #
-0.80010622142262510791965723910835 1:0.26699999 2:0.69230771 3:1 4:0.03320238 5:0.0025706494 6:0 #
-0.80010622142262510791965723910835 1:0.25799999 2:0.21428572 3:1 4:0.018237762 5:0.0006224133 6:0 #
0.80010622142262510791965723910835 1:0.29426667 2:0.57894737 3:1 4:0.063199997 5:0.0034046581 6:0 #
0.80010622142262510791965723910835 1:0.13187097 2:0.30769232 3:1 4:0.032129031 5:0.003465954 6:0 #
-0.80010622142262510791965723910835 1:0.25075001 2:0.63636363 3:1 4:0.020291667 5:0.0010304303 6:0 #
0.80010622142262510791965723910835 1:0.29362962 2:0.53333336 3:1 4:0.042160492 5:0.0014248273 6:0 #
-0.80010622142262510791965723910835 1:0.040666666 2:0.30000001 3:1 4:0.031916667 5:0.00024071295 6:0 #
0.80010622142262510791965723910835 1:0.19283333 2:0.5714286 3:1 4:0.054033332 5:0.0098390887 6:0 #
-0.80010622142262510791965723910835 1:0.31090909 2:0.56410259 3:1 4:0.081333332 5:0.0077977888 6:0 #
-0.80010622142262510791965723910835 1:0.26679999 2:0.52238804 3:1 4:0.045316666 5:0.0011140455 6:0 #
0.80010622142262510791965723910835 1:0.377 2:0.5 3:1 4:0.056604166 5:0.0017952299 6:0 #
0.80010622142262510791965723910835 1:0.27739131 2:0.58333331 3:1 4:0.047014493 5:0.0013048039 6:0 #
-0.80010622142262510791965723910835 1:0.27966666 2:0.52380955 3:1 4:0.065777779 5:0.0088238195 6:0 #
-0.80010622142262510791965723910835 1:0.31066668 2:0.57407409 3:1 4:0.093555555 5:0.0058315308 6:0 #
0.80010622142262510791965723910835 1:0.25181818 2:0.10344828 3:1 4:0.027969697 5:0.001465057 6:0 #
0.80010622142262510791965723910835 1:0.21052632 2:0.72222221 3:1 4:0.041263159 5:0.0077800611 6:0 #
-0.80010622142262510791965723910835 1:0.32218182 2:0.083333336 3:1 4:0.068303034 5:0.010153797 6:0 #
-0.80010622142262510791965723910835 1:0.055666666 2:0.5 3:1 4:0.031888887 5:0.00057136116 6:0 #
0.80010622142262510791965723910835 1:0.345 2:0.13084112 3:1 4:0.081777781 5:0.0021516171 6:0 #
0.80010622142262510791965723910835 1:0.2128 2:0.91666669 3:1 4:0.04975 5:0.0029102229 6:0 #
-0.80010622142262510791965723910835 1:0.32260871 2:0.086956523 3:1 4:0.08017391 5:0.004196703 6:0 #
0.80010622142262510791965723910835 1:0.17161904 2:0.16 3:1 4:0.030971428 5:0.004817022 6:0 #
0.80010622142262510791965723910835 1:0.22568421 2:0.61702126 3:1 4:0.03288421 5:0.0062892549 6:0 #
-0.80010622142262510791965723910835 1:0.24870588 2:0.5 3:1 4:0.02922353 5:0.0026670699 6:0 #
0.80010622142262510791965723910835 1:0.33914286 2:0.54054052 3:1 4:0.036175825 5:0.0031071519 6:0 #
-0.80010622142262510791965723910835 1:0.2586 2:0.5714286 3:1 4:0.038699999 5:0.0013923938 6:0 #
-0.80010622142262510791965723910835 1:0.31090909 2:0.60714287 3:1 4:0.081333332 5:0.0077977888 6:0 #
0.80010622142262510791965723910835 1:0.15214285 2:0.33333334 3:1 4:0.048942856 5:0.0046701157 6:0 #
0.80010622142262510791965723910835 1:0.34380952 2:0.90654206 3:1 4:0.037349205 5:0.0015941602 6:0 #
-0.80010622142262510791965723910835 1:0.21163636 2:0.27710843 3:1 4:0.012167832 5:0.00065580086 6:0 #
-0.80010622142262510791965723910835 1:0.24092308 2:0.97500002 3:1 4:0.039928995 5:0.001130154 6:0 #
0.80010622142262510791965723910835 1:0.23549999 2:0.33333334 3:1 4:0.044399999 5:0.0072913421 6:0 #
-0.80010622142262510791965723910835 1:0.35600001 2:0.75862068 3:1 4:0.097641028 5:0.0062948694 6:0 #
0.80010622142262510791965723910835 1:0.37623531 2:0.86956519 3:1 4:0.075764708 5:0.0072868424 6:0 #
-0.80010622142262510791965723910835 1:0.19542857 2:0.16363636 3:1 4:0.0071904762 5:0.0020895684 6:0 #
-0.80010622142262510791965723910835 1:0.3028 2:0.84615386 3:1 4:0.051866665 5:0.010936603 6:0 #
0.80010622142262510791965723910835 1:0.17479999 2:0.125 3:1 4:0.035840001 5:0.0031658113 6:0 #
0.80010622142262510791965723910835 1:0.31674999 2:0.81308413 3:1 4:0.045541666 5:0.0020127555 6:0 #
-0.80010622142262510791965723910835 1:0.2095 2:0.1025641 3:1 4:0.012538462 5:0.000478403 6:0 #
0.80010622142262510791965723910835 1:0.17014286 2:0.039999999 3:1 4:0.033542857 5:0.0051054847 6:0 #
0.80010622142262510791965723910835 1:0.18611765 2:0.60000002 3:1 4:0.026047058 5:0.0035278818 6:0 #
-0.80010622142262510791965723910835 1:0.19499999 2:0.072289154 3:1 4:0.023615384 5:0.00052930834 6:0 #
-0.80010622142262510791965723910835 1:0.25600001 2:0.5090909 3:1 4:0.033166666 5:0.0068550901 6:0 #
0.80010622142262510791965723910835 1:0.27835295 2:0.59375 3:1 4:0.063058823 5:0.002174153 6:0 #
-0.80010622142262510791965723910835 1:0.22654545 2:0.60747665 3:1 4:0.017363636 5:0.00020639245 6:0 #
-0.80010622142262510791965723910835 1:0.28492308 2:0.64615387 3:1 4:0.059692308 5:0.0019732744 6:0 #
0.80010622142262510791965723910835 1:0.14822222 2:0.51851851 3:1 4:0.033022221 5:0.0032667131 6:0 #
-0.80010622142262510791965723910835 1:0.050095238 2:0.3125 3:1 4:0.034666665 5:0.0024790284 6:0 #
0.80010622142262510791965723910835 1:0.36511111 2:0.43478259 3:1 4:0.041777778 5:0.0053001991 6:0 #
-0.80010622142262510791965723910835 1:0.03876923 2:0.38053098 3:1 4:0.0056153848 5:5.2775369e-05 6:0 #
-0.80010622142262510791965723910835 1:0.034222223 2:0.32926831 3:1 4:0.0095555559 5:9.7894379e-05 6:0 #
0.80010622142262510791965723910835 1:0.30355555 2:0.59523809 3:1 4:0.050277777 5:0.0026764695 6:0 #
0.80010622142262510791965723910835 1:0.32218182 2:0.65384614 3:1 4:0.056545455 5:0.0090135653 6:0 #
0.80010622142262510791965723910835 1:0.12177778 2:0.28260869 3:1 4:0.023733333 5:0.0052136881 6:0 #
-0.80010622142262510791965723910835 1:0.35705262 2:0.75757575 3:1 4:0.12294737 5:0.01019451 6:0 #
0.80010622142262510791965723910835 1:0.14981818 2:0.94444442 3:1 4:0.065772727 5:0.0047733434 6:0 #
-0.80010622142262510791965723910835 1:0.28233334 2:0.21428572 3:1 4:0.059999999 5:0.0023880571 6:0 #
0.80010622142262510791965723910835 1:0.25311112 2:0.12307692 3:1 4:0.065222219 5:0.0032539677 6:0 #
-0.80010622142262510791965723910835 1:0.2656 2:0.35294119 3:1 4:0.054533333 5:0.0059532933 6:0 #
0.80010622142262510791965723910835 1:0.12514286 2:0.66666669 3:1 4:0.045523811 5:0.0050164135 6:0 #
-0.80010622142262510791965723910835 1:0.28479999 2:0.83050847 3:1 4:0.028033333 5:0.0017713724 6:0 #
0.80010622142262510791965723910835 1:0.23557895 2:0.2 3:1 4:0.048757896 5:0.0058097881 6:0 #
-0.80010622142262510791965723910835 1:0.32499999 2:0.05882353 3:1 4:0.069576927 5:0.00099554076 6:0 #
0.80010622142262510791965723910835 1:0.23061538 2:1 3:1 4:0.049415383 5:0.0067795864 6:0 #
-0.80010622142262510791965723910835 1:0.132 2:0.90909094 3:1 4:0.0254 5:0.00024774313 6:0 #
-0.80010622142262510791965723910835 1:0.22524138 2:0.90476191 3:1 4:0.02113793 5:0.00061559811 6:0 #
0.80010622142262510791965723910835 1:0.21254545 2:0.17647059 3:1 4:0.035636365 5:0.0062566856 6:0 #
-0.80010622142262510791965723910835 1:0.2255 2:0.86250001 3:1 4:0.0088750003 5:0.00035542352 6:0 #
-0.80010622142262510791965723910835 1:0.24607408 2:0.86000001 3:1 4:0.024681481 5:0.0009153196 6:0 #
0.80010622142262510791965723910835 1:0.35835293 2:0.33333334 3:1 4:0.029509803 5:0.0017658123 6:0 #
0.80010622142262510791965723910835 1:0.193 2:0.30000001 3:1 4:0.028423076 5:0.0011323018 6:0 #
0.80010622142262510791965723910835 1:0.18015385 2:0.95833331 3:1 4:0.052692309 5:0.0042594997 6:0 #
-0.80010622142262510791965723910835 1:0.32499999 2:0.022222223 3:1 4:0.069576927 5:0.00099554076 6:0 #
-0.80010622142262510791965723910835 1:0.23182608 2:0.14754099 3:1 4:0.02322408 5:0.00047166366 6:0 #
0.80010622142262510791965723910835 1:0.31266665 2:0.98750001 3:1 4:0.027916666 5:0.0019027005 6:0 #
-0.80010622142262510791965723910835 1:0.2701818 2:0.11764706 3:1 4:0.037454545 5:0.0028283822 6:0 #
-0.80010622142262510791965723910835 1:0.24699999 2:0.1125 3:1 4:0.037083331 5:0.0026992261 6:0 #
0.80010622142262510791965723910835 1:0.34914285 2:0.89999998 3:1 4:0.057285715 5:0.0018782358 6:0 #
0.80010622142262510791965723910835 1:0.24044445 2:0.88636363 3:1 4:0.064395063 5:0.006664834 6:0 #
-0.80010622142262510791965723910835 1:0.23360001 2:1 3:1 4:0.059610255 5:0.0057044961 6:0 #
0.80010622142262510791965723910835 1:0.1574 2:0.27777779 3:1 4:0.036559999 5:0.004996975 6:0 #
-0.80010622142262510791965723910835 1:0.2432 2:1 3:1 4:0.090222225 5:0.0020023345 6:0 #
-0.80010622142262510791965723910835 1:0.22872727 2:1 3:1 4:0.065454543 5:0.0026898645 6:0 #
0.80010622142262510791965723910835 1:0.1923077 2:0.018691588 3:1 4:0.043641027 5:0.0030964913 6:0 #
0.80010622142262510791965723910835 1:0.16949999 2:0.05882353 3:1 4:0.0233 5:0.0060966397 6:0 #
0.80010622142262510791965723910835 1:0.2156 2:1 3:1 4:0.048640002 5:0.0060635614 6:0 #
-0.80010622142262510791965723910835 1:0.1495 2:0.11538462 3:1 4:0.0085512819 5:0.00032673852 6:0 #
-0.80010622142262510791965723910835 1:0.23573333 2:0.43181819 3:1 4:0.031733334 5:0.004923421 6:0 #
0.80010622142262510791965723910835 1:0.18369231 2:0.70909089 3:1 4:0.044615384 5:0.004208832 6:0 #
-0.80010622142262510791965723910835 1:0.22 2:0.68421054 3:1 4:0.012676924 5:0.0015276663 6:0 #
0.80010622142262510791965723910835 1:0.40346667 2:0.18181819 3:1 4:0.048533332 5:0.0017233045 6:0 #
0.80010622142262510791965723910835 1:0.27093333 2:0.80000001 3:1 4:0.045111112 5:0.0021591091 6:0 #
-0.80010622142262510791965723910835 1:0.26622221 2:0.24561404 3:1 4:0.034358975 5:0.0015360817 6:0 #
-0.80010622142262510791965723910835 1:0.27788237 2:0.79487181 3:1 4:0.025285067 5:0.00069857406 6:0 #
0.80010622142262510791965723910835 1:0.206 2:0.42500001 3:1 4:0.023 5:0.002234783 6:0 #
-0.80010622142262510791965723910835 1:0.32847059 2:0.79310346 3:1 4:0.078274511 5:0.01384119 6:0 #
-0.80010622142262510791965723910835 1:0.30461538 2:0.80645162 3:1 4:0.050358973 5:0.01476045 6:0 #
0.80010622142262510791965723910835 1:0.1974 2:0.27956989 3:1 4:0.051600002 5:0.0026180865 6:0 #
0.80010622142262510791965723910835 1:0.21924999 2:0.2857143 3:1 4:0.058937501 5:0.0030467873 6:0 #
0.80010622142262510791965723910835 1:0.2384 2:0.41379312 3:1 4:0.08224 5:0.002853849 6:0 #
0.80010622142262510791965723910835 1:0.30065116 2:0.95238096 3:1 4:0.0401938 5:0.0017578796 6:0 #
-0.80010622142262510791965723910835 1:0.16723077 2:0.625 3:1 4:0.062307693 5:0.00082053308 6:0 #
-0.80010622142262510791965723910835 1:0.15395121 2:0.66666669 3:1 4:0.033590995 5:0.0008224675 6:0 #
0.80010622142262510791965723910835 1:0.31973332 2:0.92500001 3:1 4:0.053433333 5:0.003821969 6:0 #
0.80010622142262510791965723910835 1:0.21185714 2:1 3:1 4:0.058582418 5:0.0020134985 6:0 #
-0.80010622142262510791965723910835 1:0.2268889 2:1 3:1 4:0.052111112 5:0.001677673 6:0 #
0.80010622142262510791965723910835 1:0.1922963 2:0.083333336 3:1 4:0.037096296 5:0.0050541651 6:0 #
0.80010622142262510791965723910835 1:0.2192 2:0.16666667 3:1 4:0.050560001 5:0.0026829632 6:0 #
-0.80010622142262510791965723910835 1:0.29578948 2:0.82499999 3:1 4:0.046052631 5:0.0011557995 6:0 #
0.80010622142262510791965723910835 1:0.075999998 2:0.7962963 3:0 4:0.024888888 5:0.00030848585 6:0 #
-0.80010622142262510791965723910835 1:0.26609525 2:0.3888889 3:1 4:0.062031746 5:0.0016918185 6:0 #
-0.80010622142262510791965723910835 1:0.29066667 2:0.62962961 3:0 4:0.021944445 5:0.0019614729 6:0 #
0.80010622142262510791965723910835 1:0.29854545 2:0.5714286 3:1 4:0.038484849 5:0.0033189929 6:0 #
-0.80010622142262510791965723910835 1:0.26679999 2:0.52238804 3:1 4:0.045316666 5:0.0011140455 6:0 #
-0.80010622142262510791965723910835 1:0.25127274 2:0.50877196 3:1 4:0.040531468 5:0.00061261497 6:0 #
0.80010622142262510791965723910835 1:0.29550001 2:0.096774191 3:0 4:0.036249999 5:0.0011344092 6:0 #
0.80010622142262510791965723910835 1:0.32550001 2:0.34482759 3:0 4:0.11883333 5:0.0073657492 6:0 #
0.80010622142262510791965723910835 1:0.28240001 2:0.73333335 3:1 4:0.047733333 5:0.0017734329 6:0 #
-0.80010622142262510791965723910835 1:0.28400001 2:0.30769232 3:0 4:0.0078974357 5:0.00012974087 6:0 #
0.80010622142262510791965723910835 1:0.20923077 2:0.45454547 3:1 4:0.04713846 5:0.0060237283 6:0 #
0.80010622142262510791965723910835 1:0.17793548 2:0.25 3:1 4:0.042090323 5:0.0049740062 6:0 #
-0.80010622142262510791965723910835 1:0.2846154 2:0.5625 3:1 4:0.065846153 5:0.0018567856 6:0 #
-0.80010622142262510791965723910835 1:0.25371429 2:0.30303031 3:1 4:0.039309524 5:0.00092429644 6:0 #
0.80010622142262510791965723910835 1:0.28072727 2:0.71052629 3:1 4:0.048318181 5:0.0033243543 6:0 #
0.80010622142262510791965723910835 1:0.10021622 2:0.060606062 3:1 4:0.034940541 5:0.0010282531 6:0 #
0.80010622142262510791965723910835 1:0.22514285 2:0.36363637 3:1 4:0.041771427 5:0.0055573564 6:0 #
-0.80010622142262510791965723910835 1:0.25999999 2:0.33333334 3:1 4:0.039700001 5:0.0019752898 6:0 #
0.80010622142262510791965723910835 1:0.23415385 2:0.60606062 3:1 4:0.069230773 5:0.0059066084 6:0 #
-0.80010622142262510791965723910835 1:0.26719999 2:0.58181816 3:1 4:0.043022223 5:0.0076314886 6:0 #
0.80010622142262510791965723910835 1:0.186 2:0.51219511 3:1 4:0.048999999 5:0.0058605317 6:0 #
-0.80010622142262510791965723910835 1:0.25325 2:0.5 3:1 4:0.050875001 5:0.0023373689 6:0 #
0.80010622142262510791965723910835 1:0.228 2:0.3125 3:1 4:0.04822807 5:0.0018828332 6:0 #
-0.80010622142262510791965723910835 1:0.25653332 2:0.33333334 3:1 4:0.047822222 5:0.0091799572 6:0 #
0.80010622142262510791965723910835 1:0.26625001 2:0.86153847 3:1 4:0.0625 5:0.0039341277 6:0 #
-0.80010622142262510791965723910835 1:0.20452175 2:1 3:1 4:0.045275364 5:0.00090471259 6:0 #
0.80010622142262510791965723910835 1:0.20475 2:0.20689656 3:1 4:0.036916666 5:0.0017252667 6:0 #
0.80010622142262510791965723910835 1:0.33011764 2:0.82608694 3:1 4:0.061117645 5:0.0045704152 6:0 #
-0.80010622142262510791965723910835 1:0.164 2:0.07692308 3:1 4:0.049699999 5:0.00061010767 6:0 #
-0.80010622142262510791965723910835 1:0.31109092 2:0.85185188 3:1 4:0.074303031 5:0.0056033093 6:0 #
0.80010622142262510791965723910835 1:0.1487619 2:0.56521738 3:1 4:0.030704763 5:0.0047882106 6:0 #
-0.80010622142262510791965723910835 1:0.29028571 2:0.52238804 3:1 4:0.094428569 5:0.0048937346 6:0 #
0.80010622142262510791965723910835 1:0.27571428 2:0.45454547 3:1 4:0.066 5:0.0015582679 6:0 #
-0.80010622142262510791965723910835 1:0.23726316 2:0.60000002 3:1 4:0.024226721 5:0.001674309 6:0 #
0.80010622142262510791965723910835 1:0.17408696 2:0.47368422 3:1 4:0.036069565 5:0.0045678057 6:0 #
-0.80010622142262510791965723910835 1:0.25400001 2:0.33333334 3:1 4:0.048740741 5:0.0055831089 6:0 #
0.80010622142262510791965723910835 1:0.20346667 2:0.33333334 3:1 4:0.04448 5:0.006424766 6:0 #
-0.80010622142262510791965723910835 1:0.2088 2:0.57575756 3:1 4:0.0088410256 5:0.0018190367 6:0 #
0.80010622142262510791965723910835 1:0.15428571 2:0.75 3:1 4:0.041104764 5:0.0041566319 6:0 #
-0.80010622142262510791965723910835 1:0.23368421 2:0.27868852 3:1 4:0.02088421 5:0.0014435189 6:0 #
0.80010622142262510791965723910835 1:0.20553847 2:0.21428572 3:1 4:0.04253846 5:0.0042560422 6:0 #
-0.80010622142262510791965723910835 1:0.14094117 2:0.85714287 3:1 4:0.022434389 5:0.00046230239 6:0 #
0.80010622142262510791965723910835 1:0.17020001 2:0.89999998 3:1 4:0.044920001 5:0.0059113717 6:0 #
-0.80010622142262510791965723910835 1:0.26199999 2:0.20588236 3:1 4:0.036333334 5:0.01127825 6:0 #
0.80010622142262510791965723910835 1:0.14189474 2:0.71428573 3:1 4:0.037912279 5:0.001173928 6:0 #
0.80010622142262510791965723910835 1:0.34072727 2:0.38095239 3:1 4:0.048363637 5:0.0019554463 6:0 #
-0.80010622142262510791965723910835 1:0.26861539 2:0.375 3:1 4:0.072153844 5:0.0038764668 6:0 #
0.80010622142262510791965723910835 1:0.1247 2:0.94117647 3:1 4:0.030820001 5:0.0032482499 6:0 #
-0.80010622142262510791965723910835 1:0.22981818 2:0.9894737 3:1 4:0.043181818 5:0.006904549 6:0 #
0.80010622142262510791965723910835 1:0.14666666 2:0.16666667 3:1 4:0.025733333 5:0.0039446964 6:0 #
0.80010622142262510791965723910835 1:0.18376471 2:0.91666669 3:1 4:0.046494119 5:0.0043029212 6:0 #
0.80010622142262510791965723910835 1:0.19239999 2:0.68965518 3:1 4:0.040583335 5:0.0015316401 6:0 #
-0.80010622142262510791965723910835 1:0.28717646 2:0.83687943 3:1 4:0.039040726 5:0.002265851 6:0 #
0.80010622142262510791965723910835 1:0.20900001 2:0.1875 3:1 4:0.030208332 5:0.0010089615 6:0 #
-0.80010622142262510791965723910835 1:0.25457144 2:0.2 3:1 4:0.02879121 5:0.001346555 6:0 #
0.80010622142262510791965723910835 1:0.30063999 2:0.89999998 3:1 4:0.079466663 5:0.009197372 6:0 #
-0.80010622142262510791965723910835 1:0.22622222 2:0.98989898 3:1 4:0.041999999 5:0.0074799214 6:0 #
0.80010622142262510791965723910835 1:0.29028571 2:0.44 3:1 4:0.042285714 5:0.0048825489 6:0 #
-0.80010622142262510791965723910835 1:0.26069567 2:0.31578946 3:1 4:0.054144926 5:0.0025926225 6:0 #
0.80010622142262510791965723910835 1:0.27046153 2:0.92307693 3:1 4:0.047846153 5:0.0061829994 6:0 #
-0.80010622142262510791965723910835 1:0.26875001 2:0.88709676 3:1 4:0.049942307 5:0.002692478 6:0 #
0.80010622142262510791965723910835 1:0.19670588 2:0.12121212 3:1 4:0.029929413 5:0.0039459858 6:0 #
-0.80010622142262510791965723910835 1:0.2447 2:0.969697 3:1 4:0.069200002 5:0.0029160397 6:0 #
-0.80010622142262510791965723910835 1:0.28 2:0.93023258 3:1 4:0.094666667 5:0.0074072029 6:0 #
0.80010622142262510791965723910835 1:0.23043478 2:0.1923077 3:1 4:0.048173912 5:0.01073821 6:0 #
0.80010622142262510791965723910835 1:0.28044444 2:0.13235295 3:1 4:0.071333334 5:0.0054681534 6:0 #
-0.80010622142262510791965723910835 1:0.14675 2:0.12727273 3:1 4:0.01125 5:0.00025299913 6:0 #
0.80010622142262510791965723910835 1:0.28814813 2:0.94736844 3:1 4:0.049777776 5:0.003094187 6:0 #
-0.80010622142262510791965723910835 1:0.28378379 2:0.0060975607 3:1 4:0.067486487 5:0.0022283415 6:0 #
-0.80010622142262510791965723910835 1:0.28200001 2:0.014705882 3:1 4:0.069576927 5:0.00099554076 6:0 #
0.80010622142262510791965723910835 1:0.20027587 2:1 3:1 4:0.045682758 5:0.0061458689 6:0 #
0.80010622142262510791965723910835 1:0.1688 2:1 3:1 4:0.022053333 5:0.001169757 6:0 #
-0.80010622142262510791965723910835 1:0.19695652 2:1 3:1 4:0.031337794 5:0.0015187402 6:0 #
0.80010622142262510791965723910835 1:0.31527272 2:0.12121212 3:1 4:0.040363636 5:0.0023146218 6:0 #
-0.80010622142262510791965723910835 1:0.20964706 2:0.99259257 3:1 4:0.03592157 5:0.0012220247 6:0 #
-0.80010622142262510791965723910835 1:0.19828571 2:1 3:1 4:0.035174605 5:0.0059707775 6:0 #
0.80010622142262510791965723910835 1:0.32995349 2:0.0625 3:1 4:0.078162789 5:0.0041132467 6:0 #
0.80010622142262510791965723910835 1:0.21085714 2:0.15151516 3:1 4:0.039142858 5:0.002983581 6:0 #
-0.80010622142262510791965723910835 1:0.25488889 2:0.16867469 3:1 4:0.026735043 5:0.0012921494 6:0 #
0.80010622142262510791965723910835 1:0.63 2:0.97619045 3:0 4:0.048461538 5:0.0013887702 6:0 #
-0.80010622142262510791965723910835 1:0.32499999 2:0.033333335 3:1 4:0.069576927 5:0.00099554076 6:0 #
-0.80010622142262510791965723910835 1:0.3028 2:0.050000001 3:1 4:0.051866665 5:0.010936603 6:0 #
0.80010622142262510791965723910835 1:0.2557838 2:1 3:1 4:0.040117119 5:0.0016063984 6:0 #
0.80010622142262510791965723910835 1:0.14118518 2:1 3:1 4:0.053096298 5:0.0037328433 6:0 #
-0.80010622142262510791965723910835 1:0.40400001 2:1 3:0 4:0.07 5:0.0045036776 6:0 #
0.80010622142262510791965723910835 1:0.14463158 2:0.16666667 3:1 4:0.022105264 5:0.0034604555 6:0 #
-0.80010622142262510791965723910835 1:0.24600001 2:0.70149255 3:1 4:0.017203704 5:0.00075172196 6:0 #
0.80010622142262510791965723910835 1:0.29028571 2:0.44 3:1 4:0.042285714 5:0.0048825489 6:0 #
-0.80010622142262510791965723910835 1:0.29949999 2:0.16666667 3:0 4:0.03025 5:0.001375252 6:0 #
-0.80010622142262510791965723910835 1:0.29066667 2:0.16666667 3:0 4:0.026666667 5:0.00018489874 6:0 #
0.80010622142262510791965723910835 1:0.30042857 2:0.42857143 3:1 4:0.065250002 5:0.0031303931 6:0 #
0.80010622142262510791965723910835 1:0.36436364 2:0.32142857 3:1 4:0.060242426 5:0.0061552823 6:0 #
-0.80010622142262510791965723910835 1:0.241 2:0.54054052 3:1 4:0.02775 5:0.0020102265 6:0 #
0.80010622142262510791965723910835 1:0.23999999 2:0.48837209 3:0 4:0.086133331 5:0.01813817 6:0 #
-0.80010622142262510791965723910835 1:0.24666667 2:0.53333336 3:1 4:0.038371794 5:0.0022317949 6:0 #
-0.80010622142262510791965723910835 1:0.23375 2:0.53488374 3:1 4:0.03325 5:0.010614255 6:0 #
0.80010622142262510791965723910835 1:0.21866667 2:0.11764706 3:0 4:0.031179488 5:0.0060676741 6:0 #
0.80010622142262510791965723910835 1:0.257 2:0.12903225 3:0 4:0.069499999 5:0.0019675167 6:0 #
0.80010622142262510791965723910835 1:0.15619047 2:0.63157892 3:1 4:0.02695238 5:0.0015569351 6:0 #
-0.80010622142262510791965723910835 1:0.278 2:0.25531915 3:0 4:0.027641026 5:0.00081050792 6:0 #
-0.80010622142262510791965723910835 1:0.26800001 2:0.18421052 3:0 4:0.020461539 5:0.0051067518 6:0 #
-0.80010622142262510791965723910835 1:0.31288889 2:0.2 3:0 4:0.081743591 5:0.003603549 6:0 #
0.80010622142262510791965723910835 1:0.28168422 2:0.609375 3:1 4:0.05068421 5:0.0020685152 6:0 #
0.80010622142262510791965723910835 1:0.2364706 2:0.78512394 3:1 4:0.07088235 5:0.0030800225 6:0 #
-0.80010622142262510791965723910835 1:0.24600001 2:0.70149255 3:1 4:0.017203704 5:0.00075172196 6:0 #
0.80010622142262510791965723910835 1:0.046857145 2:0.21951219 3:0 4:0.010666667 5:0.00012718902 6:0 #
-0.80010622142262510791965723910835 1:0.24924999 2:0.7096774 3:1 4:0.028913461 5:0.0013188422 6:0 #
-0.80010622142262510791965723910835 1:0.27285713 2:0.69354838 3:1 4:0.059285715 5:0.003613045 6:0 #
0.80010622142262510791965723910835 1:0.090000004 2:0.045454547 3:0 4:0.020923076 5:0.00016851454 6:0 #
0.80010622142262510791965723910835 1:0.33000001 2:0.13636364 3:0 4:0.124 5:0.0073192324 6:0 #
-0.80010622142262510791965723910835 1:0.1825 2:0.59349591 3:1 4:0.092749998 5:0.0027067563 6:0 #
0.80010622142262510791965723910835 1:0.35483333 2:0.58064514 3:1 4:0.074333332 5:0.0038126677 6:0 #
-0.09594798637979451427781896200031 1:0.012 2:0.20689656 3:0 4:0.013333334 5:0.00012665223 6:0 #
-0.80010622142262510791965723910835 1:0.37666667 2:0.22857143 3:0 4:0.12688889 5:0.019339083 6:0 #
-0.80010622142262510791965723910835 1:0.30914286 2:0.3125 3:0 4:0.083428569 5:0.016916033 6:0 #
0.80010622142262510791965723910835 1:0.23266667 2:0.92000002 3:1 4:0.047033332 5:0.0012297222 6:0 #
0.80010622142262510791965723910835 1:0.222 2:0.73333335 3:1 4:0.048 5:0.0039487998 6:0 #
-0.80010622142262510791965723910835 1:0.27907693 2:0.64102566 3:1 4:0.074153848 5:0.0024059897 6:0 #
0.80010622142262510791965723910835 1:0.34850001 2:0.26666668 3:0 4:0.17883334 5:0.010482819 6:0 #
0.80010622142262510791965723910835 1:0.63 2:0.67567569 3:0 4:0.048461538 5:0.0013887702 6:0 #
-0.80010622142262510791965723910835 1:0.045142855 2:0.01754386 3:1 4:0.014904762 5:0.00015510384 6:0 #
-0.80010622142262510791965723910835 1:0.40400001 2:1 3:0 4:0.07 5:0.0045036776 6:0 #
0.80010622142262510791965723910835 1:0.21408695 2:0.40000001 3:1 4:0.04821739 5:0.0026026545 6:0 #
0.80010622142262510791965723910835 1:0.63 2:0.97222221 3:0 4:0.048461538 5:0.0013887702 6:0 #
-0.80010622142262510791965723910835 1:0.28375 2:0.39583334 3:1 4:0.10375 5:0.012758734 6:0 #
-0.80010622142262510791965723910835 1:0.25294119 2:0.38749999 3:1 4:0.068764709 5:0.0022247126 6:0 #
0.80010622142262510791965723910835 1:0.15942857 2:0.82352942 3:0 4:0.022461539 5:0.00054713868 6:0 #
0.80010622142262510791965723910835 1:0.093999997 2:0.97297299 3:0 4:0.0094999997 5:0.0013687592 6:0 #
-0.80010622142262510791965723910835 1:0.40400001 2:1 3:0 4:0.07 5:0.0045036776 6:0 #
0.80010622142262510791965723910835 1:0.27833334 2:0.34999999 3:1 4:0.061583333 5:0.0048605208 6:0 #
0.80010622142262510791965723910835 1:0.20373334 2:0.5 3:1 4:0.043760002 5:0.0053778412 6:0 #
-0.80010622142262510791965723910835 1:0.32171428 2:0.73282444 3:0 4:0.056666669 5:0.0054769362 6:0 #
-0.80010622142262510791965723910835 1:0.30857143 2:0.55555558 3:0 4:0.061999999 5:0.0060083014 6:0 #
0.80010622142262510791965723910835 1:0.22977778 2:0.5 3:1 4:0.048577778 5:0.0074663558 6:0 #
0.80010622142262510791965723910835 1:0.31617391 2:0.55000001 3:1 4:0.059652176 5:0.0096180756 6:0 #
0.80010622142262510791965723910835 1:0.63 2:0.70149255 3:0 4:0.048461538 5:0.0013887702 6:0 #
-0.80010622142262510791965723910835 1:0.23475 2:0.47222221 3:1 4:0.036038462 5:0.0012497989 6:0 #
-0.80010622142262510791965723910835 1:0.28276923 2:0.5 3:1 4:0.098615386 5:0.0031890555 6:0 #
-0.80010622142262510791965723910835 1:0.25600001 2:0.47916666 3:1 4:0.068666667 5:0.0085579064 6:0 #
-0.80010622142262510791965723910835 1:0.28276923 2:0.5151515 3:1 4:0.098615386 5:0.0031890555 6:0 #
0.80010622142262510791965723910835 1:0.19266666 2:0.51999998 3:0 4:0.083944447 5:0.002358407 6:0 #
0.80010622142262510791965723910835 1:0.1128 2:0.96610171 3:0 4:0.0056666667 5:0.00092169578 6:0 #
-0.80010622142262510791965723910835 1:0.35800001 2:0.92500001 3:0 4:0.062666669 5:0.006761435 6:0 #
-0.80010622142262510791965723910835 1:0.294 2:0.69696969 3:0 4:0.03675 5:0.0043644374 6:0 #
-0.80010622142262510791965723910835 1:0.26949999 2:0.41025642 3:0 4:0.013807693 5:0.00088583218 6:0 #
0.80010622142262510791965723910835 1:0.29725 2:0.53191489 3:1 4:0.04425 5:0.009348142 6:0 #
0.80010622142262510791965723910835 1:0.34363636 2:0.48275861 3:1 4:0.07609091 5:0.0057528131 6:0 #
0.80010622142262510791965723910835 1:0.63 2:0.85815603 3:0 4:0.048461538 5:0.0013887702 6:0 #
-0.80010622142262510791965723910835 1:0.25733334 2:0.55789477 3:1 4:0.045499999 5:0.0032467698 6:0 #
-0.80010622142262510791965723910835 1:0.26449999 2:0.56 3:1 4:0.058083333 5:0.001817491 6:0 #
-0.80010622142262510791965723910835 1:0.26761904 2:0.29166666 3:1 4:0.049777776 5:0.0028526047 6:0 #
0.80010622142262510791965723910835 1:0.19285715 2:0.66666669 3:1 4:0.069342859 5:0.0050426275 6:0 #
0.80010622142262510791965723910835 1:0.19810526 2:0.22222222 3:1 4:0.043494739 5:0.0054399972 6:0 #
-0.80010622142262510791965723910835 1:0.22766666 2:0.41176471 3:1 4:0.023641026 5:0.0019447068 6:0 #
0.80010622142262510791965723910835 1:0.32022223 2:0.3611111 3:1 4:0.017008547 5:0.00060868764 6:0 #
-0.80010622142262510791965723910835 1:0.24377778 2:0.40000001 3:1 4:0.041333333 5:0.0067142476 6:0 #
0.80010622142262510791965723910835 1:0.25812501 2:0.60000002 3:1 4:0.05323077 5:0.0014773761 6:0 #
-0.80010622142262510791965723910835 1:0.35705262 2:0.77142859 3:1 4:0.12294737 5:0.01019451 6:0 #
0.80010622142262510791965723910835 1:0.126 2:0.64179105 3:1 4:0.037722223 5:0.00050852564 6:0 #
0.80010622142262510791965723910835 1:0.23538461 2:0.80000001 3:1 4:0.061415385 5:0.0066017653 6:0 #
-0.80010622142262510791965723910835 1:0.25514287 2:0.29166666 3:1 4:0.047523808 5:0.0065938421 6:0 #
0.80010622142262510791965723910835 1:0.16144 2:0.27272728 3:1 4:0.026688 5:0.0070378622 6:0 #
-0.80010622142262510791965723910835 1:0.22011764 2:1 3:1 4:0.058411766 5:0.0049082958 6:0 #
-0.80010622142262510791965723910835 1:0.25090909 2:0.22413793 3:1 4:0.02330303 5:0.0012758652 6:0 #
-0.80010622142262510791965723910835 1:0.28114286 2:0.8611111 3:1 4:0.04657143 5:0.0084076989 6:0 #
0.80010622142262510791965723910835 1:0.30273685 2:0.21052632 3:1 4:0.035666667 5:0.00093070156 6:0 #
0.80010622142262510791965723910835 1:0.23538461 2:0.80000001 3:1 4:0.061415385 5:0.0066017653 6:0 #
-0.80010622142262510791965723910835 1:0.24575 2:0.25 3:1 4:0.032083333 5:0.008533204 6:0 #
-0.80010622142262510791965723910835 1:0.27152941 2:0.79439253 3:1 4:0.035627451 5:0.0017358388 6:0 #
0.80010622142262510791965723910835 1:0.24126315 2:0.25 3:1 4:0.050280701 5:0.0018363582 6:0 #
-0.80010622142262510791965723910835 1:0.24870588 2:0.21686748 3:1 4:0.02922353 5:0.0026670699 6:0 #
0.80010622142262510791965723910835 1:0.12514286 2:0.875 3:1 4:0.030994285 5:0.0041833487 6:0 #
-0.80010622142262510791965723910835 1:0.28171429 2:0.18604651 3:1 4:0.047523808 5:0.0083031394 6:0 #
-0.80010622142262510791965723910835 1:0.033599999 2:0.21176471 3:1 4:0.011166667 5:0.00013006416 6:0 #
0.80010622142262510791965723910835 1:0.20592593 2:0.953125 3:1 4:0.035358023 5:0.0011796872 6:0 #
0.80010622142262510791965723910835 1:0.2540606 2:0.80165291 3:1 4:0.069484845 5:0.0040705111 6:0 #
0.80010622142262510791965723910835 1:0.23169231 2:0.074074075 3:1 4:0.062076923 5:0.001549091 6:0 #
-0.80010622142262510791965723910835 1:0.19033334 2:1 3:1 4:0.032820512 5:0.00058971101 6:0 #
-0.80010622142262510791965723910835 1:0.20281819 2:1 3:1 4:0.041636363 5:0.00078952766 6:0 #
0.80010622142262510791965723910835 1:0.24959999 2:0.1 3:1 4:0.057584614 5:0.0018310824 6:0 #
-0.80010622142262510791965723910835 1:0.34945455 2:0.42622951 3:1 4:0.17036363 5:0.015059939 6:0 #
0.80010622142262510791965723910835 1:0.18417391 2:0.42857143 3:1 4:0.055130433 5:0.011341214 6:0 #
-0.80010622142262510791965723910835 1:0.036666665 2:0.44339624 3:1 4:0.0079743592 5:5.3033469e-05 6:0 #
0.80010622142262510791965723910835 1:0.21858823 2:0.67647058 3:1 4:0.062823527 5:0.0070783305 6:0 #
0.80010622142262510791965723910835 1:0.21511111 2:0.2647059 3:1 4:0.042133335 5:0.0062459814 6:0 #
-0.80010622142262510791965723910835 1:0.2384 2:0.3253012 3:1 4:0.024892308 5:0.0010791915 6:0 #
-0.80010622142262510791965723910835 1:0.23127273 2:0.3888889 3:1 4:0.034333333 5:0.001182233 6:0 #
0.80010622142262510791965723910835 1:0.13581818 2:0.60000002 3:1 4:0.037527274 5:0.004632493 6:0 #
-0.80009170244420602102763950824738 1:0.0348 2:0.69230771 3:1 4:0.022159999 5:0.00052021444 6:0 #
0.80010622142262510791965723910835 1:0.15107693 2:0.28125 3:1 4:0.060923077 5:0.0067563332 6:0 #
-0.80010622142262510791965723910835 1:0.21866667 2:0.5 3:1 4:0.013564102 5:0.0033034056 6:0 #
-0.80010622142262510791965723910835 1:0.044 2:0.25 3:1 4:0.035054546 5:0.00096243602 6:0 #
0.80010622142262510791965723910835 1:0.42246154 2:0.74193549 3:1 4:0.06246154 5:0.0045217611 6:0 #
0.80010622142262510791965723910835 1:0.14361905 2:0.34782609 3:1 4:0.050171427 5:0.0057954667 6:0 #
-0.80010622142262510791965723910835 1:0.38307694 2:0.84552848 3:1 4:0.18492308 5:0.018070722 6:0 #
0.80010622142262510791965723910835 1:0.29538462 2:0.79166669 3:1 4:0.096615382 5:0.020669531 6:0 #
-0.80010622142262510791965723910835 1:0.2728 2:0.28125 3:1 4:0.069600001 5:0.0089835506 6:0 #
-0.80010622142262510791965723910835 1:0.25507692 2:0.81967211 3:1 4:0.027775148 5:0.0005815897 6:0 #
0.80010622142262510791965723910835 1:0.21439999 2:0.2 3:1 4:0.032633334 5:0.0025001641 6:0 #
-0.80010622142262510791965723910835 1:0.27563637 2:0.2 3:1 4:0.052318182 5:0.0025899184 6:0 #
0.80010622142262510791965723910835 1:0.26733333 2:0.89473683 3:1 4:0.049333334 5:0.0053553944 6:0 #
-0.80010622142262510791965723910835 1:0.22109091 2:0.96453899 3:1 4:0.028125875 5:0.0018243724 6:0 #
0.80010622142262510791965723910835 1:0.28707692 2:0.12149533 3:1 4:0.068089746 5:0.0020992835 6:0 #
-0.80010622142262510791965723910835 1:0.29499999 2:0.14705883 3:1 4:0.065916665 5:0.0034151447 6:0 #
0.80010622142262510791965723910835 1:0.228 2:1 3:1 4:0.0584375 5:0.0036405139 6:0 #
-0.80010622142262510791965723910835 1:0.229 2:0.9649123 3:1 4:0.034249999 5:0.0029027665 6:0 #
0.80010622142262510791965723910835 1:0.16381818 2:0.21052632 3:1 4:0.033636365 5:0.0014291921 6:0 #
-0.80010622142262510791965723910835 1:0.248 2:0.18181819 3:1 4:0.026799999 5:0.0023428404 6:0 #
0.80010622142262510791965723910835 1:0.41786668 2:0.95238096 3:1 4:0.073600002 5:0.0067632268 6:0 #
0.80010622142262510791965723910835 1:0.16949999 2:0.2682927 3:1 4:0.038550001 5:0.0053617759 6:0 #
-0.80010622142262510791965723910835 1:0.30360001 2:0.88461536 3:1 4:0.0964 5:0.013623429 6:0 #
0.80010622142262510791965723910835 1:0.24303448 2:0.82051283 3:1 4:0.066206895 5:0.0046905158 6:0 #
-0.80010622142262510791965723910835 1:0.23368421 2:0.31666666 3:1 4:0.020064777 5:0.00088620791 6:0 #
0.80010622142262510791965723910835 1:0.28740001 2:0.65384614 3:1 4:0.035950001 5:0.0020916441 6:0 #
-0.80010622142262510791965723910835 1:0.24505264 2:0.64814812 3:1 4:0.027595142 5:0.0021370323 6:0 #
0.80010622142262510791965723910835 1:0.2352 2:0.2857143 3:1 4:0.051666666 5:0.0015956577 6:0 #
-0.80010622142262510791965723910835 1:0.24322581 2:0.30000001 3:1 4:0.034709677 5:0.0066569247 6:0 #
-0.80010622142262510791965723910835 1:0.27599999 2:0.82051283 3:1 4:0.052888889 5:0.0038818652 6:0 #
0.80010622142262510791965723910835 1:0.2588 2:0.1981132 3:1 4:0.031107692 5:0.0017236199 6:0 #
-0.80010622142262510791965723910835 1:0.28279999 2:0.15492958 3:1 4:0.049246155 5:0.0028499267 6:0 #
0.80010622142262510791965723910835 1:0.23311999 2:0.87931037 3:1 4:0.02104 5:0.0011568492 6:0 #
-0.80010622142262510791965723910835 1:0.21290909 2:0.969697 3:1 4:0.023954546 5:0.00068453123 6:0 #
-0.80010622142262510791965723910835 1:0.24704 2:0.56521738 3:1 4:0.034221537 5:0.0017553095 6:0 #
0.80010622142262510791965723910835 1:0.19253333 2:0.57692307 3:1 4:0.06645333 5:0.0079514626 6:0 #
0.80010622142262510791965723910835 1:0.20907693 2:0.63043481 3:1 4:0.035261538 5:0.0046408377 6:0 #
-0.80010622142262510791965723910835 1:0.039714284 2:0.46296296 3:1 4:0.029642858 5:0.00082869473 6:0 #
-0.80010622142262510791965723910835 1:0.28099999 2:0.74545455 3:1 4:0.059 5:0.010301103 6:0 #
0.80010622142262510791965723910835 1:0.11294118 2:0.0625 3:1 4:0.020470588 5:0.0023808009 6:0 #
-0.80010622142262510791965723910835 1:0.3152 2:0.75510204 3:1 4:0.104 5:0.013138796 6:0 #
-0.80010622142262510791965723910835 1:0.2757647 2:0.76190478 3:1 4:0.052921567 5:0.0021385343 6:0 #
0.80010622142262510791965723910835 1:0.15793549 2:0.16666667 3:1 4:0.046348386 5:0.0051608882 6:0 #
0.80010622142262510791965723910835 1:0.19599999 2:0.41176471 3:1 4:0.081650794 5:0.0040638675 6:0 #
-0.80010622142262510791965723910835 1:0.29499999 2:0.1388889 3:1 4:0.065916665 5:0.0034151447 6:0 #
0.80010622142262510791965723910835 1:0.17 2:0.875 3:1 4:0.039519999 5:0.0054511866 6:0 #
0.80010622142262510791965723910835 1:0.13726316 2:0.30000001 3:1 4:0.03005668 5:0.0010248634 6:0 #
-0.80010622142262510791965723910835 1:0.038909093 2:0.01010101 3:1 4:0.0036363637 5:1.3631278e-05 6:0 #
0.80010622142262510791965723910835 1:0.27875 2:0.98630136 3:1 4:0.042531248 5:0.0033671556 6:0 #
0.80010622142262510791965723910835 1:0.53418183 2:1 3:1 4:0.12236363 5:0.022960441 6:0 #
-0.80010622142262510791965723910835 1:0.2388 2:1 3:1 4:0.1044 5:0.0062467768 6:0 #
0.80010622142262510791965723910835 1:0.17973334 2:0.14285715 3:1 4:0.064533331 5:0.010627973 6:0 #
-0.80010622142262510791965723910835 1:0.36342856 2:0.84782606 3:1 4:0.17842858 5:0.01943358 6:0 #
0.80010622142262510791965723910835 1:0.182 2:0.47826087 3:1 4:0.05311111 5:0.0064833076 6:0 #
0.80010622142262510791965723910835 1:0.20276923 2:0.71875 3:1 4:0.043000001 5:0.00086341245 6:0 #
0.80010622142262510791965723910835 1:0.29866666 2:0.16216215 3:1 4:0.15306666 5:0.012574936 6:0 #
-0.80010622142262510791965723910835 1:0.033 2:0.61538464 3:1 4:0.0040000002 5:6.4128144e-05 6:0 #
-0.80010622142262510791965723910835 1:0.30836365 2:0.22448979 3:1 4:0.12981819 5:0.012825377 6:0 #
0.80010622142262510791965723910835 1:0.12054545 2:0.625 3:1 4:0.038981818 5:0.0045980383 6:0 #
-0.80010622142262510791965723910835 1:0.26283333 2:0.76190478 3:1 4:0.029602565 5:0.0012596735 6:0 #
0.80010622142262510791965723910835 1:0.35299999 2:0.25 3:1 4:0.053160001 5:0.0048939283 6:0 #
0.80010622142262510791965723910835 1:0.16 2:0.85185188 3:1 4:0.049980391 5:0.0014267182 6:0 #
-0.80010622142262510791965723910835 1:0.29131034 2:0.12 3:1 4:0.058114942 5:0.0094104316 6:0 #
0.80010622142262510791965723910835 1:0.19142857 2:0.12903225 3:1 4:0.021904763 5:0.00076027756 6:0 #
-0.80010622142262510791965723910835 1:0.24888889 2:0.84210527 3:1 4:0.029092593 5:0.00046752012 6:0 #
-0.80010622142262510791965723910835 1:0.26633334 2:0.17391305 3:1 4:0.041000001 5:0.0081802187 6:0 #
0.80010622142262510791965723910835 1:0.1688 2:0.80000001 3:1 4:0.041359998 5:0.005766694 6:0 #
0.80010622142262510791965723910835 1:0.098451614 2:0.8125 3:1 4:0.036377173 5:0.00063729734 6:0 #
0.80010622142262510791965723910835 1:0.1568 2:0.12244898 3:1 4:0.029973334 5:0.0036886756 6:0 #
0.80010622142262510791965723910835 1:0.33612499 2:0.89361703 3:1 4:0.056875002 5:0.0050736042 6:0 #
0.80010622142262510791965723910835 1:0.14 2:0.8888889 3:1 4:0.015923077 5:0.0016394953 6:0 #
0.80010622142262510791965723910835 1:0.152375 2:0.125 3:1 4:0.044500001 5:0.0040491396 6:0 #
-0.80010622142262510791965723910835 1:0.18449999 2:1 3:1 4:0.030750001 5:0.0010123518 6:0 #
0.80010622142262510791965723910835 1:0.2469091 2:0.10909091 3:1 4:0.037621211 5:0.0010405637 6:0 #
-0.80010622142262510791965723910835 1:0.25155556 2:0.80000001 3:1 4:0.023504274 5:0.00046869804 6:0 #
0.80010622142262510791965723910835 1:0.28933334 2:0.11538462 3:1 4:0.033628207 5:0.0027795513 6:0 #
-0.80010622142262510791965723910835 1:0.26333332 2:0.16666667 3:1 4:0.035923079 5:0.0027429974 6:0 #
0.80010622142262510791965723910835 1:0.243 2:0.55000001 3:1 4:0.034638889 5:0.0026572649 6:0 #
-0.80010622142262510791965723910835 1:0.24613333 2:0.30496454 3:1 4:0.040471796 5:0.0015283058 6:0 #
-0.80010622142262510791965723910835 1:0.22453333 2:0.49180329 3:1 4:0.025415385 5:0.0018076731 6:0 #
0.80010622142262510791965723910835 1:0.25309092 2:0.52631581 3:1 4:0.065681815 5:0.0025808027 6:0 #
-0.80010622142262510791965723910835 1:0.24704 2:0.56521738 3:1 4:0.034221537 5:0.0017553095 6:0 #
0.80010622142262510791965723910835 1:0.14399999 2:0.4375 3:1 4:0.032285713 5:0.0043982742 6:0 #
-0.80010622142262510791965723910835 1:0.22 2:0.41666666 3:1 4:0.028266666 5:0.0016649285 6:0 #
0.80010622142262510791965723910835 1:0.252 2:0.54545456 3:1 4:0.032491229 5:0.0016320038 6:0 #
-0.80010622142262510791965723910835 1:0.25127274 2:0.56923079 3:1 4:0.040531468 5:0.00061261497 6:0 #
0.80010622142262510791965723910835 1:0.26905262 2:0.53225809 3:1 4:0.074210525 5:0.0038920082 6:0 #
0.80010622142262510791965723910835 1:0.19717647 2:0.5 3:1 4:0.048282351 5:0.0045232051 6:0 #
-0.80010622142262510791965723910835 1:0.23929411 2:0.44117647 3:1 4:0.047529411 5:0.0099963369 6:0 #
-0.80010622142262510791965723910835 1:0.20457143 2:0.42500001 3:1 4:0.018285714 5:0.0010861658 6:0 #
0.80010622142262510791965723910835 1:0.41566667 2:0.35714287 3:1 4:0.075319447 5:0.0023113387 6:0 #
0.80010622142262510791965723910835 1:0.22707692 2:0.61363637 3:1 4:0.046523076 5:0.005449574 6:0 #
-0.80010622142262510791965723910835 1:0.28066668 2:0.33333334 3:1 4:0.092555553 5:0.0027729515 6:0 #
0.80010622142262510791965723910835 1:0.1908 2:0.32291666 3:1 4:0.02045 5:0.00066184078 6:0 #
-0.80010622142262510791965723910835 1:0.29177779 2:0.72222221 3:1 4:0.076666668 5:0.0097959014 6:0 #
0.80010622142262510791965723910835 1:0.24699999 2:0.94827586 3:1 4:0.062433332 5:0.0014886028 6:0 #
0.80010622142262510791965723910835 1:0.17893334 2:0.53846157 3:1 4:0.052159999 5:0.0047924286 6:0 #
-0.80010622142262510791965723910835 1:0.25025001 2:0.32857144 3:1 4:0.047833335 5:0.013007005 6:0 #
0.80010622142262510791965723910835 1:0.28371429 2:0.29411766 3:1 4:0.033314284 5:0.0053035435 6:0 #
-0.11758256681159046097562281829596 1:0.044666667 2:0.57657659 3:1 4:0.0097500002 5:0.00014140073 6:0 #
-0.80010622142262510791965723910835 1:0.27580953 2:0.24137931 3:1 4:0.077079363 5:0.0036222797 6:0 #
0.80010622142262510791965723910835 1:0.17353846 2:0.92941177 3:1 4:0.042830769 5:0.0052688099 6:0 #
-0.80010622142262510791965723910835 1:0.2090909 2:0.97014928 3:1 4:0.028818183 5:0.00070758321 6:0 #
0.80010622142262510791965723910835 1:0.19561905 2:0.33333334 3:1 4:0.033428572 5:0.0022790455 6:0 #
-0.80010622142262510791965723910835 1:0.248 2:0.61832058 3:1 4:0.033 5:0.0048512579 6:0 #
-0.80010622142262510791965723910835 1:0.25184616 2:0.27777779 3:1 4:0.054512821 5:0.0069118664 6:0 #
0.80010622142262510791965723910835 1:0.29044443 2:0.63636363 3:1 4:0.05962963 5:0.0028459942 6:0 #
-0.80010622142262510791965723910835 1:0.27599999 2:0.75 3:1 4:0.052888889 5:0.0038818652 6:0 #
0.80010622142262510791965723910835 1:0.228 2:0.40000001 3:1 4:0.033431578 5:0.003742821 6:0 #
-0.80010622142262510791965723910835 1:0.24377778 2:0.33333334 3:1 4:0.041333333 5:0.0067142476 6:0 #
0.80010622142262510791965723910835 1:0.25745454 2:0.5151515 3:1 4:0.063054547 5:0.0065545244 6:0 #
-0.80010622142262510791965723910835 1:0.223 2:0.52112675 3:1 4:0.024615385 5:0.0020166948 6:0 #
0.80010622142262510791965723910835 1:0.228 2:0.40000001 3:1 4:0.033431578 5:0.003742821 6:0 #
0.80010622142262510791965723910835 1:0.23199999 2:0.47727272 3:1 4:0.059307691 5:0.0045215478 6:0 #
-0.80010622142262510791965723910835 1:0.23726316 2:0.37037036 3:1 4:0.042947367 5:0.0030959074 6:0 #
-0.80010622142262510791965723910835 1:0.2388 2:0.47540984 3:1 4:0.048466668 5:0.0014234713 6:0 #
0.80010622142262510791965723910835 1:0.24784616 2:0.32608697 3:1 4:0.036430769 5:0.0049269185 6:0 #
-0.80010622142262510791965723910835 1:0.26199999 2:0.30303031 3:1 4:0.062444445 5:0.0085626161 6:0 #
-0.80010622142262510791965723910835 1:0.21410526 2:0.98461539 3:1 4:0.038842104 5:0.00058321405 6:0 #
0.80010622142262510791965723910835 1:0.23125 2:0.14285715 3:1 4:0.055500001 5:0.0066245417 6:0 #
-0.80010622142262510791965723910835 1:0.27200001 2:0.15789473 3:1 4:0.048833333 5:0.0070966389 6:0 #
0.80010622142262510791965723910835 1:0.16066666 2:0.95348835 3:1 4:0.092148148 5:0.0040830579 6:0 #
-0.80010622142262510791965723910835 1:0.18449999 2:1 3:1 4:0.030750001 5:0.0010123518 6:0 #
0.80010622142262510791965723910835 1:0.27973333 2:0.34999999 3:1 4:0.018688889 5:0.0015564015 6:0 #
-0.80010622142262510791965723910835 1:0.31220514 2:0.23880596 3:1 4:0.02452071 5:0.0014568622 6:0 #
-0.80010622142262510791965723910835 1:0.24514286 2:0.62857145 3:1 4:0.069142856 5:0.003347863 6:0 #
0.80010622142262510791965723910835 1:0.35168001 2:0.18518518 3:1 4:0.076880001 5:0.0063218633 6:0 #
0.80010622142262510791965723910835 1:0.24114285 2:0.19607843 3:1 4:0.046959706 5:0.0015057444 6:0 #
-0.80010622142262510791965723910835 1:0.31133333 2:0.029411765 3:1 4:0.072333336 5:0.0066734944 6:0 #
0.80010622142262510791965723910835 1:0.164 2:1 3:1 4:0.058499999 5:0.0019495215 6:0 #
0.80010622142262510791965723910835 1:0.20091428 2:1 3:1 4:0.064754285 5:0.007571015 6:0 #
-0.80010622142262510791965723910835 1:0.27408695 2:0.30769232 3:1 4:0.10034782 5:0.0054767244 6:0 #
-0.80010622142262510791965723910835 1:0.3483077 2:0.65546221 3:1 4:0.15076923 5:0.011131689 6:0 #
0.80010622142262510791965723910835 1:0.1354074 2:0.375 3:1 4:0.0288 5:0.0044931634 6:0 #
-0.80010622142262510791965723910835 1:0.16123077 2:0.40000001 3:1 4:0.0044923075 5:5.5589659e-05 6:0 #
-0.80010622142262510791965723910835 1:0.046181817 2:0.556701 3:1 4:0.012951049 5:0.00010357802 6:0 #
0.80010622142262510791965723910835 1:0.20039999 2:0.55882353 3:1 4:0.075900003 5:0.009389516 6:0 #
-0.80010622142262510791965723910835 1:0.41299999 2:0.91666669 3:0 4:0.13533333 5:0.022064913 6:0 #
-0.80010622142262510791965723910835 1:0.39680001 2:1 3:0 4:0.138 5:0.013624368 6:0 #
0.80010622142262510791965723910835 1:0.31272727 2:0.5 3:1 4:0.033030301 5:0.0030268561 6:0 #
0.80010622142262510791965723910835 1:0.2753846 2:0.40677965 3:1 4:0.060846154 5:0.0022083991 6:0 #
-0.80010622142262510791965723910835 1:0.236 2:0.38636363 3:1 4:0.041342657 5:0.0017083385 6:0 #
0.80010622142262510791965723910835 1:0.63 2:0.97222221 3:0 4:0.048461538 5:0.0013887702 6:0 #
0.80010622142262510791965723910835 1:0.63 2:0.96363634 3:0 4:0.048461538 5:0.0013887702 6:0 #
-0.80010622142262510791965723910835 1:0.28375 2:0.45454547 3:1 4:0.10375 5:0.012758734 6:0 #
0.80010622142262510791965723910835 1:0.152 2:0.81481481 3:0 4:0.047666665 5:0.011074226 6:0 #
0.80010622142262510791965723910835 1:0.36866668 2:0.87671232 3:0 4:0.037999999 5:0.005175109 6:0 #
-0.80010622142262510791965723910835 1:0.33533335 2:1 3:0 4:0.073487177 5:0.0028702961 6:0 #
-0.80010622142262510791965723910835 1:0.338 2:1 3:0 4:0.082000002 5:0.01050176 6:0 #
0.80010622142262510791965723910835 1:0.21127273 2:0.38461539 3:1 4:0.068290912 5:0.0074547082 6:0 #
0.80010622142262510791965723910835 1:0.19573334 2:0.47368422 3:1 4:0.040199999 5:0.0074995789 6:0 #
-0.80010622142262510791965723910835 1:0.21855555 2:0.32857144 3:1 4:0.021290598 5:0.0018955101 6:0 #
-0.80010622142262510791965723910835 1:0.23127273 2:0.36363637 3:1 4:0.034333333 5:0.001182233 6:0 #
-0.80010622142262510791965723910835 1:0.22488889 2:0.38709676 3:1 4:0.035259258 5:0.0024687673 6:0 #
0.80010622142262510791965723910835 1:0.63 2:0.97142857 3:0 4:0.048461538 5:0.0013887702 6:0 #
-0.80010622142262510791965723910835 1:0.63700002 2:0.95454544 3:0 4:0.215 5:0.053365454 6:0 #
-0.80010622142262510791965723910835 1:0.54866666 2:0.57894737 3:0 4:0.15700001 5:0.026009742 6:0 #
0.80010622142262510791965723910835 1:0.1426 2:0.38461539 3:1 4:0.04696 5:0.005178506 6:0 #
-0.80010622142262510791965723910835 1:0.69 2:0.34751773 3:0 4:0.088923074 5:0.0058509498 6:0 #
0.80010622142262510791965723910835 1:0.27888 2:0.58181816 3:1 4:0.057999998 5:0.0036094901 6:0 #
0.80010622142262510791965723910835 1:0.134875 2:0.68000001 3:1 4:0.027175 5:0.0032055348 6:0 #
-0.80010622142262510791965723910835 1:0.18509091 2:0.53703701 3:1 4:0.0026573427 5:1.1401044e-05 6:0 #
0.80010622142262510791965723910835 1:0.303 2:0.66666669 3:0 4:0.1015 5:0.010115816 6:0 #
-0.80010622142262510791965723910835 1:0.19636364 2:0.91578948 3:1 4:0.040636364 5:0.0023550119 6:0 #
0.80010622142262510791965723910835 1:0.38064 2:0.092307694 3:1 4:0.02308923 5:0.0012172498 6:0 #
0.80010622142262510791965723910835 1:0.11751724 2:0.31818181 3:1 4:0.023448275 5:0.0032649972 6:0 #
0.80010622142262510791965723910835 1:0.142 2:0.80000001 3:1 4:0.037885714 5:0.003564578 6:0 #
-0.80010622142262510791965723910835 1:0.23368421 2:0.62711865 3:1 4:0.020064777 5:0.00088620791 6:0 #
0.80010622142262510791965723910835 1:0.3008 2:0.75 3:0 4:0.0462 5:0.004894359 6:0 #
-0.80010622142262510791965723910835 1:0.23563637 2:0.69999999 3:1 4:0.016755246 5:0.0021010886 6:0 #
-0.80010622142262510791965723910835 1:0.23633334 2:0.67741936 3:1 4:0.024589743 5:0.0011178602 6:0 #
0.80010622142262510791965723910835 1:0.36000001 2:0.21212122 3:0 4:0.054666668 5:0.030016216 6:0 #
0.80010622142262510791965723910835 1:0.21066667 2:0.16049382 3:0 4:0.12666667 5:0.031251986 6:0 #
0.80010622142262510791965723910835 1:0.28479999 2:0.67647058 3:1 4:0.066933334 5:0.011490789 6:0 #
-0.80010622142262510791965723910835 1:0.31200001 2:0.77272725 3:0 4:0.041999999 5:0.0038431848 6:0 #
-0.80010622142262510791965723910835 1:0.29066667 2:0.13636364 3:0 4:0.026666667 5:0.00018489874 6:0 #
-0.80010622142262510791965723910835 1:0.02 2:0.020408163 3:0 4:0.021846155 5:0.00017065523 6:0 #
0.80010622142262510791965723910835 1:0.21808696 2:0.7764706 3:1 4:0.029982608 5:0.0030986012 6:0 #
-0.80010622142262510791965723910835 1:0.26438096 2:0.79432625 3:1 4:0.039560441 5:0.0014716091 6:0 #
-0.80010622142262510791965723910835 1:0.27175 2:0.77272725 3:1 4:0.057124998 5:0.0013866994 6:0 #
-0.80010622142262510791965723910835 1:0.24600001 2:0.78947371 3:1 4:0.0308 5:0.00086480036 6:0 #
0.80010622142262510791965723910835 1:0.22844444 2:0.11764706 3:0 4:0.059555557 5:0.0049258783 6:0 #
0.80010622142262510791965723910835 1:0.34599999 2:0.34146342 3:0 4:0.152 5:0.0082487697 6:0 #
0.80010622142262510791965723910835 1:0.19185714 2:0.79411763 3:1 4:0.031571429 5:0.0048940796 6:0 #
-0.80010622142262510791965723910835 1:0.30622223 2:0.16666667 3:0 4:0.068923078 5:0.0033800616 6:0 #
-0.80010622142262510791965723910835 1:0.29466668 2:0.5 3:0 4:0.060111113 5:0.0017754702 6:0 #
-0.80010622142262510791965723910835 1:0.2705 2:0.4326241 3:0 4:0.039692309 5:0.0018880062 6:0 #
0.80010622142262510791965723910835 1:0.15925926 2:0.94736844 3:1 4:0.030962963 5:0.0037633241 6:0 #
0.80010622142262510791965723910835 1:0.15788889 2:0.875 3:1 4:0.038088888 5:0.0043537179 6:0 #
-0.80010622142262510791965723910835 1:0.2296 2:0.82089549 3:1 4:0.021251282 5:0.00065335725 6:0 #
0.80010622142262510791965723910835 1:0.21688889 2:0.69565219 3:0 4:0.068444446 5:0.0094722053 6:0 #
-0.80010622142262510791965723910835 1:0.23199999 2:0.73076922 3:1 4:0.012984616 5:0.00079524826 6:0 #
0.80010622142262510791965723910835 1:0.39840001 2:0.52173913 3:1 4:0.084700003 5:0.0042760377 6:0 #
-0.80010622142262510791965723910835 1:0.24625 2:0.39534885 3:1 4:0.062666669 5:0.0028309973 6:0 #
-0.80010622142262510791965723910835 1:0.29090908 2:0.625 3:1 4:0.086060606 5:0.004215504 6:0 #
0.80010622142262510791965723910835 1:0.22036363 2:0.40625 3:1 4:0.041181818 5:0.0032364149 6:0 #
-0.80010622142262510791965723910835 1:0.25933334 2:0.51219511 3:1 4:0.073444441 5:0.015929671 6:0 #
-0.80010622142262510791965723910835 1:0.25266665 2:0.31428573 3:1 4:0.061444443 5:0.0032024668 6:0 #
0.80010622142262510791965723910835 1:0.11851428 2:0.625 3:1 4:0.032822859 5:0.0041494374 6:0 #
0.80010622142262510791965723910835 1:0.38064 2:0.10526316 3:1 4:0.02308923 5:0.0012172498 6:0 #
0.80010622142262510791965723910835 1:0.22 2:0.36666667 3:1 4:0.041099999 5:0.0012882181 6:0 #
-0.80010622142262510791965723910835 1:0.30076191 2:0.060606062 3:1 4:0.069968253 5:0.0084200688 6:0 #
0.80010622142262510791965723910835 1:0.17513044 2:0.10526316 3:1 4:0.037999999 5:0.0017952234 6:0 #
-0.80010622142262510791965723910835 1:0.26800001 2:0.875 3:1 4:0.050000001 5:0.0018186884 6:0 #
