SVM-light Version V6.02
2 # kernel type
3 # kernel parameter -d 
1 # kernel parameter -g 
1 # kernel parameter -s 
1 # kernel parameter -r 
empty# kernel parameter -u 
8 # highest feature index 
74672 # number of training documents 
14140 # number of support vectors plus 1 
-0.48121672 # threshold b, each following line is a SV (starting with alpha*y)
0.57349423686063605298812717592227 1:0.15965217 2:0.47540984 3:0.030695653 4:0.0016538496 5:0.99319798 6:1.0792632 7:1 8:0 #
-0.13849354422439011380596696199063 1:0.17969231 2:0.68292683 3:0.044076923 4:0.0011318839 5:0.046162002 6:-0.8833909 7:0 8:1 #
-0.57349423686063605298812717592227 1:0.156 2:0.2 3:0.047238097 4:0.0023160011 5:0.278 6:-0.4150092 7:0 8:1 #
-0.57349423686063605298812717592227 1:0.17971429 2:1 3:0.061758243 4:0.001657278 5:0.97050202 6:0.33218989 7:1 8:0 #
-0.57349423686063605298812717592227 1:0.15876924 2:0.4375 3:0.046051282 4:0.0093430672 5:0.067437999 6:-0.87747121 7:0 8:1 #
0.57349423686063605298812717592227 1:0.22149999 2:0.12820514 3:0.031500001 4:0.010139567 5:0.015645999 6:-0.96988213 7:0 8:1 #
0.57349423686063605298812717592227 1:0.50400001 2:0.12222222 3:0.1205 4:0.011107825 5:0.13655999 6:-0.58699316 7:0 8:1 #
0.57349423686063605298812717592227 1:0.18755555 2:0.1875 3:0.038844444 4:0.0091200266 5:0.016422 6:-0.96736145 7:0 8:1 #
0.57349423686063605298812717592227 1:0.368 2:0.043010753 3:0.093857139 4:0.0072769206 5:0.057849001 6:-0.75819993 7:0 8:1 #
0.57349423686063605298812717592227 1:0.31885713 2:0.35294119 3:0.056000002 4:0.016551083 5:0.55508101 6:0.10875583 7:0 8:1 #
-0.57349423686063605298812717592227 1:0.30342856 2:0.048387095 3:0.059999999 4:0.0032832732 5:0.010232 6:-0.96769512 7:0 8:1 #
-0.57349423686063605298812717592227 1:0.292 2:0.021276595 3:0.069750004 4:0.010583567 5:0.016576 6:-0.96506017 7:0 8:1 #
0.57349423686063605298812717592227 1:0.48666668 2:0.5272727 3:0.1 4:0.017255759 5:0.58076698 6:0.53441924 7:1 8:0 #
0.57349423686063605298812717592227 1:0.17753845 2:0.84615386 3:0.025846153 4:0.0062828641 5:0.0055829999 6:-0.98925298 7:0 8:1 #
-0.57349423686063605298812717592227 1:0.34959999 2:0.55223882 3:0.091600001 4:0.0046823719 5:0.754161 6:0.8632555 7:1 8:0 #
-0.57349423686063605298812717592227 1:0.38 2:0.42857143 3:0.020500001 4:0.007317028 5:0.864061 6:1.0496551 7:1 8:0 #
0.57349423686063605298812717592227 1:0.29542857 2:0.29545453 3:0.045371428 4:0.0092264488 5:0.0026509999 6:-0.99286324 7:0 8:1 #
0.57349423686063605298812717592227 1:0.41714287 2:0.65217394 3:0.11242857 4:0.0074873851 5:0.113676 6:-0.66879159 7:0 8:1 #
-0.57349423686063605298812717592227 1:0.454 2:0.60000002 3:0.087333336 4:0.0039496101 5:0.094617002 6:-0.79848069 7:0 8:1 #
-0.57349423686063605298812717592227 1:0.45649999 2:0.63636363 3:0.075499997 4:0.011249591 5:0.0051179999 6:-0.98907864 7:0 8:1 #
0.57349423686063605298812717592227 1:0.15446153 2:0.125 3:0.046892308 4:0.0071884538 5:0.846569 6:0.28768423 7:1 8:0 #
0.57349423686063605298812717592227 1:0.39120001 2:0.25862068 3:0.021033334 4:0.0022540798 5:0.56273901 6:0.42007366 7:1 8:0 #
-0.57349423686063605298812717592227 1:0.32499999 2:0.033333335 3:0.069576927 4:0.00099554076 5:0.551036 6:0.18164137 7:1 8:0 #
-0.57349423686063605298812717592227 1:0.28200001 2:0.030303031 3:0.069576927 4:0.00099554076 5:0.551036 6:0.17155743 7:1 8:0 #
0.57349423686063605298812717592227 1:0.461 2:0.91489363 3:0.11625 4:0.013427936 5:0.126625 6:-0.68130916 7:0 8:1 #
0.57349423686063605298812717592227 1:0.32159999 2:0.484375 3:0.018433332 4:0.0022444499 5:0.022879001 6:-0.9399724 7:0 8:1 #
-0.57349423686063605298812717592227 1:0.39771429 2:0.91176468 3:0.082095236 4:0.0037618494 5:0.063780002 6:-0.82265222 7:0 8:1 #
0.57349423686063605298812717592227 1:0.34666666 2:0.18461539 3:0.087499999 4:0.0074335313 5:0.20817199 6:-0.37063834 7:1 8:0 #
-0.57349423686063605298812717592227 1:0.39771429 2:0.8888889 3:0.082095236 4:0.0037618494 5:0.063780002 6:-0.84127986 7:0 8:1 #
0.57349423686063605298812717592227 1:0.36836365 2:0.15151516 3:0.020515151 4:0.0020865237 5:0.500395 6:0.40109473 7:1 8:0 #
-0.57349423686063605298812717592227 1:0.65600002 2:0.85714287 3:0.28266665 4:0.031099055 5:0.120508 6:-0.64634395 7:0 8:1 #
-0.57349423686063605298812717592227 1:0.59680003 2:0.93333334 3:0.1132 4:0.018074326 5:0.38024801 6:-0.37609434 7:0 8:1 #
0.57349423686063605298812717592227 1:0.48742858 2:0.22727273 3:0.032285713 4:0.0034233166 5:0.34071699 6:-0.18573777 7:0 8:1 #
0.57349423686063605298812717592227 1:0.204 2:0.66666669 3:0.052000001 4:0.0079530617 5:0.084394 6:-0.86772913 7:0 8:1 #
-0.57349423686063605298812717592227 1:0.35961905 2:0.11627907 3:0.089523807 4:0.010159177 5:0.580576 6:0.080586813 7:0 8:1 #
-0.57349423686063605298812717592227 1:0.32260871 2:0.086956523 3:0.08017391 4:0.004196703 5:0.51438498 6:-0.043491937 7:0 8:1 #
0.57349423686063605298812717592227 1:0.152 2:0.375 3:0.028373333 4:0.0059706643 5:0.04445 6:-0.87677974 7:0 8:1 #
0.57349423686063605298812717592227 1:0.169 2:0.75 3:0.041466668 4:0.0071248319 5:0.166876 6:-0.76807088 7:0 8:1 #
-0.57349423686063605298812717592227 1:0.34999999 2:0.97802198 3:0.048461538 4:0.0013887702 5:0.901438 6:1.170615 7:1 8:0 #
0.57349423686063605298812717592227 1:0.19400001 2:0.5 3:0.039657142 4:0.0065874043 5:0.48888701 6:-0.028342584 7:0 8:1 #
-3.1583468291553062901044768295833e-07 1:0.16933334 2:0.48780489 3:0.028031746 4:0.00067804212 5:0.052549001 6:-0.84216803 7:0 8:1 #
0.57349423686063605298812717592227 1:0.36861539 2:0.2 3:0.062745564 4:0.0021724363 5:0.281921 6:-0.54096681 7:0 8:1 #
0.57349423686063605298812717592227 1:0.14906667 2:0.33333334 3:0.03664 4:0.0059669912 5:0.37110299 6:-0.48196223 7:0 8:1 #
-0.57349423686063605298812717592227 1:0.37555555 2:0.18032786 3:0.034119658 4:0.00081053335 5:0.14204501 6:-0.64326227 7:0 8:1 #
-0.57349423686063605298812717592227 1:0.25082353 2:0.41843972 3:0.041846152 4:0.0022106611 5:0.32164699 6:-0.18617965 7:0 8:1 #
0.57349423686063605298812717592227 1:0.3137143 2:0.031007752 3:0.077571429 4:0.0063766693 5:0.0089689996 6:-0.97163582 7:0 8:1 #
0.57349423686063605298812717592227 1:0.38114285 2:0.5625 3:0.083857141 4:0.0064026429 5:0.13407999 6:-0.73860925 7:0 8:1 #
-0.57349423686063605298812717592227 1:0.28777778 2:0.083333336 3:0.026307693 4:0.0030612163 5:0.046597 6:-0.87423146 7:0 8:1 #
0.57349423686063605298812717592227 1:0.30685714 2:0.007751938 3:0.084428571 4:0.0064306548 5:0.054710001 6:-0.82698131 7:0 8:1 #
-0.57349423686063605298812717592227 1:0.39771429 2:0.29411766 3:0.082095236 4:0.0037618494 5:0.063780002 6:-0.87782007 7:0 8:1 #
0.57349423686063605298812717592227 1:0.27955556 2:0.8125 3:0.029155556 4:0.0058837309 5:0.024574 6:-0.94581628 7:0 8:1 #
-0.57349423686063605298812717592227 1:0.31619999 2:0.22222222 3:0.055 4:0.0027151124 5:0.106348 6:-0.80694848 7:0 8:1 #
0.57349423686063605298812717592227 1:0.37466666 2:0.25 3:0.052703705 4:0.0034920506 5:0.038713999 6:-0.91493469 7:0 8:1 #
-0.56906057990124736534198746085167 1:0.028000001 2:0.91891891 3:0 4:0 5:0.028213 6:-0.94040811 7:0 8:1 #
-0.57349423686063605298812717592227 1:0.31619999 2:0.24242425 3:0.055 4:0.0027151124 5:0.106348 6:-0.80247194 7:0 8:1 #
-0.57349423686063605298812717592227 1:0.31133333 2:0.029411765 3:0.072333336 4:0.0066734944 5:0.083302997 6:-0.84760982 7:0 8:1 #
0.57349423686063605298812717592227 1:0.15054545 2:0.97435898 3:0.030909091 4:0.0076094572 5:0.097627997 6:-0.81207055 7:0 8:1 #
0.57349423686063605298812717592227 1:0.28725001 2:0.75 3:0.043650001 4:0.0057748179 5:0.055114001 6:-0.89046156 7:0 8:1 #
-0.57349423686063605298812717592227 1:0.37771428 2:0.22727273 3:0.086285718 4:0.012856674 5:0.012676 6:-0.97200412 7:0 8:1 #
-0.57349423686063605298812717592227 1:0.31600001 2:0.19402985 3:0.025406593 4:0.0016716999 5:0.052317999 6:-0.9024871 7:0 8:1 #
0.57349423686063605298812717592227 1:0.12899999 2:0.56410259 3:0.040150002 4:0.0055823782 5:0.28395 6:-0.45340911 7:0 8:1 #
0.57349423686063605298812717592227 1:0.38080001 2:0.20560747 3:0.084533334 4:0.0027012331 5:0.49712601 6:0.77623725 7:1 8:0 #
-0.57349423686063605298812717592227 1:0.32307693 2:0.34615386 3:0.12707692 4:0.012325667 5:0.42428601 6:0.40872717 7:1 8:0 #
0.57349423686063605298812717592227 1:0.252 2:0.06666667 3:0.045166668 4:0.015147205 5:0.012861 6:-0.96508896 7:0 8:1 #
-0.57349423686063605298812717592227 1:0.022666667 2:0.90697676 3:0.0078974357 4:0.00010047782 5:0.021919999 6:-0.95544547 7:0 8:1 #
-0.57349423686063605298812717592227 1:0.25325 2:0.5 3:0.050875001 4:0.0023373689 5:0.34512401 6:-0.20964566 7:0 8:1 #
0.57349423686063605298812717592227 1:0.213 2:0.15000001 3:0.055349998 4:0.0060225823 5:0.14413901 6:-0.69552487 7:0 8:1 #
0.57349423686063605298812717592227 1:0.24625 2:0.083333336 3:0.0575625 4:0.0030031083 5:0.028488999 6:-0.94063449 7:0 8:1 #
0.57349423686063605298812717592227 1:0.10416 2:0.6875 3:0.033538461 4:0.00075151818 5:0.98863298 6:0.47085571 7:1 8:0 #
0.57349423686063605298812717592227 1:0.12282353 2:0.72727275 3:0.033803921 4:0.00078037946 5:0.067736998 6:-0.85318184 7:0 8:1 #
0.57349423686063605298812717592227 1:0.38981819 2:0.15000001 3:0.040545456 4:0.0024485479 5:0.067772001 6:-0.87307721 7:0 8:1 #
0.57349423686063605298812717592227 1:0.51111114 2:0.30303031 3:0.080555558 4:0.0084495116 5:0.82996899 6:0.26096547 7:1 8:0 #
-0.57349423686063605298812717592227 1:0.479 2:0.24137931 3:0.1275 4:0.033563916 5:0.51299202 6:0.033527825 7:1 8:0 #
0.57349423686063605298812717592227 1:0.30426666 2:0.84615386 3:0.046974357 4:0.0013354165 5:0.25786701 6:-0.56499732 7:0 8:1 #
-0.57349423686063605298812717592227 1:0.29100001 2:0.13978495 3:0.087750003 4:0.0055125267 5:0.016505999 6:-0.93100744 7:0 8:1 #
0.57349423686063605298812717592227 1:0.29733333 2:0.34408602 3:0.079444446 4:0.0051922123 5:0.21736801 6:-0.09143468 7:1 8:0 #
-0.57349423686063605298812717592227 1:0.37666667 2:0.22857143 3:0.12688889 4:0.019339083 5:0.57435399 6:0.21728298 7:1 8:0 #
-0.57349423686063605298812717592227 1:0.27684212 2:0.32098764 3:0.15157895 4:0.013554201 5:0.45343199 6:0.29674062 7:1 8:0 #
0.57349423686063605298812717592227 1:0.38514286 2:0.81034482 3:0.018642858 4:0.0016572184 5:0.073549002 6:-0.81439888 7:0 8:1 #
0.57349423686063605298812717592227 1:0.4226 2:0.57692307 3:0.057016667 4:0.0028337876 5:0.369618 6:-0.24319614 7:0 8:1 #
-0.57349423686063605298812717592227 1:0.28674999 2:0.28873238 3:0.032807693 4:0.001852438 5:0.26611799 6:-0.22927044 7:1 8:0 #
-0.57349423686063605298812717592227 1:0.22853333 2:0.28421053 3:0.041466668 4:0.0037640007 5:0.190477 6:-0.085419476 7:1 8:0 #
0.57349423686063605298812717592227 1:0.19499999 2:0.64705884 3:0.042399999 4:0.0068945759 5:0.052577998 6:-0.91447949 7:0 8:1 #
0.57349423686063605298812717592227 1:0.35155556 2:0.6875 3:0.088444442 4:0.0052212412 5:0.061193001 6:-0.87554151 7:0 8:1 #
-0.57349423686063605298812717592227 1:0.38857144 2:0.65454543 3:0.078637362 4:0.0033974978 5:0.091424003 6:-0.84446347 7:0 8:1 #
0.57349423686063605298812717592227 1:0.38092306 2:0.33750001 3:0.02351282 4:0.0021620144 5:0.363756 6:-0.043414649 7:1 8:0 #
-0.57349423686063605298812717592227 1:0.30857143 2:0.55555558 3:0.061999999 4:0.0060083014 5:0.16386101 6:-0.67893839 7:0 8:1 #
0.57349423686063605298812717592227 1:0.1805 2:0.17647059 3:0.03695 4:0.0062377574 5:0.84216797 6:0.36982408 7:1 8:0 #
-0.57349423686063605298812717592227 1:0.454 2:0.54385966 3:0.087333336 4:0.0039496101 5:0.094617002 6:-0.80083537 7:0 8:1 #
-0.57349423686063605298812717592227 1:0.31200001 2:0.60869563 3:0.080777779 4:0.0026938627 5:0.173115 6:-0.67808956 7:0 8:1 #
0.57349423686063605298812717592227 1:0.40872726 2:0.34999999 3:0.033090908 4:0.003255798 5:0.39784399 6:0.046228081 7:1 8:0 #
0.57349423686063605298812717592227 1:0.24072728 2:0.27118644 3:0.078090906 4:0.004330439 5:0.309324 6:0.15327692 7:1 8:0 #
-0.57349423686063605298812717592227 1:0.39899999 2:0.48571429 3:0.0605 4:0.0075936834 5:0.041676998 6:-0.87711579 7:0 8:1 #
-0.57349423686063605298812717592227 1:0.28872728 2:0.48333332 3:0.021146853 4:0.0012801545 5:0.108047 6:-0.77194989 7:0 8:1 #
0.57349423686063605298812717592227 1:0.31600001 2:0.95652175 3:0.112 4:0.010213955 5:0.837084 6:0.17979118 7:1 8:0 #
0.57349423686063605298812717592227 1:0.22707692 2:0.3548387 3:0.064538464 4:0.0037707784 5:0.223992 6:-0.29280323 7:1 8:0 #
-0.57349423686063605298812717592227 1:0.30884209 2:0.5 3:0.058947369 4:0.0023119422 5:0.59021401 6:0.22236679 7:1 8:0 #
0.57349423686063605298812717592227 1:0.29866666 2:0.6111111 3:0.069416665 4:0.0041274186 5:0.037496999 6:-0.88659549 7:0 8:1 #
-0.57349423686063605298812717592227 1:0.31726316 2:0.5714286 3:0.070526317 4:0.0092358394 5:0.70562398 6:0.10580728 7:1 8:0 #
0.57349423686063605298812717592227 1:0.31200001 2:0.36923078 3:0.082400002 4:0.0055135917 5:0.072797 6:-0.7799145 7:0 8:1 #
-0.57349423686063605298812717592227 1:0.292 2:0.3888889 3:0.064698413 4:0.0098232273 5:0.37222201 6:-0.073704481 7:1 8:0 #
-0.57349423686063605298812717592227 1:0.26622221 2:0.33846155 3:0.034358975 4:0.0015360817 5:0.452914 6:-0.035364494 7:1 8:0 #
0.57349423686063605298812717592227 1:0.19326316 2:0.625 3:0.033178948 4:0.004613264 5:0.13273799 6:-0.73618472 7:0 8:1 #
0.57349423686063605298812717592227 1:0.14336842 2:0.5 3:0.048757896 4:0.0088012395 5:0.043729998 6:-0.89871836 7:0 8:1 #
-0.57349423686063605298812717592227 1:0.20200001 2:0.58620691 3:0.027794871 4:0.0013273892 5:0.026596 6:-0.92762977 7:0 8:1 #
0.57349423686063605298812717592227 1:0.211 2:0.63157892 3:0.055240002 4:0.006654636 5:0.73725998 6:0.29575565 7:1 8:0 #
0.57349423686063605298812717592227 1:0.36933333 2:0.37037036 3:0.046555556 4:0.0033324636 5:0.450427 6:-0.10266396 7:1 8:0 #
-0.57349423686063605298812717592227 1:0.17561905 2:0.59677422 3:0.017846154 4:0.00012628575 5:0.071736999 6:-0.8232305 7:0 8:1 #
-0.57349423686063605298812717592227 1:0.41600001 2:0.73913044 3:0.08779487 4:0.0046597356 5:0.69011003 6:0.24977328 7:1 8:0 #
0.57349423686063605298812717592227 1:0.25333333 2:0.59574467 3:0.041066665 4:0.012155861 5:0.214514 6:-0.57560289 7:0 8:1 #
-0.57349423686063605298812717592227 1:0.29066667 2:0.62962961 3:0.021944445 4:0.0019614729 5:0.216001 6:-0.50335139 7:0 8:1 #
0.57349423686063605298812717592227 1:0.29644445 2:0.91111112 3:0.074555553 4:0.0055854744 5:0.36294901 6:0.097689033 7:1 8:0 #
-0.57349423686063605298812717592227 1:0.41600001 2:0.73913044 3:0.08779487 4:0.0046597356 5:0.69011003 6:0.24977328 7:1 8:0 #
-0.57349423686063605298812717592227 1:0.29499999 2:0.1388889 3:0.065916665 4:0.0034151447 5:0.053660002 6:-0.86646408 7:0 8:1 #
0.57349423686063605298812717592227 1:0.46826667 2:0.31818181 3:0.044199999 4:0.0024585885 5:0.28891999 6:-0.30952477 7:0 8:1 #
0.57349423686063605298812717592227 1:0.31433332 2:0.91379309 3:0.055 4:0.0019270763 5:0.245029 6:-0.38166854 7:0 8:1 #
-0.57349423686063605298812717592227 1:0.42894119 2:1 3:0.08435294 4:0.010684273 5:0.26388001 6:-0.35152745 7:1 8:0 #
-0.57349423686063605298812717592227 1:0.59680003 2:0.95652175 3:0.1132 4:0.018074326 5:0.38024801 6:-0.072993085 7:1 8:0 #
0.57349423686063605298812717592227 1:0.15173334 2:0.25 3:0.040693332 4:0.0057656476 5:0.14401101 6:-0.79739153 7:0 8:1 #
0.57349423686063605298812717592227 1:0.4955 2:0.69999999 3:0.049291667 4:0.0043281689 5:0.248316 6:-0.51778418 7:0 8:1 #
-0.57349423686063605298812717592227 1:0.24505264 2:0.64814812 3:0.027595142 4:0.0021370323 5:0.222578 6:-0.51159412 7:0 8:1 #
-0.57349423686063605298812717592227 1:0.493 2:0.28 3:0.096000001 4:0.0080541661 5:0.23365 6:-0.58624262 7:0 8:1 #
0.57349423686063605298812717592227 1:0.30899999 2:0.85000002 3:0.104375 4:0.0061241863 5:0.34374201 6:-0.075098909 7:1 8:0 #
0.57349423686063605298812717592227 1:0.152 2:0.25 3:0.037557896 4:0.0049382648 5:0.121836 6:-0.66225725 7:1 8:0 #
-0.57349423686063605298812717592227 1:0.25696552 2:0.6875 3:0.055034481 4:0.0046737883 5:0.32525799 6:-0.40903538 7:0 8:1 #
-0.57349423686063605298812717592227 1:0.244 2:0.63333333 3:0.034461539 4:0.0012868773 5:0.35843399 6:-0.43154275 7:0 8:1 #
0.57349423686063605298812717592227 1:0.42872727 2:0.89285713 3:0.086090907 4:0.0045250407 5:0.52127701 6:0.19375511 7:1 8:0 #
0.57349423686063605298812717592227 1:0.28626087 2:0.5 3:0.049289856 4:0.0017503545 5:0.49902201 6:0.13896705 7:1 8:0 #
-0.57349423686063605298812717592227 1:0.14436364 2:0.41379312 3:0.059272729 4:0.0067718318 5:0.137061 6:-0.77455932 7:0 8:1 #
0.57349423686063605298812717592227 1:0.34545454 2:0.51249999 3:0.023272727 4:0.0021605424 5:0.079236999 6:-0.79162693 7:0 8:1 #
0.57349423686063605298812717592227 1:0.30199999 2:0.38749999 3:0.0239 4:0.0028243114 5:0.20780601 6:-0.45352331 7:0 8:1 #
-0.57349423686063605298812717592227 1:0.20568421 2:0.23157895 3:0.030105263 4:0.0018907132 5:0.088334002 6:-0.57586187 7:1 8:0 #
-0.57349423686063605298812717592227 1:0.20434782 2:0.45801526 3:0.026550725 4:0.0015997619 5:0.055403002 6:-0.79425055 7:0 8:1 #
-0.57349423686063605298812717592227 1:0.3028 2:0.33333334 3:0.051866665 4:0.010936603 5:0.10968 6:-0.76128316 7:0 8:1 #
0.57349423686063605298812717592227 1:0.24114285 2:0.4074074 3:0.041999999 4:0.0025325478 5:0.37837899 6:-0.12999752 7:0 8:1 #
0.57349423686063605298812717592227 1:0.28338462 2:0.48598132 3:0.021564102 4:0.0020322558 5:0.173143 6:-0.38135794 7:0 8:1 #
-0.57349423686063605298812717592227 1:0.37133333 2:0.59154928 3:0.043025643 4:0.0039721658 5:0.15688799 6:-0.54562181 7:0 8:1 #
-0.57349423686063605298812717592227 1:0.36559999 2:0.4852941 3:0.043015383 4:0.0051288991 5:0.13461 6:-0.64598054 7:0 8:1 #
0.57349423686063605298812717592227 1:0.20766667 2:0.43478259 3:0.061833333 4:0.0038839018 5:0.092992 6:-0.56844026 7:1 8:0 #
0.57349423686063605298812717592227 1:0.36633334 2:0.09589041 3:0.068916664 4:0.0060158568 5:0.98802602 6:1.5103095 7:1 8:0 #
-0.57349423686063605298812717592227 1:0.2551111 2:0.037037037 3:0.062188033 4:0.00088647439 5:0.73513901 6:0.80313993 7:1 8:0 #
0.57349423686063605298812717592227 1:0.36654547 2:0.6111111 3:0.10490909 4:0.0052251099 5:0.041875999 6:-0.91273862 7:0 8:1 #
-0.57349423686063605298812717592227 1:0.19833334 2:0.9512195 3:0.064333335 4:0.0043857004 5:0.176469 6:0.14427625 7:1 8:0 #
0.57349423686063605298812717592227 1:0.192 2:0.72897196 3:0.013041667 4:0.0019894533 5:0.011962 6:-0.95725965 7:0 8:1 #
0.57349423686063605298812717592227 1:0.13393548 2:0.627451 3:0.042419355 4:0.00060604943 5:0.77703398 6:0.46910021 7:1 8:0 #
-0.13904859717456527490320183915173 1:0.086526319 2:0.51219511 3:0.020421052 4:0.0013300851 5:0.398431 6:1.5835423 7:1 8:0 #
0.57349423686063605298812717592227 1:0.23226666 2:0.79310346 3:0.026155556 4:0.0023681284 5:0.084197998 6:-0.78752607 7:0 8:1 #
0.57349423686063605298812717592227 1:0.29288888 2:0.71028036 3:0.016555555 4:0.0024534652 5:0.02637 6:-0.90577966 7:0 8:1 #
-0.57349423686063605298812717592227 1:0.24214286 2:0.62857145 3:0.044461537 4:0.0026968599 5:0.53612298 6:0.05072799 7:0 8:1 #
-0.57349423686063605298812717592227 1:0.31200001 2:0.77272725 3:0.041999999 4:0.0038431848 5:0.467089 6:-0.0032709066 7:0 8:1 #
0.57349423686063605298812717592227 1:0.17919999 2:0.25 3:0.030719999 4:0.0043173349 5:0.078175999 6:-0.81893909 7:0 8:1 #
0.57349423686063605298812717592227 1:0.21058823 2:0.043478262 3:0.053705882 4:0.0030125487 5:0.069302998 6:-0.79807752 7:0 8:1 #
-0.57349423686063605298812717592227 1:0.17885715 2:0.5714286 3:0.034714285 4:0.0061891614 5:0.078240998 6:-0.85473299 7:0 8:1 #
-0.57349423686063605298812717592227 1:0.24228571 2:0.58823532 3:0.037999999 4:0.00096904131 5:0.00053399999 6:-0.99820977 7:0 8:1 #
-0.57349423686063605298812717592227 1:0.2095 2:0.60606062 3:0.035833333 4:0.00048719949 5:0.00129 6:-0.99627644 7:0 8:1 #
0.57349423686063605298812717592227 1:0.20164706 2:0.375 3:0.039482351 4:0.0051829494 5:0.71846002 6:-0.0014634898 7:0 8:1 #
0.57349423686063605298812717592227 1:0.3592 2:0.2 3:0.071958974 4:0.0025103851 5:0.846663 6:0.036596164 7:0 8:1 #
-0.57349423686063605298812717592227 1:0.28479999 2:0.045454547 3:0.0414 4:0.00094009732 5:0.58933598 6:-0.079303153 7:0 8:1 #
0.57349423686063605298812717592227 1:0.39866668 2:0.69230771 3:0.056592591 4:0.0037776302 5:0.29429299 6:-0.39742631 7:0 8:1 #
0.57349423686063605298812717592227 1:0.28276923 2:0.78260869 3:0.044061538 4:0.0085666981 5:0.073821999 6:-0.83636612 7:0 8:1 #
-0.57349423686063605298812717592227 1:0.28479999 2:0.045454547 3:0.0414 4:0.00094009732 5:0.58933598 6:-0.079303153 7:0 8:1 #
-0.57349423686063605298812717592227 1:0.32499999 2:0.82926828 3:0.067777775 4:0.015790841 5:0.081690997 6:-0.80894667 7:0 8:1 #
-0.57349423686063605298812717592227 1:0.37099999 2:0.875 3:0.017846154 4:0.00088305597 5:0.036412001 6:-0.93187219 7:0 8:1 #
0.57349423686063605298812717592227 1:0.47333333 2:0.16666667 3:0.13866666 4:0.014782985 5:0.90301901 6:0.34694853 7:1 8:0 #
0.57349423686063605298812717592227 1:0.39873683 2:0.83333331 3:0.058526315 4:0.002440888 5:0.79999399 6:0.41907769 7:1 8:0 #
-0.57349423686063605298812717592227 1:0.24262069 2:0.33333334 3:0.046747126 4:0.0009605675 5:0.98288298 6:0.41888919 7:1 8:0 #
0.57349423686063605298812717592227 1:0.34799999 2:0.53750002 3:0.024933333 4:0.0041543045 5:0.140653 6:-0.63011855 7:0 8:1 #
-0.57349423686063605298812717592227 1:0.15670589 2:0.30303031 3:0.058235295 4:0.00082198647 5:0.098796003 6:-0.72009057 7:1 8:0 #
0.57349423686063605298812717592227 1:0.12385714 2:0.14285715 3:0.036314286 4:0.0035966607 5:0.65203899 6:-0.16643387 7:0 8:1 #
0.57349423686063605298812717592227 1:0.42233333 2:0.58823532 3:0.018102564 4:0.0017587158 5:0.058936998 6:-0.90640163 7:0 8:1 #
-0.57349423686063605298812717592227 1:0.38685715 2:0.27083334 3:0.064444445 4:0.011375248 5:0.34399399 6:-0.26122722 7:0 8:1 #
0.57349423686063605298812717592227 1:0.19890909 2:0.80000001 3:0.063709088 4:0.0089395316 5:0.48086801 6:-0.2163817 7:0 8:1 #
-0.57349423686063605298812717592227 1:0.31422222 2:0.46478873 3:0.056786325 4:0.0035691888 5:0.086291 6:-0.75008446 7:0 8:1 #
-0.57349423686063605298812717592227 1:0.31008697 2:0.70588237 3:0.04805797 4:0.0096502127 5:0.205529 6:-0.54022491 7:0 8:1 #
0.57349423686063605298812717592227 1:0.22215384 2:0.17391305 3:0.057153847 4:0.0036226313 5:0.022586999 6:-0.93419009 7:0 8:1 #
0.57349423686063605298812717592227 1:0.2272 2:0.72000003 3:0.048080001 4:0.0093475627 5:0.089436002 6:-0.81204557 7:0 8:1 #
-0.57349423686063605298812717592227 1:0.28525001 2:0.17142858 3:0.049333334 4:0.013155728 5:0.122302 6:-0.76725972 7:0 8:1 #
0.57349423686063605298812717592227 1:0.27444443 2:0.10526316 3:0.026055556 4:0.0017079671 5:0.26353601 6:-0.13828672 7:1 8:0 #
-0.57349423686063605298812717592227 1:0.28872728 2:0.94915253 3:0.021146853 4:0.0012801545 5:0.108047 6:-0.79867387 7:0 8:1 #
-0.57349423686063605298812717592227 1:0.42866668 2:0.12765957 3:0.045128204 4:0.0020540173 5:0.74805099 6:0.60363203 7:1 8:0 #
-0.57349423686063605298812717592227 1:0.25514287 2:0.29166666 3:0.047523808 4:0.0065938421 5:0.984891 6:0.48189351 7:1 8:0 #
0.57349423686063605298812717592227 1:0.33160001 2:0.61538464 3:0.063600004 4:0.0046489858 5:0.050312001 6:-0.84789288 7:0 8:1 #
0.57349423686063605298812717592227 1:0.28066668 2:1 3:0.072416663 4:0.0042041657 5:0.073757 6:-0.83247238 7:0 8:1 #
-0.57349423686063605298812717592227 1:0.3204 2:0.26666668 3:0.062584616 4:0.001788604 5:0.80086702 6:0.27013239 7:1 8:0 #
-0.57349423686063605298812717592227 1:0.33733332 2:0.10526316 3:0.056148149 4:0.0080456519 5:0.70938498 6:0.2893925 7:1 8:0 #
0.57349423686063605298812717592227 1:0.244 2:0.68888891 3:0.05242857 4:0.0033093328 5:0.015443 6:-0.95329475 7:0 8:1 #
0.57349423686063605298812717592227 1:0.33314285 2:0.68965518 3:0.050142858 4:0.0074274559 5:0.024729 6:-0.95194834 7:0 8:1 #
-0.57349423686063605298812717592227 1:0.28400001 2:0.78181821 3:0.057142857 4:0.013184664 5:0.028462 6:-0.89468777 7:0 8:1 #
0.57349423686063605298812717592227 1:0.34771428 2:0.1 3:0.074523807 4:0.0022284344 5:0.73507398 6:0.30525303 7:1 8:0 #
0.57349423686063605298812717592227 1:0.34771428 2:0.40000001 3:0.074523807 4:0.0022284344 5:0.73507398 6:0.48085979 7:1 8:0 #
-0.57349423686063605298812717592227 1:0.25127274 2:0.72727275 3:0.040484849 4:0.010835407 5:0.039484002 6:-0.85390526 7:0 8:1 #
-0.57349423686063605298812717592227 1:0.28933334 2:0.76923078 3:0.045538463 4:0.0015884015 5:0.061105002 6:-0.85286242 7:0 8:1 #
0.57349423686063605298812717592227 1:0.34 2:0.875 3:0.038194444 4:0.0026031467 5:0.87725502 6:1.3016528 7:1 8:0 #
0.57349423686063605298812717592227 1:0.39390478 2:0.51851851 3:0.040542126 4:0.0040656459 5:0.76484102 6:0.8759926 7:1 8:0 #
-0.57349423686063605298812717592227 1:0.35699999 2:0.7368421 3:0.0605 4:0.0075936834 5:0.041676998 6:-0.90499049 7:0 8:1 #
-0.57349423686063605298812717592227 1:0.294 2:0.69696969 3:0.03675 4:0.0043644374 5:0.017312 6:-0.95095152 7:0 8:1 #
0.57349423686063605298812717592227 1:0.29875001 2:0.15887851 3:0.051062498 4:0.0023671761 5:0.613038 6:1.1903923 7:1 8:0 #
-0.57349423686063605298812717592227 1:0.34400001 2:0.64788735 3:0.047794871 4:0.0041493173 5:0.79328603 6:1.2975107 7:1 8:0 #
0.57349423686063605298812717592227 1:0.22378947 2:0.64285713 3:0.026982456 4:0.0014800944 5:0.019083001 6:-0.95850444 7:0 8:1 #
-0.57349423686063605298812717592227 1:0.45025 2:0.6857143 3:0.090333335 4:0.014900054 5:0.78629601 6:0.66647178 7:1 8:0 #
0.57349423686063605298812717592227 1:0.412 2:0.75757575 3:0.066714287 4:0.010136987 5:0.161236 6:-0.7550354 7:0 8:1 #
-0.57349423686063605298812717592227 1:0.23999999 2:0.15789473 3:0.022 4:0.002628935 5:0.773642 6:1.5296642 7:1 8:0 #
-0.57349423686063605298812717592227 1:0.26719999 2:0.58181816 3:0.043022223 4:0.0076314886 5:0.066140004 6:-0.75527537 7:0 8:1 #
-0.57349423686063605298812717592227 1:0.32171428 2:0.73282444 3:0.056666669 4:0.0054769362 5:0.017192001 6:-0.93615425 7:0 8:1 #
0.57349423686063605298812717592227 1:0.23031579 2:0.37931034 3:0.0431417 4:0.0011097586 5:0.56366402 6:0.30390745 7:1 8:0 #
0.57349423686063605298812717592227 1:0.16822222 2:0.2 3:0.04328889 4:0.0050730393 5:0.56220901 6:-0.073902152 7:0 8:1 #
-0.57349423686063605298812717592227 1:0.27885714 2:0.5 3:0.040285714 4:0.010887162 5:0.075280003 6:-0.83519667 7:0 8:1 #
-0.57349423686063605298812717592227 1:0.2551111 2:0.55223882 3:0.052341882 4:0.0013818698 5:0.14044499 6:-0.73823154 7:0 8:1 #
0.57349423686063605298812717592227 1:0.1846 2:0.2857143 3:0.03624 4:0.005006921 5:0.79664701 6:-0.019568617 7:0 8:1 #
0.57349423686063605298812717592227 1:0.30239999 2:0.7368421 3:0.053893335 4:0.0017505002 5:0.64810097 6:1.1191686 7:1 8:0 #
-0.57349423686063605298812717592227 1:0.27285713 2:0.69354838 3:0.059285715 4:0.003613045 5:0.61226201 6:0.93305886 7:1 8:0 #
-0.57349423686063605298812717592227 1:0.27127272 2:0.62886596 3:0.017034965 4:0.0063667772 5:0.43336701 6:0.29560825 7:1 8:0 #
0.57349423686063605298812717592227 1:0.30599999 2:0.63636363 3:0.0319 4:0.0010040716 5:0.0051389998 6:-0.98831952 7:0 8:1 #
0.57349423686063605298812717592227 1:0.25146666 2:0.53125 3:0.056200001 4:0.003495961 5:0.083182 6:-0.83081883 7:0 8:1 #
-0.57349423686063605298812717592227 1:0.22511999 2:0.56818181 3:0.082560003 4:0.0027727818 5:0.49769399 6:0.68813336 7:1 8:0 #
-0.57349423686063605298812717592227 1:0.26358619 2:0.81818181 3:0.062620692 4:0.0032466692 5:0.59656602 6:0.72198564 7:1 8:0 #
0.57349423686063605298812717592227 1:0.18775 2:0.60000002 3:0.038350001 4:0.0070593157 5:0.059974998 6:-0.90120625 7:0 8:1 #
0.57349423686063605298812717592227 1:0.31625 2:0.30434781 3:0.055687498 4:0.0029691758 5:0.0085890004 6:-0.97497493 7:0 8:1 #
-0.57349423686063605298812717592227 1:0.12340741 2:0.2 3:0.045432098 4:0.00067662646 5:0.67149299 6:-0.25752211 7:0 8:1 #
0.57349423686063605298812717592227 1:0.37200001 2:0.92561984 3:0.083866663 4:0.0046190834 5:0.70084 6:0.59194845 7:1 8:0 #
-0.57349423686063605298812717592227 1:0.23644444 2:0.2 3:0.036444444 4:0.0013596277 5:0.000248 6:-0.99949092 7:0 8:1 #
0.57349423686063605298812717592227 1:0.23244445 2:0.4375 3:0.019814815 4:0.0018742731 5:0.59153497 6:0.29976484 7:1 8:0 #
-0.57349423686063605298812717592227 1:0.085939392 2:0.25 3:0.022212122 4:0.00029838274 5:0.96348399 6:0.10437491 7:0 8:1 #
0.57349423686063605298812717592227 1:0.23788235 2:0.26086956 3:0.048058823 4:0.0030478439 5:0.041582 6:-0.80702513 7:0 8:1 #
0.57349423686063605298812717592227 1:0.29703704 2:1 3:0.051691357 4:0.0016498668 5:0.54553998 6:0.098826215 7:1 8:0 #
-0.57349423686063605298812717592227 1:0.27294117 2:0.2857143 3:0.032705881 4:0.0046289722 5:0.029099001 6:-0.94622242 7:0 8:1 #
-0.57349423686063605298812717592227 1:0.15111111 2:0.37313432 3:0.025814814 4:0.00051286217 5:0.177946 6:-0.28233734 7:1 8:0 #
0.57349423686063605298812717592227 1:0.37345454 2:0.49230769 3:0.097090907 4:0.0051169517 5:0.084233001 6:-0.74534029 7:0 8:1 #
0.57349423686063605298812717592227 1:0.37 2:0.47499999 3:0.023595238 4:0.0026183145 5:0.101118 6:-0.7340855 7:0 8:1 #
-0.57349423686063605298812717592227 1:0.29824999 2:1 3:0.079374999 4:0.00589866 5:0.70625597 6:0.10679771 7:1 8:0 #
-0.57349423686063605298812717592227 1:0.1584 2:1 3:0.042100001 4:0.0015115407 5:0.91087103 6:0.12788878 7:1 8:0 #
0.57349423686063605298812717592227 1:0.271 2:0.58139533 3:0.081416667 4:0.0044721616 5:0.16937301 6:-0.4643631 7:0 8:1 #
0.57349423686063605298812717592227 1:0.53222221 2:0.90909094 3:0.042277779 4:0.0022455363 5:0.217308 6:-0.50401658 7:0 8:1 #
0.57349423686063605298812717592227 1:0.25866666 2:0.85714287 3:0.052761905 4:0.0087722111 5:0.49211201 6:0.15890783 7:1 8:0 #
-0.57349423686063605298812717592227 1:0.3664 2:0.52941179 3:0.10791111 4:0.014860697 5:0.19160999 6:-0.64947867 7:0 8:1 #
-0.57349423686063605298812717592227 1:0.3483077 2:0.65546221 3:0.15076923 4:0.011131689 5:0.13228001 6:-0.6117965 7:0 8:1 #
-0.57349423686063605298812717592227 1:0.35600001 2:0.75862068 3:0.097641028 4:0.0062948694 5:0.36979201 6:-0.39175865 7:0 8:1 #
0.57349423686063605298812717592227 1:0.3944 2:0.63235295 3:0.029323077 4:0.0042525632 5:0.57046199 6:0.28047773 7:1 8:0 #
0.57349423686063605298812717592227 1:0.17046154 2:0.72222221 3:0.041784614 4:0.0065511577 5:0.317471 6:-0.20386232 7:1 8:0 #
-0.57349423686063605298812717592227 1:0.31008697 2:0.72727275 3:0.04805797 4:0.0096502127 5:0.205529 6:-0.58483481 7:0 8:1 #
-0.57349423686063605298812717592227 1:0.303 2:0.73809522 3:0.018557692 4:0.00042685674 5:0.166723 6:-0.65409803 7:0 8:1 #
0.57349423686063605298812717592227 1:0.51753849 2:0.27272728 3:0.019668639 4:0.0017429161 5:0.63267303 6:0.13971688 7:1 8:0 #
0.57349423686063605298812717592227 1:0.2386 2:0.42857143 3:0.043120001 4:0.0059008459 5:0.86668903 6:0.41024247 7:1 8:0 #
-0.57349423686063605298812717592227 1:0.2709091 2:0.39130434 3:0.038303029 4:0.00065262371 5:0.52648002 6:0.25668582 7:1 8:0 #
-0.57349423686063605298812717592227 1:0.39966667 2:0.69444442 3:0.066564105 4:0.0044671218 5:0.442691 6:0.19485368 7:1 8:0 #
0.57349423686063605298812717592227 1:0.264 2:0.96124029 3:0.089230768 4:0.0039252639 5:0.17506699 6:-0.446356 7:0 8:1 #
-0.57349423686063605298812717592227 1:0.31288889 2:0.2 3:0.081743591 4:0.003603549 5:0.59323198 6:0.27598315 7:1 8:0 #
0.57349423686063605298812717592227 1:0.29873684 2:0.31578946 3:0.069789477 4:0.0039772857 5:0.45001301 6:-0.2598069 7:0 8:1 #
-0.57349423686063605298812717592227 1:0.38685715 2:0.29545453 3:0.064444445 4:0.011375248 5:0.34399399 6:-0.24861629 7:0 8:1 #
0.57349423686063605298812717592227 1:0.29374999 2:0.34615386 3:0.0119375 4:0.0013963798 5:0.067652002 6:-0.86148053 7:0 8:1 #
0.57349423686063605298812717592227 1:0.17653333 2:0.83333331 3:0.065439999 4:0.0090772286 5:0.62397802 6:-0.022038093 7:0 8:1 #
-0.57349423686063605298812717592227 1:0.3624 2:0.36842105 3:0.014866667 4:0.00081189931 5:0.0038960001 6:-0.99374092 7:0 8:1 #
-0.57349423686063605298812717592227 1:0.32018182 2:0.38461539 3:0.060606062 4:0.004479805 5:0.418641 6:-0.29390103 7:0 8:1 #
-0.57349423686063605298812717592227 1:0.25266665 2:0.31428573 3:0.061444443 4:0.0032024668 5:0.37393999 6:-0.30145821 7:0 8:1 #
0.57349423686063605298812717592227 1:0.32266667 2:0.60000002 3:0.058333334 4:0.017236305 5:0.096460998 6:-0.73815751 7:0 8:1 #
0.57349423686063605298812717592227 1:0.24240001 2:0.33333334 3:0.037866667 4:0.0076627387 5:0.21955401 6:-0.57369745 7:0 8:1 #
-0.57349423686063605298812717592227 1:0.23368421 2:0.62711865 3:0.020064777 4:0.00088620791 5:0.494416 6:-0.078744844 7:0 8:1 #
-0.57349423686063605298812717592227 1:0.24173333 2:0.69444442 3:0.048888888 4:0.0020020627 5:0.53996903 6:-0.019804318 7:0 8:1 #
0.57349423686063605298812717592227 1:0.38628572 2:0.23529412 3:0.039119046 4:0.0028569151 5:0.169681 6:-0.70759815 7:0 8:1 #
0.57349423686063605298812717592227 1:0.13933334 2:0.25 3:0.035333332 4:0.004809936 5:0.090065002 6:-0.82099682 7:0 8:1 #
-0.57349423686063605298812717592227 1:0.25 2:0.2647059 3:0.056333333 4:0.0022413332 5:0.0093 6:-0.98045057 7:0 8:1 #
-0.57349423686063605298812717592227 1:0.24109091 2:0.25263157 3:0.016727272 4:0.0017820667 5:0.0098360004 6:-0.9527722 7:0 8:1 #
0.57349423686063605298812717592227 1:0.35894737 2:0.7647059 3:0.031947367 4:0.0015047861 5:0.40889299 6:-0.29537746 7:0 8:1 #
0.57349423686063605298812717592227 1:0.15375 2:0.375 3:0.0407 4:0.0059438408 5:0.84504801 6:0.67952341 7:1 8:0 #
-0.57349423686063605298812717592227 1:0.248 2:0.25 3:0.013615385 4:0.0041776495 5:0.0035290001 6:-0.99256235 7:0 8:1 #
-0.060991170664218080643692587727855 1:0.20333333 2:0.45833334 3:0.013692307 4:0.0039170999 5:0.0020699999 6:-0.99536467 7:0 8:1 #
0.57349423686063605298812717592227 1:0.37200001 2:0.25547445 3:0.083866663 4:0.0046190834 5:0.70084 6:-0.06515073 7:0 8:1 #
0.57349423686063605298812717592227 1:0.31784615 2:0.73333335 3:0.049751479 4:0.0017713086 5:0.69365799 6:-0.15073267 7:0 8:1 #
-0.57349423686063605298812717592227 1:0.24466667 2:0.44444445 3:0.051333334 4:0.002978039 5:0.95806098 6:0.46035731 7:1 8:0 #
0.57349423686063605298812717592227 1:0.19644445 2:0.18644068 3:0.030629629 4:0.00063804304 5:0.000527 6:-0.99748766 7:0 8:1 #
0.57349423686063605298812717592227 1:0.1952 2:0.14285715 3:0.064533331 4:0.010627973 5:0.040628001 6:-0.90432239 7:0 8:1 #
-0.57349423686063605298812717592227 1:0.37815386 2:0.80645162 3:0.088512823 4:0.010367802 5:0.31935301 6:-0.25957271 7:0 8:1 #
-0.57349423686063605298812717592227 1:0.3028 2:0.2857143 3:0.051866665 4:0.010936603 5:0.195473 6:-0.66195172 7:0 8:1 #
0.57349423686063605298812717592227 1:0.33199999 2:0.175 3:0.044277776 4:0.0027439131 5:0.35962901 6:-0.054267604 7:1 8:0 #
0.57349423686063605298812717592227 1:0.21446154 2:0.36250001 3:0.018615386 4:0.0019674851 5:0.116455 6:-0.69375312 7:0 8:1 #
-0.57349423686063605298812717592227 1:0.45563635 2:0.064935066 3:0.17054546 4:0.015090953 5:0.45618799 6:-0.038128305 7:1 8:0 #
-0.57349423686063605298812717592227 1:0.26447058 2:0.16666667 3:0.082352944 4:0.0066954023 5:0.220263 6:-0.5998019 7:0 8:1 #
-0.57349423686063605298812717592227 1:0.2216 2:0.37931034 3:0.017533334 4:0.00015032548 5:0.204904 6:-0.58800662 7:0 8:1 #
-0.57349423686063605298812717592227 1:0.21157895 2:0.35294119 3:0.041506074 4:0.00083418464 5:0.23389 6:-0.62855732 7:0 8:1 #
0.57349423686063605298812717592227 1:0.22916667 2:1 3:0.061000001 4:0.0015011634 5:0.96126902 6:0.90363604 7:1 8:0 #
0.57349423686063605298812717592227 1:0.26294738 2:0.38317758 3:0.021052632 4:0.0013257513 5:0.188988 6:-0.32474357 7:1 8:0 #
-0.57349423686063605298812717592227 1:0.28346667 2:0.64285713 3:0.03248889 4:0.00069835153 5:0.59427601 6:0.20778348 7:1 8:0 #
-0.57349423686063605298812717592227 1:0.2846154 2:0.5625 3:0.065846153 4:0.0018567856 5:0.635432 6:0.019277105 7:1 8:0 #
0.57349423686063605298812717592227 1:0.14618182 2:0.29032257 3:0.043345455 4:0.005249883 5:0.223836 6:-0.41617456 7:0 8:1 #
0.57349423686063605298812717592227 1:0.23129411 2:0.55555558 3:0.029458823 4:0.0064835274 5:0.18851601 6:-0.75009459 7:0 8:1 #
-0.57349423686063605298812717592227 1:0.41435295 2:0.8125 3:0.10062745 4:0.010110158 5:0.91680998 6:0.55939114 7:1 8:0 #
-0.57349423686063605298812717592227 1:0.40400001 2:1 3:0.07 4:0.0045036776 5:0.97945797 6:0.55336821 7:1 8:0 #
0.57349423686063605298812717592227 1:0.264 2:0.46153846 3:0.053979933 4:0.0014730014 5:0.47163999 6:-0.39430431 7:0 8:1 #
0.57349423686063605298812717592227 1:0.3256 2:0.34375 3:0.1131 4:0.0050239586 5:0.137978 6:-0.73101002 7:0 8:1 #
-0.57349423686063605298812717592227 1:0.19529411 2:0.48275861 3:0.013176471 4:0.00057894067 5:0.23696899 6:-0.60173345 7:0 8:1 #
0.57349423686063605298812717592227 1:0.40900001 2:0.54545456 3:0.064277776 4:0.0018549672 5:0.76551998 6:0.31870583 7:1 8:0 #
-0.57349423686063605298812717592227 1:0.30133334 2:0.47826087 3:0.090222225 4:0.0052571171 5:0.231383 6:-0.56973922 7:0 8:1 #
0.57349423686063605298812717592227 1:0.2146087 2:1 3:0.034608696 4:0.0038721778 5:0.93852699 6:0.15504272 7:1 8:0 #
0.57349423686063605298812717592227 1:0.33263999 2:0.9285714 3:0.043880001 4:0.0015393782 5:0.82994097 6:0.80468923 7:1 8:0 #
-0.57349423686063605298812717592227 1:0.12242424 2:0.5 3:0.034219116 4:0.0012249168 5:0.93282902 6:-0.034706742 7:0 8:1 #
-0.57349423686063605298812717592227 1:0.40400001 2:1 3:0.07 4:0.0045036776 5:0.97945797 6:1.2922854 7:1 8:0 #
0.57349423686063605298812717592227 1:0.31654546 2:0.60000002 3:0.048517484 4:0.0018205259 5:0.49182901 6:-0.17369142 7:0 8:1 #
-0.57349423686063605298812717592227 1:0.23800001 2:0.42307693 3:0.082900003 4:0.0030936794 5:0.24795 6:-0.55417144 7:0 8:1 #
-0.57349423686063605298812717592227 1:0.21157895 2:0.41666666 3:0.041506074 4:0.00083418464 5:0.226263 6:-0.63593483 7:0 8:1 #
0.57349423686063605298812717592227 1:0.24027586 2:0.24242425 3:0.041793104 4:0.0040789582 5:0.751746 6:0.49266484 7:1 8:0 #
0.57349423686063605298812717592227 1:0.39872727 2:0.21052632 3:0.031696972 4:0.0019167645 5:0.545816 6:-0.12312184 7:0 8:1 #
-0.57349423686063605298812717592227 1:0.24118519 2:0.6875 3:0.032911681 4:0.0021801651 5:0.302993 6:-0.534307 7:0 8:1 #
-0.57349423686063605298812717592227 1:0.24353845 2:0.63999999 3:0.048307691 4:0.0028416757 5:0.239145 6:-0.61172247 7:0 8:1 #
0.57349423686063605298812717592227 1:0.42766666 2:0.8037383 3:0.065972224 4:0.0019198683 5:0.707403 6:1.5275595 7:1 8:0 #
0.57349423686063605298812717592227 1:0.22584616 2:0.8125 3:0.078153849 4:0.0038917931 5:0.92120498 6:1.4786716 7:1 8:0 #
0.57349423686063605298812717592227 1:0.273 2:0.44615385 3:0.080416664 4:0.0041130236 5:0.120951 6:-0.63433158 7:0 8:1 #
-0.57349423686063605298812717592227 1:0.24924999 2:0.7096774 3:0.028913461 4:0.0013188422 5:0.85118902 6:1.097443 7:1 8:0 #
0.57349423686063605298812717592227 1:0.25924999 2:0.96428573 3:0.046437498 4:0.0028434496 5:0.169655 6:-0.61148006 7:0 8:1 #
-0.57349423686063605298812717592227 1:0.278 2:0.25531915 3:0.027641026 4:0.00081050792 5:0.66857702 6:0.43325987 7:1 8:0 #
-0.57349423686063605298812717592227 1:0.18888889 2:0.90384614 3:0.083555557 4:0.0062531466 5:0.77227002 6:1.8353401 7:1 8:0 #
0.57349423686063605298812717592227 1:0.19599999 2:0.36363637 3:0.042909089 4:0.0031400127 5:0.014452 6:-0.97461891 7:0 8:1 #
-0.57349423686063605298812717592227 1:0.278 2:0.86666667 3:0.055 4:0.0070481016 5:0.123634 6:-0.78642589 7:0 8:1 #
0.57349423686063605298812717592227 1:0.27893335 2:0.42857143 3:0.045046154 4:0.0014891264 5:0.54910702 6:0.45853305 7:1 8:0 #
-0.57349423686063605298812717592227 1:0.37309092 2:0.89655173 3:0.062060606 4:0.0098900469 5:0.014732 6:-0.96456635 7:0 8:1 #
-0.57349423686063605298812717592227 1:0.33750001 2:0.85714287 3:0.054166667 4:0.0030048797 5:0.031567998 6:-0.93309492 7:0 8:1 #
0.57349423686063605298812717592227 1:0.35339999 2:0.22727273 3:0.043266665 4:0.0019098845 5:0.79416603 6:0.81260324 7:1 8:0 #
0.57349423686063605298812717592227 1:0.2105 2:0.3125 3:0.048799999 4:0.0115857 5:0.99921298 6:0.67005795 7:1 8:0 #
0.57349423686063605298812717592227 1:0.30239999 2:1 3:0.059 4:0.0054992163 5:0.03387 6:-0.93445665 7:0 8:1 #
-0.57349423686063605298812717592227 1:0.24295652 2:0.43859649 3:0.024949832 4:0.00168289 5:0.82109201 6:0.72836238 7:1 8:0 #
-0.57349423686063605298812717592227 1:0.33133334 2:0.53846157 3:0.022461539 4:0.0026700911 5:0.527022 6:0.41527531 7:1 8:0 #
0.57349423686063605298812717592227 1:0.4488 2:0.72727275 3:0.032307692 4:0.0017131889 5:0.038097002 6:-0.94972074 7:0 8:1 #
0.57349423686063605298812717592227 1:0.29692307 2:0.77499998 3:0.040692307 4:0.0023342471 5:0.248987 6:-0.51648116 7:0 8:1 #
-0.57349423686063605298812717592227 1:0.19882353 2:0.17391305 3:0.048235293 4:0.0016536363 5:0.094461001 6:-0.56162292 7:1 8:0 #
-0.57349423686063605298812717592227 1:0.38333333 2:0.89130437 3:0.058794871 4:0.0050285659 5:0.231398 6:-0.58094358 7:0 8:1 #
0.57349423686063605298812717592227 1:0.28766668 2:0.51937985 3:0.08691667 4:0.004581227 5:0.26188701 6:-0.17179041 7:1 8:0 #
-0.57349423686063605298812717592227 1:0.26622221 2:0.24561404 3:0.034358975 4:0.0015360817 5:0.452914 6:-0.046636034 7:1 8:0 #
0.57349423686063605298812717592227 1:0.22517647 2:0.87096775 3:0.062294118 4:0.0029479272 5:0.049789999 6:-0.79188532 7:0 8:1 #
0.57349423686063605298812717592227 1:0.26275 2:0.60000002 3:0.03503846 4:0.0010996599 5:0.33868501 6:-0.58533728 7:0 8:1 #
-0.57349423686063605298812717592227 1:0.26228571 2:0.54838711 3:0.032703295 4:0.0012538246 5:0.38583601 6:-0.049248759 7:1 8:0 #
-0.57349423686063605298812717592227 1:0.25545454 2:0.52941179 3:0.037318181 4:0.0030009593 5:0.24239101 6:-0.18737514 7:1 8:0 #
0.57349423686063605298812717592227 1:0.26690909 2:0.78787881 3:0.051515151 4:0.0028635592 5:0.0081559997 6:-0.98290169 7:0 8:1 #
-0.57349423686063605298812717592227 1:0.23527272 2:0.68656719 3:0.043575756 4:0.0030263092 5:0.050783001 6:-0.84072477 7:0 8:1 #
0.57349423686063605298812717592227 1:0.29362962 2:0.53333336 3:0.042160492 4:0.0014248273 5:0.46967 6:0.036865264 7:1 8:0 #
-0.57349423686063605298812717592227 1:0.26676923 2:0.76744187 3:0.062051281 4:0.0038352616 5:0.090979002 6:-0.83523357 7:0 8:1 #
0.57349423686063605298812717592227 1:0.2163077 2:0.73913044 3:0.048492309 4:0.0073434752 5:0.39636701 6:-0.12141258 7:1 8:0 #
0.57349423686063605298812717592227 1:0.23875 2:0.80000001 3:0.0691875 4:0.0031303463 5:0.19242901 6:-0.41823378 7:1 8:0 #
-0.57349423686063605298812717592227 1:0.29177779 2:0.72222221 3:0.076666668 4:0.0097959014 5:0.115487 6:-0.79162931 7:0 8:1 #
-0.57349423686063605298812717592227 1:0.24600001 2:0.70149255 3:0.017203704 4:0.00075172196 5:0.063038997 6:-0.74576145 7:0 8:1 #
0.57349423686063605298812717592227 1:0.25400001 2:0.40000001 3:0.019625001 4:0.0027043789 5:0.368512 6:-0.030907584 7:1 8:0 #
0.57349423686063605298812717592227 1:0.21924999 2:0.2857143 3:0.058937501 4:0.0030467873 5:0.362037 6:-0.17091389 7:1 8:0 #
-0.57349423686063605298812717592227 1:0.22859259 2:0.72000003 3:0.036135804 4:0.00054133049 5:0.38544899 6:-0.13865988 7:1 8:0 #
0.57349423686063605298812717592227 1:0.38517648 2:0.66250002 3:0.031372551 4:0.0029553501 5:0.069223002 6:-0.81796122 7:0 8:1 #
-0.57349423686063605298812717592227 1:0.28114286 2:0.8611111 3:0.04657143 4:0.0084076989 5:0.24316099 6:-0.24788654 7:1 8:0 #
0.57349423686063605298812717592227 1:0.15346341 2:0.60000002 3:0.032121953 4:0.0016605565 5:0.96397501 6:0.28275144 7:1 8:0 #
-0.57349423686063605298812717592227 1:0.2236 2:0.7525773 3:0.011661539 4:0.0035910283 5:0.225463 6:-0.32594839 7:1 8:0 #
0.57349423686063605298812717592227 1:0.21080001 2:0.84375 3:0.0167 4:0.001214936 5:0.131778 6:-0.65425426 7:0 8:1 #
0.57349423686063605298812717592227 1:0.28654546 2:1 3:0.072272725 4:0.0055675646 5:0.097607002 6:-0.78500313 7:0 8:1 #
-0.57349423686063605298812717592227 1:0.28099999 2:0.74545455 3:0.059 4:0.010301103 5:0.149822 6:-0.4456436 7:1 8:0 #
-0.57349423686063605298812717592227 1:0.26199999 2:0.5714286 3:0.037708335 4:0.0045588734 5:0.106455 6:-0.43307993 7:1 8:0 #
0.57349423686063605298812717592227 1:0.31435293 2:0.46153846 3:0.022254903 4:0.0018464014 5:0.22351401 6:-0.54234844 7:0 8:1 #
0.57349423686063605298812717592227 1:0.2128 2:0.75 3:0.040853333 4:0.0057290178 5:0.0065930001 6:-0.98989666 7:0 8:1 #
-0.57349423686063605298812717592227 1:0.248 2:0.61832058 3:0.033 4:0.0048512579 5:0.070744 6:-0.73727888 7:0 8:1 #
0.57349423686063605298812717592227 1:0.3449091 2:0.93103451 3:0.049363635 4:0.0044695302 5:0.486166 6:-0.055316728 7:1 8:0 #
-0.57349423686063605298812717592227 1:0.38333333 2:0.89130437 3:0.058794871 4:0.0050285659 5:0.231398 6:-0.58094358 7:0 8:1 #
0.57349423686063605298812717592227 1:0.31674999 2:0.81308413 3:0.045541666 4:0.0020127555 5:0.18721101 6:-0.3310928 7:1 8:0 #
-0.57349423686063605298812717592227 1:0.28479999 2:0.83050847 3:0.028033333 4:0.0017713724 5:0.14317399 6:-0.70305157 7:0 8:1 #
-0.57349423686063605298812717592227 1:0.3028 2:0.84615386 3:0.051866665 4:0.010936603 5:0.195473 6:-0.65721852 7:0 8:1 #
0.57349423686063605298812717592227 1:0.2705 2:0.48750001 3:0.044374999 4:0.0033247473 5:0.29751101 6:-0.21762207 7:1 8:0 #
0.57349423686063605298812717592227 1:0.15619047 2:0.63157892 3:0.02695238 4:0.0015569351 5:0.223067 6:-0.38516846 7:1 8:0 #
-0.57349423686063605298812717592227 1:0.208 2:0.5925926 3:0.058666665 4:0.0094228163 5:0.42548299 6:-0.11345512 7:1 8:0 #
-0.57349423686063605298812717592227 1:0.22676922 2:0.72340423 3:0.027195266 4:0.0016069214 5:0.347031 6:-0.12195392 7:1 8:0 #
0.57349423686063605298812717592227 1:0.34111112 2:0.90909094 3:0.031870369 4:0.0021699073 5:0.15446401 6:-0.56750429 7:0 8:1 #
-0.57349423686063605298812717592227 1:0.23221053 2:0.75 3:0.040473685 4:0.0028129907 5:0.47718701 6:-0.075550489 7:1 8:0 #
-0.57349423686063605298812717592227 1:0.23791304 2:0.67123288 3:0.038391303 4:0.003255358 5:0.29294601 6:-0.11252984 7:1 8:0 #
0.57349423686063605298812717592227 1:0.46213335 2:0.94117647 3:0.037907694 4:0.0035342504 5:0.12656599 6:-0.71590579 7:0 8:1 #
0.57349423686063605298812717592227 1:0.25536841 2:0.98888886 3:0.067684211 4:0.0030466947 5:0.043855 6:-0.86736661 7:0 8:1 #
-0.57349423686063605298812717592227 1:0.264 2:0.95454544 3:0.011133334 4:0.0010942578 5:0.033686999 6:-0.91949314 7:0 8:1 #
0.57349423686063605298812717592227 1:0.14063159 2:0.8125 3:0.040926315 4:0.0052169808 5:0.57960302 6:0.15195444 7:1 8:0 #
0.57349423686063605298812717592227 1:0.25979999 2:0.87692308 3:0.055 4:0.0029108678 5:0.327557 6:-0.0097043943 7:1 8:0 #
-0.57349423686063605298812717592227 1:0.3168889 2:0.82857144 3:0.041333333 4:0.010132176 5:0.039967999 6:-0.91960305 7:0 8:1 #
-0.57349423686063605298812717592227 1:0.479 2:0.40000001 3:0.1275 4:0.033563916 5:0.51299202 6:0.048415191 7:0 8:1 #
0.57349423686063605298812717592227 1:0.20618182 2:0.46153846 3:0.049363635 4:0.0032815228 5:0.075413004 6:-0.85014701 7:0 8:1 #
-0.57349423686063605298812717592227 1:0.278 2:0.1388889 3:0.055 4:0.0070481016 5:0.123634 6:-0.77692986 7:0 8:1 #
0.57349423686063605298812717592227 1:0.26714286 2:0.44117647 3:0.055028573 4:0.0076092738 5:0.770724 6:0.53949553 7:1 8:0 #
-0.1945685281326494653342251694994 1:0.18690909 2:0.010526316 3:0.033545453 4:0.0063332766 5:0.015696 6:-0.92463523 7:0 8:1 #
-0.00012142099286904795008013024926186 1:0.032000002 2:0.80000001 3:0.0118 4:7.8819183e-05 5:0.014587 6:-0.94637948 7:0 8:1 #
0.57349423686063605298812717592227 1:0.212 2:0.34999999 3:0.034019049 4:0.0075699179 5:0.532929 6:-0.14665653 7:0 8:1 #
0.57349423686063605298812717592227 1:0.16941176 2:0.82352942 3:0.023529412 4:0.0067644962 5:0.47175199 6:-0.17694506 7:0 8:1 #
-0.57349423686063605298812717592227 1:0.25184616 2:0.27777779 3:0.054512821 4:0.0069118664 5:0.87149 6:0.5819996 7:1 8:0 #
0.57349423686063605298812717592227 1:0.25850001 2:0.075000003 3:0.027562501 4:0.0019193897 5:0.036148001 6:-0.90494001 7:0 8:1 #
0.57349423686063605298812717592227 1:0.1714 2:0.375 3:0.041999999 4:0.0051576518 5:0.026439 6:-0.95581055 7:0 8:1 #
-0.57349423686063605298812717592227 1:0.29066667 2:0.16666667 3:0.026666667 4:0.00018489874 5:0.92514998 6:0.62245661 7:1 8:0 #
-0.57349423686063605298812717592227 1:0.29066667 2:0.13636364 3:0.026666667 4:0.00018489874 5:0.92514998 6:0.61458987 7:1 8:0 #
0.57349423686063605298812717592227 1:0.17399999 2:0.048192769 3:0.0416 4:0.0048432979 5:0.104421 6:-0.76149863 7:0 8:1 #
0.57349423686063605298812717592227 1:0.17399999 2:0.11111111 3:0.0416 4:0.0048432979 5:0.104421 6:-0.75911659 7:0 8:1 #
-0.57349423686063605298812717592227 1:0.244 2:0.36666667 3:0.039938461 4:0.0022566426 5:0.329027 6:-0.47818071 7:0 8:1 #
0.57349423686063605298812717592227 1:0.17454545 2:0.30000001 3:0.039927274 4:0.0043408475 5:0.96426398 6:0.51921695 7:1 8:0 #
-0.57349423686063605298812717592227 1:0.228 2:0.53846157 3:0.037458822 4:0.0032592386 5:0.39507601 6:-0.3136211 7:0 8:1 #
0.57349423686063605298812717592227 1:0.13381818 2:0.2820513 3:0.032036364 4:0.0043936721 5:0.72425801 6:0.39416385 7:1 8:0 #
0.57349423686063605298812717592227 1:0.21466666 2:0.15686275 3:0.037128206 4:0.0015187187 5:0.68042099 6:0.66209471 7:1 8:0 #
0.57349423686063605298812717592227 1:0.18188889 2:0.95833331 3:0.039444443 4:0.0041596191 5:0.96765602 6:0.97960585 7:1 8:0 #
-0.57349423686063605298812717592227 1:0.032000002 2:0.90566039 3:0.016615385 4:0.0001391221 5:0.0085650003 6:-0.96634996 7:0 8:1 #
0.57349423686063605298812717592227 1:0.14192593 2:0.2 3:0.028118519 4:0.0033638848 5:0.80664098 6:0.038815148 7:1 8:0 #
0.57349423686063605298812717592227 1:0.24428572 2:0.3125 3:0.048880953 4:0.0013372959 5:0.85513502 6:0.87896645 7:1 8:0 #
-0.57349423686063605298812717592227 1:0.21318519 2:0.32203391 3:0.029698005 4:0.001620888 5:0.846264 6:0.57686055 7:1 8:0 #
0.57349423686063605298812717592227 1:0.26584616 2:0.13178295 3:0.056307692 4:0.0037002498 5:0.15660401 6:-0.50474465 7:0 8:1 #
-0.57349423686063605298812717592227 1:0.28747827 2:0.44444445 3:0.034434784 4:0.0032215591 5:0.49453601 6:0.40551627 7:1 8:0 #
-0.57349423686063605298812717592227 1:0.19851851 2:0.40277779 3:0.047333334 4:0.0018844869 5:0.79770499 6:0.56298614 7:1 8:0 #
0.57349423686063605298812717592227 1:0.33114284 2:0.1375 3:0.032380953 4:0.0019234281 5:0.266626 6:-0.29884174 7:0 8:1 #
-0.57349423686063605298812717592227 1:0.25775 2:0.5625 3:0.035687499 4:0.0017118576 5:0.70330298 6:0.54534984 7:1 8:0 #
-0.57349423686063605298812717592227 1:0.24870588 2:0.5 3:0.02922353 4:0.0026670699 5:0.64337099 6:0.48415944 7:1 8:0 #
0.57349423686063605298812717592227 1:0.21933334 2:0.27419356 3:0.06408333 4:0.0023181867 5:0.025962999 6:-0.91802853 7:0 8:1 #
0.57349423686063605298812717592227 1:0.16190477 2:0.41666666 3:0.030704763 4:0.004518813 5:0.069750004 6:-0.90808123 7:0 8:1 #
-0.57349423686063605298812717592227 1:0.23182608 2:0.14754099 3:0.02322408 4:0.00047166366 5:0.174695 6:-0.56126374 7:0 8:1 #
0.57349423686063605298812717592227 1:0.22568421 2:0.61702126 3:0.03288421 4:0.0062892549 5:0.67385 6:0.56956059 7:1 8:0 #
-0.57349423686063605298812717592227 1:0.22666667 2:0.21978022 3:0.02614245 4:0.00095685071 5:0.18422 6:-0.55640799 7:0 8:1 #
-0.57349423686063605298812717592227 1:0.26066667 2:0.30952382 3:0.038972221 4:0.00060147844 5:0.24001101 6:-0.41440675 7:0 8:1 #
-0.57349423686063605298812717592227 1:0.27353847 2:0.2736842 3:0.031307694 4:0.0021256667 5:0.081855997 6:-0.6069662 7:0 8:1 #
0.57349423686063605298812717592227 1:0.25942856 2:0.28749999 3:0.037952382 4:0.0036160722 5:0.53582799 6:0.40909076 7:1 8:0 #
0.57349423686063605298812717592227 1:0.15214285 2:0.33333334 3:0.048942856 4:0.0046701157 5:0.97299302 6:0.29893497 7:1 8:0 #
-0.57349423686063605298812717592227 1:0.1635 2:0.16363636 3:0.022320513 4:0.00073036691 5:0.80546498 6:0.37031022 7:1 8:0 #
0.57349423686063605298812717592227 1:0.35733333 2:0.54166669 3:0.027051281 4:0.0019173826 5:0.26204601 6:-0.50970507 7:0 8:1 #
-0.57349423686063605298812717592227 1:0.24870588 2:0.21686748 3:0.02922353 4:0.0026670699 5:0.64337099 6:0.46948266 7:1 8:0 #
-0.57349423686063605298812717592227 1:0.19871429 2:0.17647059 3:0.029428571 4:0.0014159619 5:0.78067601 6:0.34529549 7:1 8:0 #
0.57349423686063605298812717592227 1:0.10977778 2:0.25 3:0.040555555 4:0.0016399872 5:0.204739 6:-0.58358794 7:0 8:1 #
-0.57349423686063605298812717592227 1:0.35309091 2:0.1891892 3:0.097370632 4:0.0038991803 5:0.67230999 6:0.89742297 7:1 8:0 #
0.57349423686063605298812717592227 1:0.18375 2:0.13043478 3:0.0261 4:0.0057239011 5:0.185219 6:-0.58944339 7:0 8:1 #
0.57349423686063605298812717592227 1:0.20033333 2:0.27659574 3:0.047266666 4:0.0075407182 5:0.145951 6:-0.66004461 7:0 8:1 #
-0.57349423686063605298812717592227 1:0.19963637 2:0.38144329 3:0.021062937 4:0.003508806 5:0.080882996 6:-0.7581895 7:0 8:1 #
0.57349423686063605298812717592227 1:0.35835293 2:0.33333334 3:0.029509803 4:0.0017658123 5:0.82056397 6:0.65277934 7:1 8:0 #
-0.57349423686063605298812717592227 1:0.30622223 2:0.16666667 3:0.068923078 4:0.0033800616 5:0.42467701 6:-0.32648489 7:0 8:1 #
-0.57349423686063605298812717592227 1:0.24104348 2:0.1875 3:0.035050169 4:0.0028978789 5:0.42087299 6:-0.35312825 7:0 8:1 #
0.57349423686063605298812717592227 1:0.37614286 2:0.14285715 3:0.060428571 4:0.0090077287 5:0.94543898 6:0.65568388 7:1 8:0 #
0.57349423686063605298812717592227 1:0.1974 2:0.27956989 3:0.051600002 4:0.0026180865 5:0.381652 6:0.59524757 7:1 8:0 #
-0.57349423686063605298812717592227 1:0.25799999 2:0.21428572 3:0.018237762 4:0.0006224133 5:0.146753 6:-0.65654498 7:0 8:1 #
-0.57349423686063605298812717592227 1:0.28436363 2:0.098039217 3:0.052999999 4:0.0039260969 5:0.31845599 6:-0.46115229 7:0 8:1 #
0.57349423686063605298812717592227 1:0.12177778 2:0.28260869 3:0.023733333 4:0.0052136881 5:0.76045698 6:0.68562961 7:1 8:0 #
-0.57349423686063605298812717592227 1:0.21855555 2:0.32857144 3:0.021290598 4:0.0018955101 5:0.88663298 6:0.73767978 7:1 8:0 #
0.57349423686063605298812717592227 1:0.22876923 2:0.055555556 3:0.044846155 4:0.0028984211 5:0.283811 6:-0.19564007 7:0 8:1 #
-0.57349423686063605298812717592227 1:0.11717647 2:0.8888889 3:0.028669683 4:0.00066498731 5:0.85627902 6:0.34663334 7:1 8:0 #
0.57349423686063605298812717592227 1:0.28099999 2:0.2857143 3:0.1105 4:0.0024494512 5:0.25654799 6:-0.44214177 7:0 8:1 #
-0.57349423686063605298812717592227 1:0.259 2:0.94999999 3:0.0405 4:0.0032060205 5:0.69119602 6:0.26870254 7:1 8:0 #
-0.57349423686063605298812717592227 1:0.28346667 2:0.84545457 3:0.03248889 4:0.00069835153 5:0.59427601 6:0.3648172 7:1 8:0 #
0.57349423686063605298812717592227 1:0.23914285 2:0.5 3:0.069428571 4:0.0090060225 5:0.27298799 6:-0.55514115 7:0 8:1 #
0.57349423686063605298812717592227 1:0.16857143 2:0.30434781 3:0.046342857 4:0.0070569245 5:0.146676 6:-0.67487788 7:0 8:1 #
-0.57349423686063605298812717592227 1:0.2376 2:0.47761193 3:0.024184616 4:0.0030062017 5:0.178818 6:-0.58353102 7:0 8:1 #
0.57349423686063605298812717592227 1:0.15739131 2:1 3:0.042295653 4:0.0042443764 5:0.90066099 6:0.36996153 7:1 8:0 #
-0.57349423686063605298812717592227 1:0.22516666 2:0.40909091 3:0.050958332 4:0.0023582424 5:0.27566001 6:-0.44988278 7:0 8:1 #
-0.57349423686063605298812717592227 1:0.23559999 2:0.41428572 3:0.058600001 4:0.0030411521 5:0.294835 6:-0.43892998 7:0 8:1 #
0.57349423686063605298812717592227 1:0.15072727 2:1 3:0.045418181 4:0.0054162326 5:0.87888998 6:0.23650655 7:1 8:0 #
-0.57349423686063605298812717592227 1:0.24571429 2:0.30555555 3:0.054095238 4:0.0076976586 5:0.247944 6:-0.38297731 7:0 8:1 #
-0.57349423686063605298812717592227 1:0.236 2:0.38636363 3:0.041342657 4:0.0017083385 5:0.190317 6:-0.42489874 7:0 8:1 #
0.57349423686063605298812717592227 1:0.12514286 2:0.66666669 3:0.045523811 4:0.0050164135 5:0.70718098 6:0.18471225 7:1 8:0 #
0.57349423686063605298812717592227 1:0.30042857 2:0.42857143 3:0.065250002 4:0.0031303931 5:0.60462499 6:0.38462695 7:1 8:0 #
-0.57349423686063605298812717592227 1:0.13519999 2:0.22727273 3:0.02568 4:0.00070632383 5:0.773628 6:0.2086091 7:0 8:1 #
0.57349423686063605298812717592227 1:0.22274999 2:0.52941179 3:0.041049998 4:0.0061844662 5:0.33650401 6:-0.32784444 7:0 8:1 #
-0.57349423686063605298812717592227 1:0.32499999 2:0.02 3:0.069576927 4:0.00099554076 5:0.551036 6:0.78752536 7:1 8:0 #
-0.57349423686063605298812717592227 1:0.22711112 2:0.054054055 3:0.018017095 4:0.0015110883 5:0.67997199 6:0.63881153 7:1 8:0 #
-0.57349423686063605298812717592227 1:0.23999999 2:0.1923077 3:0.022 4:0.002628935 5:0.773642 6:0.58405501 7:1 8:0 #
0.57349423686063605298812717592227 1:0.31420001 2:0.375 3:0.060249999 4:0.0026599632 5:0.13460299 6:-0.73758966 7:0 8:1 #
-0.57349423686063605298812717592227 1:0.27200001 2:0.15789473 3:0.048833333 4:0.0070966389 5:0.76282799 6:0.43419313 7:1 8:0 #
0.57349423686063605298812717592227 1:0.30880001 2:0.3898305 3:0.067599997 4:0.003880077 5:0.078194 6:-0.70846319 7:0 8:1 #
0.57349423686063605298812717592227 1:0.19577777 2:0.39130434 3:0.054611113 4:0.0027685636 5:0.061353002 6:-0.71527141 7:0 8:1 #
-0.57349423686063605298812717592227 1:0.24600001 2:0.70149255 3:0.017203704 4:0.00075172196 5:0.063038997 6:-0.74576145 7:0 8:1 #
-0.57349423686063605298812717592227 1:0.23566666 2:0.55284554 3:0.082999997 4:0.0065144962 5:0.02482 6:-0.91119081 7:0 8:1 #
-0.57349423686063605298812717592227 1:0.244 2:0.50641024 3:0.062166668 4:0.001441627 5:0.0092749996 6:-0.9466989 7:0 8:1 #
0.57349423686063605298812717592227 1:0.20475 2:0.20689656 3:0.036916666 4:0.0017252667 5:0.67096698 6:0.69318736 7:1 8:0 #
0.57349423686063605298812717592227 1:0.17479999 2:0.125 3:0.035840001 4:0.0031658113 5:0.96998399 6:0.34811184 7:1 8:0 #
-0.57349423686063605298812717592227 1:0.1495 2:0.86666667 3:0.032538462 4:0.0011768956 5:0.95043302 6:0.30476236 7:1 8:0 #
-0.57349423686063605298812717592227 1:0.14907692 2:1 3:0.030153846 4:0.00080632203 5:0.96803701 6:0.089559458 7:1 8:0 #
-0.57349423686063605298812717592227 1:0.05221739 2:1 3:0.012634058 4:0.00011174749 5:1 6:0.029936654 7:1 8:0 #
0.57349423686063605298812717592227 1:0.16752942 2:0.69230771 3:0.027294118 4:0.0056451974 5:0.088774003 6:-0.86135054 7:0 8:1 #
0.57349423686063605298812717592227 1:0.26774999 2:0.625 3:0.075000003 4:0.0035106069 5:0.16930801 6:-0.67121333 7:0 8:1 #
-0.57349423686063605298812717592227 1:0.22736841 2:0.56140351 3:0.064631581 4:0.0031550517 5:0.079572998 6:-0.78067583 7:0 8:1 #
0.57349423686063605298812717592227 1:0.1105 2:1 3:0.021766666 4:0.0039639371 5:0.70788699 6:0.41398075 7:1 8:0 #
-0.57349423686063605298812717592227 1:0.19709091 2:0.52941179 3:0.052909091 4:0.0013654473 5:0.086195 6:-0.76032466 7:0 8:1 #
0.57349423686063605298812717592227 1:0.33011764 2:0.82608694 3:0.061117645 4:0.0045704152 5:0.79519802 6:0.1207568 7:1 8:0 #
-0.57349423686063605298812717592227 1:0.19599999 2:0.56410259 3:0.10181818 4:0.02175951 5:0.055590998 6:-0.77333802 7:0 8:1 #
-0.57349423686063605298812717592227 1:0.22644444 2:0.57746476 3:0.023623932 4:0.0013909879 5:0.099108003 6:-0.71296394 7:0 8:1 #
0.57349423686063605298812717592227 1:0.20373334 2:0.5 3:0.043760002 4:0.0053778412 5:0.920627 6:0.47413829 7:1 8:0 #
0.57349423686063605298812717592227 1:0.34072727 2:0.38095239 3:0.048363637 4:0.0019554463 5:0.74257499 6:0.3032859 7:1 8:0 #
-0.57349423686063605298812717592227 1:0.24666667 2:0.53333336 3:0.038371794 4:0.0022317949 5:0.67549199 6:0.42573163 7:1 8:0 #
-0.57349423686063605298812717592227 1:0.2656 2:0.35294119 3:0.054533333 4:0.0059532933 5:0.71447599 6:0.36868349 7:1 8:0 #
0.57349423686063605298812717592227 1:0.21490909 2:0.296875 3:0.033515152 4:0.0013021537 5:0.062135 6:-0.83697647 7:0 8:1 #
0.57349423686063605298812717592227 1:0.29854545 2:0.5714286 3:0.038484849 4:0.0033189929 5:0.024913 6:-0.93921578 7:0 8:1 #
-0.57349423686063605298812717592227 1:0.24666667 2:0.5 3:0.062833332 4:0.0069361012 5:0.63534701 6:0.39519864 7:1 8:0 #
-0.57349423686063605298812717592227 1:0.21885714 2:0.44186047 3:0.047333334 4:0.0027804328 5:0.750938 6:0.39767006 7:1 8:0 #
0.57349423686063605298812717592227 1:0.186 2:0.51219511 3:0.048999999 4:0.0058605317 5:0.037772 6:-0.90137559 7:0 8:1 #
0.57349423686063605298812717592227 1:0.233 2:0.73134327 3:0.028541667 4:0.001032232 5:0.127793 6:-0.48460621 7:0 8:1 #
-0.57349423686063605298812717592227 1:0.24377778 2:0.40000001 3:0.041333333 4:0.0067142476 5:0.064179003 6:-0.81687206 7:0 8:1 #
-0.57349423686063605298812717592227 1:0.26875001 2:0.49019608 3:0.0324375 4:0.0027046148 5:0.078952998 6:-0.73530716 7:0 8:1 #
-0.57349423686063605298812717592227 1:0.23957895 2:0.45945945 3:0.02579757 4:0.0018202054 5:0.084898002 6:-0.7201522 7:0 8:1 #
0.57349423686063605298812717592227 1:0.228 2:0.3125 3:0.04822807 4:0.0018828332 5:0.43823001 6:0.14978348 7:1 8:0 #
0.57349423686063605298812717592227 1:0.20346667 2:0.33333334 3:0.04448 4:0.006424766 5:0.68342501 6:0.071133301 7:1 8:0 #
-0.57349423686063605298812717592227 1:0.27880001 2:0.44444445 3:0.032400001 4:0.011890596 5:0.122 6:-0.74671876 7:0 8:1 #
0.57349423686063605298812717592227 1:0.27706668 2:0.1 3:0.029111112 4:0.0020402705 5:0.40727699 6:0.071034461 7:1 8:0 #
0.57349423686063605298812717592227 1:0.32022223 2:0.3611111 3:0.017008547 4:0.00060868764 5:0.493514 6:0.33202848 7:1 8:0 #
-0.57349423686063605298812717592227 1:0.26350001 2:0.083333336 3:0.036200002 4:0.0030927418 5:0.50391603 6:0.023479206 7:1 8:0 #
0.57349423686063605298812717592227 1:0.31422222 2:0.32499999 3:0.024777777 4:0.0030428516 5:0.069310002 6:-0.81773239 7:0 8:1 #
0.57349423686063605298812717592227 1:0.233 2:0.73134327 3:0.028541667 4:0.001032232 5:0.127793 6:-0.48460621 7:0 8:1 #
-0.57349423686063605298812717592227 1:0.27946666 2:0.24285714 3:0.032041024 4:0.0037854542 5:0.45362899 6:0.085041232 7:1 8:0 #
-0.57349423686063605298812717592227 1:0.27563637 2:0.2 3:0.052318182 4:0.0025899184 5:0.50751299 6:0.0728793 7:1 8:0 #
0.57349423686063605298812717592227 1:0.23431578 2:0.44999999 3:0.053389475 4:0.0095200408 5:0.46475899 6:-0.25581259 7:0 8:1 #
-0.57349423686063605298812717592227 1:0.28304762 2:0.11111111 3:0.052825395 4:0.0099238949 5:0.368954 6:-0.08183708 7:1 8:0 #
-0.57349423686063605298812717592227 1:0.28304762 2:0.11764706 3:0.052825395 4:0.0099238949 5:0.368954 6:0.025920019 7:1 8:0 #
0.57349423686063605298812717592227 1:0.37760001 2:0.1 3:0.068800002 4:0.011924055 5:0.045765001 6:-0.88878685 7:0 8:1 #
-0.57349423686063605298812717592227 1:0.28171429 2:0.18604651 3:0.047523808 4:0.0083031394 5:0.160965 6:-0.71615028 7:0 8:1 #
0.57349423686063605298812717592227 1:0.345 2:0.13084112 3:0.081777781 4:0.0021516171 5:0.317067 6:0.13288426 7:1 8:0 #
0.57349423686063605298812717592227 1:0.20625 2:0.087499999 3:0.016916666 4:0.0014252996 5:0.365823 6:-0.03797897 7:1 8:0 #
-0.57349423686063605298812717592227 1:0.34644446 2:0.75 3:0.078814812 4:0.012729318 5:0.471986 6:-0.14321259 7:0 8:1 #
-0.57349423686063605298812717592227 1:0.27333334 2:0.01754386 3:0.089666665 4:0.0018716487 5:0.0068370001 6:-0.98329228 7:0 8:1 #
0.57349423686063605298812717592227 1:0.15674999 2:0.80722892 3:0.0272 4:0.0040973211 5:0.31369099 6:-0.2835184 7:0 8:1 #
-0.57349423686063605298812717592227 1:0.34644446 2:0.78787881 3:0.078814812 4:0.012729318 5:0.471986 6:-0.12334526 7:0 8:1 #
-0.57349423686063605298812717592227 1:0.20260869 2:0.47368422 3:0.045898549 4:0.0022700888 5:0.34938201 6:-0.41069433 7:0 8:1 #
0.57349423686063605298812717592227 1:0.13542858 2:1 3:0.039314285 4:0.0043161325 5:0.96534401 6:0.91861033 7:1 8:0 #
-0.57349423686063605298812717592227 1:0.17146666 2:0.98571426 3:0.0174 4:0.00074162602 5:0.39433801 6:-0.18043701 7:0 8:1 #
-0.57349423686063605298812717592227 1:0.14052173 2:1 3:0.02810145 4:0.00075719442 5:0.443221 6:-0.13883671 7:0 8:1 #
0.57349423686063605298812717592227 1:0.20911111 2:0.050000001 3:0.03448889 4:0.0062782574 5:0.066436999 6:-0.8904922 7:0 8:1 #
0.57349423686063605298812717592227 1:0.31040001 2:0.65217394 3:0.081666663 4:0.0047513298 5:0.55063802 6:1.5554153 7:1 8:0 #
-0.57349423686063605298812717592227 1:0.2094 2:0.85000002 3:0.059950002 4:0.0042374134 5:0.79807502 6:1.3269696 7:1 8:0 #
0.57349423686063605298812717592227 1:0.18038096 2:0.91666669 3:0.047047619 4:0.0041661891 5:0.47377101 6:-0.071739696 7:0 8:1 #
-0.57349423686063605298812717592227 1:0.19833334 2:0.828125 3:0.090333335 4:0.0086012464 5:0.75227898 6:1.2792509 7:1 8:0 #
-0.57349423686063605298812717592227 1:0.24295652 2:0.50769234 3:0.024949832 4:0.00168289 5:0.82109201 6:0.7487967 7:1 8:0 #
0.57349423686063605298812717592227 1:0.29426667 2:0.57894737 3:0.063199997 4:0.0034046581 5:0.420059 6:-0.30907601 7:0 8:1 #
-0.57349423686063605298812717592227 1:0.26679999 2:0.52238804 3:0.045316666 4:0.0011140455 5:0.61494201 6:1.4800833 7:1 8:0 #
0.57349423686063605298812717592227 1:0.21625 2:0.3877551 3:0.041076925 4:0.001167025 5:0.31065601 6:-0.17483835 7:0 8:1 #
0.57349423686063605298812717592227 1:0.33914286 2:0.54054052 3:0.036175825 4:0.0031071519 5:0.334847 6:-0.33127707 7:0 8:1 #
-0.57349423686063605298812717592227 1:0.22342858 2:0.27450982 3:0.018952381 4:0.00022406607 5:0.352889 6:-0.25984398 7:0 8:1 #
-0.57349423686063605298812717592227 1:0.20514286 2:0.2739726 3:0.041142859 4:0.0029358992 5:0.222248 6:-0.32670707 7:0 8:1 #
0.57349423686063605298812717592227 1:0.377 2:0.5 3:0.056604166 4:0.0017952299 5:0.96136802 6:1.3456033 7:1 8:0 #
0.57349423686063605298812717592227 1:0.27093333 2:0.80000001 3:0.045111112 4:0.0021591091 5:0.97521001 6:1.1529188 7:1 8:0 #
0.57349423686063605298812717592227 1:0.39657143 2:0.33333334 3:0.038637362 4:0.0026417787 5:0.071304999 6:-0.82307273 7:0 8:1 #
-0.57349423686063605298812717592227 1:0.24990477 2:0.090909094 3:0.05568254 4:0.0033725034 5:0.195061 6:0.038786311 7:1 8:0 #
-0.57349423686063605298812717592227 1:0.63800001 2:0.78947371 3:0.28299999 4:0.045185812 5:0.999924 6:1.4572657 7:1 8:0 #
0.57349423686063605298812717592227 1:0.087777779 2:0.23809524 3:0.021925926 4:0.00043592596 5:0.323048 6:-0.34706298 7:0 8:1 #
0.57349423686063605298812717592227 1:0.23549999 2:0.33333334 3:0.044399999 4:0.0072913421 5:0.38045299 6:-0.46930277 7:0 8:1 #
-0.57349423686063605298812717592227 1:0.22628571 2:0.3125 3:0.025619047 4:0.00077524479 5:0.114453 6:-0.70963597 7:0 8:1 #
-0.57349423686063605298812717592227 1:0.21960001 2:0.53125 3:0.046799999 4:0.0073979972 5:0.151857 6:-0.56046247 7:0 8:1 #
0.57349423686063605298812717592227 1:0.21254545 2:0.17647059 3:0.035636365 4:0.0062566856 5:0.57289898 6:-0.00047619423 7:1 8:0 #
0.57349423686063605298812717592227 1:0.17014286 2:0.039999999 3:0.033542857 4:0.0051054847 5:0.40929499 6:-0.13984525 7:1 8:0 #
-0.57349423686063605298812717592227 1:0.26333332 2:0.42372882 3:0.035923079 4:0.0027429974 5:0.17410301 6:-0.6755904 7:0 8:1 #
-0.57349423686063605298812717592227 1:0.22400001 2:0.43859649 3:0.050277777 4:0.0005608371 5:0.18867999 6:-0.57630461 7:0 8:1 #
0.57349423686063605298812717592227 1:0.21408695 2:0.40000001 3:0.04821739 4:0.0026026545 5:0.43537301 6:0.21022309 7:1 8:0 #
0.57349423686063605298812717592227 1:0.30273685 2:0.21052632 3:0.035666667 4:0.00093070156 5:0.61122602 6:0.25470513 7:1 8:0 #
0.57349423686063605298812717592227 1:0.21244444 2:0.25 3:0.019333333 4:0.0027234252 5:0.082309 6:-0.78354836 7:0 8:1 #
-0.57349423686063605298812717592227 1:0.17244445 2:0.25 3:0.046314813 4:0.0026329029 5:0.57178599 6:0.025757587 7:1 8:0 #
0.57349423686063605298812717592227 1:0.21052632 2:0.72222221 3:0.041263159 4:0.0077800611 5:0.232978 6:-0.5476324 7:0 8:1 #
-0.57349423686063605298812717592227 1:0.21130435 2:0.34285715 3:0.023839464 4:0.00095273211 5:0.444132 6:0.0069233584 7:1 8:0 #
0.57349423686063605298812717592227 1:0.27835295 2:0.59375 3:0.063058823 4:0.002174153 5:0.990013 6:1.5974958 7:1 8:0 #
-0.57349423686063605298812717592227 1:0.26679999 2:0.52238804 3:0.045316666 4:0.0011140455 5:0.61494201 6:1.4800833 7:1 8:0 #
-0.57349423686063605298812717592227 1:0.19375999 2:0.28915662 3:0.041310769 4:0.001729033 5:0.99893999 6:1.6955423 7:1 8:0 #
-0.57349423686063605298812717592227 1:0.31988236 2:0.29411766 3:0.083490193 4:0.0077560889 5:0.97776401 6:1.7187879 7:1 8:0 #
0.57349423686063605298812717592227 1:0.36511111 2:0.43478259 3:0.041777778 4:0.0053001991 5:0.27219701 6:-0.61636394 7:0 8:1 #
0.57349423686063605298812717592227 1:0.22514285 2:0.36363637 3:0.041771427 4:0.0055573564 5:0.107594 6:-0.78636163 7:0 8:1 #
-0.57349423686063605298812717592227 1:0.28400001 2:0.30769232 3:0.0078974357 4:0.00012974087 5:0.120332 6:-0.76809323 7:0 8:1 #
0.57349423686063605298812717592227 1:0.35483333 2:0.58064514 3:0.074333332 4:0.0038126677 5:0.81060702 6:1.5592818 7:1 8:0 #
-0.57349423686063605298812717592227 1:0.25285715 2:0.45714286 3:0.061904762 4:0.0022321288 5:0.28811601 6:-0.45171621 7:0 8:1 #
0.57349423686063605298812717592227 1:0.34380952 2:0.90654206 3:0.037349205 4:0.0015941602 5:0.85670203 6:2.0610068 7:1 8:0 #
0.57349423686063605298812717592227 1:0.63 2:0.35135135 3:0.048461538 4:0.0013887702 5:0.901438 6:1.5440781 7:1 8:0 #
-0.57349423686063605298812717592227 1:0.22222222 2:0.5714286 3:0.054851852 4:0.0027665645 5:0.422867 6:-0.48414415 7:0 8:1 #
-0.57349423686063605298812717592227 1:0.2832 2:0.46153846 3:0.071000002 4:0.00384686 5:0.40351 6:-0.3425737 7:0 8:1 #
0.57349423686063605298812717592227 1:0.25311112 2:0.12307692 3:0.065222219 4:0.0032539677 5:0.65960199 6:0.9941597 7:1 8:0 #
0.57349423686063605298812717592227 1:0.40346667 2:0.18181819 3:0.048533332 4:0.0017233045 5:0.914922 6:1.0795341 7:1 8:0 #
-0.57349423686063605298812717592227 1:0.41299999 2:0.34090909 3:0.13533333 4:0.022064913 5:0.98935598 6:1.1610434 7:1 8:0 #
0.57349423686063605298812717592227 1:0.14822222 2:0.51851851 3:0.033022221 4:0.0032667131 5:0.352382 6:-0.44688106 7:0 8:1 #
-0.57349423686063605298812717592227 1:0.223 2:0.40625 3:0.044833332 4:0.0028330791 5:0.93253601 6:1.2166251 7:1 8:0 #
0.57349423686063605298812717592227 1:0.30355555 2:0.59523809 3:0.050277777 4:0.0026764695 5:0.256183 6:-0.37494934 7:0 8:1 #
-0.57349423686063605298812717592227 1:0.18563265 2:0.94871795 3:0.031554159 4:0.00091377599 5:0.98419797 6:1.6429847 7:1 8:0 #
-0.57349423686063605298812717592227 1:0.16159999 2:1 3:0.038666666 4:0.00027464662 5:0.940153 6:1.7150369 7:1 8:0 #
0.57349423686063605298812717592227 1:0.27739131 2:0.58333331 3:0.047014493 4:0.0013048039 5:0.49585 6:-0.1204313 7:0 8:1 #
0.57349423686063605298812717592227 1:0.19283333 2:0.5714286 3:0.054033332 4:0.0098390887 5:0.63196301 6:-0.14007291 7:0 8:1 #
-0.57349423686063605298812717592227 1:0.198 2:0.625 3:0.012115384 4:0.00048090678 5:0.56454802 6:-0.16936268 7:0 8:1 #
0.57349423686063605298812717592227 1:0.2128 2:0.91666669 3:0.04975 4:0.0029102229 5:0.92778403 6:1.6842424 7:1 8:0 #
-0.57349423686063605298812717592227 1:0.22904348 2:0.5714286 3:0.044307694 4:0.0018410323 5:0.527668 6:-0.0987892 7:0 8:1 #
0.57349423686063605298812717592227 1:0.243 2:0.55000001 3:0.034638889 4:0.0026572649 5:0.95218003 6:1.5039902 7:1 8:0 #
-0.57349423686063605298812717592227 1:0.30475 2:0.53846157 3:0.067666665 4:0.013419422 5:0.47446901 6:-0.16797109 7:0 8:1 #
-0.57349423686063605298812717592227 1:0.20185715 2:0.44444445 3:0.035978023 4:0.001363206 5:0.59767401 6:-0.12656514 7:0 8:1 #
0.57349423686063605298812717592227 1:0.222 2:0.73333335 3:0.048 4:0.0039487998 5:0.73368299 6:1.2189227 7:1 8:0 #
0.57349423686063605298812717592227 1:0.63 2:0.48717949 3:0.048461538 4:0.0013887702 5:0.901438 6:1.4207394 7:1 8:0 #
-0.57349423686063605298812717592227 1:0.28717646 2:0.83687943 3:0.039040726 4:0.002265851 5:0.91315699 6:1.3104389 7:1 8:0 #
-0.57349423686063605298812717592227 1:0.29627585 2:0.35135135 3:0.060710877 4:0.0019060936 5:0.69687599 6:1.2971002 7:1 8:0 #
0.57349423686063605298812717592227 1:0.26780951 2:0.89999998 3:0.056076191 4:0.0088268584 5:0.75533301 6:0.20946409 7:0 8:1 #
0.57349423686063605298812717592227 1:0.206 2:0.42500001 3:0.023 4:0.002234783 5:0.29061201 6:-0.23576468 7:0 8:1 #
0.57349423686063605298812717592227 1:0.13187097 2:0.30769232 3:0.032129031 4:0.003465954 5:0.76698399 6:-0.023327302 7:0 8:1 #
-0.57349423686063605298812717592227 1:0.35800001 2:0.92500001 3:0.062666669 4:0.006761435 5:0.99560797 6:1.9624261 7:1 8:0 #
-0.57349423686063605298812717592227 1:0.17290322 2:1 3:0.054236557 4:0.0040955138 5:0.99181199 6:1.777228 7:1 8:0 #
0.57349423686063605298812717592227 1:0.25181818 2:0.10344828 3:0.027969697 4:0.001465057 5:0.27246401 6:-0.31243622 7:0 8:1 #
-0.57349423686063605298812717592227 1:0.19341177 2:0.51999998 3:0.021274509 4:0.00045290426 5:0.555502 6:-0.01629338 7:0 8:1 #
0.57349423686063605298812717592227 1:0.23061538 2:1 3:0.049415383 4:0.0067795864 5:0.98368901 6:1.7268935 7:1 8:0 #
-0.57349423686063605298812717592227 1:0.20769231 2:0.26666668 3:0.02175148 4:0.00080940616 5:0.77098602 6:-0.056057569 7:0 8:1 #
-0.57349423686063605298812717592227 1:0.22133334 2:0.16666667 3:0.08546032 4:0.0051562483 5:0.94279701 6:0.69509578 7:1 8:0 #
0.57349423686063605298812717592227 1:0.29538462 2:0.79166669 3:0.096615382 4:0.020669531 5:0.96266103 6:1.5072192 7:1 8:0 #
-0.57349423686063605298812717592227 1:0.24363637 2:0.090909094 3:0.098181821 4:0.031808343 5:0.011301 6:-0.96166801 7:0 8:1 #
-0.57349423686063605298812717592227 1:0.26866665 2:0.06122449 3:0.085333332 4:0.0073650321 5:0.01177 6:-0.96657288 7:0 8:1 #
0.57349423686063605298812717592227 1:0.30065116 2:0.95238096 3:0.0401938 4:0.0017578796 5:0.97655803 6:1.3826649 7:1 8:0 #
0.57349423686063605298812717592227 1:0.63 2:0.97222221 3:0.048461538 4:0.0013887702 5:0.901438 6:1.4330436 7:1 8:0 #
-0.57349423686063605298812717592227 1:0.31783783 2:0.94285715 3:0.12172973 4:0.016995452 5:0.97376198 6:1.3183026 7:1 8:0 #
0.57349423686063605298812717592227 1:0.193 2:0.30000001 3:0.028423076 4:0.0011323018 5:0.040734999 6:-0.92848748 7:0 8:1 #
-0.57349423686063605298812717592227 1:0.32944444 2:1 3:0.138 4:0.024905812 5:0.97509497 6:1.2674162 7:1 8:0 #
-0.57349423686063605298812717592227 1:0.27466667 2:0.25 3:0.032879122 4:0.0031077419 5:0.71975499 6:0.10624626 7:0 8:1 #
0.57349423686063605298812717592227 1:0.17161904 2:0.16 3:0.030971428 4:0.004817022 5:0.15891699 6:-0.66602767 7:0 8:1 #
-0.57349423686063605298812717592227 1:0.2124 2:0.5 3:0.027815385 4:0.0014392585 5:0.85612798 6:0.18604451 7:0 8:1 #
-0.57349423686063605298812717592227 1:0.25999999 2:0.33333334 3:0.039700001 4:0.0019752898 5:0.89437801 6:0.30771419 7:0 8:1 #
0.57349423686063605298812717592227 1:0.24588235 2:0.055555556 3:0.015402715 4:0.0010322314 5:0.21241701 6:-0.52560276 7:0 8:1 #
0.57349423686063605298812717592227 1:0.20923077 2:0.45454547 3:0.04713846 4:0.0060237283 5:0.019931 6:-0.96042508 7:0 8:1 #
-0.57349423686063605298812717592227 1:0.19125 2:0.46728972 3:0.017729167 4:0.0010825591 5:0.036669999 6:-0.87789744 7:0 8:1 #
0.57349423686063605298812717592227 1:0.18611765 2:0.60000002 3:0.026047058 4:0.0035278818 5:0.79195201 6:0.019898236 7:0 8:1 #
-0.57349423686063605298812717592227 1:0.19446154 2:0.44210526 3:0.031461537 4:0.001051117 5:0.060453001 6:-0.70973325 7:0 8:1 #
0.57349423686063605298812717592227 1:0.18015385 2:0.95833331 3:0.052692309 4:0.0042594997 5:0.806458 6:0.58009452 7:1 8:0 #
-0.57349423686063605298812717592227 1:0.26133335 2:1 3:0.048555557 4:0.0038724074 5:0.032683998 6:-0.90274894 7:0 8:1 #
0.57349423686063605298812717592227 1:0.1574 2:0.27777779 3:0.036559999 4:0.004996975 5:0.61217201 6:0.18863925 7:0 8:1 #
-0.57349423686063605298812717592227 1:0.27059999 2:1 3:0.069583334 4:0.0034988779 5:0.45383 6:0.48024943 7:1 8:0 #
0.57349423686063605298812717592227 1:0.14590909 2:1 3:0.052181818 4:0.0019223724 5:0.99786103 6:1.0722733 7:1 8:0 #
0.57349423686063605298812717592227 1:0.24044445 2:0.88636363 3:0.064395063 4:0.006664834 5:0.69721103 6:0.57327384 7:1 8:0 #
0.57349423686063605298812717592227 1:0.35214815 2:0.95652175 3:0.099148147 4:0.0056659137 5:0.88335901 6:3.0995157 7:1 8:0 #
-0.57349423686063605298812717592227 1:0.3297143 2:1 3:0.078000002 4:0.0060042278 5:0.72584999 6:0.52998704 7:1 8:0 #
-0.57349423686063605298812717592227 1:0.27599999 2:0.96363634 3:0.04356923 4:0.0028441034 5:0.040785 6:-0.89021003 7:0 8:1 #
0.57349423686063605298812717592227 1:0.28168422 2:0.609375 3:0.05068421 4:0.0020685152 5:0.28803501 6:-0.24428295 7:1 8:0 #
0.57349423686063605298812717592227 1:0.31973332 2:0.92500001 3:0.053433333 4:0.003821969 5:0.84985 6:1.1397667 7:1 8:0 #
-0.57349423686063605298812717592227 1:0.10133334 2:0.96551722 3:0.036686867 4:0.00081978441 5:0.945023 6:3.0838437 7:1 8:0 #
0.57349423686063605298812717592227 1:0.15642105 2:0.880597 3:0.044543859 4:0.00083301566 5:0.091314003 6:-0.63172734 7:0 8:1 #
0.57349423686063605298812717592227 1:0.26905262 2:0.53225809 3:0.074210525 4:0.0038920082 5:0.28045899 6:-0.11452328 7:1 8:0 #
0.57349423686063605298812717592227 1:0.31266665 2:0.98750001 3:0.027916666 4:0.0019027005 5:0.54369199 6:0.42977107 7:1 8:0 #
-0.57349423686063605298812717592227 1:0.33238095 2:0.67605633 3:0.043912087 4:0.0025925739 5:0.39261201 6:0.13708082 7:1 8:0 #
0.57349423686063605298812717592227 1:0.26618183 2:0.89915967 3:0.11054546 4:0.0084829489 5:0.0059079998 6:-0.98266172 7:0 8:1 #
-0.57349423686063605298812717592227 1:0.26699999 2:0.69230771 3:0.03320238 4:0.0025706494 5:0.57435501 6:0.22531389 7:1 8:0 #
-0.57349423686063605298812717592227 1:0.24322581 2:0.30000001 3:0.034709677 4:0.0066569247 5:0.513457 6:0.13399574 7:1 8:0 #
0.57349423686063605298812717592227 1:0.2604 2:0.953125 3:0.1144 4:0.0035188994 5:0.086650997 6:-0.73746526 7:0 8:1 #
-0.57349423686063605298812717592227 1:0.23144828 2:0.70833331 3:0.039172415 4:0.0026726357 5:0.57613403 6:0.26127517 7:1 8:0 #
0.57349423686063605298812717592227 1:0.2604 2:0.95934957 3:0.1144 4:0.0035188994 5:0.086650997 6:-0.68995148 7:0 8:1 #
0.57349423686063605298812717592227 1:0.2942 2:0.96666664 3:0.033166666 4:0.0014140756 5:0.24223299 6:-0.4652352 7:0 8:1 #
-0.57349423686063605298812717592227 1:0.26899999 2:0.97183096 3:0.054000001 4:0.0033888852 5:0.14012 6:-0.61212289 7:0 8:1 #
0.57349423686063605298812717592227 1:0.252 2:0.54545456 3:0.032491229 4:0.0016320038 5:0.492351 6:0.17664461 7:1 8:0 #
-0.57349423686063605298812717592227 1:0.229 2:0.9649123 3:0.034249999 4:0.0029027665 5:0.146106 6:-0.59419262 7:0 8:1 #
0.57349423686063605298812717592227 1:0.18417391 2:0.42857143 3:0.055130433 4:0.011341214 5:0.833965 6:0.026358549 7:1 8:0 #
-0.57349423686063605298812717592227 1:0.23323077 2:1 3:0.030130178 4:0.0019539671 5:0.173006 6:-0.49894094 7:0 8:1 #
-0.57349423686063605298812717592227 1:0.2184 2:0.94949496 3:0.0231 4:0.00042714024 5:0.178996 6:-0.50832504 7:0 8:1 #
0.57349423686063605298812717592227 1:0.2469091 2:0.037037037 3:0.074909091 4:0.010253095 5:0.98443598 6:0.14375152 7:1 8:0 #
0.57349423686063605298812717592227 1:0.16144 2:0.27272728 3:0.026688 4:0.0070378622 5:0.73179603 6:0.084006153 7:1 8:0 #
-0.57349423686063605298812717592227 1:0.20742857 2:0.23076923 3:0.049571428 4:0.0079309624 5:0.646936 6:0.090315469 7:1 8:0 #
-0.57349423686063605298812717592227 1:0.15911111 2:0.2 3:0.02760114 4:0.00065002433 5:0.61115003 6:0.0729075 7:1 8:0 #
0.57349423686063605298812717592227 1:0.23415385 2:0.60606062 3:0.069230773 4:0.0059066084 5:0.15849701 6:-0.75919676 7:0 8:1 #
-0.57349423686063605298812717592227 1:0.2006 2:0.22222222 3:0.037284616 4:0.0013894703 5:0.94437999 6:0.18041417 7:1 8:0 #
-0.57349423686063605298812717592227 1:0.24755555 2:0.125 3:0.067185186 4:0.0070201294 5:0.842574 6:0.10769607 7:1 8:0 #
0.57349423686063605298812717592227 1:0.28240001 2:0.73333335 3:0.047733333 4:0.0017734329 5:0.109526 6:-0.75820535 7:0 8:1 #
0.57349423686063605298812717592227 1:0.28072727 2:0.71052629 3:0.048318181 4:0.0033243543 5:0.221283 6:-0.63602793 7:0 8:1 #
-0.57349423686063605298812717592227 1:0.25515789 2:0.61538464 3:0.075508773 4:0.0088814488 5:0.116734 6:-0.80980891 7:0 8:1 #
-0.57349423686063605298812717592227 1:0.25600001 2:0.61428571 3:0.068777777 4:0.0043385508 5:0.091179997 6:-0.82648474 7:0 8:1 #
0.57349423686063605298812717592227 1:0.19810526 2:0.22222222 3:0.043494739 4:0.0054399972 5:0.759556 6:0.47481114 7:1 8:0 #
0.57349423686063605298812717592227 1:0.1922963 2:0.083333336 3:0.037096296 4:0.0050541651 5:0.67504299 6:0.24858403 7:1 8:0 #
-0.57349423686063605298812717592227 1:0.28293332 2:0.65517241 3:0.0748 4:0.010308537 5:0.066110998 6:-0.86680579 7:0 8:1 #
-0.57349423686063605298812717592227 1:0.29449999 2:0.61538464 3:0.15099999 4:0.022632387 5:0.077353001 6:-0.78708684 7:0 8:1 #
0.57349423686063605298812717592227 1:0.1923077 2:0.018691588 3:0.043641027 4:0.0030964913 5:0.37580201 6:0.34274513 7:1 8:0 #
0.57349423686063605298812717592227 1:0.31527272 2:0.12121212 3:0.040363636 4:0.0023146218 5:0.460603 6:0.28967804 7:1 8:0 #
-0.57349423686063605298812717592227 1:0.21338461 2:0.10638298 3:0.028000001 4:0.0012942421 5:0.66466498 6:0.41009739 7:1 8:0 #
0.57349423686063605298812717592227 1:0.18369231 2:0.70909089 3:0.044615384 4:0.004208832 5:0.017921001 6:-0.96532029 7:0 8:1 #
-0.57349423686063605298812717592227 1:0.21135999 2:0.11538462 3:0.02784 4:0.0054604751 5:0.66941398 6:0.47867909 7:1 8:0 #
-0.57349423686063605298812717592227 1:0.32499999 2:0.022222223 3:0.069576927 4:0.00099554076 5:0.551036 6:0.56903505 7:1 8:0 #
-0.57349423686063605298812717592227 1:0.23833333 2:0.074074075 3:0.032736111 4:0.0010063985 5:0.480122 6:0.39656326 7:1 8:0 #
0.57349423686063605298812717592227 1:0.32218182 2:0.65384614 3:0.056545455 4:0.0090135653 5:0.441111 6:-0.31106162 7:0 8:1 #
-0.57349423686063605298812717592227 1:0.28233334 2:0.21428572 3:0.059999999 4:0.0023880571 5:0.661856 6:0.55864948 7:1 8:0 #
-0.57349423686063605298812717592227 1:0.25600001 2:0.14814815 3:0.050000001 4:0.0025581273 5:0.633784 6:0.39072075 7:1 8:0 #
0.57349423686063605298812717592227 1:0.47485715 2:0.47058824 3:0.10590477 4:0.027134836 5:0.49979401 6:-0.26065952 7:0 8:1 #
0.57349423686063605298812717592227 1:0.27571428 2:0.45454547 3:0.066 4:0.0015582679 5:0.16954701 6:-0.61463517 7:0 8:1 #
0.57349423686063605298812717592227 1:0.19561905 2:0.33333334 3:0.033428572 4:0.0022790455 5:0.593252 6:0.37966615 7:1 8:0 #
0.57349423686063605298812717592227 1:0.41566667 2:0.35714287 3:0.075319447 4:0.0023113387 5:0.74903899 6:0.62876952 7:1 8:0 #
-0.57349423686063605298812717592227 1:0.26428571 2:0.47619048 3:0.096380949 4:0.005222986 5:0.393953 6:-0.32473946 7:0 8:1 #
-0.57349423686063605298812717592227 1:0.40400001 2:1 3:0.07 4:0.0045036776 5:0.97945797 6:0.84090626 7:1 8:0 #
-0.57349423686063605298812717592227 1:0.23764706 2:0.53968257 3:0.08345098 4:0.004786659 5:0.34455499 6:-0.40941077 7:0 8:1 #
0.57349423686063605298812717592227 1:0.20900001 2:0.1875 3:0.030208332 4:0.0010089615 5:0.758623 6:0.99039817 7:1 8:0 #
-0.57349423686063605298812717592227 1:0.2344 2:0.68000001 3:0.025353847 4:0.00052773574 5:0.436279 6:-0.33415124 7:0 8:1 #
-0.57349423686063605298812717592227 1:0.25923809 2:0.36363637 3:0.041904762 4:0.00142511 5:0.45186201 6:-0.27728805 7:0 8:1 #
0.46363322012892460577404563082382 1:0.73066664 2:0.91666669 3:0.088923074 4:0.0069492497 5:0.95990998 6:0.37821519 7:1 8:0 #
0.57349423686063605298812717592227 1:0.63 2:0.96666664 3:0.048461538 4:0.0013887702 5:0.901438 6:0.42963266 7:1 8:0 #
-0.57349423686063605298812717592227 1:0.24226087 2:0.5925926 3:0.050999999 4:0.0015458487 5:0.88083798 6:0.75479645 7:1 8:0 #
0.57349423686063605298812717592227 1:0.23557895 2:0.2 3:0.048757896 4:0.0058097881 5:0.386556 6:-0.32860491 7:0 8:1 #
-0.57349423686063605298812717592227 1:0.34720001 2:0.30555555 3:0.10826667 4:0.01765193 5:0.95365602 6:0.73115402 7:1 8:0 #
-0.57349423686063605298812717592227 1:0.27984616 2:1 3:0.068538465 4:0.0070056599 5:0.62149501 6:0.27016562 7:1 8:0 #
-0.57349423686063605298812717592227 1:0.2075 2:0.58333331 3:0.034499999 4:0.001541579 5:0.52866203 6:0.11766506 7:1 8:0 #
0.57349423686063605298812717592227 1:0.1487619 2:0.56521738 3:0.030704763 4:0.0047882106 5:0.14270601 6:-0.68367773 7:0 8:1 #
-0.57349423686063605298812717592227 1:0.31109092 2:0.85185188 3:0.074303031 4:0.0056033093 5:0.69918102 6:0.20973517 7:1 8:0 #
-0.57349423686063605298812717592227 1:0.26283333 2:0.76190478 3:0.029602565 4:0.0012596735 5:0.54788202 6:0.13669655 7:1 8:0 #
0.57349423686063605298812717592227 1:0.14981818 2:0.94444442 3:0.065772727 4:0.0047733434 5:0.40412501 6:-0.20819722 7:0 8:1 #
0.57349423686063605298812717592227 1:0.37623531 2:0.86956519 3:0.075764708 4:0.0072868424 5:0.55968601 6:-0.21117522 7:0 8:1 #
-0.57349423686063605298812717592227 1:0.23478261 2:0.66666669 3:0.069797099 4:0.0023347202 5:0.28785801 6:-0.58699018 7:0 8:1 #
0.57349423686063605298812717592227 1:0.21858823 2:0.67647058 3:0.062823527 4:0.0070783305 5:0.76709998 6:0.53225672 7:1 8:0 #
0.57349423686063605298812717592227 1:0.28740001 2:0.65384614 3:0.035950001 4:0.0020916441 5:0.72372198 6:0.48184234 7:1 8:0 #
-0.57349423686063605298812717592227 1:0.59680003 2:0.95833331 3:0.1132 4:0.018074326 5:0.38024801 6:-0.24795988 7:0 8:1 #
-0.57349423686063605298812717592227 1:0.29413334 2:0.88095236 3:0.051444445 4:0.0023863045 5:0.44388399 6:-0.16588943 7:0 8:1 #
0.57349423686063605298812717592227 1:0.12054545 2:0.625 3:0.038981818 4:0.0045980383 5:0.624789 6:0.044255666 7:1 8:0 #
0.57349423686063605298812717592227 1:0.29044443 2:0.63636363 3:0.05962963 4:0.0028459942 5:0.39283001 6:-0.061195564 7:1 8:0 #
-0.57349423686063605298812717592227 1:0.21380645 2:0.52499998 3:0.037258066 4:0.0032014949 5:0.70305997 6:0.29047912 7:1 8:0 #
-0.57349423686063605298812717592227 1:0.2436 2:0.48837209 3:0.075599998 4:0.0032147581 5:0.64507401 6:0.16825347 7:1 8:0 #
0.57349423686063605298812717592227 1:0.15428571 2:0.75 3:0.041104764 4:0.0041566319 5:0.473212 6:-0.38585311 7:0 8:1 #
0.57349423686063605298812717592227 1:0.65200001 2:0.93333334 3:0.13933334 4:0.035572127 5:0.296179 6:-0.39469123 7:0 8:1 #
-0.57349423686063605298812717592227 1:0.30085716 2:0.80555558 3:0.0249011 4:0.0011146639 5:0.73913002 6:0.99496311 7:1 8:0 #
-0.57349423686063605298812717592227 1:0.20338461 2:0.55000001 3:0.038953844 4:0.0007582028 5:0.249672 6:-0.39327428 7:1 8:0 #
0.57349423686063605298812717592227 1:0.1656 2:0.73170733 3:0.027975384 4:0.0016110068 5:0.049738001 6:-0.88574296 7:0 8:1 #
-0.57349423686063605298812717592227 1:0.41299999 2:0.91666669 3:0.13533333 4:0.022064913 5:0.98935598 6:1.1247734 7:1 8:0 #
0.57349423686063605298812717592227 1:0.25812501 2:0.60000002 3:0.05323077 4:0.0014773761 5:0.889889 6:0.56224918 7:1 8:0 #
0.57349423686063605298812717592227 1:0.17793548 2:0.25 3:0.042090323 4:0.0049740062 5:0.82160699 6:0.027891934 7:0 8:1 #
-0.57349423686063605298812717592227 1:0.308 2:0.85714287 3:0.035523809 4:0.00095783774 5:0.001163 6:-0.99755043 7:0 8:1 #
-0.57349423686063605298812717592227 1:0.1772093 2:0.25 3:0.020255813 4:0.0009499013 5:0.84717 6:0.039133985 7:0 8:1 #
0.57349423686063605298812717592227 1:0.34914285 2:0.89999998 3:0.057285715 4:0.0018782358 5:0.02926 6:-0.92305368 7:0 8:1 #
-0.57349423686063605298812717592227 1:0.16157576 2:0.40000001 3:0.043347318 4:0.0014537034 5:0.80933797 6:-0.0021982745 7:0 8:1 #
-0.57349423686063605298812717592227 1:0.10678788 2:0.5 3:0.040121213 4:0.00090590474 5:0.93282902 6:-0.034675773 7:0 8:1 #
0.57349423686063605298812717592227 1:0.26625001 2:0.86153847 3:0.0625 4:0.0039341277 5:0.086838998 6:-0.73746163 7:0 8:1 #
0.57349423686063605298812717592227 1:0.18133333 2:0.5 3:0.057518519 4:0.0016286771 5:0.024468999 6:-0.94977081 7:0 8:1 #
-0.57349423686063605298812717592227 1:0.32499999 2:0.74193549 3:0.043666668 4:0.010135314 5:0.005442 6:-0.98738259 7:0 8:1 #
0.57349423686063605298812717592227 1:0.15793549 2:0.16666667 3:0.046348386 4:0.0051608882 5:0.76625401 6:0.022940673 7:0 8:1 #
0.57349423686063605298812717592227 1:0.19285715 2:0.66666669 3:0.069342859 4:0.0050426275 5:0.89508998 6:-0.049287286 7:0 8:1 #
-0.57349423686063605298812717592227 1:0.294 2:0.72727275 3:0.03675 4:0.0043644374 5:0.017312 6:-0.95319885 7:0 8:1 #
0.57349423686063605298812717592227 1:0.29028571 2:0.44 3:0.042285714 4:0.0048825489 5:0.114758 6:-0.74897832 7:0 8:1 #
-0.57349423686063605298812717592227 1:0.23999999 2:0.1724138 3:0.057583332 4:0.001584779 5:0.31591001 6:-0.46239343 7:0 8:1 #
-0.57349423686063605298812717592227 1:0.29475001 2:0.83333331 3:0.034846153 4:0.0023379866 5:0.29921401 6:-0.40831366 7:0 8:1 #
-0.57349423686063605298812717592227 1:0.19114286 2:0.043478262 3:0.018214285 4:0.00010253954 5:0.053240001 6:-0.75292242 7:0 8:1 #
-0.57349423686063605298812717592227 1:0.29771429 2:0.08510638 3:0.017999999 4:0.00062088069 5:0.19439501 6:-0.58326632 7:0 8:1 #
-0.57349423686063605298812717592227 1:0.24704 2:0.56521738 3:0.034221537 4:0.0017553095 5:0.98201603 6:0.77840829 7:1 8:0 #
0.57349423686063605298812717592227 1:0.17408696 2:0.47368422 3:0.036069565 4:0.0045678057 5:0.25094399 6:-0.55895871 7:0 8:1 #
0.57349423686063605298812717592227 1:0.29028571 2:0.44 3:0.042285714 4:0.0048825489 5:0.114758 6:-0.74897832 7:0 8:1 #
-0.57349423686063605298812717592227 1:0.19292857 2:0.34482759 3:0.037482142 4:0.0031235393 5:0.98813498 6:0.30225629 7:1 8:0 #
-0.57349423686063605298812717592227 1:0.18799999 2:0.34042552 3:0.035272729 4:0.0012057862 5:0.95984 6:0.4298045 7:1 8:0 #
0.57349423686063605298812717592227 1:0.2192 2:0.16666667 3:0.050560001 4:0.0026829632 5:0.446731 6:-0.33957282 7:0 8:1 #
-0.57349423686063605298812717592227 1:0.2176 2:0.36000001 3:0.052080002 4:0.002422415 5:0.229651 6:-0.5663842 7:0 8:1 #
0.57349423686063605298812717592227 1:0.14399999 2:0.4375 3:0.032285713 4:0.0043982742 5:0.83255899 6:0.65470165 7:1 8:0 #
-0.57349423686063605298812717592227 1:0.2165 2:0.46464646 3:0.022875 4:0.00040601776 5:0.094465002 6:-0.74051893 7:0 8:1 #
0.57349423686063605298812717592227 1:0.2352 2:0.2857143 3:0.051666666 4:0.0015956577 5:0.95001 6:0.66735297 7:1 8:0 #
-0.57349423686063605298812717592227 1:0.30914286 2:0.3125 3:0.083428569 4:0.016916033 5:0.170913 6:-0.63294166 7:0 8:1 #
-0.57349423686063605298812717592227 1:0.27257141 2:0.35294119 3:0.054190475 4:0.0023872962 5:0.259819 6:-0.49578601 7:0 8:1 #
0.57349423686063605298812717592227 1:0.1247 2:0.94117647 3:0.030820001 4:0.0032482499 5:0.97521901 6:0.58623749 7:1 8:0 #
0.57349423686063605298812717592227 1:0.2156 2:1 3:0.048640002 4:0.0060635614 5:0.98726499 6:0.37816334 7:1 8:0 #
-0.57349423686063605298812717592227 1:0.21547826 2:0.89552242 3:0.018528428 4:0.00056223007 5:0.83026999 6:0.547499 7:1 8:0 #
0.57349423686063605298812717592227 1:0.20553847 2:0.21428572 3:0.04253846 4:0.0042560422 5:0.25258401 6:-0.45752481 7:0 8:1 #
-0.57349423686063605298812717592227 1:0.23199999 2:0.81818181 3:0.042143922 4:0.0018680118 5:0.90503299 6:0.53970188 7:1 8:0 #
-0.57349423686063605298812717592227 1:0.20066667 2:0.85454547 3:0.020358974 4:0.00101545 5:0.94161201 6:0.60193247 7:1 8:0 #
0.57349423686063605298812717592227 1:0.34363636 2:0.48275861 3:0.07609091 4:0.0057528131 5:0.123884 6:-0.7592774 7:0 8:1 #
0.57349423686063605298812717592227 1:0.22977778 2:0.5 3:0.048577778 4:0.0074663558 5:0.27852699 6:-0.58122844 7:0 8:1 #
0.57349423686063605298812717592227 1:0.30063999 2:0.89999998 3:0.079466663 4:0.009197372 5:0.843054 6:0.68769306 7:1 8:0 #
-0.57349423686063605298812717592227 1:0.229 2:0.3888889 3:0.086166665 4:0.005576456 5:0.236212 6:-0.57120878 7:0 8:1 #
-0.57349423686063605298812717592227 1:0.229 2:0.39393941 3:0.086166665 4:0.005576456 5:0.236212 6:-0.56126589 7:0 8:1 #
-0.57349423686063605298812717592227 1:0.22273684 2:0.5 3:0.057824563 4:0.0050517437 5:0.31300101 6:-0.43229264 7:0 8:1 #
0.57349423686063605298812717592227 1:0.29666665 2:0.89473683 3:0.048933335 4:0.0099057546 5:0.87237298 6:0.48435485 7:1 8:0 #
-0.57349423686063605298812717592227 1:0.20376471 2:0.29411766 3:0.041294117 4:0.00078380451 5:0.28275099 6:-0.52023411 7:0 8:1 #
0.57349423686063605298812717592227 1:0.12514286 2:0.875 3:0.030994285 4:0.0041833487 5:0.95140201 6:0.19027521 7:1 8:0 #
-0.57349423686063605298812717592227 1:0.338 2:1 3:0.082000002 4:0.01050176 5:0.93856603 6:0.41219166 7:1 8:0 #
-0.57349423686063605298812717592227 1:0.20452175 2:1 3:0.045275364 4:0.00090471259 5:0.954368 6:0.35179603 7:1 8:0 #
0.57349423686063605298812717592227 1:0.29725 2:0.53191489 3:0.04425 4:0.009348142 5:0.363673 6:-0.28050491 7:0 8:1 #
0.57349423686063605298812717592227 1:0.36436364 2:0.32142857 3:0.060242426 4:0.0061552823 5:0.40103799 6:-0.25954187 7:0 8:1 #
-0.57349423686063605298812717592227 1:0.22400001 2:0.83333331 3:0.054518517 4:0.0038408532 5:0.948273 6:0.36055297 7:1 8:0 #
-0.57349423686063605298812717592227 1:0.16387096 2:0.83333331 3:0.0222043 4:0.00023590909 5:0.94366598 6:0.39169031 7:1 8:0 #
0.57349423686063605298812717592227 1:0.15107693 2:0.28125 3:0.060923077 4:0.0067563332 5:0.22799399 6:-0.4994784 7:0 8:1 #
-0.57349423686063605298812717592227 1:0.22679999 2:0.49253732 3:0.054338463 4:0.0015170056 5:0.337897 6:-0.37021056 7:0 8:1 #
0.57349423686063605298812717592227 1:0.23266667 2:0.92000002 3:0.047033332 4:0.0012297222 5:0.99823701 6:0.40702403 7:1 8:0 #
-0.57349423686063605298812717592227 1:0.27200001 2:0.38461539 3:0.057500001 4:0.0079708658 5:0.48202801 6:-0.22091827 7:0 8:1 #
-0.57349423686063605298812717592227 1:0.23999999 2:0.2857143 3:0.057583332 4:0.001584779 5:0.31591001 6:-0.36453649 7:0 8:1 #
0.57349423686063605298812717592227 1:0.21185714 2:1 3:0.058582418 4:0.0020134985 5:0.99687099 6:0.22050054 7:1 8:0 #
-0.57349423686063605298812717592227 1:0.338 2:1 3:0.082000002 4:0.01050176 5:0.93856603 6:0.52386242 7:1 8:0 #
0.57349423686063605298812717592227 1:0.19599999 2:0.41176471 3:0.081650794 4:0.0040638675 5:0.33263099 6:-0.30424401 7:0 8:1 #
0.57349423686063605298812717592227 1:0.27833334 2:0.34999999 3:0.061583333 4:0.0048605208 5:0.057411999 6:-0.85544711 7:0 8:1 #
0.57349423686063605298812717592227 1:0.36742857 2:0.41176471 3:0.10361905 4:0.0025461493 5:0.54056299 6:-0.068477876 7:0 8:1 #
-0.57349423686063605298812717592227 1:0.32499999 2:0.0094339624 3:0.069576927 4:0.00099554076 5:0.551036 6:1.1649034 7:1 8:0 #
-0.57349423686063605298812717592227 1:0.2696 2:0.83870965 3:0.1004 4:0.013890584 5:0.50928199 6:-0.18749706 7:0 8:1 #
0.57349423686063605298812717592227 1:0.63 2:0.98245615 3:0.048461538 4:0.0013887702 5:0.901438 6:0.89748716 7:1 8:0 #
-0.57349423686063605298812717592227 1:0.382 2:0.59090906 3:0.086599998 4:0.018580841 5:0.425944 6:-0.1329722 7:0 8:1 #
-0.57349423686063605298812717592227 1:0.382 2:0.58333331 3:0.086599998 4:0.018580841 5:0.425944 6:-0.12406263 7:0 8:1 #
0.57349423686063605298812717592227 1:0.1354074 2:0.375 3:0.0288 4:0.0044931634 5:0.83285499 6:0.92894828 7:1 8:0 #
0.57349423686063605298812717592227 1:0.28707692 2:0.12149533 3:0.068089746 4:0.0020992835 5:0.769063 6:1.7478715 7:1 8:0 #
0.57349423686063605298812717592227 1:0.31617391 2:0.55000001 3:0.059652176 4:0.0096180756 5:0.51495999 6:-0.15119377 7:0 8:1 #
-0.57349423686063605298812717592227 1:0.31988236 2:0.3611111 3:0.083490193 4:0.0077560889 5:0.97776401 6:1.4332211 7:1 8:0 #
-0.57349423686063605298812717592227 1:0.39680001 2:1 3:0.138 4:0.013624368 5:0.94707799 6:0.63604957 7:1 8:0 #
0.57349423686063605298812717592227 1:0.13581818 2:0.60000002 3:0.037527274 4:0.004632493 5:0.36497301 6:-0.39841667 7:0 8:1 #
0.57349423686063605298812717592227 1:0.42246154 2:0.74193549 3:0.06246154 4:0.0045217611 5:0.26613301 6:-0.40533239 7:0 8:1 #
-0.57349423686063605298812717592227 1:0.33533335 2:1 3:0.073487177 4:0.0028702961 5:0.923491 6:0.81105077 7:1 8:0 #
-0.57349423686063605298812717592227 1:0.32025 2:1 3:0.051673077 4:0.0014405994 5:0.84446502 6:0.77756155 7:1 8:0 #
0.57349423686063605298812717592227 1:0.2364706 2:0.78512394 3:0.07088235 4:0.0030800225 5:0.19022 6:-0.56791788 7:0 8:1 #
0.57349423686063605298812717592227 1:0.2540606 2:0.80165291 3:0.069484845 4:0.0040705111 5:0.88194501 6:1.0033261 7:1 8:0 #
-0.57349423686063605298812717592227 1:0.27966666 2:0.52380955 3:0.065777779 4:0.0088238195 5:0.178505 6:-0.69403106 7:0 8:1 #
-0.57349423686063605298812717592227 1:0.30076191 2:0.060606062 3:0.069968253 4:0.0084200688 5:0.323219 6:-0.347103 7:0 8:1 #
0.57349423686063605298812717592227 1:0.20027587 2:1 3:0.045682758 4:0.0061458689 5:0.97226399 6:0.60156029 7:1 8:0 #
0.57349423686063605298812717592227 1:0.63 2:0.97619045 3:0.048461538 4:0.0013887702 5:0.901438 6:0.87022293 7:1 8:0 #
-0.57349423686063605298812717592227 1:0.23466666 2:0.15000001 3:0.039185185 4:0.0011182927 5:0.426395 6:-0.17196469 7:0 8:1 #
0.57349423686063605298812717592227 1:0.63 2:0.96363634 3:0.048461538 4:0.0013887702 5:0.901438 6:0.53358579 7:1 8:0 #
0.57349423686063605298812717592227 1:0.21511111 2:0.2647059 3:0.042133335 4:0.0062459814 5:0.33891401 6:-0.32303056 7:0 8:1 #
-0.57349423686063605298812717592227 1:0.24495652 2:0.56818181 3:0.062086955 4:0.0055475696 5:0.98026001 6:0.47854847 7:1 8:0 #
0.57349423686063605298812717592227 1:0.14666666 2:0.16666667 3:0.025733333 4:0.0039446964 5:0.32441401 6:-0.5122363 7:0 8:1 #
0.57349423686063605298812717592227 1:0.16949999 2:0.05882353 3:0.0233 4:0.0060966397 5:0.51220202 6:-0.10637286 7:0 8:1 #
-0.57349423686063605298812717592227 1:0.26069567 2:0.31578946 3:0.054144926 4:0.0025926225 5:0.97848499 6:0.65041924 7:1 8:0 #
-0.57349423686063605298812717592227 1:0.26133335 2:0.41538462 3:0.047282051 4:0.0036578635 5:0.93736899 6:0.9964484 7:1 8:0 #
0.57349423686063605298812717592227 1:0.23043478 2:0.1923077 3:0.048173912 4:0.01073821 5:0.62470698 6:-0.024316721 7:0 8:1 #
-0.57349423686063605298812717592227 1:0.17977142 2:0.24137931 3:0.03658022 4:0.0010305218 5:0.51149398 6:-0.2534689 7:0 8:1 #
-0.57349423686063605298812717592227 1:0.18523078 2:0.25 3:0.036591716 4:0.00074312958 5:0.48472801 6:-0.25253087 7:0 8:1 #
0.57349423686063605298812717592227 1:0.28715789 2:0.375 3:0.05908772 4:0.0016053364 5:0.87752599 6:0.92816561 7:1 8:0 #
0.57349423686063605298812717592227 1:0.17312001 2:0.5 3:0.041951999 4:0.0043573906 5:0.90230602 6:0.5671826 7:1 8:0 #
-0.57349423686063605298812717592227 1:0.184 2:0.2 3:0.037403509 4:0.001308638 5:0.537328 6:-0.21679176 7:0 8:1 #
-0.57349423686063605298812717592227 1:0.15288889 2:0.27272728 3:0.019792592 4:0.0012786338 5:0.51226002 6:-0.23558095 7:0 8:1 #
0.57349423686063605298812717592227 1:0.23478261 2:0.47058824 3:0.056973912 4:0.0071177753 5:0.89135301 6:0.55512321 7:1 8:0 #
0.57349423686063605298812717592227 1:0.19185714 2:0.79411763 3:0.031571429 4:0.0048940796 5:0.93150598 6:0.86065227 7:1 8:0 #
-0.57349423686063605298812717592227 1:0.24704 2:0.56521738 3:0.034221537 4:0.0017553095 5:0.98201603 6:0.77840829 7:1 8:0 #
-0.57349423686063605298812717592227 1:0.32025 2:1 3:0.051673077 4:0.0014405994 5:0.84446502 6:0.79857749 7:1 8:0 #
-0.57349423686063605298812717592227 1:0.2308 2:0.59322035 3:0.026007691 4:0.0021608328 5:0.968512 6:0.80464762 7:1 8:0 #
-0.57349423686063605298812717592227 1:0.25853333 2:0.58333331 3:0.050977778 4:0.007204521 5:0.85870999 6:0.94002897 7:1 8:0 #
0.57349423686063605298812717592227 1:0.24959999 2:0.1 3:0.057584614 4:0.0018310824 5:0.52521199 6:-0.077961393 7:0 8:1 #
0.57349423686063605298812717592227 1:0.31272727 2:0.5 3:0.033030301 4:0.0030268561 5:0.32510599 6:-0.3686623 7:0 8:1 #
-0.57349423686063605298812717592227 1:0.30914286 2:0.36363637 3:0.083428569 4:0.016916033 5:0.170913 6:-0.6266759 7:0 8:1 #
0.57349423686063605298812717592227 1:0.24303448 2:0.82051283 3:0.066206895 4:0.0046905158 5:0.86406702 6:1.0796088 7:1 8:0 #
-0.57349423686063605298812717592227 1:0.23766667 2:0.023255814 3:0.066333331 4:0.010163449 5:0.580338 6:0.051014114 7:0 8:1 #
-0.57349423686063605298812717592227 1:0.22103703 2:0.022727273 3:0.036854699 4:0.0023518251 5:0.66092199 6:0.095771454 7:0 8:1 #
0.57349423686063605298812717592227 1:0.23311999 2:0.87931037 3:0.02104 4:0.0011568492 5:0.718041 6:0.81197876 7:1 8:0 #
0.57349423686063605298812717592227 1:0.20592593 2:0.953125 3:0.035358023 4:0.0011796872 5:0.62375599 6:0.6365478 7:1 8:0 #
-0.57349423686063605298812717592227 1:0.17936 2:0.21167883 3:0.04552 4:0.00192594 5:0.93869501 6:0.25212365 7:0 8:1 #
0.57349423686063605298812717592227 1:0.63 2:0.70149255 3:0.048461538 4:0.0013887702 5:0.901438 6:0.6801455 7:1 8:0 #
-0.57349423686063605298812717592227 1:0.34799999 2:0.97058821 3:0.10986666 4:0.0024072349 5:0.88201398 6:0.68962705 7:1 8:0 #
-0.57349423686063605298812717592227 1:0.29544446 2:0.98701298 3:0.10233333 4:0.016339744 5:0.79150897 6:0.66889548 7:1 8:0 #
0.57349423686063605298812717592227 1:0.1426 2:0.38461539 3:0.04696 4:0.005178506 5:0.64926499 6:0.014038588 7:0 8:1 #
0.57349423686063605298812717592227 1:0.35168001 2:0.18518518 3:0.076880001 4:0.0063218633 5:0.81997198 6:-0.047328398 7:0 8:1 #
