SVM-light Version V6.02
2 # kernel type
3 # kernel parameter -d 
1 # kernel parameter -g 
1 # kernel parameter -s 
1 # kernel parameter -r 
empty# kernel parameter -u 
6 # highest feature index 
74672 # number of training documents 
14166 # number of support vectors plus 1 
-1.1082956 # threshold b, each following line is a SV (starting with alpha*y)
0.71552474172125546392209116675076 1:0.10275862 2:0.53846157 3:1 4:0.026303448 5:1.1703522e-06 6:0.53846157 #
0.71552474172125546392209116675076 1:0.22149999 2:0.12820514 3:0 4:0.0077 5:1.0598119e-07 6:0.12820514 #
0.71552474172125546392209116675076 1:0.50400001 2:0.12222222 3:0 4:0.05136 5:6.9033181e-06 6:0.12222222 #
-0.71552474172125546392209116675076 1:0.25600001 2:0.024096385 3:0 4:0.01044 5:1.3023393e-07 6:0.024096385 #
0.71552474172125546392209116675076 1:0.18755555 2:0.1875 3:0 4:0.021164445 5:1.7479329e-07 6:0.1875 #
-0.71552474172125546392209116675076 1:0.42866668 2:0.12765957 3:0 4:0.029693333 5:4.6513566e-07 6:0.12765957 #
-0.71552474172125546392209116675076 1:0.479 2:0.24137931 3:0 4:0.01588 5:8.023472e-08 6:0.24137931 #
0.71552474172125546392209116675076 1:0.17753845 2:0.84615386 3:1 4:0.01844923 5:6.6615036e-07 6:0.84615386 #
-0.71552474172125546392209116675076 1:0.28299999 2:0.18518518 3:0 4:0.050220001 5:5.9858967e-06 6:0.18518518 #
-0.71552474172125546392209116675076 1:0.24533333 2:0.175 3:0 4:0.029466666 5:1.1897695e-06 6:0.175 #
0.71552474172125546392209116675076 1:0.368 2:0.043010753 3:0 4:0.041760001 5:5.3374465e-06 6:0.043010753 #
0.71552474172125546392209116675076 1:0.204 2:0.66666669 3:1 4:0.028887272 5:4.1402632e-07 6:0.66666669 #
0.71552474172125546392209116675076 1:0.31885713 2:0.35294119 3:0 4:0.017977143 5:1.9344174e-07 6:0.35294119 #
-0.71552474172125546392209116675076 1:0.21410526 2:0.98461539 3:1 4:0.025936842 5:7.4592054e-07 6:0.98461539 #
0.71552474172125546392209116675076 1:0.41714287 2:0.65217394 3:0 4:0.05872 5:5.6985282e-06 6:0.65217394 #
-0.71552474172125546392209116675076 1:0.32499999 2:0.74193549 3:1 4:0.0062533333 5:6.8919668e-08 6:0.74193549 #
-0.71552474172125546392209116675076 1:0.21111111 2:0.4375 3:0 4:0.016942222 5:1.4793001e-07 6:0.4375 #
0.71552474172125546392209116675076 1:0.29542857 2:0.29545453 3:0 4:0.012262858 5:4.2795855e-07 6:0.29545453 #
-0.71552474172125546392209116675076 1:0.36933333 2:0.65217394 3:0 4:0.045933332 5:4.5370934e-06 6:0.65217394 #
-0.71552474172125546392209116675076 1:0.38857144 2:0.65454543 3:0 4:0.066822857 5:2.599724e-06 6:0.65454543 #
0.71552474172125546392209116675076 1:0.32159999 2:0.484375 3:1 4:0.011304 5:4.4405951e-07 6:0.484375 #
0.71552474172125546392209116675076 1:0.19400001 2:0.5 3:1 4:0.019485714 5:2.3989676e-07 6:0.5 #
0.71552474172125546392209116675076 1:0.1088 2:0.25862068 3:1 4:0.030874666 5:6.5110794e-07 6:0.25862068 #
0.71552474172125546392209116675076 1:0.48666668 2:0.5272727 3:0 4:0.030453334 5:8.3696568e-07 6:0.5272727 #
-0.71552474172125546392209116675076 1:0.29312 2:0.3548387 3:1 4:0.027465601 5:2.0974339e-06 6:0.3548387 #
-0.71552474172125546392209116675076 1:0.3028 2:0.33333334 3:1 4:0.0099839997 5:6.3238481e-08 6:0.33333334 #
0.71552474172125546392209116675076 1:0.461 2:0.91489363 3:0 4:0.050379999 5:1.0594109e-06 6:0.91489363 #
0.71552474172125546392209116675076 1:0.48742858 2:0.22727273 3:0 4:0.022411428 5:7.1710303e-07 6:0.22727273 #
-0.71552474172125546392209116675076 1:0.45649999 2:0.63636363 3:0 4:0.016519999 5:1.6291419e-07 6:0.63636363 #
0.71552474172125546392209116675076 1:0.152 2:0.375 3:1 4:0.014965333 5:1.1854989e-07 6:0.375 #
-0.71552474172125546392209116675076 1:0.454 2:0.60000002 3:0 4:0.073239997 5:3.0291951e-06 6:0.60000002 #
0.71552474172125546392209116675076 1:0.36861539 2:0.2 3:1 4:0.048953846 5:2.6998687e-06 6:0.2 #
-0.71552474172125546392209116675076 1:0.493 2:0.28 3:0 4:0.049079999 5:1.581353e-06 6:0.28 #
-0.71552474172125546392209116675076 1:0.479 2:0.40000001 3:0 4:0.01588 5:8.023472e-08 6:0.40000001 #
0.71552474172125546392209116675076 1:0.14906667 2:0.33333334 3:1 4:0.018522667 5:1.3419204e-07 6:0.33333334 #
0.71552474172125546392209116675076 1:0.15446153 2:0.125 3:1 4:0.024923077 5:5.4471218e-07 6:0.125 #
-0.71552474172125546392209116675076 1:0.15777777 2:0.16666667 3:1 4:0.017942222 5:2.4644609e-07 6:0.16666667 #
0.71552474172125546392209116675076 1:0.38114285 2:0.5625 3:0 4:0.044045713 5:4.3619843e-06 6:0.5625 #
-0.71552474172125546392209116675076 1:0.2712 2:0.78260869 3:1 4:0.038821332 5:2.6843068e-06 6:0.78260869 #
0.71552474172125546392209116675076 1:0.27955556 2:0.8125 3:0 4:0.01488 5:1.5025719e-07 6:0.8125 #
-0.71552474172125546392209116675076 1:0.21058823 2:0.30263159 3:1 4:0.0252 5:1.8189114e-06 6:0.30263159 #
-0.71552474172125546392209116675076 1:0.21496296 2:0.30000001 3:1 4:0.025751112 5:4.5134274e-07 6:0.30000001 #
0.71552474172125546392209116675076 1:0.34666666 2:0.18461539 3:0 4:0.038346667 5:4.6158266e-06 6:0.18461539 #
0.71552474172125546392209116675076 1:0.3137143 2:0.031007752 3:0 4:0.037074286 5:3.9734691e-06 6:0.031007752 #
-0.71552474172125546392209116675076 1:0.292 2:0.021276595 3:0 4:0.02706 5:1.9784765e-07 6:0.021276595 #
0.71552474172125546392209116675076 1:0.39120001 2:0.25862068 3:1 4:0.013144 5:4.4535443e-07 6:0.25862068 #
-0.71552474172125546392209116675076 1:0.29333332 2:0.016949153 3:0 4:0.12162667 5:2.0296815e-05 6:0.016949153 #
0.71552474172125546392209116675076 1:0.36836365 2:0.15151516 3:1 4:0.013098182 5:4.1398974e-07 6:0.15151516 #
-0.71552474172125546392209116675076 1:0.338 2:1 3:0 4:0.0066399998 5:1.5810333e-08 6:1 #
0.71552474172125546392209116675076 1:0.169 2:0.75 3:1 4:0.022353332 5:3.3108441e-07 6:0.75 #
0.71552474172125546392209116675076 1:0.21375 2:0.15000001 3:1 4:0.038679998 5:7.5659563e-07 6:0.15000001 #
-0.71552474172125546392209116675076 1:0.3483077 2:0.65546221 3:1 4:0.034184616 5:2.3011928e-06 6:0.65546221 #
0.71552474172125546392209116675076 1:0.30685714 2:0.007751938 3:0 4:0.040022857 5:3.96728e-06 6:0.007751938 #
-0.71552474172125546392209116675076 1:0.244 2:0.027027028 3:0 4:0.028346667 5:1.1505073e-06 6:0.027027028 #
0.71552474172125546392209116675076 1:0.37466666 2:0.25 3:0 4:0.031199999 5:8.0745548e-07 6:0.25 #
-0.71552474172125546392209116675076 1:0.30342856 2:0.048387095 3:0 4:0.025017142 5:3.3798465e-06 6:0.048387095 #
-0.71552474172125546392209116675076 1:0.26266667 2:0.037037037 3:0 4:0.019640001 5:2.0714023e-07 6:0.037037037 #
0.71552474172125546392209116675076 1:0.28725001 2:0.75 3:1 4:0.025095001 5:4.1053408e-07 6:0.75 #
0.71552474172125546392209116675076 1:0.15054545 2:0.97435898 3:1 4:0.011272728 5:8.2130988e-08 6:0.97435898 #
-0.71552474172125546392209116675076 1:0.177 2:0.8888889 3:1 4:0.00606 5:3.1984023e-08 6:0.8888889 #
0.71552474172125546392209116675076 1:0.252 2:0.06666667 3:0 4:0.0079600001 5:9.9941857e-08 6:0.06666667 #
0.71552474172125546392209116675076 1:0.38080001 2:0.20560747 3:0 4:0.080159999 5:1.2188872e-05 6:0.20560747 #
-0.71552474172125546392209116675076 1:0.20479999 2:0.82258064 3:1 4:0.012768 5:4.0572624e-07 6:0.82258064 #
-0.71552474172125546392209116675076 1:0.41299999 2:0.34090909 3:0 4:0.04834 5:1.5141568e-06 6:0.34090909 #
0.71552474172125546392209116675076 1:0.12899999 2:0.56410259 3:1 4:0.029634999 5:9.983371e-07 6:0.56410259 #
-0.71552474172125546392209116675076 1:0.33238095 2:0.67605633 3:1 4:0.037081905 5:1.4089915e-06 6:0.67605633 #
0.71552474172125546392209116675076 1:0.29733333 2:0.34408602 3:0 4:0.036880001 5:3.2250473e-06 6:0.34408602 #
-0.71552474172125546392209116675076 1:0.2846154 2:0.5625 3:1 4:0.032547694 5:1.252223e-06 6:0.5625 #
-0.71552474172125546392209116675076 1:0.31090909 2:0.56410259 3:1 4:0.039330911 5:2.0700886e-06 6:0.56410259 #
0.71552474172125546392209116675076 1:0.19499999 2:0.64705884 3:0 4:0.02046 5:1.2106192e-07 6:0.64705884 #
0.71552474172125546392209116675076 1:0.25333333 2:0.59574467 3:0 4:0.015244445 5:1.8678746e-07 6:0.59574467 #
-0.71552474172125546392209116675076 1:0.22933333 2:0.54411763 3:0 4:0.0057066665 5:6.3911436e-09 6:0.54411763 #
0.71552474172125546392209116675076 1:0.38714287 2:0.81034482 3:1 4:0.011777143 5:3.2950499e-07 6:0.81034482 #
-0.71552474172125546392209116675076 1:0.22742857 2:0.61764705 3:0 4:0.010262857 5:2.3981664e-07 6:0.61764705 #
-0.71552474172125546392209116675076 1:0.26228571 2:0.54838711 3:0 4:0.020891428 5:3.6221127e-07 6:0.54838711 #
-0.71552474172125546392209116675076 1:0.27155554 2:0.55555558 3:0 4:0.026382223 5:9.7484281e-07 6:0.55555558 #
0.71552474172125546392209116675076 1:0.4226 2:0.57692307 3:1 4:0.043060001 5:3.8733797e-06 6:0.57692307 #
0.71552474172125546392209116675076 1:0.30426666 2:0.84615386 3:1 4:0.042032 5:7.7587686e-07 6:0.84615386 #
-0.71552474172125546392209116675076 1:0.45025 2:0.6857143 3:1 4:0.02861 5:1.7252029e-06 6:0.6857143 #
0.71552474172125546392209116675076 1:0.39866668 2:0.69230771 3:0 4:0.041413333 5:3.220536e-06 6:0.69230771 #
-0.71552474172125546392209116675076 1:0.1635 2:0.16363636 3:1 4:0.025506666 5:2.3571319e-07 6:0.16363636 #
0.71552474172125546392209116675076 1:0.34799999 2:0.53750002 3:0 4:0.014576 5:4.1295345e-07 6:0.53750002 #
-0.71552474172125546392209116675076 1:0.45563635 2:0.064935066 3:1 4:0.058654547 5:2.0872717e-06 6:0.064935066 #
-0.71552474172125546392209116675076 1:0.35963637 2:0.03846154 3:1 4:0.031490911 5:3.7117045e-06 6:0.03846154 #
0.71552474172125546392209116675076 1:0.24114285 2:0.4074074 3:0 4:0.033302858 5:8.2036837e-07 6:0.4074074 #
0.71552474172125546392209116675076 1:0.192 2:0.72897196 3:0 4:0.0086000003 5:2.528615e-07 6:0.72897196 #
-0.71552474172125546392209116675076 1:0.30666667 2:0.75 3:0 4:0.022853334 5:3.0037791e-07 6:0.75 #
0.71552474172125546392209116675076 1:0.23929411 2:0.083333336 3:1 4:0.041181177 5:2.8128457e-06 6:0.083333336 #
-0.71552474172125546392209116675076 1:0.23199999 2:0.62068963 3:0 4:0.01459 5:2.5623305e-07 6:0.62068963 #
0.71552474172125546392209116675076 1:0.38981819 2:0.15000001 3:1 4:0.026741818 5:1.038339e-06 6:0.15000001 #
-0.71552474172125546392209116675076 1:0.29066667 2:0.62962961 3:0 4:0.011866666 5:4.2205079e-07 6:0.62962961 #
-0.71552474172125546392209116675076 1:0.26285714 2:0.63157892 3:0 4:0.014434285 5:7.3177397e-08 6:0.63157892 #
0.71552474172125546392209116675076 1:0.53799999 2:0.30303031 3:1 4:0.037632 5:2.1400092e-06 6:0.30303031 #
0.71552474172125546392209116675076 1:0.31200001 2:0.36923078 3:1 4:0.038415998 5:2.9885975e-06 6:0.36923078 #
-0.71552474172125546392209116675076 1:0.38819048 2:0.27083334 3:1 4:0.019257143 5:3.8714103e-07 6:0.27083334 #
0.71552474172125546392209116675076 1:0.29288888 2:0.71028036 3:0 4:0.010124444 5:4.9011788e-07 6:0.71028036 #
0.71552474172125546392209116675076 1:0.4955 2:0.69999999 3:0 4:0.0251 5:7.4499434e-07 6:0.69999999 #
-0.71552474172125546392209116675076 1:0.382 2:0.58333331 3:1 4:0.013 5:7.496228e-08 6:0.58333331 #
-0.71552474172125546392209116675076 1:0.40114287 2:0.29411766 3:0 4:0.030971428 5:9.1443349e-07 6:0.29411766 #
0.71552474172125546392209116675076 1:0.31600001 2:0.95652175 3:0 4:0.049693335 5:6.5711824e-06 6:0.95652175 #
-0.71552474172125546392209116675076 1:0.63800001 2:0.78947371 3:0 4:0.047800001 5:4.7599036e-07 6:0.78947371 #
-0.71552474172125546392209116675076 1:0.65600002 2:0.85714287 3:0 4:0.043280002 5:1.2537278e-06 6:0.85714287 #
0.71552474172125546392209116675076 1:0.29866666 2:0.6111111 3:1 4:0.031406667 5:2.4553749e-06 6:0.6111111 #
0.71552474172125546392209116675076 1:0.35155556 2:0.6875 3:1 4:0.046328887 5:3.5293224e-06 6:0.6875 #
-0.71552474172125546392209116675076 1:0.18254545 2:0.79411763 3:1 4:0.055563636 5:5.7484403e-06 6:0.79411763 #
0.71552474172125546392209116675076 1:0.36933333 2:0.37037036 3:0 4:0.027057778 5:5.5090868e-07 6:0.37037036 #
-0.71552474172125546392209116675076 1:0.382 2:0.59090906 3:1 4:0.013 5:7.496228e-08 6:0.59090906 #
0.71552474172125546392209116675076 1:0.33314285 2:0.68965518 3:0 4:0.019554285 5:3.8264508e-07 6:0.68965518 #
-0.71552474172125546392209116675076 1:0.3664 2:0.52941179 3:1 4:0.048010666 5:1.8891429e-06 6:0.52941179 #
-0.71552474172125546392209116675076 1:0.32228571 2:0.52777779 3:1 4:0.016845714 5:4.7722511e-07 6:0.52777779 #
0.71552474172125546392209116675076 1:0.412 2:0.75757575 3:0 4:0.018925713 5:3.9313369e-07 6:0.75757575 #
0.71552474172125546392209116675076 1:0.30899999 2:0.85000002 3:0 4:0.059900001 5:6.4868732e-06 6:0.85000002 #
0.71552474172125546392209116675076 1:0.051333334 2:0.75999999 3:0 4:0.02648 5:3.1469176e-07 6:0.75999999 #
0.71552474172125546392209116675076 1:0.14336842 2:0.5 3:1 4:0.026846316 5:4.8494235e-07 6:0.5 #
-0.71552474172125546392209116675076 1:0.273 2:0.75 3:0 4:0.019300001 5:4.1723672e-07 6:0.75 #
0.71552474172125546392209116675076 1:0.46826667 2:0.31818181 3:1 4:0.034234665 5:2.6114396e-06 6:0.31818181 #
-0.71552474172125546392209116675076 1:0.15325715 2:0.56818181 3:1 4:0.021746285 5:3.7009062e-07 6:0.56818181 #
0.71552474172125546392209116675076 1:0.23752381 2:0.61904764 3:1 4:0.037451427 5:6.9781379e-07 6:0.61904764 #
0.71552474172125546392209116675076 1:0.19326316 2:0.625 3:1 4:0.023187369 5:3.3713181e-07 6:0.625 #
0.71552474172125546392209116675076 1:0.34545454 2:0.51249999 3:1 4:0.016443636 5:5.0268704e-07 6:0.51249999 #
-0.71552474172125546392209116675076 1:0.38819048 2:0.29545453 3:1 4:0.019257143 5:3.8714103e-07 6:0.29545453 #
0.71552474172125546392209116675076 1:0.47333333 2:0.16666667 3:0 4:0.033493333 5:2.632716e-07 6:0.16666667 #
-0.71552474172125546392209116675076 1:0.32736841 2:0.31428573 3:1 4:0.031524211 5:1.2128741e-06 6:0.31428573 #
-0.71552474172125546392209116675076 1:0.3624 2:0.36842105 3:1 4:0.0095600002 5:3.5349092e-07 6:0.36842105 #
0.71552474172125546392209116675076 1:0.29644445 2:0.91111112 3:0 4:0.031475555 5:3.3480685e-06 6:0.91111112 #
0.71552474172125546392209116675076 1:0.32733333 2:0.60000002 3:0 4:0.010893334 5:1.1619714e-07 6:0.60000002 #
-0.71552474172125546392209116675076 1:0.366 2:0.28 3:0 4:0.031879999 5:1.2777342e-06 6:0.28 #
0.71552474172125546392209116675076 1:0.15173334 2:0.25 3:1 4:0.028981334 5:4.8251314e-07 6:0.25 #
-0.71552474172125546392209116675076 1:0.38066667 2:0.22857143 3:0 4:0.039773334 5:1.2426501e-06 6:0.22857143 #
0.71552474172125546392209116675076 1:0.38092306 2:0.33750001 3:1 4:0.013716923 5:3.9575767e-07 6:0.33750001 #
-0.71552474172125546392209116675076 1:0.37771428 2:0.22727273 3:0 4:0.01888 5:1.8618763e-07 6:0.22727273 #
-0.71552474172125546392209116675076 1:0.38 2:0.42857143 3:0 4:0.0049200002 5:1.1803324e-07 6:0.42857143 #
0.71552474172125546392209116675076 1:0.30199999 2:0.38749999 3:1 4:0.013688 5:4.6477325e-07 6:0.38749999 #
0.71552474172125546392209116675076 1:0.28338462 2:0.48598132 3:1 4:0.013150769 5:3.6306574e-07 6:0.48598132 #
-0.71552474172125546392209116675076 1:0.19709091 2:0.52941179 3:1 4:0.020156363 5:2.4719733e-07 6:0.52941179 #
0.71552474172125546392209116675076 1:0.19644445 2:0.18644068 3:0 4:0.020231111 5:3.0337571e-07 6:0.18644068 #
0.71552474172125546392209116675076 1:0.23244445 2:0.4375 3:0 4:0.013048889 5:2.4447266e-07 6:0.4375 #
-0.71552474172125546392209116675076 1:0.23678049 2:0.43137255 3:1 4:0.025211707 5:1.4167784e-06 6:0.43137255 #
-0.71552474172125546392209116675076 1:0.20342857 2:0.45833334 3:1 4:0.013297142 5:7.3207133e-08 6:0.45833334 #
0.71552474172125546392209116675076 1:0.31433332 2:0.91379309 3:1 4:0.046720002 5:5.5818841e-06 6:0.91379309 #
-0.71552474172125546392209116675076 1:0.1772 2:1 3:1 4:0.043111999 5:1.625042e-06 6:1 #
0.71552474172125546392209116675076 1:0.18224999 2:0.17647059 3:1 4:0.015695 5:5.8426711e-08 6:0.17647059 #
0.71552474172125546392209116675076 1:0.14133333 2:0.70833331 3:1 4:0.026392 5:1.1483354e-06 6:0.70833331 #
0.71552474172125546392209116675076 1:0.23226666 2:0.79310346 3:1 4:0.013269333 5:3.6015797e-07 6:0.79310346 #
-0.71552474172125546392209116675076 1:0.36342856 2:0.11627907 3:1 4:0.032015238 5:7.138263e-07 6:0.11627907 #
-0.71552474172125546392209116675076 1:0.32327273 2:0.090909094 3:1 4:0.0266 5:1.4115147e-06 6:0.090909094 #
0.71552474172125546392209116675076 1:0.36654547 2:0.6111111 3:1 4:0.065010913 5:6.0077195e-06 6:0.6111111 #
0.71552474172125546392209116675076 1:0.28276923 2:0.78260869 3:1 4:0.03193846 5:9.4945159e-07 6:0.78260869 #
-0.71552474172125546392209116675076 1:0.17230769 2:0.8974359 3:1 4:0.0065600001 5:5.1651384e-08 6:0.8974359 #
0.71552474172125546392209116675076 1:0.17919999 2:0.25 3:1 4:0.019168001 5:1.7876424e-07 6:0.25 #
-0.71552474172125546392209116675076 1:0.28681481 2:0.92000002 3:1 4:0.025042962 5:4.9373921e-07 6:0.92000002 #
-0.71552474172125546392209116675076 1:0.26085714 2:0.90384614 3:1 4:0.03413143 5:1.2055226e-06 6:0.90384614 #
0.71552474172125546392209116675076 1:0.21058823 2:0.043478262 3:1 4:0.030324707 5:2.657215e-06 6:0.043478262 #
0.71552474172125546392209116675076 1:0.12428571 2:0.14285715 3:1 4:0.030411428 5:1.150368e-06 6:0.14285715 #
-0.71552474172125546392209116675076 1:0.23573333 2:0.43181819 3:1 4:0.015802667 5:1.7747126e-07 6:0.43181819 #
0.71552474172125546392209116675076 1:0.28099999 2:0.2857143 3:0 4:0.09663 5:1.0073736e-05 6:0.2857143 #
-0.71552474172125546392209116675076 1:0.2 2:0.27586207 3:1 4:0.039913334 5:1.455035e-06 6:0.27586207 #
-0.71552474172125546392209116675076 1:0.19947825 2:0.27272728 3:1 4:0.045387827 5:2.8731354e-06 6:0.27272728 #
0.71552474172125546392209116675076 1:0.28066668 2:1 3:1 4:0.036120001 5:2.448181e-06 6:1 #
0.71552474172125546392209116675076 1:0.53222221 2:0.90909094 3:1 4:0.033533335 5:3.7394809e-06 6:0.90909094 #
-0.71552474172125546392209116675076 1:0.42894119 2:1 3:1 4:0.025632942 5:2.3170728e-06 6:1 #
0.71552474172125546392209116675076 1:0.152 2:0.25 3:1 4:0.026770527 5:2.9504852e-07 6:0.25 #
0.71552474172125546392209116675076 1:0.14861539 2:0.31818181 3:1 4:0.025433846 5:2.9590552e-07 6:0.31818181 #
0.71552474172125546392209116675076 1:0.3592 2:0.2 3:1 4:0.053824 5:2.1520432e-06 6:0.2 #
-0.71552474172125546392209116675076 1:0.26342857 2:0.38759691 3:0 4:0.045817144 5:3.8393969e-06 6:0.38759691 #
-0.71552474172125546392209116675076 1:0.19599999 2:0.93617022 3:1 4:0.04975 5:4.3287068e-06 6:0.93617022 #
0.71552474172125546392209116675076 1:0.2272 2:0.72000003 3:1 4:0.025256 5:2.7633035e-07 6:0.72000003 #
0.71552474172125546392209116675076 1:0.42233333 2:0.58823532 3:1 4:0.011593333 5:2.3140231e-07 6:0.58823532 #
0.71552474172125546392209116675076 1:0.2105 2:0.3125 3:0 4:0.02252 5:2.303409e-07 6:0.3125 #
-0.71552474172125546392209116675076 1:0.31726316 2:0.5714286 3:1 4:0.025898946 5:1.52881e-06 6:0.5714286 #
-0.71552474172125546392209116675076 1:0.31066668 2:0.57407409 3:1 4:0.033911113 5:2.6311889e-06 6:0.57407409 #
0.71552474172125546392209116675076 1:0.2705 2:0.48750001 3:0 4:0.034529999 5:3.2673161e-06 6:0.48750001 #
-0.71552474172125546392209116675076 1:0.34945455 2:0.42622951 3:1 4:0.057105456 5:3.7525144e-06 6:0.42622951 #
-0.71552474172125546392209116675076 1:0.30947369 2:0.5 3:1 4:0.047962107 5:2.9683029e-06 6:0.5 #
0.71552474172125546392209116675076 1:0.233 2:0.73134327 3:0 4:0.02507 5:5.8116967e-07 6:0.73134327 #
-0.71552474172125546392209116675076 1:0.338 2:1 3:0 4:0.0066399998 5:1.5810333e-08 6:1 #
0.71552474172125546392209116675076 1:0.25400001 2:0.40000001 3:0 4:0.01081 5:2.5953193e-07 6:0.40000001 #
-0.71552474172125546392209116675076 1:0.33933333 2:1 3:0 4:0.060679998 5:6.4969599e-06 6:1 #
-0.71552474172125546392209116675076 1:0.3297143 2:1 3:0 4:0.038982857 5:6.5885143e-07 6:1 #
0.71552474172125546392209116675076 1:0.33160001 2:0.61538464 3:1 4:0.030624 5:2.8921406e-06 6:0.61538464 #
0.71552474172125546392209116675076 1:0.40872726 2:0.34999999 3:1 4:0.020021819 5:4.8927183e-07 6:0.34999999 #
-0.71552474172125546392209116675076 1:0.32736841 2:0.33333334 3:1 4:0.031524211 5:1.2128741e-06 6:0.33333334 #
0.71552474172125546392209116675076 1:0.491 2:0.97674417 3:0 4:0.01406 5:1.2126462e-07 6:0.97674417 #
0.71552474172125546392209116675076 1:0.19890909 2:0.80000001 3:1 4:0.049723636 5:1.9579843e-06 6:0.80000001 #
-0.71552474172125546392209116675076 1:0.39966667 2:0.69444442 3:1 4:0.044446666 5:3.0559522e-06 6:0.69444442 #
0.71552474172125546392209116675076 1:0.20235294 2:0.375 3:1 4:0.030117648 5:1.0563043e-06 6:0.375 #
-0.71552474172125546392209116675076 1:0.38307694 2:0.734375 3:1 4:0.034775384 5:7.838193e-07 6:0.734375 #
-0.71552474172125546392209116675076 1:0.35927272 2:0.63865548 3:1 4:0.049978182 5:5.1545503e-06 6:0.63865548 #
0.71552474172125546392209116675076 1:0.22215384 2:0.17391305 3:1 4:0.028621538 5:2.3722203e-06 6:0.17391305 #
0.71552474172125546392209116675076 1:0.23788235 2:0.26086956 3:1 4:0.023995293 5:2.2380489e-06 6:0.26086956 #
-0.71552474172125546392209116675076 1:0.32070589 2:0.29411766 3:1 4:0.038190588 5:1.4655469e-06 6:0.29411766 #
0.71552474172125546392209116675076 1:0.25924999 2:0.96428573 3:1 4:0.028305 5:1.9157374e-06 6:0.96428573 #
-0.71552474172125546392209116675076 1:0.15443479 2:0.69230771 3:1 4:0.041050434 5:3.2775713e-06 6:0.69230771 #
-0.71552474172125546392209116675076 1:0.12606896 2:0.94736844 3:1 4:0.020044139 5:3.690445e-07 6:0.94736844 #
0.71552474172125546392209116675076 1:0.264 2:0.96124029 3:1 4:0.065304615 5:5.9360655e-06 6:0.96124029 #
0.71552474172125546392209116675076 1:0.30239999 2:1 3:1 4:0.024 5:3.1316335e-07 6:1 #
-0.71552474172125546392209116675076 1:0.16741176 2:1 3:1 4:0.04752706 5:2.1564929e-06 6:1 #
0.71552474172125546392209116675076 1:0.211 2:0.63157892 3:1 4:0.032404002 5:4.0914867e-07 6:0.63157892 #
-0.71552474172125546392209116675076 1:0.18190476 2:1 3:1 4:0.03712 5:1.4800985e-06 6:1 #
-0.71552474172125546392209116675076 1:0.18194285 2:1 3:1 4:0.040614858 5:3.6859599e-06 6:1 #
0.71552474172125546392209116675076 1:0.38033333 2:0.09589041 3:1 4:0.029646667 5:3.3374758e-06 6:0.09589041 #
0.71552474172125546392209116675076 1:0.24072728 2:0.27118644 3:1 4:0.044574544 5:3.1524226e-06 6:0.27118644 #
-0.71552474172125546392209116675076 1:0.32070589 2:0.3611111 3:1 4:0.038190588 5:1.4655469e-06 6:0.3611111 #
0.71552474172125546392209116675076 1:0.63 2:0.98461539 3:0 4:0.03076 5:1.2052379e-07 6:0.98461539 #
-0.71552474172125546392209116675076 1:0.3168 2:0.22222222 3:1 4:0.017844001 5:1.8037734e-07 6:0.22222222 #
-0.71552474172125546392209116675076 1:0.30836365 2:0.22448979 3:1 4:0.028618181 5:4.8642568e-07 6:0.22448979 #
0.71552474172125546392209116675076 1:0.29703704 2:1 3:1 4:0.046112593 5:2.8632819e-06 6:1 #
0.71552474172125546392209116675076 1:0.34 2:0.875 3:1 4:0.030973334 5:5.0790163e-06 6:0.875 #
-0.71552474172125546392209116675076 1:0.32944444 2:1 3:1 4:0.032595556 5:2.2327984e-06 6:1 #
0.71552474172125546392209116675076 1:0.29875001 2:0.15887851 3:1 4:0.042380001 5:4.1030826e-06 6:0.15887851 #
-0.71552474172125546392209116675076 1:0.31008697 2:0.72727275 3:1 4:0.013763478 5:2.3790054e-07 6:0.72727275 #
0.71552474172125546392209116675076 1:0.31625 2:0.30434781 3:1 4:0.030889999 5:1.9771635e-06 6:0.30434781 #
-0.71552474172125546392209116675076 1:0.34720001 2:0.30555555 3:0 4:0.038672 5:1.2113254e-06 6:0.30555555 #
-0.71552474172125546392209116675076 1:0.30914286 2:0.3125 3:0 4:0.023977144 5:3.1782403e-07 6:0.3125 #
0.71552474172125546392209116675076 1:0.22707692 2:0.3548387 3:1 4:0.032147691 5:2.2933459e-06 6:0.3548387 #
0.71552474172125546392209116675076 1:0.20766667 2:0.43478259 3:1 4:0.033773333 5:2.4579751e-06 6:0.43478259 #
-0.71552474172125546392209116675076 1:0.32018182 2:0.38461539 3:1 4:0.028770909 5:8.1286248e-07 6:0.38461539 #
0.71552474172125546392209116675076 1:0.233 2:0.73134327 3:0 4:0.02507 5:5.8116967e-07 6:0.73134327 #
-0.71552474172125546392209116675076 1:0.1736 2:0.33333334 3:1 4:0.037544001 5:2.6502928e-06 6:0.33333334 #
-0.71552474172125546392209116675076 1:0.17381819 2:0.33734939 3:1 4:0.040829092 5:9.3569372e-07 6:0.33734939 #
0.71552474172125546392209116675076 1:0.47485715 2:0.47058824 3:0 4:0.027074285 5:3.2695766e-07 6:0.47058824 #
0.71552474172125546392209116675076 1:0.41371429 2:0.33333334 3:0 4:0.028982857 5:5.3270139e-07 6:0.33333334 #
-0.71552474172125546392209116675076 1:0.454 2:0.54385966 3:0 4:0.073239997 5:3.0291951e-06 6:0.54385966 #
0.71552474172125546392209116675076 1:0.37 2:0.47499999 3:1 4:0.010794286 5:3.6856829e-07 6:0.47499999 #
-0.71552474172125546392209116675076 1:0.37133333 2:0.59154928 3:0 4:0.032093335 5:5.1060277e-07 6:0.59154928 #
0.71552474172125546392209116675076 1:0.25146666 2:0.53125 3:1 4:0.024202667 5:2.0327097e-06 6:0.53125 #
-0.71552474172125546392209116675076 1:0.36719999 2:0.60784316 3:0 4:0.01816 5:4.4317602e-07 6:0.60784316 #
-0.71552474172125546392209116675076 1:0.35699999 2:0.52631581 3:0 4:0.02372 5:3.294696e-07 6:0.52631581 #
0.71552474172125546392209116675076 1:0.37345454 2:0.49230769 3:1 4:0.055578183 5:4.4918247e-06 6:0.49230769 #
0.71552474172125546392209116675076 1:0.29873684 2:0.31578946 3:1 4:0.033351578 5:3.0710287e-06 6:0.31578946 #
-0.71552474172125546392209116675076 1:0.29374999 2:0.45833334 3:1 4:0.017130001 5:5.7444618e-07 6:0.45833334 #
0.71552474172125546392209116675076 1:0.31422222 2:0.32499999 3:0 4:0.011191111 5:2.4410195e-07 6:0.32499999 #
-0.71552474172125546392209116675076 1:0.28747827 2:0.44444445 3:1 4:0.019373912 5:2.332888e-07 6:0.44444445 #
0.71552474172125546392209116675076 1:0.38533333 2:0.59523809 3:0 4:0.026000001 5:3.1856473e-07 6:0.59523809 #
-0.71552474172125546392209116675076 1:0.29314286 2:0.3888889 3:1 4:0.024620952 5:5.6034253e-07 6:0.3888889 #
-0.71552474172125546392209116675076 1:0.28375 2:0.39583334 3:1 4:0.03932 5:6.26195e-07 6:0.39583334 #
0.71552474172125546392209116675076 1:0.292 2:0.86274511 3:0 4:0.020628572 5:3.7076867e-07 6:0.86274511 #
0.71552474172125546392209116675076 1:0.63 2:0.85815603 3:0 4:0.03076 5:1.2052379e-07 6:0.85815603 #
-0.71552474172125546392209116675076 1:0.59680003 2:0.93333334 3:0 4:0.01912 5:1.9039615e-07 6:0.93333334 #
0.71552474172125546392209116675076 1:0.24240001 2:0.33333334 3:1 4:0.018959999 5:2.5779516e-07 6:0.33333334 #
-0.71552474172125546392209116675076 1:0.59680003 2:0.95652175 3:0 4:0.01912 5:1.9039615e-07 6:0.95652175 #
0.71552474172125546392209116675076 1:0.16822222 2:0.2 3:1 4:0.030524444 5:5.5659484e-07 6:0.2 #
-0.71552474172125546392209116675076 1:0.41600001 2:0.73913044 3:0 4:0.084453337 5:1.066813e-05 6:0.73913044 #
0.71552474172125546392209116675076 1:0.271 2:0.58139533 3:1 4:0.04188 5:3.2708242e-06 6:0.58139533 #
0.71552474172125546392209116675076 1:0.22378947 2:0.64285713 3:1 4:0.01647158 5:5.1006566e-07 6:0.64285713 #
-0.71552474172125546392209116675076 1:0.2156 2:0.52173913 3:1 4:0.013104 5:1.3265323e-07 6:0.52173913 #
0.71552474172125546392209116675076 1:0.63 2:0.98245615 3:0 4:0.03076 5:1.2052379e-07 6:0.98245615 #
-0.71552474172125546392209116675076 1:0.31008697 2:0.70588237 3:1 4:0.013763478 5:2.3790054e-07 6:0.70588237 #
0.71552474172125546392209116675076 1:0.244 2:0.68888891 3:1 4:0.025331428 5:2.0078623e-06 6:0.68888891 #
-0.71552474172125546392209116675076 1:0.31400001 2:0.60869563 3:1 4:0.036833335 5:1.1424733e-06 6:0.60869563 #
0.71552474172125546392209116675076 1:0.38628572 2:0.23529412 3:1 4:0.027034286 5:8.8398099e-07 6:0.23529412 #
-0.71552474172125546392209116675076 1:0.25633332 2:0.71428573 3:1 4:0.027213333 5:7.8126305e-07 6:0.71428573 #
0.71552474172125546392209116675076 1:0.30599999 2:0.63636363 3:1 4:0.028664 5:5.6603917e-06 6:0.63636363 #
-0.71552474172125546392209116675076 1:0.32365218 2:0.086956523 3:1 4:0.033186086 5:6.8571194e-07 6:0.086956523 #
-0.71552474172125546392209116675076 1:0.30500001 2:0.62962961 3:1 4:0.016726667 5:1.1816651e-06 6:0.62962961 #
0.71552474172125546392209116675076 1:0.39873683 2:0.83333331 3:1 4:0.046711579 5:4.7596614e-06 6:0.83333331 #
-0.71552474172125546392209116675076 1:0.2656 2:0.35294119 3:1 4:0.022576001 5:8.4944497e-07 6:0.35294119 #
0.71552474172125546392209116675076 1:0.13933334 2:0.25 3:1 4:0.028182222 5:7.4231127e-07 6:0.25 #
-0.71552474172125546392209116675076 1:0.38433334 2:0.89130437 3:1 4:0.040826667 5:1.0060411e-06 6:0.89130437 #
0.71552474172125546392209116675076 1:0.42872727 2:0.89285713 3:1 4:0.053512726 5:3.1414265e-06 6:0.89285713 #
-0.71552474172125546392209116675076 1:0.15552941 2:0.2647059 3:1 4:0.029421177 5:3.4465406e-06 6:0.2647059 #
-0.71552474172125546392209116675076 1:0.38433334 2:0.89130437 3:1 4:0.040826667 5:1.0060411e-06 6:0.89130437 #
0.71552474172125546392209116675076 1:0.34771428 2:0.1 3:1 4:0.063714288 5:5.8608298e-06 6:0.1 #
-0.71552474172125546392209116675076 1:0.41435295 2:0.8125 3:1 4:0.045538824 5:1.3285742e-06 6:0.8125 #
-0.71552474172125546392209116675076 1:0.38307694 2:0.84552848 3:1 4:0.034775384 5:7.838193e-07 6:0.84552848 #
0.71552474172125546392209116675076 1:0.1846 2:0.2857143 3:1 4:0.027535999 5:8.5415786e-07 6:0.2857143 #
0.71552474172125546392209116675076 1:0.29374999 2:0.34615386 3:1 4:0.0079500005 5:2.8210388e-07 6:0.34615386 #
-0.71552474172125546392209116675076 1:0.30076191 2:0.060606062 3:1 4:0.02464762 5:3.9268485e-07 6:0.060606062 #
0.71552474172125546392209116675076 1:0.28654546 2:1 3:1 4:0.040254544 5:5.4616444e-06 6:1 #
0.71552474172125546392209116675076 1:0.36042106 2:0.7647059 3:1 4:0.0284 5:2.0695588e-06 6:0.7647059 #
-0.71552474172125546392209116675076 1:0.23466666 2:0.15686275 3:1 4:0.036502223 5:3.3856882e-06 6:0.15686275 #
0.71552474172125546392209116675076 1:0.18775 2:0.60000002 3:1 4:0.02232 5:1.4067044e-07 6:0.60000002 #
-0.71552474172125546392209116675076 1:0.17866667 2:0.46000001 3:1 4:0.030537143 5:1.0587438e-06 6:0.46000001 #
0.71552474172125546392209116675076 1:0.21446154 2:0.36250001 3:1 4:0.010516923 5:3.4391707e-07 6:0.36250001 #
-0.71552474172125546392209116675076 1:0.17741176 2:0.60000002 3:1 4:0.02205647 5:1.9233542e-07 6:0.60000002 #
-0.71552474172125546392209116675076 1:0.25923809 2:0.36363637 3:1 4:0.016339047 5:1.3269648e-07 6:0.36363637 #
0.71552474172125546392209116675076 1:0.17653333 2:0.83333331 3:1 4:0.029936001 5:2.8548536e-07 6:0.83333331 #
-0.71552474172125546392209116675076 1:0.26514286 2:0.70833331 3:1 4:0.025359999 5:3.4761274e-07 6:0.70833331 #
0.71552474172125546392209116675076 1:0.1952 2:0.14285715 3:1 4:0.037290666 5:8.0461501e-07 6:0.14285715 #
-0.71552474172125546392209116675076 1:0.19742857 2:0.83333331 3:1 4:0.029239999 5:4.9592535e-07 6:0.83333331 #
-0.71552474172125546392209116675076 1:0.198 2:0.83333331 3:1 4:0.033985 5:6.8158295e-07 6:0.83333331 #
0.71552474172125546392209116675076 1:0.33114284 2:0.1375 3:1 4:0.027137144 5:1.2349616e-06 6:0.1375 #
0.71552474172125546392209116675076 1:0.51753849 2:0.27272728 3:1 4:0.012252307 5:2.1663777e-07 6:0.27272728 #
-0.71552474172125546392209116675076 1:0.30076191 2:0.05882353 3:1 4:0.02464762 5:3.9268485e-07 6:0.05882353 #
0.71552474172125546392209116675076 1:0.22517647 2:0.87096775 3:1 4:0.045755293 5:3.8960006e-06 6:0.87096775 #
-0.71552474172125546392209116675076 1:0.34517646 2:0.029411765 3:1 4:0.07171765 5:8.0411955e-06 6:0.029411765 #
-0.71552474172125546392209116675076 1:0.32499999 2:0.033333335 3:1 4:0.075494997 5:8.5435713e-06 6:0.033333335 #
0.71552474172125546392209116675076 1:0.22916667 2:1 3:1 4:0.05387 5:2.8488641e-06 6:1 #
0.71552474172125546392209116675076 1:0.37200001 2:0.92561984 3:1 4:0.043400001 5:3.8107271e-06 6:0.92561984 #
-0.71552474172125546392209116675076 1:0.32025 2:1 3:1 4:0.044124998 5:2.7752885e-06 6:1 #
0.71552474172125546392209116675076 1:0.25850001 2:0.075000003 3:1 4:0.014805 5:3.5054381e-07 6:0.075000003 #
-0.71552474172125546392209116675076 1:0.2976 2:0.47222221 3:1 4:0.0074720001 5:3.8698495e-08 6:0.47222221 #
0.71552474172125546392209116675076 1:0.28626087 2:0.5 3:1 4:0.038615651 5:5.2001096e-06 6:0.5 #
-0.71552474172125546392209116675076 1:0.30649999 2:0.53846157 3:1 4:0.016015001 5:1.35642e-07 6:0.53846157 #
0.71552474172125546392209116675076 1:0.14618182 2:0.29032257 3:1 4:0.02586909 5:3.4379057e-06 6:0.29032257 #
0.71552474172125546392209116675076 1:0.30239999 2:0.7368421 3:1 4:0.043315198 5:4.971555e-06 6:0.7368421 #
-0.71552474172125546392209116675076 1:0.20047058 2:0.25714287 3:1 4:0.00832 5:5.4868313e-08 6:0.25714287 #
-0.71552474172125546392209116675076 1:0.32025 2:1 3:1 4:0.044124998 5:2.7752885e-06 6:1 #
0.71552474172125546392209116675076 1:0.26584616 2:0.13178295 3:1 4:0.023852307 5:2.1498909e-06 6:0.13178295 #
-0.71552474172125546392209116675076 1:0.37309092 2:0.89655173 3:1 4:0.015636364 5:2.0107576e-07 6:0.89655173 #
-0.71552474172125546392209116675076 1:0.36342856 2:0.84782606 3:1 4:0.060265712 5:4.648281e-06 6:0.84782606 #
0.71552474172125546392209116675076 1:0.39872727 2:0.21052632 3:1 4:0.022712728 5:1.6045433e-06 6:0.21052632 #
0.71552474172125546392209116675076 1:0.27473685 2:0.10526316 3:1 4:0.032677896 5:1.8914752e-06 6:0.10526316 #
-0.71552474172125546392209116675076 1:0.32327273 2:0.083333336 3:1 4:0.0266 5:1.4115147e-06 6:0.083333336 #
0.71552474172125546392209116675076 1:0.25866666 2:0.85714287 3:1 4:0.020784762 5:2.5230136e-07 6:0.85714287 #
-0.71552474172125546392209116675076 1:0.2431111 2:0.15384616 3:1 4:0.042173333 5:4.1875087e-06 6:0.15384616 #
0.71552474172125546392209116675076 1:0.32707691 2:0.9285714 3:1 4:0.045621537 5:4.3387467e-06 6:0.9285714 #
-0.71552474172125546392209116675076 1:0.29499999 2:0.14705883 3:1 4:0.025185 5:2.4558673e-07 6:0.14705883 #
-0.71552474172125546392209116675076 1:0.28525001 2:0.17142858 3:1 4:0.011455 5:1.1976283e-07 6:0.17142858 #
0.71552474172125546392209116675076 1:0.29692307 2:0.77499998 3:1 4:0.030898461 5:5.1720718e-07 6:0.77499998 #
0.71552474172125546392209116675076 1:0.25536841 2:0.98888886 3:1 4:0.039983157 5:3.8280141e-06 6:0.98888886 #
-0.71552474172125546392209116675076 1:0.26933333 2:1 3:1 4:0.060228571 5:5.3166314e-06 6:1 #
0.71552474172125546392209116675076 1:0.17399999 2:0.048192769 3:1 4:0.018394286 5:2.0236826e-07 6:0.048192769 #
-0.71552474172125546392209116675076 1:0.25034148 2:0.969697 3:1 4:0.05184 5:3.6647039e-06 6:0.969697 #
-0.71552474172125546392209116675076 1:0.14923809 2:0.41666666 3:1 4:0.035161905 5:2.1543935e-06 6:0.41666666 #
0.71552474172125546392209116675076 1:0.25942856 2:0.28749999 3:0 4:0.018628571 5:3.3983625e-07 6:0.28749999 #
-0.71552474172125546392209116675076 1:0.22933333 2:0.16666667 3:0 4:0.0057066665 5:6.3911436e-09 6:0.16666667 #
0.71552474172125546392209116675076 1:0.23129411 2:0.55555558 3:1 4:0.013510589 5:1.621318e-07 6:0.55555558 #
-0.71552474172125546392209116675076 1:0.25545454 2:0.52941179 3:1 4:0.022029091 5:4.5797591e-07 6:0.52941179 #
0.71552474172125546392209116675076 1:0.21244444 2:0.25 3:0 4:0.0098844441 5:2.3514049e-07 6:0.25 #
0.71552474172125546392209116675076 1:0.264 2:0.46153846 3:1 4:0.044459131 5:1.1935039e-06 6:0.46153846 #
0.71552474172125546392209116675076 1:0.17811765 2:0.53333336 3:1 4:0.035157647 5:1.3554007e-06 6:0.53333336 #
-0.71552474172125546392209116675076 1:0.28872728 2:0.48333332 3:1 4:0.01978909 5:4.9202771e-07 6:0.48333332 #
0.71552474172125546392209116675076 1:0.63 2:0.9818182 3:0 4:0.03076 5:1.2052379e-07 6:0.9818182 #
0.71552474172125546392209116675076 1:0.34771428 2:0.40000001 3:1 4:0.063714288 5:5.8608298e-06 6:0.40000001 #
-0.71552474172125546392209116675076 1:0.59680003 2:0.95833331 3:0 4:0.01912 5:1.9039615e-07 6:0.95833331 #
-0.71552474172125546392209116675076 1:0.285 2:0.44117647 3:1 4:0.023713334 5:3.0348605e-07 6:0.44117647 #
0.71552474172125546392209116675076 1:0.4488 2:0.72727275 3:1 4:0.029816 5:5.4790627e-07 6:0.72727275 #
-0.71552474172125546392209116675076 1:0.32307693 2:0.34615386 3:1 4:0.037698463 5:1.4838806e-06 6:0.34615386 #
-0.71552474172125546392209116675076 1:0.27625 2:0.38461539 3:1 4:0.02407 5:6.8671437e-07 6:0.38461539 #
0.71552474172125546392209116675076 1:0.26690909 2:0.78787881 3:1 4:0.016421819 5:2.2712321e-07 6:0.78787881 #
0.71552474172125546392209116675076 1:0.63 2:0.97872341 3:0 4:0.03076 5:1.2052379e-07 6:0.97872341 #
0.71552474172125546392209116675076 1:0.22876923 2:0.055555556 3:1 4:0.02368 5:1.4205875e-06 6:0.055555556 #
-0.71552474172125546392209116675076 1:0.29824999 2:1 3:1 4:0.045065001 5:4.4129447e-06 6:1 #
0.71552474172125546392209116675076 1:0.33199999 2:0.175 3:1 4:0.029953333 5:2.417034e-06 6:0.175 #
-0.71552474172125546392209116675076 1:0.15880001 2:0.89999998 3:1 4:0.025752001 5:2.5876382e-06 6:0.89999998 #
0.71552474172125546392209116675076 1:0.23031579 2:0.37931034 3:1 4:0.038429473 5:8.2404688e-07 6:0.37931034 #
-0.71552474172125546392209116675076 1:0.50466669 2:0.97058821 3:0 4:0.07202667 5:3.2508665e-06 6:0.97058821 #
-0.71552474172125546392209116675076 1:0.41299999 2:0.91666669 3:0 4:0.04834 5:1.5141568e-06 6:0.91666669 #
-0.71552474172125546392209116675076 1:0.40400001 2:1 3:0 4:0.05988 5:9.6173571e-06 6:1 #
0.71552474172125546392209116675076 1:0.39390478 2:0.51851851 3:1 4:0.026377143 5:7.0397562e-07 6:0.51851851 #
0.71552474172125546392209116675076 1:0.31654546 2:0.60000002 3:1 4:0.037541818 5:9.554127e-07 6:0.60000002 #
0.71552474172125546392209116675076 1:0.63 2:0.97619045 3:0 4:0.03076 5:1.2052379e-07 6:0.97619045 #
-0.71552474172125546392209116675076 1:0.29627585 2:0.35135135 3:1 4:0.05553931 5:4.0411901e-06 6:0.35135135 #
-0.71552474172125546392209116675076 1:0.2832 2:0.46153846 3:1 4:0.032715999 5:6.4301895e-07 6:0.46153846 #
0.71552474172125546392209116675076 1:0.63 2:0.97619045 3:0 4:0.03076 5:1.2052379e-07 6:0.97619045 #
-0.71552474172125546392209116675076 1:0.28885713 2:0.51428574 3:1 4:0.019542858 5:5.5587651e-07 6:0.51428574 #
-0.71552474172125546392209116675076 1:0.28777778 2:0.5 3:1 4:0.043035556 5:2.002665e-06 6:0.5 #
0.71552474172125546392209116675076 1:0.29666665 2:0.89473683 3:0 4:0.021373333 5:1.8749492e-07 6:0.89473683 #
0.71552474172125546392209116675076 1:0.075999998 2:0.7962963 3:0 4:0.016702222 5:3.2249861e-07 6:0.7962963 #
-0.71552474172125546392209116675076 1:0.40400001 2:1 3:0 4:0.05988 5:9.6173571e-06 6:1 #
0.71552474172125546392209116675076 1:0.3256 2:0.34375 3:1 4:0.079415999 5:6.4439632e-06 6:0.34375 #
-0.71552474172125546392209116675076 1:0.41600001 2:0.73913044 3:0 4:0.084453337 5:1.066813e-05 6:0.73913044 #
-0.71552474172125546392209116675076 1:0.40114287 2:0.8888889 3:0 4:0.030971428 5:9.1443349e-07 6:0.8888889 #
0.71552474172125546392209116675076 1:0.273 2:0.44615385 3:1 4:0.037133332 5:2.4278856e-06 6:0.44615385 #
0.71552474172125546392209116675076 1:0.31435293 2:0.46153846 3:1 4:0.013242353 5:3.6594506e-07 6:0.46153846 #
-0.71552474172125546392209116675076 1:0.33555555 2:0.27272728 3:1 4:0.053431112 5:1.398865e-06 6:0.27272728 #
0.71552474172125546392209116675076 1:0.63 2:0.97222221 3:0 4:0.03076 5:1.2052379e-07 6:0.97222221 #
0.71552474172125546392209116675076 1:0.18133333 2:0.5 3:0 4:0.051333334 5:6.9795638e-06 6:0.5 #
-0.71552474172125546392209116675076 1:0.28375 2:0.45454547 3:1 4:0.03932 5:6.26195e-07 6:0.45454547 #
0.71552474172125546392209116675076 1:0.15000001 2:0.16129032 3:0 4:0.059466667 5:9.7196153e-06 6:0.16129032 #
0.71552474172125546392209116675076 1:0.26275 2:0.60000002 3:1 4:0.031575002 5:5.9954459e-07 6:0.60000002 #
-0.71552474172125546392209116675076 1:0.35705262 2:0.75757575 3:1 4:0.038627367 5:2.4678109e-06 6:0.75757575 #
-0.71552474172125546392209116675076 1:0.3028 2:0.2857143 3:1 4:0.0099839997 5:6.3238481e-08 6:0.2857143 #
0.71552474172125546392209116675076 1:0.21080001 2:0.84375 3:1 4:0.011048 5:2.3752182e-07 6:0.84375 #
-0.71552474172125546392209116675076 1:0.3168 2:0.24242425 3:1 4:0.017844001 5:1.8037734e-07 6:0.24242425 #
-0.71552474172125546392209116675076 1:0.3204 2:0.26666668 3:1 4:0.055399999 5:3.4008422e-06 6:0.26666668 #
0.71552474172125546392209116675076 1:0.16941176 2:0.82352942 3:1 4:0.010527059 5:1.3832155e-07 6:0.82352942 #
0.71552474172125546392209116675076 1:0.31876922 2:0.73333335 3:1 4:0.045593847 5:1.8097189e-06 6:0.73333335 #
-0.71552474172125546392209116675076 1:0.29544446 2:0.98701298 3:1 4:0.022911111 5:5.4724939e-07 6:0.98701298 #
0.71552474172125546392209116675076 1:0.17399999 2:0.11111111 3:1 4:0.018394286 5:2.0236826e-07 6:0.11111111 #
-0.71552474172125546392209116675076 1:0.31816217 2:0.94285715 3:1 4:0.034534056 5:2.0194911e-06 6:0.94285715 #
-0.71552474172125546392209116675076 1:0.28872728 2:0.94915253 3:1 4:0.01978909 5:4.9202771e-07 6:0.94915253 #
0.71552474172125546392209116675076 1:0.18375 2:0.13043478 3:1 4:0.015135 5:1.5388515e-07 6:0.13043478 #
0.71552474172125546392209116675076 1:0.37760001 2:0.1 3:1 4:0.022352001 5:5.0755978e-07 6:0.1 #
-0.71552474172125546392209116675076 1:0.15099999 2:0.052631579 3:1 4:0.0074 5:4.7639173e-08 6:0.052631579 #
0.71552474172125546392209116675076 1:0.244 2:1 3:1 4:0.032313332 5:1.08368e-06 6:1 #
0.71552474172125546392209116675076 1:0.36742857 2:0.41176471 3:0 4:0.097314283 5:1.1107632e-05 6:0.41176471 #
-0.71552474172125546392209116675076 1:0.041454546 2:0.53623188 3:1 4:0.0052581816 5:1.1172596e-08 6:0.53623188 #
0.71552474172125546392209116675076 1:0.13 2:0.625 3:1 4:0.022235001 5:7.3664762e-07 6:0.625 #
0.71552474172125546392209116675076 1:0.38517648 2:0.66250002 3:1 4:0.016658824 5:5.8380687e-07 6:0.66250002 #
-0.71552474172125546392209116675076 1:0.39899999 2:0.48571429 3:0 4:0.022500001 5:1.2253502e-06 6:0.48571429 #
-0.71552474172125546392209116675076 1:0.30914286 2:0.36363637 3:0 4:0.023977144 5:3.1782403e-07 6:0.36363637 #
0.71552474172125546392209116675076 1:0.19599999 2:0.36363637 3:1 4:0.016312728 5:2.8896267e-07 6:0.36363637 #
0.71552474172125546392209116675076 1:0.2128 2:0.75 3:1 4:0.021637334 5:5.026414e-07 6:0.75 #
-0.71552474172125546392209116675076 1:0.2924 2:0.67307693 3:1 4:0.023784 5:5.0031571e-07 6:0.67307693 #
0.71552474172125546392209116675076 1:0.32550001 2:0.34482759 3:0 4:0.03531 5:5.9857769e-07 6:0.34482759 #
0.71552474172125546392209116675076 1:0.63 2:0.35135135 3:0 4:0.03076 5:1.2052379e-07 6:0.35135135 #
-0.71552474172125546392209116675076 1:0.31090909 2:0.60714287 3:1 4:0.039330911 5:2.0700886e-06 6:0.60714287 #
-0.71552474172125546392209116675076 1:0.35309091 2:0.1891892 3:1 4:0.095149092 5:8.7120497e-06 6:0.1891892 #
0.71552474172125546392209116675076 1:0.212 2:0.34999999 3:1 4:0.017744763 5:2.6769825e-07 6:0.34999999 #
0.71552474172125546392209116675076 1:0.37200001 2:0.25547445 3:1 4:0.043400001 5:3.8107271e-06 6:0.25547445 #
-0.71552474172125546392209116675076 1:0.30500001 2:0.32352942 3:1 4:0.025852 5:5.8835963e-07 6:0.32352942 #
0.71552474172125546392209116675076 1:0.3944 2:0.63235295 3:1 4:0.015528 5:6.023717e-07 6:0.63235295 #
-0.71552474172125546392209116675076 1:0.38 2:0.80645162 3:1 4:0.025107693 5:2.3333844e-07 6:0.80645162 #
-0.71552474172125546392209116675076 1:0.30711111 2:0.25999999 3:1 4:0.032155555 5:1.5389527e-06 6:0.25999999 #
0.71552474172125546392209116675076 1:0.34111112 2:0.90909094 3:1 4:0.020808889 5:5.1596089e-07 6:0.90909094 #
-0.71552474172125546392209116675076 1:0.33942857 2:0.875 3:1 4:0.033045713 5:6.2948607e-07 6:0.875 #
0.71552474172125546392209116675076 1:0.34723809 2:0.22727273 3:1 4:0.049725715 5:3.3692831e-06 6:0.22727273 #
-0.71552474172125546392209116675076 1:0.35705262 2:0.77142859 3:1 4:0.038627367 5:2.4678109e-06 6:0.77142859 #
0.71552474172125546392209116675076 1:0.26294738 2:0.38317758 3:1 4:0.01519579 5:2.9796206e-07 6:0.38317758 #
-0.71552474172125546392209116675076 1:0.32080001 2:0.21212122 3:1 4:0.038504001 5:1.6412228e-06 6:0.21212122 #
0.71552474172125546392209116675076 1:0.2942 2:0.96666664 3:1 4:0.030684 5:1.9886647e-06 6:0.96666664 #
-0.71552474172125546392209116675076 1:0.34644446 2:0.75 3:1 4:0.027124444 5:8.3274591e-07 6:0.75 #
0.71552474172125546392209116675076 1:0.20618182 2:0.46153846 3:1 4:0.028087273 5:6.067437e-07 6:0.46153846 #
0.71552474172125546392209116675076 1:0.46213335 2:0.94117647 3:1 4:0.026010666 5:6.8960895e-07 6:0.94117647 #
-0.71552474172125546392209116675076 1:0.24924999 2:0.25 3:1 4:0.0074550002 5:6.8455229e-08 6:0.25 #
0.71552474172125546392209116675076 1:0.1714 2:0.375 3:1 4:0.032703999 5:6.7987025e-07 6:0.375 #
-0.71552474172125546392209116675076 1:0.338 2:0.84615386 3:1 4:0.023903999 5:4.5857004e-07 6:0.84615386 #
0.71552474172125546392209116675076 1:0.17046154 2:0.72222221 3:1 4:0.01651077 5:1.8100822e-07 6:0.72222221 #
-0.71552474172125546392209116675076 1:0.03876923 2:0.38053098 3:1 4:0.0040369229 5:3.3898611e-09 6:0.38053098 #
-0.71552474172125546392209116675076 1:0.34644446 2:0.78787881 3:1 4:0.027124444 5:8.3274591e-07 6:0.78787881 #
0.71552474172125546392209116675076 1:0.24027586 2:0.24242425 3:1 4:0.020813793 5:3.5035396e-07 6:0.24242425 #
-0.71552474172125546392209116675076 1:0.30074999 2:0.24561404 3:1 4:0.039870001 5:2.0902055e-06 6:0.24561404 #
0.71552474172125546392209116675076 1:0.3638261 2:0.93103451 3:1 4:0.023843478 5:1.3805715e-06 6:0.93103451 #
-0.71552474172125546392209116675076 1:0.28171429 2:0.18604651 3:1 4:0.013748571 5:2.0125682e-07 6:0.18604651 #
-0.71552474172125546392209116675076 1:0.28907692 2:0.2 3:1 4:0.036101539 5:2.0121622e-06 6:0.2 #
0.71552474172125546392209116675076 1:0.42766666 2:0.8037383 3:1 4:0.0537 5:5.4781381e-06 6:0.8037383 #
0.71552474172125546392209116675076 1:0.26780951 2:0.89999998 3:1 4:0.023980953 5:3.5818724e-07 6:0.89999998 #
-0.71552474172125546392209116675076 1:0.27984616 2:1 3:1 4:0.027295385 5:1.6754838e-06 6:1 #
0.71552474172125546392209116675076 1:0.20911111 2:0.050000001 3:1 4:0.018826667 5:1.9475442e-07 6:0.050000001 #
0.71552474172125546392209116675076 1:0.10977778 2:0.25 3:1 4:0.023306666 5:4.4348056e-07 6:0.25 #
-0.71552474172125546392209116675076 1:0.28707692 2:0.94957983 3:1 4:0.040006153 5:2.6704581e-06 6:0.94957983 #
0.71552474172125546392209116675076 1:0.2386 2:0.42857143 3:1 4:0.028524 5:3.683864e-07 6:0.42857143 #
-0.71552474172125546392209116675076 1:0.034571428 2:0.64444447 3:1 4:0.00648 5:1.4431909e-08 6:0.64444447 #
-0.71552474172125546392209116675076 1:0.26861539 2:0.375 3:1 4:0.029323077 5:3.1925271e-07 6:0.375 #
0.71552474172125546392209116675076 1:0.1575 2:0.80722892 3:1 4:0.011135 5:3.8104563e-08 6:0.80722892 #
0.71552474172125546392209116675076 1:0.21933334 2:0.27419356 3:1 4:0.037366666 5:2.7576775e-06 6:0.27419356 #
-0.71552474172125546392209116675076 1:0.32847059 2:0.79310346 3:1 4:0.021670587 5:6.1907605e-07 6:0.79310346 #
-0.71552474172125546392209116675076 1:0.036363635 2:0.16058394 3:1 4:0.0026472728 5:3.6788108e-09 6:0.16058394 #
0.71552474172125546392209116675076 1:0.35733333 2:0.54166669 3:1 4:0.01534 5:2.6777542e-07 6:0.54166669 #
-0.71552474172125546392209116675076 1:0.038545456 2:0.25641027 3:1 4:0.012363636 5:1.030956e-07 6:0.25641027 #
0.71552474172125546392209116675076 1:0.15375 2:0.375 3:1 4:0.0208 5:5.5911562e-07 6:0.375 #
-0.71552474172125546392209116675076 1:0.3048 2:0.62857145 3:1 4:0.029456001 5:5.5686991e-07 6:0.62857145 #
0.71552474172125546392209116675076 1:0.22444445 2:0.083333336 3:0 4:0.0086399997 5:7.4670403e-08 6:0.083333336 #
-0.71387570627911145493271760642529 1:0.21028571 2:0.3548387 3:0 4:0.007062857 5:8.3121236e-08 6:0.3548387 #
0.71552474172125546392209116675076 1:0.22584616 2:0.8125 3:1 4:0.043636922 5:2.3052357e-06 6:0.8125 #
-0.71552474172125546392209116675076 1:0.37555555 2:0.18032786 3:0 4:0.03409778 5:1.8075816e-06 6:0.18032786 #
-0.71552474172125546392209116675076 1:0.33733332 2:0.10526316 3:0 4:0.02312889 5:9.5015071e-07 6:0.10526316 #
0.71552474172125546392209116675076 1:0.22274999 2:0.52941179 3:1 4:0.035250001 5:2.3032794e-06 6:0.52941179 #
0.71552474172125546392209116675076 1:0.23875 2:0.80000001 3:1 4:0.050409999 5:4.3544733e-06 6:0.80000001 #
-0.71552474172125546392209116675076 1:0.3152 2:0.75510204 3:1 4:0.023061333 5:4.4802277e-07 6:0.75510204 #
0.71552474172125546392209116675076 1:0.32550001 2:0.055555556 3:0 4:0.03531 5:5.9857769e-07 6:0.055555556 #
-0.71552474172125546392209116675076 1:0.28293332 2:0.65517241 3:1 4:0.016789334 5:1.8909306e-07 6:0.65517241 #
0.71552474172125546392209116675076 1:0.2456 2:0.48837209 3:0 4:0.038592 5:6.800733e-07 6:0.48837209 #
0.71552474172125546392209116675076 1:0.28866667 2:0.51937985 3:1 4:0.041833334 5:2.6079656e-06 6:0.51937985 #
-0.71552474172125546392209116675076 1:0.036666665 2:0.44339624 3:1 4:0.0080533335 5:1.9087599e-08 6:0.44339624 #
-0.71552474172125546392209116675076 1:0.35600001 2:0.75862068 3:1 4:0.064824618 5:2.8177255e-06 6:0.75862068 #
0.71552474172125546392209116675076 1:0.18866667 2:1 3:1 4:0.037316665 5:3.1296124e-06 6:1 #
-0.71552474172125546392209116675076 1:0.29499999 2:0.1388889 3:1 4:0.025185 5:2.4558673e-07 6:0.1388889 #
0.71552474172125546392209116675076 1:0.20033333 2:0.27659574 3:1 4:0.02836 5:3.3446483e-07 6:0.27659574 #
-0.71552474172125546392209116675076 1:0.26800001 2:0.94444442 3:1 4:0.015799999 5:1.0626941e-07 6:0.94444442 #
-0.71552474172125546392209116675076 1:0.045636363 2:0.36363637 3:1 4:0.023425454 5:5.9745724e-07 6:0.36363637 #
0.71552474172125546392209116675076 1:0.23431578 2:0.44999999 3:1 4:0.01984421 5:2.6481294e-07 6:0.44999999 #
0.71552474172125546392209116675076 1:0.18038096 2:0.91666669 3:1 4:0.03032 5:1.3933352e-06 6:0.91666669 #
-0.71552474172125546392209116675076 1:0.27759999 2:0.45714286 3:1 4:0.02472 5:6.0185511e-07 6:0.45714286 #
0.71552474172125546392209116675076 1:0.23914285 2:0.5 3:1 4:0.03932 5:8.9000633e-07 6:0.5 #
-0.71552474172125546392209116675076 1:0.049454544 2:0.5625 3:1 4:0.036043637 5:1.0865599e-06 6:0.5625 #
-0.71552474172125546392209116675076 1:0.27000001 2:0.47619048 3:1 4:0.053377144 5:2.946183e-06 6:0.47619048 #
-0.71552474172125546392209116675076 1:0.24030769 2:0.96078432 3:1 4:0.015984615 5:2.6006279e-07 6:0.96078432 #
0.71552474172125546392209116675076 1:0.16857143 2:0.30434781 3:1 4:0.02932 5:4.5949227e-07 6:0.30434781 #
-0.71552474172125546392209116675076 1:0.15279999 2:0.42424244 3:1 4:0.020640001 5:1.7498759e-07 6:0.42424244 #
0.71552474172125546392209116675076 1:0.1643077 2:0.74666667 3:1 4:0.048695385 5:2.0858643e-06 6:0.74666667 #
0.71552474172125546392209116675076 1:0.21799999 2:0.3877551 3:1 4:0.034929998 5:6.6340135e-07 6:0.3877551 #
0.71552474172125546392209116675076 1:0.21490909 2:0.296875 3:1 4:0.029043637 5:1.0564819e-06 6:0.296875 #
0.71552474172125546392209116675076 1:0.16927272 2:1 3:1 4:0.033047274 5:9.165567e-07 6:1 #
-0.71552474172125546392209116675076 1:0.25632653 2:0.14516129 3:1 4:0.036194287 5:1.7169824e-06 6:0.14516129 #
0.71552474172125546392209116675076 1:0.19026087 2:1 3:1 4:0.039415654 5:1.0829884e-06 6:1 #
-0.71552474172125546392209116675076 1:0.2465 2:0.25 3:1 4:0.042775001 5:1.4984049e-06 6:0.25 #
-0.71552474172125546392209116675076 1:0.29028571 2:0.52238804 3:1 4:0.042005714 5:2.6240157e-06 6:0.52238804 #
0.71552474172125546392209116675076 1:0.2604 2:0.95934957 3:1 4:0.033519998 5:2.4549261e-06 6:0.95934957 #
-0.71552474172125546392209116675076 1:0.27888 2:0.96296299 3:1 4:0.038060799 5:3.2407154e-06 6:0.96296299 #
0.71552474172125546392209116675076 1:0.21466666 2:0.15686275 3:1 4:0.028663334 5:1.5459506e-06 6:0.15686275 #
-0.71552474172125546392209116675076 1:0.033454545 2:0.16666667 3:1 4:0.016378181 5:1.5744639e-07 6:0.16666667 #
0.71552474172125546392209116675076 1:0.2604 2:0.953125 3:1 4:0.033519998 5:2.4549261e-06 6:0.953125 #
-0.71552474172125546392209116675076 1:0.28421053 2:0.93023258 3:1 4:0.047962107 5:2.5968573e-06 6:0.93023258 #
0.71552474172125546392209116675076 1:0.1434074 2:0.2 3:1 4:0.020459259 5:3.1971442e-07 6:0.2 #
0.71552474172125546392209116675076 1:0.26618183 2:0.89915967 3:1 4:0.013498181 5:6.8755263e-08 6:0.89915967 #
-0.71552474172125546392209116675076 1:0.248 2:0.18181819 3:1 4:0.005072 5:1.7517678e-08 6:0.18181819 #
-0.71552474172125546392209116675076 1:0.30360001 2:0.88461536 3:1 4:0.017247999 5:3.6899218e-07 6:0.88461536 #
0.71552474172125546392209116675076 1:0.27706668 2:0.1 3:1 4:0.016559999 5:4.0595847e-07 6:0.1 #
-0.71552474172125546392209116675076 1:0.29413334 2:0.88095236 3:1 4:0.038330667 5:4.1258386e-06 6:0.88095236 #
-0.71552474172125546392209116675076 1:0.28752941 2:0.875 3:1 4:0.029101176 5:1.3092454e-06 6:0.875 #
0.71552474172125546392209116675076 1:0.24588235 2:0.055555556 3:1 4:0.011223529 5:1.956722e-07 6:0.055555556 #
0.71552474172125546392209116675076 1:0.26533332 2:0.037037037 3:1 4:0.049306668 5:1.9081049e-06 6:0.037037037 #
-0.71552474172125546392209116675076 1:0.16072728 2:0.051282052 3:1 4:0.0076436363 5:1.2293496e-07 6:0.051282052 #
0.71552474172125546392209116675076 1:0.11888 2:1 3:1 4:0.018678401 5:7.6518791e-07 6:1 #
-0.71552474172125546392209116675076 1:0.28378379 2:0.0060975607 3:1 4:0.050387029 5:5.3064159e-06 6:0.0060975607 #
-0.71552474172125546392209116675076 1:0.21261539 2:0.012048192 3:1 4:0.012683077 5:1.6197119e-07 6:0.012048192 #
0.71552474172125546392209116675076 1:0.35214815 2:0.95652175 3:1 4:0.050509628 5:4.5869092e-06 6:0.95652175 #
0.71552474172125546392209116675076 1:0.2604 2:0.87692308 3:1 4:0.024036 5:1.5044048e-06 6:0.87692308 #
-0.71552474172125546392209116675076 1:0.24177778 2:1 3:1 4:0.037490372 5:1.027385e-06 6:1 #
0.71552474172125546392209116675076 1:0.20625 2:0.087499999 3:1 4:0.013425 5:3.5508117e-07 6:0.087499999 #
-0.71552474172125546392209116675076 1:0.26719999 2:0.97142857 3:1 4:0.031008 5:6.5415389e-07 6:0.97142857 #
0.71552474172125546392209116675076 1:0.21846154 2:0.73913044 3:1 4:0.034006152 5:5.3805485e-07 6:0.73913044 #
-0.71552474172125546392209116675076 1:0.27933332 2:0.22857143 3:1 4:0.0305 5:6.9185722e-07 6:0.22857143 #
-7.0292060172505443915724754333496e-08 1:0.14773333 2:0.25925925 3:1 4:0.036810666 5:2.2077952e-06 6:0.25925925 #
0.71552474172125546392209116675076 1:0.31420001 2:0.375 3:1 4:0.040711999 5:3.3561507e-06 6:0.375 #
0.71552474172125546392209116675076 1:0.16752942 2:0.69230771 3:1 4:0.017374117 5:1.7532643e-07 6:0.69230771 #
-0.71552474172125546392209116675076 1:0.28066668 2:0.33333334 3:1 4:0.046846665 5:2.3973157e-06 6:0.33333334 #
-0.71552474172125546392209116675076 1:0.32964706 2:0.73076922 3:1 4:0.05336706 5:3.7717382e-06 6:0.73076922 #
0.71552474172125546392209116675076 1:0.37857142 2:0.14285715 3:1 4:0.031797145 5:1.4525058e-06 6:0.14285715 #
-0.71552474172125546392209116675076 1:0.28814813 2:0.17391305 3:1 4:0.036885925 5:9.7794441e-07 6:0.17391305 #
0.71552474172125546392209116675076 1:0.14063159 2:0.8125 3:1 4:0.024277894 5:3.7755723e-07 6:0.8125 #
0.71552474172125546392209116675076 1:0.27893335 2:0.42857143 3:1 4:0.032047998 5:7.5313704e-07 6:0.42857143 #
-0.71552474172125546392209116675076 1:0.055 2:0.52873564 3:1 4:0.022813333 5:1.9248469e-07 6:0.52873564 #
0.71552474172125546392209116675076 1:0.31040001 2:0.65217394 3:1 4:0.043893334 5:3.7438579e-06 6:0.65217394 #
-0.71552474172125546392209116675076 1:0.2709091 2:0.39130434 3:1 4:0.029356364 5:4.9967866e-07 6:0.39130434 #
-0.71552474172125546392209116675076 1:0.29457143 2:0.625 3:1 4:0.022897143 5:4.6377642e-07 6:0.625 #
0.71552474172125546392209116675076 1:0.087777779 2:0.23809524 3:1 4:0.01448 5:6.8369204e-08 6:0.23809524 #
-0.71552474172125546392209116675076 1:0.29481483 2:0.25454545 3:1 4:0.035922963 5:9.0563236e-07 6:0.25454545 #
0.71552474172125546392209116675076 1:0.40900001 2:0.54545456 3:1 4:0.054053333 5:6.2919094e-06 6:0.54545456 #
-0.71552474172125546392209116675076 1:0.29449999 2:0.61538464 3:1 4:0.051695 5:5.6808653e-06 6:0.61538464 #
0.71552474172125546392209116675076 1:0.19577777 2:0.39130434 3:1 4:0.037835557 5:2.4592778e-06 6:0.39130434 #
0.71552474172125546392209116675076 1:0.2128 2:0.91666669 3:1 4:0.023792 5:3.906928e-07 6:0.91666669 #
-0.71552474172125546392209116675076 1:0.26622221 2:0.33846155 3:1 4:0.026062222 5:3.7702495e-07 6:0.33846155 #
0.71552474172125546392209116675076 1:0.24428572 2:0.3125 3:1 4:0.040062856 5:4.4141661e-06 6:0.3125 #
0.71552474172125546392209116675076 1:0.30880001 2:0.3898305 3:1 4:0.032469332 5:2.6900311e-06 6:0.3898305 #
0.71552474172125546392209116675076 1:0.11105882 2:0.45454547 3:1 4:0.021952942 5:1.4345935e-07 6:0.45454547 #
-0.71552474172125546392209116675076 1:0.28674999 2:0.28873238 3:1 4:0.025725 5:1.0758125e-06 6:0.28873238 #
0.71552474172125546392209116675076 1:0.26774999 2:0.625 3:1 4:0.054060001 5:5.1091642e-06 6:0.625 #
-0.71552474172125546392209116675076 1:0.27433333 2:0.32608697 3:1 4:0.026846666 5:4.8167169e-07 6:0.32608697 #
-0.71552474172125546392209116675076 1:0.27684212 2:0.32098764 3:1 4:0.040214736 5:2.1167605e-06 6:0.32098764 #
0.71552474172125546392209116675076 1:0.16190477 2:0.41666666 3:1 4:0.025314286 5:5.0867936e-07 6:0.41666666 #
0.71552474172125546392209116675076 1:0.19283333 2:0.5714286 3:1 4:0.019953333 5:3.1542314e-07 6:0.5714286 #
0.71552474172125546392209116675076 1:0.25181818 2:0.10344828 3:1 4:0.020654546 5:5.1865919e-07 6:0.10344828 #
-0.71552474172125546392209116675076 1:0.28533334 2:0.84545457 3:1 4:0.030125333 5:1.4012985e-06 6:0.84545457 #
-0.71552474172125546392209116675076 1:0.1416 2:0.875 3:1 4:0.0230496 5:4.1713739e-07 6:0.875 #
0.71552474172125546392209116675076 1:0.26714286 2:0.44117647 3:1 4:0.023182858 5:2.9588151e-07 6:0.44117647 #
-0.71552474172125546392209116675076 1:0.27880001 2:0.44444445 3:1 4:0.018832 5:2.2803061e-07 6:0.44444445 #
0.71552474172125546392209116675076 1:0.25392592 2:1 3:1 4:0.034817778 5:9.0793236e-07 6:1 #
-0.71552474172125546392209116675076 1:0.28717646 2:0.83687943 3:1 4:0.031364705 5:2.2163813e-06 6:0.83687943 #
0.71552474172125546392209116675076 1:0.13381818 2:0.2820513 3:1 4:0.016174546 5:1.8716634e-07 6:0.2820513 #
-0.71552474172125546392209116675076 1:0.33199999 2:0.84615386 3:1 4:0.077822223 5:5.1964894e-06 6:0.84615386 #
-0.71552474172125546392209116675076 1:0.31172413 2:0.85714287 3:1 4:0.038013794 5:1.5083814e-06 6:0.85714287 #
0.71552474172125546392209116675076 1:0.17454545 2:0.30000001 3:1 4:0.01954909 5:5.3839582e-08 6:0.30000001 #
0.71552474172125546392209116675076 1:0.13187097 2:0.30769232 3:1 4:0.018123871 5:2.6961226e-07 6:0.30769232 #
0.71552474172125546392209116675076 1:0.1656 2:0.75999999 3:1 4:0.033091199 5:9.9738224e-07 6:0.75999999 #
0.71552474172125546392209116675076 1:0.34380952 2:0.90654206 3:1 4:0.027653333 5:1.4606254e-06 6:0.90654206 #
-0.71552474172125546392209116675076 1:0.15000001 2:0.17647059 3:1 4:0.0084549999 5:9.7144543e-08 6:0.17647059 #
0.71552474172125546392209116675076 1:0.18015385 2:0.95833331 3:1 4:0.02947077 5:4.68249e-07 6:0.95833331 #
0.71552474172125546392209116675076 1:0.29426667 2:0.57894737 3:1 4:0.029298667 5:2.8017594e-06 6:0.57894737 #
-0.71552474172125546392209116675076 1:0.040727273 2:0.43396226 3:1 4:0.009730909 5:2.2502602e-08 6:0.43396226 #
-0.71552474172125546392209116675076 1:0.28045714 2:0.56521738 3:1 4:0.041979428 5:2.6151115e-06 6:0.56521738 #
0.71552474172125546392209116675076 1:0.17014286 2:0.039999999 3:1 4:0.018794285 5:3.8126649e-07 6:0.039999999 #
0.71552474172125546392209116675076 1:0.21052632 2:0.72222221 3:1 4:0.022088422 5:5.9738841e-07 6:0.72222221 #
-0.71552474172125546392209116675076 1:0.29771429 2:0.08510638 3:1 4:0.012108572 5:6.4203014e-08 6:0.08510638 #
0.71552474172125546392209116675076 1:0.345 2:0.13084112 3:1 4:0.075599998 5:1.013602e-05 6:0.13084112 #
-0.71552474172125546392209116675076 1:0.14509091 2:0.17910448 3:1 4:0.022014545 5:6.3568012e-07 6:0.17910448 #
0.71552474172125546392209116675076 1:0.38611764 2:0.86956519 3:1 4:0.031872939 5:2.5563304e-06 6:0.86956519 #
-0.71552474172125546392209116675076 1:0.28226086 2:0.14285715 3:1 4:0.053895652 5:5.7773509e-06 6:0.14285715 #
0.71552474172125546392209116675076 1:0.29362962 2:0.53333336 3:1 4:0.03675852 5:4.5968136e-06 6:0.53333336 #
-0.71552474172125546392209116675076 1:0.36559999 2:0.4852941 3:0 4:0.026815999 5:4.9882976e-07 6:0.4852941 #
-0.71552474172125546392209116675076 1:0.29090908 2:0.625 3:1 4:0.04661091 5:1.7149687e-06 6:0.625 #
0.71552474172125546392209116675076 1:0.17161904 2:0.16 3:1 4:0.019013334 5:2.4488426e-07 6:0.16 #
-0.71552474172125546392209116675076 1:0.28533334 2:0.64285713 3:1 4:0.030125333 5:1.4012985e-06 6:0.64285713 #
-0.71552474172125546392209116675076 1:0.28492308 2:0.64615387 3:1 4:0.039723076 5:4.196263e-06 6:0.64615387 #
0.71552474172125546392209116675076 1:0.63 2:0.67567569 3:0 4:0.03076 5:1.2052379e-07 6:0.67567569 #
0.71552474172125546392209116675076 1:0.63 2:0.70149255 3:0 4:0.03076 5:1.2052379e-07 6:0.70149255 #
-0.71552474172125546392209116675076 1:0.32550001 2:0.38235295 3:0 4:0.065889999 5:4.0233858e-06 6:0.38235295 #
0.71552474172125546392209116675076 1:0.27739131 2:0.58333331 3:1 4:0.038709566 5:3.0116623e-06 6:0.58333331 #
-0.71552474172125546392209116675076 1:0.54866666 2:0.57894737 3:0 4:0.062893331 5:4.3399355e-06 6:0.57894737 #
-0.71552474172125546392209116675076 1:0.34959999 2:0.55223882 3:0 4:0.040720001 5:4.9713458e-06 6:0.55223882 #
0.71552474172125546392209116675076 1:0.18369231 2:0.70909089 3:1 4:0.021249231 5:3.6055843e-07 6:0.70909089 #
0.71552474172125546392209116675076 1:0.22568421 2:0.61702126 3:1 4:0.011966316 5:1.0933972e-07 6:0.61702126 #
-0.71552474172125546392209116675076 1:0.26333332 2:0.42372882 3:1 4:0.021846667 5:5.0248764e-07 6:0.42372882 #
0.71552474172125546392209116675076 1:0.14981818 2:0.94444442 3:1 4:0.045970909 5:1.5326088e-06 6:0.94444442 #
-0.71552474172125546392209116675076 1:0.264 2:0.41935483 3:1 4:0.033486668 5:4.274861e-07 6:0.41935483 #
-0.71552474172125546392209116675076 1:0.2432 2:0.41025642 3:1 4:0.013312 5:2.0667238e-07 6:0.41025642 #
0.71552474172125546392209116675076 1:0.19266666 2:0.51999998 3:0 4:0.075026669 5:1.0166725e-05 6:0.51999998 #
0.71552474172125546392209116675076 1:0.63 2:0.48717949 3:0 4:0.03076 5:1.2052379e-07 6:0.48717949 #
0.71552474172125546392209116675076 1:0.23549999 2:0.33333334 3:1 4:0.024095001 5:1.954938e-07 6:0.33333334 #
-0.71552474172125546392209116675076 1:0.23984616 2:1 3:1 4:0.015169231 5:5.4732982e-07 6:1 #
-0.71552474172125546392209116675076 1:0.40400001 2:1 3:0 4:0.05988 5:9.6173571e-06 6:1 #
0.71552474172125546392209116675076 1:0.377 2:0.5 3:1 4:0.046670001 5:3.5802868e-06 6:0.5 #
-0.71552474172125546392209116675076 1:0.27408695 2:0.30769232 3:1 4:0.019575652 5:2.6094273e-07 6:0.30769232 #
0.71552474172125546392209116675076 1:0.15942857 2:0.82352942 3:0 4:0.022297142 5:4.0682747e-07 6:0.82352942 #
-0.71552474172125546392209116675076 1:0.40114287 2:0.91176468 3:0 4:0.030971428 5:9.1443349e-07 6:0.91176468 #
0.71552474172125546392209116675076 1:0.15257142 2:0.33333334 3:1 4:0.03859143 5:1.4534938e-06 6:0.33333334 #
-0.71552474172125546392209116675076 1:0.26609525 2:0.3888889 3:1 4:0.039398097 5:1.6590012e-06 6:0.3888889 #
0.71552474172125546392209116675076 1:0.093999997 2:0.97297299 3:0 4:0.0022799999 5:6.9105095e-09 6:0.97297299 #
-0.71552474172125546392209116675076 1:0.20933333 2:0.38461539 3:1 4:0.037273332 5:5.1723632e-06 6:0.38461539 #
0.71552474172125546392209116675076 1:0.33914286 2:0.54054052 3:1 4:0.027114285 5:6.4752498e-07 6:0.54054052 #
0.71552474172125546392209116675076 1:0.27399999 2:0.46153846 3:1 4:0.054056 5:4.6731502e-06 6:0.46153846 #
0.71552474172125546392209116675076 1:0.31674999 2:0.81308413 3:1 4:0.035204999 5:4.0807317e-06 6:0.81308413 #
0.71552474172125546392209116675076 1:0.1752 2:0.125 3:1 4:0.032607999 5:1.641647e-06 6:0.125 #
-0.71552474172125546392209116675076 1:0.28092307 2:0.52808988 3:1 4:0.02784 5:5.0363036e-07 6:0.52808988 #
0.71552474172125546392209116675076 1:0.18611765 2:0.60000002 3:1 4:0.014611765 5:2.0821486e-07 6:0.60000002 #
-0.71552474172125546392209116675076 1:0.35699999 2:0.7368421 3:0 4:0.022500001 5:1.2253502e-06 6:0.7368421 #
-0.71552474172125546392209116675076 1:0.352 2:0.70909089 3:0 4:0.032219999 5:3.8282274e-06 6:0.70909089 #
0.71552474172125546392209116675076 1:0.14822222 2:0.51851851 3:1 4:0.026724445 5:4.2103071e-07 6:0.51851851 #
0.71552474172125546392209116675076 1:0.206 2:0.42500001 3:1 4:0.015632 5:2.8611151e-07 6:0.42500001 #
-0.71552474172125546392209116675076 1:0.15008695 2:0.6883117 3:1 4:0.020869566 5:1.7009863e-07 6:0.6883117 #
0.71552474172125546392209116675076 1:0.63 2:0.96363634 3:0 4:0.03076 5:1.2052379e-07 6:0.96363634 #
-0.71552474172125546392209116675076 1:0.27966666 2:0.52380955 3:1 4:0.022500001 5:3.0120256e-07 6:0.52380955 #
0.71552474172125546392209116675076 1:0.63 2:0.96666664 3:0 4:0.03076 5:1.2052379e-07 6:0.96666664 #
-0.71552474172125546392209116675076 1:0.26719999 2:0.58181816 3:1 4:0.018405333 5:9.834465e-08 6:0.58181816 #
-0.71552474172125546392209116675076 1:0.27966666 2:0.61702126 3:1 4:0.030680001 5:1.4297119e-06 6:0.61702126 #
0.71552474172125546392209116675076 1:0.29550001 2:0.096774191 3:0 4:0.03232 5:7.8522487e-07 6:0.096774191 #
0.71552474172125546392209116675076 1:0.21866667 2:0.11764706 3:0 4:0.019680001 5:4.9306215e-07 6:0.11764706 #
-0.71552474172125546392209116675076 1:0.28533334 2:0.028571429 3:0 4:0.12569334 5:1.8902831e-05 6:0.028571429 #
0.71552474172125546392209116675076 1:0.27835295 2:0.59375 3:1 4:0.05250353 5:5.8196742e-06 6:0.59375 #
0.71552474172125546392209116675076 1:0.30355555 2:0.59523809 3:1 4:0.031431112 5:1.7913169e-06 6:0.59523809 #
-0.71552474172125546392209116675076 1:0.63700002 2:0.95454544 3:0 4:0.021880001 5:2.7800266e-07 6:0.95454544 #
0.71552474172125546392209116675076 1:0.32218182 2:0.65384614 3:1 4:0.020334546 5:2.563971e-07 6:0.65384614 #
-0.71552474172125546392209116675076 1:0.32733333 2:0.82926828 3:1 4:0.02122 5:3.3268503e-07 6:0.82926828 #
0.71552474172125546392209116675076 1:0.12514286 2:0.66666669 3:1 4:0.028266666 5:3.8573049e-07 6:0.66666669 #
-0.71552474172125546392209116675076 1:0.2888889 2:0.25 3:1 4:0.053431112 5:1.398865e-06 6:0.25 #
0.71552474172125546392209116675076 1:0.25311112 2:0.12307692 3:1 4:0.034733333 5:2.0215875e-06 6:0.12307692 #
-0.71552474172125546392209116675076 1:0.3256 2:0.75 3:1 4:0.036378667 5:2.3039204e-06 6:0.75 #
-0.71552474172125546392209116675076 1:0.21600001 2:0.054545455 3:1 4:0.0037542856 5:1.734146e-08 6:0.054545455 #
-0.71552474172125546392209116675076 1:0.27294117 2:0.2857143 3:1 4:0.023327058 5:1.6550529e-06 6:0.2857143 #
-0.71552474172125546392209116675076 1:0.040666666 2:0.30000001 3:1 4:0.03246 5:2.6898107e-07 6:0.30000001 #
0.71552474172125546392209116675076 1:0.63 2:0.97142857 3:0 4:0.03076 5:1.2052379e-07 6:0.97142857 #
0.71552474172125546392209116675076 1:0.63 2:0.97222221 3:0 4:0.03076 5:1.2052379e-07 6:0.97222221 #
-0.71552474172125546392209116675076 1:0.39680001 2:1 3:0 4:0.060911998 5:7.6421265e-06 6:1 #
0.71552474172125546392209116675076 1:0.193 2:0.30000001 3:1 4:0.021159999 5:4.8287745e-07 6:0.30000001 #
0.71552474172125546392209116675076 1:0.35835293 2:0.33333334 3:1 4:0.021449411 5:4.0406005e-07 6:0.33333334 #
0.71552474172125546392209116675076 1:0.186 2:0.51219511 3:1 4:0.023453332 5:3.5905776e-07 6:0.51219511 #
-0.71552474172125546392209116675076 1:0.29131034 2:0.12 3:1 4:0.029230345 5:8.869639e-07 6:0.12 #
0.71552474172125546392209116675076 1:0.29854545 2:0.5714286 3:1 4:0.021287274 5:4.6719487e-07 6:0.5714286 #
-0.71552474172125546392209116675076 1:0.32499999 2:0.05882353 3:1 4:0.075494997 5:8.5435713e-06 6:0.05882353 #
-0.71552474172125546392209116675076 1:0.3028 2:0.050000001 3:1 4:0.0099839997 5:6.3238481e-08 6:0.050000001 #
0.71552474172125546392209116675076 1:0.27093333 2:0.80000001 3:1 4:0.032325335 5:1.9577938e-06 6:0.80000001 #
-0.71552474172125546392209116675076 1:0.31109092 2:0.85185188 3:1 4:0.034021817 5:8.1495409e-07 6:0.85185188 #
0.71552474172125546392209116675076 1:0.21254545 2:0.17647059 3:1 4:0.018010909 5:1.6086516e-07 6:0.17647059 #
-0.71552474172125546392209116675076 1:0.3028 2:0.84615386 3:1 4:0.0099839997 5:6.3238481e-08 6:0.84615386 #
-0.71552474172125546392209116675076 1:0.29475001 2:0.83333331 3:1 4:0.028405 5:1.4709509e-06 6:0.83333331 #
0.71552474172125546392209116675076 1:0.1923077 2:0.018691588 3:1 4:0.028406154 5:2.1185206e-06 6:0.018691588 #
0.71552474172125546392209116675076 1:0.16949999 2:0.05882353 3:1 4:0.0074149999 5:8.0316482e-08 6:0.05882353 #
0.71552474172125546392209116675076 1:0.31266665 2:0.98750001 3:1 4:0.017820001 5:3.5738029e-07 6:0.98750001 #
-0.71552474172125546392209116675076 1:0.0436 2:0.14285715 3:1 4:0.0073079998 5:1.025804e-08 6:0.14285715 #
0.71552474172125546392209116675076 1:0.19875862 2:0.45454547 3:1 4:0.026896551 5:5.9873452e-07 6:0.45454547 #
0.71552474172125546392209116675076 1:0.23557895 2:0.2 3:1 4:0.037722107 5:1.7432652e-06 6:0.2 #
-0.71552474172125546392209116675076 1:0.27885714 2:0.5 3:1 4:0.0088228574 5:5.8563494e-08 6:0.5 #
-0.71552474172125546392209116675076 1:0.044727273 2:0.11764706 3:1 4:0.014043637 5:7.5043673e-08 6:0.11764706 #
0.71552474172125546392209116675076 1:0.24044445 2:0.88636363 3:1 4:0.020657778 5:3.3460327e-07 6:0.88636363 #
-0.71552474172125546392209116675076 1:0.049818181 2:0.11111111 3:1 4:0.0054618181 5:1.3395541e-08 6:0.11111111 #
-0.71552474172125546392209116675076 1:0.05876923 2:0.1125 3:1 4:0.0040307692 5:7.2467325e-09 6:0.1125 #
0.71552474172125546392209116675076 1:0.34914285 2:0.89999998 3:1 4:0.048634287 5:3.6166248e-06 6:0.89999998 #
0.71552474172125546392209116675076 1:0.28240001 2:0.73333335 3:1 4:0.042154666 5:4.3390141e-06 6:0.73333335 #
-0.71552474172125546392209116675076 1:0.27599999 2:0.96363634 3:1 4:0.034680001 5:1.273957e-06 6:0.96363634 #
0.71552474172125546392209116675076 1:0.12177778 2:0.28260869 3:1 4:0.010515556 5:1.1194322e-07 6:0.28260869 #
-0.71552474172125546392209116675076 1:0.26899999 2:0.97183096 3:1 4:0.032553334 5:8.0307905e-07 6:0.97183096 #
-0.71552474172125546392209116675076 1:0.259 2:0.94999999 3:1 4:0.026944444 5:6.0762829e-07 6:0.94999999 #
0.71552474172125546392209116675076 1:0.1922963 2:0.083333336 3:1 4:0.018912593 5:2.2543402e-07 6:0.083333336 #
0.71552474172125546392209116675076 1:0.2192 2:0.16666667 3:1 4:0.027104 5:5.2371598e-07 6:0.16666667 #
0.71552474172125546392209116675076 1:0.23819354 2:1 3:1 4:0.035236128 5:9.5699102e-07 6:1 #
-0.71552474172125546392209116675076 1:0.28233334 2:0.21428572 3:1 4:0.041153334 5:1.5951269e-06 6:0.21428572 #
-0.71552474172125546392209116675076 1:0.26215383 2:0.38297874 3:1 4:0.027932309 5:6.2787774e-07 6:0.38297874 #
0.71552474172125546392209116675076 1:0.1574 2:0.27777779 3:1 4:0.027344 5:8.8760686e-07 6:0.27777779 #
-0.71552474172125546392209116675076 1:0.27127272 2:0.54545456 3:1 4:0.034552727 5:1.0723579e-06 6:0.54545456 #
-0.71552474172125546392209116675076 1:0.26761904 2:0.29166666 3:1 4:0.02464762 5:4.5900009e-07 6:0.29166666 #
0.71552474172125546392209116675076 1:0.26625001 2:0.86153847 3:1 4:0.03064 5:2.2502381e-06 6:0.86153847 #
-0.71552474172125546392209116675076 1:0.28114286 2:0.8611111 3:1 4:0.011851429 5:6.9282699e-08 6:0.8611111 #
0.71552474172125546392209116675076 1:0.40346667 2:0.18181819 3:1 4:0.038805332 5:3.1281486e-06 6:0.18181819 #
0.71552474172125546392209116675076 1:0.28072727 2:0.71052629 3:1 4:0.021443637 5:1.7409565e-06 6:0.71052629 #
-0.71552474172125546392209116675076 1:0.28276923 2:0.5 3:1 4:0.044015385 5:3.1955481e-06 6:0.5 #
-0.71552474172125546392209116675076 1:0.28363636 2:0.65853661 3:1 4:0.058923636 5:4.0692439e-06 6:0.65853661 #
0.71552474172125546392209116675076 1:0.23415385 2:0.60606062 3:1 4:0.027784616 5:4.7075474e-07 6:0.60606062 #
-0.71552474172125546392209116675076 1:0.27353847 2:0.2736842 3:1 4:0.020406153 5:5.2579935e-07 6:0.2736842 #
-0.71552474172125546392209116675076 1:0.33454546 2:0.78846157 3:1 4:0.043076362 5:1.0907577e-06 6:0.78846157 #
0.71552474172125546392209116675076 1:0.1974 2:0.27956989 3:1 4:0.02502 5:1.4772609e-06 6:0.27956989 #
0.71552474172125546392209116675076 1:0.32533333 2:0.92500001 3:1 4:0.022349333 5:1.5783553e-06 6:0.92500001 #
-0.71552474172125546392209116675076 1:0.27714285 2:0.25 3:1 4:0.022514286 5:7.0620234e-07 6:0.25 #
-0.71552474172125546392209116675076 1:0.31236362 2:0.80952382 3:1 4:0.011389091 5:2.2375983e-07 6:0.80952382 #
0.71552474172125546392209116675076 1:0.21924999 2:0.2857143 3:1 4:0.033025 5:2.0551361e-06 6:0.2857143 #
-0.71552474172125546392209116675076 1:0.2728 2:0.28125 3:1 4:0.025093334 5:2.3319942e-07 6:0.28125 #
0.71552474172125546392209116675076 1:0.34 2:0.82608694 3:1 4:0.02634353 5:2.4239596e-06 6:0.82608694 #
-0.71552474172125546392209116675076 1:0.28479999 2:0.83050847 3:1 4:0.017432 5:2.3387186e-06 6:0.83050847 #
0.71552474172125546392209116675076 1:0.17793548 2:0.25 3:1 4:0.031553548 5:9.4378225e-07 6:0.25 #
-0.71552474172125546392209116675076 1:0.28 2:0.85714287 3:1 4:0.058924444 5:1.9057674e-06 6:0.85714287 #
-0.71552474172125546392209116675076 1:0.26800001 2:0.875 3:1 4:0.030774999 5:4.6639792e-07 6:0.875 #
0.71552474172125546392209116675076 1:0.20475 2:0.20689656 3:1 4:0.02846 5:5.3053003e-07 6:0.20689656 #
0.71552474172125546392209116675076 1:0.228 2:0.3125 3:1 4:0.042501051 5:3.5140624e-06 6:0.3125 #
-0.71552474172125546392209116675076 1:0.19499999 2:0.072289154 3:1 4:0.02392 5:1.7241293e-06 6:0.072289154 #
0.71552474172125546392209116675076 1:0.30065116 2:0.95238096 3:1 4:0.030839071 5:2.45615e-06 6:0.95238096 #
-0.71552474172125546392209116675076 1:0.18836364 2:0.073170729 3:1 4:0.02286303 5:2.5579453e-07 6:0.073170729 #
-0.71552474172125546392209116675076 1:0.19093333 2:0.071428575 3:1 4:0.026741333 5:6.7389544e-07 6:0.071428575 #
0.71552474172125546392209116675076 1:0.2244138 2:1 3:1 4:0.047809657 5:1.472582e-06 6:1 #
0.71552474172125546392209116675076 1:0.22133334 2:1 3:1 4:0.031877335 5:8.179814e-07 6:1 #
-0.71552474172125546392209116675076 1:0.27272728 2:0.99186993 3:1 4:0.053185456 5:3.9822094e-06 6:0.99186993 #
0.71552474172125546392209116675076 1:0.19670588 2:0.12121212 3:1 4:0.019581176 5:3.3795726e-07 6:0.12121212 #
0.71552474172125546392209116675076 1:0.37444445 2:0.43478259 3:1 4:0.01112 5:1.6156601e-07 6:0.43478259 #
-0.71552474172125546392209116675076 1:0.033 2:0.61538464 3:1 4:0.00142 5:1.1657836e-08 6:0.61538464 #
0.71552474172125546392209116675076 1:0.20923077 2:0.45454547 3:1 4:0.020141538 5:3.4853252e-07 6:0.45454547 #
0.71552474172125546392209116675076 1:0.17020001 2:0.89999998 3:1 4:0.0307 5:1.4810162e-06 6:0.89999998 #
-0.71552474172125546392209116675076 1:0.2638 2:0.44117647 3:1 4:0.036200002 5:5.4656391e-07 6:0.44117647 #
-0.71552474172125546392209116675076 1:0.25012499 2:0.97959185 3:1 4:0.033659998 5:1.592597e-06 6:0.97959185 #
0.71552474172125546392209116675076 1:0.20553847 2:0.21428572 3:1 4:0.021360001 5:3.2197377e-07 6:0.21428572 #
-0.71552474172125546392209116675076 1:0.27946666 2:0.24285714 3:1 4:0.025109334 5:4.1442564e-07 6:0.24285714 #
0.71552474172125546392209116675076 1:0.1247 2:0.94117647 3:1 4:0.01846 5:1.9004763e-07 6:0.94117647 #
0.71552474172125546392209116675076 1:0.22514285 2:0.36363637 3:1 4:0.022600001 5:4.0190369e-07 6:0.36363637 #
0.71552474172125546392209116675076 1:0.16447058 2:0.37313432 3:1 4:0.027079999 5:8.7149249e-07 6:0.37313432 #
-0.71552474172125546392209116675076 1:0.25999999 2:0.33333334 3:1 4:0.027272001 5:1.3800433e-06 6:0.33333334 #
0.71552474172125546392209116675076 1:0.18447059 2:0.91666669 3:1 4:0.034108236 5:3.6194542e-06 6:0.91666669 #
0.71552474172125546392209116675076 1:0.14666666 2:0.16666667 3:1 4:0.01777 5:1.4735144e-07 6:0.16666667 #
-0.71552474172125546392209116675076 1:0.26875001 2:0.88709676 3:1 4:0.041850001 5:2.5836671e-06 6:0.88709676 #
0.71552474172125546392209116675076 1:0.27046153 2:0.92307693 3:1 4:0.010233846 5:2.0895655e-07 6:0.92307693 #
-0.71552474172125546392209116675076 1:0.14323077 2:0.23529412 3:1 4:0.0026092308 5:7.2661028e-09 6:0.23529412 #
0.71552474172125546392209116675076 1:0.20346667 2:0.33333334 3:1 4:0.029688001 5:1.1577212e-06 6:0.33333334 #
-0.71552474172125546392209116675076 1:0.303 2:0.73809522 3:1 4:0.015629999 5:9.6157692e-08 6:0.73809522 #
0.71552474172125546392209116675076 1:0.15428571 2:0.75 3:1 4:0.018704763 5:3.2635396e-07 6:0.75 #
0.71552474172125546392209116675076 1:0.27571428 2:0.45454547 3:1 4:0.05614857 5:4.8529114e-06 6:0.45454547 #
-0.71552474172125546392209116675076 1:0.039636362 2:0.52272725 3:1 4:0.028850909 5:2.5346438e-07 6:0.52272725 #
-0.71552474172125546392209116675076 1:0.26376471 2:0.42105263 3:1 4:0.038800001 5:2.3757543e-06 6:0.42105263 #
0.71552474172125546392209116675076 1:0.1487619 2:0.56521738 3:1 4:0.016388571 5:1.4446337e-07 6:0.56521738 #
-0.71552474172125546392209116675076 1:0.27907693 2:0.64102566 3:1 4:0.015261538 5:2.2721655e-07 6:0.64102566 #
-0.71552474172125546392209116675076 1:0.25478789 2:0.34285715 3:1 4:0.030283635 5:1.1925498e-06 6:0.34285715 #
0.71552474172125546392209116675076 1:0.34072727 2:0.38095239 3:1 4:0.040483635 5:4.0106311e-06 6:0.38095239 #
-0.71552474172125546392209116675076 1:0.15167999 2:0.13636364 3:1 4:0.032876801 5:9.2144938e-07 6:0.13636364 #
-0.71552474172125546392209116675076 1:0.26199999 2:0.30303031 3:1 4:0.024293333 5:4.2410772e-07 6:0.30303031 #
0.71552474172125546392209116675076 1:0.30063999 2:0.89999998 3:1 4:0.037539199 5:8.9634761e-07 6:0.89999998 #
0.71552474172125546392209116675076 1:0.20900001 2:0.1875 3:1 4:0.0224625 5:4.4617852e-07 6:0.1875 #
-0.71552474172125546392209116675076 1:0.31099999 2:0.76923078 3:1 4:0.056844998 5:6.0257821e-06 6:0.76923078 #
0.71552474172125546392209116675076 1:0.17530435 2:0.47368422 3:1 4:0.026462609 5:4.3601597e-07 6:0.47368422 #
-0.71552474172125546392209116675076 1:0.26069567 2:0.31578946 3:1 4:0.034987826 5:1.3856069e-06 6:0.31578946 #
0.71552474172125546392209116675076 1:0.15619047 2:0.63157892 3:1 4:0.015211429 5:5.0344005e-07 6:0.63157892 #
-0.71552474172125546392209116675076 1:0.25893334 2:0.33333334 3:1 4:0.042208001 5:1.1327763e-06 6:0.33333334 #
-0.71552474172125546392209116675076 1:0.25653332 2:0.33333334 3:1 4:0.01048 5:4.9440615e-08 6:0.33333334 #
0.71552474172125546392209116675076 1:0.2364706 2:0.78512394 3:1 4:0.046108235 5:3.6448698e-06 6:0.78512394 #
0.71552474172125546392209116675076 1:0.30614287 2:0.94736844 3:1 4:0.025962858 5:6.6092394e-07 6:0.94736844 #
-0.71552474172125546392209116675076 1:0.24240001 2:1 3:1 4:0.053861335 5:3.8766502e-06 6:1 #
0.71552474172125546392209116675076 1:0.28044444 2:0.13235295 3:1 4:0.031057777 5:1.0615325e-06 6:0.13235295 #
-0.71552474172125546392209116675076 1:0.24092308 2:0.97500002 3:1 4:0.02796923 5:9.3673219e-07 6:0.97500002 #
0.71552474172125546392209116675076 1:0.29028571 2:0.44 3:1 4:0.018335238 5:2.9037432e-07 6:0.44 #
-0.71552474172125546392209116675076 1:0.26875001 2:0.49019608 3:1 4:0.015995 5:4.134962e-07 6:0.49019608 #
-0.71552474172125546392209116675076 1:0.2638 2:0.45454547 3:1 4:0.036200002 5:5.4656391e-07 6:0.45454547 #
0.71552474172125546392209116675076 1:0.29028571 2:0.44 3:1 4:0.018335238 5:2.9037432e-07 6:0.44 #
0.71552474172125546392209116675076 1:0.30085716 2:0.42857143 3:1 4:0.033042856 5:2.2673948e-06 6:0.42857143 #
-0.71552474172125546392209116675076 1:0.245 2:0.40000001 3:1 4:0.01574 5:5.920802e-07 6:0.40000001 #
0.71552474172125546392209116675076 1:0.20373334 2:0.5 3:1 4:0.026008001 5:2.6925105e-07 6:0.5 #
-0.71552474172125546392209116675076 1:0.28276923 2:0.5151515 3:1 4:0.044015385 5:3.1955481e-06 6:0.5151515 #
0.71552474172125546392209116675076 1:0.28168422 2:0.609375 3:1 4:0.039667368 5:2.0149107e-06 6:0.609375 #
0.71552474172125546392209116675076 1:0.23165217 2:0.1923077 3:1 4:0.021012174 5:3.9414439e-07 6:0.1923077 #
-0.71552474172125546392209116675076 1:0.25294119 2:0.38749999 3:1 4:0.037421178 5:2.0528598e-06 6:0.38749999 #
-0.71552474172125546392209116675076 1:0.27127272 2:0.62886596 3:1 4:0.0082109096 5:2.1523384e-07 6:0.62886596 #
0.71552474172125546392209116675076 1:0.27833334 2:0.34999999 3:1 4:0.026453333 5:4.8185808e-07 6:0.34999999 #
-0.71552474172125546392209116675076 1:0.27563637 2:0.2 3:1 4:0.023301817 5:5.4449038e-07 6:0.2 #
0.71552474172125546392209116675076 1:0.23266667 2:0.92000002 3:1 4:0.034178667 5:1.8792134e-06 6:0.92000002 #
-0.71552474172125546392209116675076 1:0.24490322 2:0.98076922 3:1 4:0.045584515 5:2.1419812e-06 6:0.98076922 #
-0.71552474172125546392209116675076 1:0.23323077 2:1 3:1 4:0.024344616 5:3.1113305e-07 6:1 #
0.71552474172125546392209116675076 1:0.19810526 2:0.22222222 3:1 4:0.029225264 5:3.5636558e-07 6:0.22222222 #
0.71552474172125546392209116675076 1:0.14463158 2:0.16666667 3:1 4:0.01208 5:1.8659624e-07 6:0.16666667 #
-0.71552474172125546392209116675076 1:0.28304762 2:0.11111111 3:1 4:0.012114285 5:1.5878119e-07 6:0.11111111 #
0.71552474172125546392209116675076 1:0.1688 2:1 3:1 4:0.0174112 5:3.0568395e-07 6:1 #
-0.71552474172125546392209116675076 1:0.2095 2:0.1025641 3:1 4:0.01643 5:1.8972558e-07 6:0.1025641 #
-0.71552474172125546392209116675076 1:0.20989473 2:0.10526316 3:1 4:0.021187369 5:8.4658541e-07 6:0.10526316 #
0.71552474172125546392209116675076 1:0.2557838 2:1 3:1 4:0.034962162 5:2.9946109e-06 6:1 #
0.71552474172125546392209116675076 1:0.16671428 2:1 3:1 4:0.04916 5:3.4811874e-06 6:1 #
0.71552474172125546392209116675076 1:0.31527272 2:0.12121212 3:1 4:0.032000002 5:1.3494192e-06 6:0.12121212 #
-0.71552474172125546392209116675076 1:0.22385715 2:1 3:1 4:0.024737142 5:1.1556132e-06 6:1 #
-0.71552474172125546392209116675076 1:0.2268889 2:1 3:1 4:0.029853333 5:2.1748963e-06 6:1 #
-0.71552474172125546392209116675076 1:0.21872728 2:1 3:1 4:0.031399999 5:1.0725155e-06 6:1 #
0.71552474172125546392209116675076 1:0.32995349 2:0.0625 3:1 4:0.040826045 5:4.1614735e-06 6:0.0625 #
0.71552474172125546392209116675076 1:0.24959999 2:0.1 3:1 4:0.046284001 5:2.1247813e-06 6:0.1 #
-0.71552474172125546392209116675076 1:0.28436363 2:0.098039217 3:1 4:0.021847272 5:6.7223709e-07 6:0.098039217 #
0.71552474172125546392209116675076 1:0.20592593 2:0.953125 3:1 4:0.027804444 5:1.0319069e-06 6:0.953125 #
-0.71552474172125546392209116675076 1:0.28304762 2:0.11764706 3:1 4:0.012114285 5:1.5878119e-07 6:0.11764706 #
-0.71552474172125546392209116675076 1:0.25839999 2:0.40909091 3:1 4:0.066331998 5:2.4766462e-06 6:0.40909091 #
0.71552474172125546392209116675076 1:0.23538461 2:0.80000001 3:1 4:0.032824617 5:5.6638606e-07 6:0.80000001 #
0.71552474172125546392209116675076 1:0.1132 2:0.67391306 3:1 4:0.022992 5:3.5436108e-07 6:0.67391306 #
0.71552474172125546392209116675076 1:0.41973335 2:0.95238096 3:1 4:0.034266666 5:6.0928369e-07 6:0.95238096 #
-0.71552474172125546392209116675076 1:0.2388 2:1 3:1 4:0.048512001 5:9.4937786e-06 6:1 #
0.71552474172125546392209116675076 1:0.36436364 2:0.32142857 3:1 4:0.013629091 5:9.8831144e-08 6:0.32142857 #
-0.71552474172125546392209116675076 1:0.23415385 2:0.97916669 3:1 4:0.01995077 5:3.939341e-07 6:0.97916669 #
-0.71552474172125546392209116675076 1:0.27933332 2:0.24242425 3:1 4:0.0305 5:6.9185722e-07 6:0.24242425 #
0.71552474172125546392209116675076 1:0.12514286 2:0.875 3:1 4:0.023650285 5:4.4038282e-07 6:0.875 #
0.71552474172125546392209116675076 1:0.21085714 2:0.15151516 3:1 4:0.01452 5:2.076726e-07 6:0.15151516 #
-0.71552474172125546392209116675076 1:0.30676922 2:0.80645162 3:1 4:0.011083077 5:1.927263e-07 6:0.80645162 #
0.71552474172125546392209116675076 1:0.30273685 2:0.21052632 3:1 4:0.030985262 5:1.4757193e-06 6:0.21052632 #
0.71552474172125546392209116675076 1:0.13946667 2:0.61261261 3:1 4:0.017408 5:2.2247748e-07 6:0.61261261 #
0.71552474172125546392209116675076 1:0.23538461 2:0.80000001 3:1 4:0.032824617 5:5.6638606e-07 6:0.80000001 #
-0.71552474172125546392209116675076 1:0.27695239 2:0.24137931 3:1 4:0.027180953 5:4.7160282e-07 6:0.24137931 #
-0.71552474172125546392209116675076 1:0.30085716 2:0.80555558 3:1 4:0.017302858 5:2.2151936e-07 6:0.80555558 #
0.71552474172125546392209116675076 1:0.222 2:0.73333335 3:1 4:0.024484444 5:1.8465356e-06 6:0.73333335 #
0.71552474172125546392209116675076 1:0.24126315 2:0.25 3:1 4:0.040766317 5:1.8491263e-06 6:0.25 #
-0.71552474172125546392209116675076 1:0.15000001 2:0.76744187 3:1 4:0.023777142 5:8.2677843e-07 6:0.76744187 #
-0.71552474172125546392209116675076 1:0.26066667 2:0.30952382 3:1 4:0.037833333 5:2.5639547e-06 6:0.30952382 #
0.71552474172125546392209116675076 1:0.2540606 2:0.80165291 3:1 4:0.036991514 5:2.8070845e-06 6:0.80165291 #
0.71552474172125546392209116675076 1:0.16144 2:0.27272728 3:1 4:0.0079199998 5:5.0384159e-08 6:0.27272728 #
-0.71552474172125546392209116675076 1:0.29578948 2:0.82499999 3:1 4:0.036821052 5:2.046291e-06 6:0.82499999 #
-0.71552474172125546392209116675076 1:0.24109091 2:0.25263157 3:1 4:0.0060218181 5:1.5383986e-08 6:0.25263157 #
0.71552474172125546392209116675076 1:0.23311999 2:0.87931037 3:1 4:0.0142048 5:3.1375814e-07 6:0.87931037 #
0.71552474172125546392209116675076 1:0.28707692 2:0.12149533 3:1 4:0.059058461 5:3.5563448e-06 6:0.12149533 #
-0.71552474172125546392209116675076 1:0.2472 2:0.90322578 3:1 4:0.021067999 5:7.1664709e-07 6:0.90322578 #
-0.71552474172125546392209116675076 1:0.27321213 2:0.12121212 3:1 4:0.020928485 5:5.7142978e-07 6:0.12121212 #
-0.71552474172125546392209116675076 1:0.28279999 2:0.15492958 3:1 4:0.040964 5:7.6466813e-07 6:0.15492958 #
0.71552474172125546392209116675076 1:0.26733333 2:0.89473683 3:1 4:0.010613333 5:2.1301497e-07 6:0.89473683 #
-0.71552474172125546392209116675076 1:0.25747368 2:0.91803277 3:1 4:0.033608422 5:1.7405904e-06 6:0.91803277 #
0.71552474172125546392209116675076 1:0.21511111 2:0.2647059 3:1 4:0.026275555 5:2.3201342e-07 6:0.2647059 #
-0.71552474172125546392209116675076 1:0.2502 2:0.91803277 3:1 4:0.021916 5:3.3592011e-07 6:0.91803277 #
-0.71552474172125546392209116675076 1:0.26300001 2:0.86000001 3:1 4:0.019920001 5:2.1122372e-07 6:0.86000001 #
0.71552474172125546392209116675076 1:0.32022223 2:0.3611111 3:1 4:0.011902222 5:1.4578954e-07 6:0.3611111 #
0.71552474172125546392209116675076 1:0.21439999 2:0.2 3:1 4:0.019056 5:2.7883544e-07 6:0.2 #
0.71552474172125546392209116675076 1:0.27364707 2:1 3:1 4:0.036395293 5:1.229332e-06 6:1 #
-0.71552474172125546392209116675076 1:0.26622221 2:0.24561404 3:1 4:0.026062222 5:3.7702495e-07 6:0.24561404 #
0.71552474172125546392209116675076 1:0.28400001 2:0.98630136 3:1 4:0.01541 5:1.2140493e-06 6:0.98630136 #
-0.71552474172125546392209116675076 1:0.259 2:0.26229507 3:1 4:0.026675001 5:4.9125913e-07 6:0.26229507 #
-0.71552474172125546392209116675076 1:0.24571429 2:0.23529412 3:1 4:0.018874286 5:2.7840619e-07 6:0.23529412 #
0.71552474172125546392209116675076 1:0.53418183 2:1 3:1 4:0.032232728 5:3.5431497e-06 6:1 #
0.71552474172125546392209116675076 1:0.34137499 2:0.89361703 3:1 4:0.0266825 5:1.8855256e-06 6:0.89361703 #
0.71552474172125546392209116675076 1:0.23169231 2:0.074074075 3:1 4:0.050030768 5:4.9133259e-06 6:0.074074075 #
-0.71552474172125546392209116675076 1:0.2432 2:1 3:1 4:0.084186666 5:9.2084265e-06 6:1 #
-0.71552474172125546392209116675076 1:0.49907693 2:0.93548387 3:1 4:0.025649231 5:4.8094978e-07 6:0.93548387 #
0.71552474172125546392209116675076 1:0.16381818 2:0.21052632 3:1 4:0.019956363 5:3.0252582e-07 6:0.21052632 #
0.71552474172125546392209116675076 1:0.35483333 2:0.58064514 3:1 4:0.046293333 5:3.5889093e-06 6:0.58064514 #
-0.71552474172125546392209116675076 1:0.038857143 2:0.28409091 3:1 4:0.01564 5:5.7816567e-07 6:0.28409091 #
0.71552474172125546392209116675076 1:0.21408695 2:0.40000001 3:1 4:0.019996522 5:1.366421e-06 6:0.40000001 #
-0.71552474172125546392209116675076 1:0.26679999 2:0.52238804 3:1 4:0.040867999 5:3.6602603e-06 6:0.52238804 #
-0.71552474172125546392209116675076 1:0.26100001 2:0.47474748 3:1 4:0.014006667 5:4.1614223e-07 6:0.47474748 #
0.71552474172125546392209116675076 1:0.22977778 2:0.5 3:1 4:0.025982222 5:1.1482806e-06 6:0.5 #
0.71552474172125546392209116675076 1:0.31617391 2:0.55000001 3:1 4:0.021335652 5:3.0344006e-07 6:0.55000001 #
-0.71552474172125546392209116675076 1:0.25600001 2:0.47916666 3:1 4:0.02366 5:4.1252582e-07 6:0.47916666 #
-0.71552474172125546392209116675076 1:0.26449999 2:0.56 3:1 4:0.028185001 5:3.9246981e-07 6:0.56 #
0.71552474172125546392209116675076 1:0.15107693 2:0.28125 3:1 4:0.026578462 5:3.5339562e-07 6:0.28125 #
-0.71552474172125546392209116675076 1:0.26359999 2:0.20967741 3:1 4:0.017983999 5:2.5437109e-07 6:0.20967741 #
0.71552474172125546392209116675076 1:0.24303448 2:0.82051283 3:1 4:0.027409656 5:9.0489425e-07 6:0.82051283 #
-0.71552474172125546392209116675076 1:0.27599999 2:0.82051283 3:1 4:0.024651852 5:5.3480369e-07 6:0.82051283 #
0.71552474172125546392209116675076 1:0.34363636 2:0.48275861 3:1 4:0.029185455 5:4.6592319e-07 6:0.48275861 #
-0.71552474172125546392209116675076 1:0.2854 2:0.75438595 3:1 4:0.018828001 5:1.0544577e-07 6:0.75438595 #
0.71552474172125546392209116675076 1:0.30149999 2:0.53191489 3:1 4:0.020825 5:2.4164433e-07 6:0.53191489 #
-0.71552474172125546392209116675076 1:0.25082353 2:0.41843972 3:1 4:0.036781177 5:3.7092962e-06 6:0.41843972 #
0.71552474172125546392209116675076 1:0.18417391 2:0.42857143 3:1 4:0.024949566 5:4.3331426e-07 6:0.42857143 #
-0.71552474172125546392209116675076 1:0.26723808 2:0.5 3:1 4:0.043059047 5:1.8992794e-06 6:0.5 #
0.71552474172125546392209116675076 1:0.25812501 2:0.60000002 3:1 4:0.048434999 5:3.1575007e-06 6:0.60000002 #
-0.71552474172125546392209116675076 1:0.27599999 2:0.627451 3:1 4:0.030537143 5:1.564229e-06 6:0.627451 #
0.71552474172125546392209116675076 1:0.16949999 2:0.2682927 3:1 4:0.018505 5:3.4123363e-07 6:0.2682927 #
0.71552474172125546392209116675076 1:0.42246154 2:0.74193549 3:1 4:0.044498462 5:1.8671151e-06 6:0.74193549 #
-0.71552474172125546392209116675076 1:0.22480001 2:0.2 3:1 4:0.0088160001 5:1.4843064e-07 6:0.2 #
-0.71552474172125546392209116675076 1:0.2854 2:0.7846154 3:1 4:0.018828001 5:1.0544577e-07 6:0.7846154 #
-0.71552474172125546392209116675076 1:0.25960001 2:0.30232558 3:1 4:0.031916 5:1.8855008e-06 6:0.30232558 #
0.71552474172125546392209116675076 1:0.19328572 2:0.66666669 3:1 4:0.055968571 5:2.96042e-06 6:0.66666669 #
0.71552474172125546392209116675076 1:0.2588 2:0.1981132 3:1 4:0.032496002 5:1.0100646e-06 6:0.1981132 #
-0.71552474172125546392209116675076 1:0.27360001 2:0.61764705 3:1 4:0.029125333 5:2.7879511e-07 6:0.61764705 #
0.71552474172125546392209116675076 1:0.21858823 2:0.67647058 3:1 4:0.038672943 5:1.248522e-06 6:0.67647058 #
-0.71552474172125546392209116675076 1:0.14946666 2:0.76923078 3:1 4:0.010970667 5:5.7124684e-08 6:0.76923078 #
-0.71552474172125546392209116675076 1:0.27788237 2:0.79487181 3:1 4:0.018602353 5:2.5760133e-07 6:0.79487181 #
0.71552474172125546392209116675076 1:0.11294118 2:0.0625 3:1 4:0.02285647 5:4.9840406e-07 6:0.0625 #
-0.71552474172125546392209116675076 1:0.27974999 2:0.085714288 3:1 4:0.031849999 5:7.0893935e-07 6:0.085714288 #
0.71552474172125546392209116675076 1:0.29538462 2:0.79166669 3:1 4:0.025766155 5:4.0575884e-07 6:0.79166669 #
-0.71552474172125546392209116675076 1:0.16528 2:1 3:1 4:0.038764801 5:1.2097057e-06 6:1 #
0.71552474172125546392209116675076 1:0.2042 2:0.5 3:1 4:0.034212001 5:6.23152e-07 6:0.5 #
0.71552474172125546392209116675076 1:0.17 2:0.875 3:1 4:0.019932 5:1.5928914e-07 6:0.875 #
0.71552474172125546392209116675076 1:0.28740001 2:0.65384614 3:1 4:0.020364 5:5.2120203e-07 6:0.65384614 #
0.71552474172125546392209116675076 1:0.17973334 2:0.14285715 3:1 4:0.037290666 5:8.0461501e-07 6:0.14285715 #
-0.71552474172125546392209116675076 1:0.26695651 2:0.86178863 3:1 4:0.050827827 5:3.352133e-06 6:0.86178863 #
0.71552474172125546392209116675076 1:0.19228572 2:0.12903225 3:1 4:0.016902857 5:4.3959795e-07 6:0.12903225 #
-0.71552474172125546392209116675076 1:0.27900001 2:0.7037037 3:1 4:0.02108 5:4.1914814e-07 6:0.7037037 #
-0.71552474172125546392209116675076 1:0.25090909 2:0.32499999 3:1 4:0.0070690908 5:1.2376292e-07 6:0.32499999 #
-0.71552474172125546392209116675076 1:0.29244444 2:0.72222221 3:1 4:0.031795554 5:8.712052e-07 6:0.72222221 #
0.71552474172125546392209116675076 1:0.35299999 2:0.25 3:1 4:0.030007999 5:7.216583e-07 6:0.25 #
0.71552474172125546392209116675076 1:0.16 2:0.85185188 3:1 4:0.041228235 5:4.1483313e-06 6:0.85185188 #
-0.71552474172125546392209116675076 1:0.26633334 2:0.17391305 3:1 4:0.012936667 5:1.9415623e-07 6:0.17391305 #
-0.71552474172125546392209116675076 1:0.26173913 2:0.8699187 3:1 4:0.038942609 5:6.279007e-07 6:0.8699187 #
0.71552474172125546392209116675076 1:0.22786207 2:1 3:1 4:0.036971036 5:1.0223823e-06 6:1 #
0.71552474172125546392209116675076 1:0.16173913 2:0.1388889 3:1 4:0.030824348 5:5.6954065e-07 6:0.1388889 #
0.71552474172125546392209116675076 1:0.29866666 2:0.16216215 3:1 4:0.031008 5:2.1112342e-06 6:0.16216215 #
0.71552474172125546392209116675076 1:0.15793549 2:0.16666667 3:1 4:0.036905807 5:2.6028556e-06 6:0.16666667 #
0.71552474172125546392209116675076 1:0.20955555 2:1 3:1 4:0.040253334 5:9.315184e-07 6:1 #
-0.71552474172125546392209116675076 1:0.28479999 2:0.045454547 3:1 4:0.034120001 5:1.4183621e-06 6:0.045454547 #
-0.71552474172125546392209116675076 1:0.26447058 2:0.16666667 3:1 4:0.047002353 5:6.9136804e-06 6:0.16666667 #
0.71552474172125546392209116675076 1:0.14 2:0.8888889 3:1 4:0.012673333 5:1.3371586e-07 6:0.8888889 #
-0.71552474172125546392209116675076 1:0.2730909 2:0.87755102 3:1 4:0.060669091 5:4.09119e-06 6:0.87755102 #
0.71552474172125546392209116675076 1:0.14361905 2:0.34782609 3:1 4:0.035177141 5:1.4197288e-06 6:0.34782609 #
-0.71552474172125546392209116675076 1:0.28433332 2:0.74545455 3:1 4:0.031586666 5:8.3712132e-07 6:0.74545455 #
0.71552474172125546392209116675076 1:0.20276923 2:0.71875 3:1 4:0.036633845 5:6.2099184e-07 6:0.71875 #
-0.71552474172125546392209116675076 1:0.044399999 2:0.23170732 3:1 4:0.028295999 5:5.2875379e-07 6:0.23170732 #
0.71552474172125546392209116675076 1:0.2352 2:0.2857143 3:1 4:0.040277332 5:2.6388498e-06 6:0.2857143 #
-0.71552474172125546392209116675076 1:0.27599999 2:0.75 3:1 4:0.024651852 5:5.3480369e-07 6:0.75 #
-0.71552474172125546392209116675076 1:0.24068965 2:0.25862068 3:1 4:0.042830344 5:3.2181929e-06 6:0.25862068 #
0.71552474172125546392209116675076 1:0.41616666 2:0.35714287 3:1 4:0.05658 5:6.2177323e-06 6:0.35714287 #
-0.71552474172125546392209116675076 1:0.37099999 2:0.875 3:0 4:0.01058 5:3.3542385e-08 6:0.875 #
-0.71552474172125546392209116675076 1:0.35800001 2:0.92500001 3:0 4:0.020373333 5:1.1973238e-07 6:0.92500001 #
0.71552474172125546392209116675076 1:0.182 2:0.47826087 3:1 4:0.038333334 5:1.1733573e-06 6:0.47826087 #
0.71552474172125546392209116675076 1:0.19657142 2:0.41176471 3:1 4:0.042392381 5:2.2659244e-06 6:0.41176471 #
-0.71552474172125546392209116675076 1:0.25123811 2:0.29310346 3:1 4:0.052506667 5:5.6923682e-06 6:0.29310346 #
0.71552474172125546392209116675076 1:0.1128 2:0.96610171 3:0 4:0.00136 5:3.9526684e-09 6:0.96610171 #
-0.71552474172125546392209116675076 1:0.24070588 2:0.375 3:1 4:0.03165647 5:4.562865e-07 6:0.375 #
0.71552474172125546392209116675076 1:0.20907693 2:0.63043481 3:1 4:0.026646154 5:2.4419444e-06 6:0.63043481 #
-0.71552474172125546392209116675076 1:0.2388 2:0.47540984 3:1 4:0.032976002 5:1.302291e-06 6:0.47540984 #
-0.71552474172125546392209116675076 1:0.039529413 2:0.6226415 3:1 4:0.015567059 5:3.9302219e-07 6:0.6226415 #
-0.71552474172125546392209116675076 1:0.25371429 2:0.45714286 3:1 4:0.023291428 5:2.371136e-07 6:0.45714286 #
0.71552474172125546392209116675076 1:0.13581818 2:0.60000002 3:1 4:0.030861817 5:1.3051938e-06 6:0.60000002 #
0.71552474172125546392209116675076 1:0.153125 2:0.125 3:1 4:0.0363 5:9.3905641e-07 6:0.125 #
0.71552474172125546392209116675076 1:0.19253333 2:0.57692307 3:1 4:0.047717333 5:2.0387936e-06 6:0.57692307 #
-0.71552474172125546392209116675076 1:0.25123811 2:0.33333334 3:1 4:0.052506667 5:5.6923682e-06 6:0.33333334 #
0.71552474172125546392209116675076 1:0.28371429 2:0.29411766 3:1 4:0.019605715 5:5.5964216e-07 6:0.29411766 #
-0.71552474172125546392209116675076 1:0.1416 2:0.14 3:1 4:0.012568 5:8.0931713e-08 6:0.14 #
-0.71552474172125546392209116675076 1:0.26973912 2:0.19565217 3:1 4:0.036045216 5:1.0371465e-06 6:0.19565217 #
0.71552474172125546392209116675076 1:0.1688 2:0.80000001 3:1 4:0.0276 5:3.6700862e-07 6:0.80000001 #
-0.71552474172125546392209116675076 1:0.24785714 2:0.41025642 3:1 4:0.034314286 5:1.1480466e-06 6:0.41025642 #
0.71552474172125546392209116675076 1:0.243 2:0.55000001 3:1 4:0.025846668 5:6.9445377e-07 6:0.55000001 #
-0.71552474172125546392209116675076 1:0.27360001 2:0.66666669 3:1 4:0.029125333 5:2.7879511e-07 6:0.66666669 #
0.71552474172125546392209116675076 1:0.28933334 2:0.11538462 3:1 4:0.023736667 5:5.0586829e-07 6:0.11538462 #
-0.71552474172125546392209116675076 1:0.28777778 2:0.083333336 3:1 4:0.01747111 5:5.0087561e-07 6:0.083333336 #
0.71552474172125546392209116675076 1:0.14242858 2:0.80000001 3:1 4:0.025665713 5:2.8102193e-07 6:0.80000001 #
-0.71552474172125546392209116675076 1:0.26866665 2:0.079365082 3:1 4:0.01898 5:3.9571927e-07 6:0.079365082 #
-0.71552474172125546392209116675076 1:0.26773334 2:0.067226894 3:1 4:0.028736001 5:6.418569e-07 6:0.067226894 #
0.71552474172125546392209116675076 1:0.21808696 2:0.7764706 3:1 4:0.018410435 5:2.1926895e-07 6:0.7764706 #
0.71552474172125546392209116675076 1:0.22707692 2:0.61363637 3:1 4:0.024523078 5:4.8791253e-07 6:0.61363637 #
0.71552474172125546392209116675076 1:0.38064 2:0.092307694 3:1 4:0.016787199 5:3.2117225e-07 6:0.092307694 #
-0.71552474172125546392209116675076 1:0.2255 2:0.86250001 3:1 4:0.00388 5:7.0809678e-09 6:0.86250001 #
0.71552474172125546392209116675076 1:0.2469091 2:0.10909091 3:1 4:0.029174546 5:9.6802353e-07 6:0.10909091 #
-0.71552474172125546392209116675076 1:0.24600001 2:0.70149255 3:1 4:0.012133333 5:9.2551083e-08 6:0.70149255 #
-0.71552474172125546392209116675076 1:0.25142857 2:0.29032257 3:1 4:0.064097144 5:2.2865029e-06 6:0.29032257 #
0.71552474172125546392209116675076 1:0.24699999 2:0.94827586 3:1 4:0.050448 5:3.8446724e-06 6:0.94827586 #
0.71552474172125546392209116675076 1:0.1908 2:0.32291666 3:1 4:0.014624 5:2.2889175e-07 6:0.32291666 #
0.71552474172125546392209116675076 1:0.252 2:0.54545456 3:1 4:0.021469474 5:3.4365343e-07 6:0.54545456 #
-0.71552474172125546392209116675076 1:0.039999999 2:0.47058824 3:1 4:0.014202353 5:1.9213608e-07 6:0.47058824 #
-0.71552474172125546392209116675076 1:0.26679999 2:0.52238804 3:1 4:0.040867999 5:3.6602603e-06 6:0.52238804 #
0.71552474172125546392209116675076 1:0.14399999 2:0.4375 3:1 4:0.019868571 5:1.7824281e-07 6:0.4375 #
0.71552474172125546392209116675076 1:0.26905262 2:0.53225809 3:1 4:0.034568422 5:2.8457209e-06 6:0.53225809 #
-0.71552474172125546392209116675076 1:0.25 2:0.35227272 3:1 4:0.019587692 5:4.1215182e-07 6:0.35227272 #
-0.71552474172125546392209116675076 1:0.26069567 2:0.6111111 3:1 4:0.021537391 5:7.942445e-07 6:0.6111111 #
0.71552474172125546392209116675076 1:0.25309092 2:0.52631581 3:1 4:0.047374547 5:5.4767347e-06 6:0.52631581 #
-0.71552474172125546392209116675076 1:0.24646154 2:0.44444445 3:1 4:0.017458461 5:1.8174028e-07 6:0.44444445 #
-0.71552474172125546392209116675076 1:0.2586 2:0.5714286 3:1 4:0.026796 5:4.9224167e-07 6:0.5714286 #
0.71552474172125546392209116675076 1:0.19717647 2:0.5 3:1 4:0.026865883 5:4.5868757e-07 6:0.5 #
-0.71552474172125546392209116675076 1:0.2366 2:0.47142857 3:1 4:0.035831999 5:1.0554365e-06 6:0.47142857 #
-0.71552474172125546392209116675076 1:0.16457143 2:0.46296296 3:1 4:0.05424 5:5.9861113e-06 6:0.46296296 #
-0.71552474172125546392209116675076 1:0.16993104 2:0.46153846 3:1 4:0.037875861 5:2.3479515e-06 6:0.46153846 #
0.71552474172125546392209116675076 1:0.65200001 2:0.93333334 3:0 4:0.01352 5:1.1233821e-07 6:0.93333334 #
0.71552474172125546392209116675076 1:0.39666668 2:0.87671232 3:0 4:0.0078533329 5:3.2031458e-08 6:0.87671232 #
-0.71552474172125546392209116675076 1:0.34711111 2:0.93495935 3:0 4:0.024293333 5:3.0276837e-07 6:0.93495935 #
0.71552474172125546392209116675076 1:0.228 2:0.40000001 3:1 4:0.018189473 5:2.3674363e-07 6:0.40000001 #
-0.71552474172125546392209116675076 1:0.34711111 2:0.90625 3:0 4:0.024293333 5:3.0276837e-07 6:0.90625 #
-0.71552474172125546392209116675076 1:0.69 2:0.34751773 3:0 4:0.04752 5:1.2145103e-06 6:0.34751773 #
-0.71552474172125546392209116675076 1:0.34733334 2:0.79545456 3:0 4:0.042573333 5:1.4999126e-06 6:0.79545456 #
0.71552474172125546392209116675076 1:0.12054545 2:0.625 3:1 4:0.026810909 5:3.2826844e-07 6:0.625 #
0.71552474172125546392209116675076 1:0.17973334 2:0.53846157 3:1 4:0.037946668 5:4.0827613e-06 6:0.53846157 #
0.71552474172125546392209116675076 1:0.18391667 2:0.72131145 3:1 4:0.023535 5:7.4494199e-07 6:0.72131145 #
0.71552474172125546392209116675076 1:0.3008 2:0.75 3:0 4:0.019215999 5:1.4971194e-07 6:0.75 #
-0.71552474172125546392209116675076 1:0.20233333 2:0.57831323 3:1 4:0.012226666 5:1.503487e-07 6:0.57831323 #
0.71552474172125546392209116675076 1:0.257 2:0.12903225 3:0 4:0.061689999 5:7.7608966e-06 6:0.12903225 #
-0.71552474172125546392209116675076 1:0.2755 2:0.068965517 3:0 4:0.0053099999 5:1.6776696e-07 6:0.068965517 #
