SVM-light Version V6.02
2 # kernel type
3 # kernel parameter -d 
1 # kernel parameter -g 
1 # kernel parameter -s 
1 # kernel parameter -r 
empty# kernel parameter -u 
5 # highest feature index 
74672 # number of training documents 
14055 # number of support vectors plus 1 
-1.0992856 # threshold b, each following line is a SV (starting with alpha*y)
-2.0266208299204451215302924538264 1:0.14753847 2:0.5714286 3:0.034733728 4:0.0012214754 5:0.014844974 #
2.0266208299204451215302924538264 1:0.22149999 2:0.12820514 3:0.031500001 4:0.010139567 5:0.12123527 #
2.0266208299204451215302924538264 1:0.50400001 2:0.12222222 3:0.1205 4:0.011107825 5:0.14674829 #
-2.0266208299204451215302924538264 1:0.292 2:0.021276595 3:0.069750004 4:0.010583567 5:0.24126504 #
2.0266208299204451215302924538264 1:0.13133334 2:0.13043478 3:0.066333331 4:0.0022166024 5:0.0079259491 #
2.0266208299204451215302924538264 1:0.18755555 2:0.1875 3:0.038844444 4:0.0091200266 5:0.10748461 #
-2.0266208299204451215302924538264 1:0.45563635 2:0.064935066 3:0.17054546 4:0.015090953 5:0.0034662096 #
2.0266208299204451215302924538264 1:0.17753845 2:0.84615386 3:0.025846153 4:0.0062828641 5:0.076096386 #
2.0266208299204451215302924538264 1:0.13288888 2:0.19565217 3:0.029981481 4:0.0010644711 5:0.027336311 #
2.0266208299204451215302924538264 1:0.368 2:0.043010753 3:0.093857139 4:0.0072769206 5:0.10831428 #
-2.0266208299204451215302924538264 1:0.40400001 2:1 3:0.07 4:0.0045036776 5:0.32307136 #
2.0266208299204451215302924538264 1:0.31885713 2:0.35294119 3:0.056000002 4:0.016551083 5:0.015536548 #
-2.0266208299204451215302924538264 1:0.32499999 2:0.0094339624 3:0.069576927 4:0.00099554076 5:0.072806463 #
2.0266208299204451215302924538264 1:0.461 2:0.91489363 3:0.11625 4:0.013427936 5:0.17032729 #
-2.0266208299204451215302924538264 1:0.10514285 2:1 3:0.038080584 4:0.0015739347 5:0.025062045 #
-2.0266208299204451215302924538264 1:0.65600002 2:0.85714287 3:0.28266665 4:0.031099055 5:0.16158599 #
2.0266208299204451215302924538264 1:0.29542857 2:0.29545453 3:0.045371428 4:0.0092264488 5:0.1418376 #
-2.0266208299204451215302924538264 1:0.493 2:0.28 3:0.096000001 4:0.0080541661 5:0.14656065 #
2.0266208299204451215302924538264 1:0.41714287 2:0.65217394 3:0.11242857 4:0.0074873851 5:0.083598949 #
-2.0266208299204451215302924538264 1:0.59680003 2:0.93333334 3:0.1132 4:0.018074326 5:0.075218864 #
2.0266208299204451215302924538264 1:0.48666668 2:0.5272727 3:0.1 4:0.017255759 5:0.17813975 #
-2.0266208299204451215302924538264 1:0.41299999 2:0.34090909 3:0.13533333 4:0.022064913 5:0.29026085 #
2.0266208299204451215302924538264 1:0.204 2:0.66666669 3:0.052000001 4:0.0079530617 5:0.078884467 #
-2.0266208299204451215302924538264 1:0.303 2:0.73809522 3:0.018557692 4:0.00042685674 5:0.040881127 #
2.0266208299204451215302924538264 1:0.48742858 2:0.22727273 3:0.032285713 4:0.0034233166 5:0.026533967 #
-2.0266208299204451215302924538264 1:0.42866668 2:0.12765957 3:0.045128204 4:0.0020540173 5:0.10060533 #
2.0266208299204451215302924538264 1:0.15054545 2:0.97435898 3:0.030909091 4:0.0076094572 5:0.073824592 #
-2.0266208299204451215302924538264 1:0.1115 2:1 3:0.011864583 4:0.00030118608 5:0.0088152951 #
2.0266208299204451215302924538264 1:0.30685714 2:0.007751938 3:0.084428571 4:0.0064306548 5:0.11814018 #
2.0266208299204451215302924538264 1:0.169 2:0.75 3:0.041466668 4:0.0071248319 5:0.064005911 #
-2.0266208299204451215302924538264 1:0.37555555 2:0.18032786 3:0.034119658 4:0.00081053335 5:0.071473584 #
2.0266208299204451215302924538264 1:0.32159999 2:0.484375 3:0.018433332 4:0.0022444499 5:0.09399724 #
-2.0266208299204451215302924538264 1:0.33133334 2:0.53846157 3:0.022461539 4:0.0026700911 5:0.069212556 #
2.0266208299204451215302924538264 1:0.36861539 2:0.2 3:0.062745564 4:0.0021724363 5:0.041612834 #
-2.0266208299204451215302924538264 1:0.38685715 2:0.27083334 3:0.064444445 4:0.011375248 5:0.012439392 #
2.0266208299204451215302924538264 1:0.19400001 2:0.5 3:0.039657142 4:0.0065874043 5:0.0020244701 #
2.0266208299204451215302924538264 1:0.13215999 2:0.6785714 3:0.048160002 4:0.0060306848 5:0.019237043 #
-2.0266208299204451215302924538264 1:0.13160001 2:0.5714286 3:0.023333333 4:0.0011699403 5:1.5541786e-05 #
2.0266208299204451215302924538264 1:0.3137143 2:0.031007752 3:0.077571429 4:0.0063766693 5:0.13880512 #
-2.0266208299204451215302924538264 1:0.34517646 2:0.029411765 3:0.086882353 4:0.0024552241 5:0.036413513 #
-2.0266208299204451215302924538264 1:0.30342856 2:0.048387095 3:0.059999999 4:0.0032832732 5:0.13824216 #
2.0266208299204451215302924538264 1:0.152 2:0.375 3:0.028373333 4:0.0059706643 5:0.058451984 #
2.0266208299204451215302924538264 1:0.14650001 2:0.45038167 3:0.045041665 4:0.0011033184 5:0.12137359 #
2.0266208299204451215302924538264 1:0.34666666 2:0.18461539 3:0.087499999 4:0.0074335313 5:0.061773058 #
-2.0266208299204451215302924538264 1:0.479 2:0.24137931 3:0.1275 4:0.033563916 5:0.0083819563 #
2.0266208299204451215302924538264 1:0.27955556 2:0.8125 3:0.029155556 4:0.0058837309 5:0.1050907 #
-2.0266208299204451215302924538264 1:0.308 2:0.85714287 3:0.035523809 4:0.00095783774 5:0.14250721 #
2.0266208299204451215302924538264 1:0.15446153 2:0.125 3:0.046892308 4:0.0071884538 5:0.022129556 #
-2.0266208299204451215302924538264 1:0.18690909 2:0.010526316 3:0.033545453 4:0.0063332766 5:0.077052936 #
2.0266208299204451215302924538264 1:0.28725001 2:0.75 3:0.043650001 4:0.0057748179 5:0.055653848 #
-2.0266208299204451215302924538264 1:0.23899999 2:0.78313255 3:0.0394 4:0.0015048967 5:0.0015741641 #
2.0266208299204451215302924538264 1:0.14906667 2:0.33333334 3:0.03664 4:0.0059669912 5:0.032130815 #
-2.0266208299204451215302924538264 1:0.21855555 2:0.32857144 3:0.021290598 4:0.0018955101 5:0.020491106 #
2.0266208299204451215302924538264 1:0.38114285 2:0.5625 3:0.083857141 4:0.0064026429 5:0.10551561 #
-2.0266208299204451215302924538264 1:0.37133333 2:0.59154928 3:0.043025643 4:0.0039721658 5:0.090936966 #
2.0266208299204451215302924538264 1:0.252 2:0.06666667 3:0.045166668 4:0.015147205 5:0.16084816 #
2.0266208299204451215302924538264 1:0.11866666 2:0.90909094 3:0.063733332 4:0.0034229795 5:0.0402922 #
2.0266208299204451215302924538264 1:0.38514286 2:0.81034482 3:0.018642858 4:0.0016572184 5:0.058171347 #
-2.0266208299204451215302924538264 1:0.37815386 2:0.80645162 3:0.088512823 4:0.010367802 5:0.019967131 #
2.0266208299204451215302924538264 1:0.36836365 2:0.15151516 3:0.020515151 4:0.0020865237 5:0.03646316 #
-2.0266208299204451215302924538264 1:0.38685715 2:0.29545453 3:0.064444445 4:0.011375248 5:0.011838871 #
2.0266208299204451215302924538264 1:0.30426666 2:0.84615386 3:0.046974357 4:0.0013354165 5:0.037666488 #
2.0266208299204451215302924538264 1:0.36654547 2:0.6111111 3:0.10490909 4:0.0052251099 5:0.082976237 #
2.0266208299204451215302924538264 1:0.37466666 2:0.25 3:0.052703705 4:0.0034920506 5:0.10165941 #
-2.0266208299204451215302924538264 1:0.37771428 2:0.22727273 3:0.086285718 4:0.012856674 5:0.13885774 #
2.0266208299204451215302924538264 1:0.12899999 2:0.56410259 3:0.040150002 4:0.0055823782 5:0.028338069 #
-2.0266208299204451215302924538264 1:0.20886956 2:0.58974361 3:0.014421404 4:0.00017862696 5:0.00045806915 #
2.0266208299204451215302924538264 1:0.39120001 2:0.25862068 3:0.021033334 4:0.0022540798 5:0.042007364 #
-2.0266208299204451215302924538264 1:0.31619999 2:0.22222222 3:0.055 4:0.0027151124 5:0.040347423 #
2.0266208299204451215302924538264 1:0.31433332 2:0.91379309 3:0.055 4:0.0019270763 5:0.031805713 #
-2.0266208299204451215302924538264 1:0.32025 2:1 3:0.051673077 4:0.0014405994 5:0.048597597 #
2.0266208299204451215302924538264 1:0.213 2:0.15000001 3:0.055349998 4:0.0060225823 5:0.043470304 #
-2.0266208299204451215302924538264 1:0.29771429 2:0.08510638 3:0.017999999 4:0.00062088069 5:0.041661881 #
2.0266208299204451215302924538264 1:0.31600001 2:0.95652175 3:0.112 4:0.010213955 5:0.029965196 #
-2.0266208299204451215302924538264 1:0.26085714 2:0.90384614 3:0.11685714 4:0.01688497 5:0.033619687 #
2.0266208299204451215302924538264 1:0.24625 2:0.083333336 3:0.0575625 4:0.0030031083 5:0.058789656 #
-2.0266208299204451215302924538264 1:0.2095 2:0.1025641 3:0.012538462 4:0.000478403 5:0.043586712 #
2.0266208299204451215302924538264 1:0.19499999 2:0.64705884 3:0.042399999 4:0.0068945759 5:0.11430994 #
-2.0266208299204451215302924538264 1:0.26285714 2:0.63157892 3:0.037999999 4:0.0024494352 5:0.13521306 #
2.0266208299204451215302924538264 1:0.38981819 2:0.15000001 3:0.040545456 4:0.0024485479 5:0.079370655 #
-2.0266208299204451215302924538264 1:0.35309091 2:0.1891892 3:0.097370632 4:0.0038991803 5:0.081583902 #
2.0266208299204451215302924538264 1:0.28066668 2:1 3:0.072416663 4:0.0042041657 5:0.069372699 #
-2.0266208299204451215302924538264 1:0.27059999 2:1 3:0.069583334 4:0.0034988779 5:0.024012471 #
2.0266208299204451215302924538264 1:0.38080001 2:0.20560747 3:0.084533334 4:0.0027012331 5:0.15524745 #
-2.0266208299204451215302924538264 1:0.31600001 2:0.19402985 3:0.025406593 4:0.0016716999 5:0.12892672 #
2.0266208299204451215302924538264 1:0.4226 2:0.57692307 3:0.057016667 4:0.0028337876 5:0.012159807 #
-2.0266208299204451215302924538264 1:0.45649999 2:0.63636363 3:0.075499997 4:0.011249591 5:0.12363483 #
2.0266208299204451215302924538264 1:0.15173334 2:0.25 3:0.040693332 4:0.0057656476 5:0.053159438 #
-2.0266208299204451215302924538264 1:0.22783333 2:0.2 3:0.029466666 4:0.0015441672 5:0.000640132 #
2.0266208299204451215302924538264 1:0.35155556 2:0.6875 3:0.088444442 4:0.0052212412 5:0.087554149 #
-2.0266208299204451215302924538264 1:0.2924 2:0.67307693 3:0.1328 4:0.040266212 5:0.088623695 #
2.0266208299204451215302924538264 1:0.51111114 2:0.30303031 3:0.080555558 4:0.0084495116 5:0.028996164 #
-2.0266208299204451215302924538264 1:0.479 2:0.40000001 3:0.1275 4:0.033563916 5:0.012103798 #
2.0266208299204451215302924538264 1:0.19326316 2:0.625 3:0.033178948 4:0.004613264 5:0.038746566 #
-2.0266208299204451215302924538264 1:0.27127272 2:0.62886596 3:0.017034965 4:0.0063667772 5:0.026873477 #
2.0266208299204451215302924538264 1:0.29733333 2:0.34408602 3:0.079444446 4:0.0051922123 5:0.010159409 #
-2.0266208299204451215302924538264 1:0.28674999 2:0.28873238 3:0.032807693 4:0.001852438 5:0.014329403 #
2.0266208299204451215302924538264 1:0.23226666 2:0.79310346 3:0.026155556 4:0.0023681284 5:0.052501738 #
-2.0266208299204451215302924538264 1:0.2066 2:0.81818181 3:0.021866666 4:0.00099846115 5:0.043538678 #
2.0266208299204451215302924538264 1:0.21058823 2:0.043478262 3:0.053705882 4:0.0030125487 5:0.04694574 #
-2.0266208299204451215302924538264 1:0.241 2:0.060606062 3:0.030458333 4:0.0016212146 5:0.058360759 #
2.0266208299204451215302924538264 1:0.29644445 2:0.91111112 3:0.074555553 4:0.0055854744 5:0.010854336 #
-2.0266208299204451215302924538264 1:0.28251851 2:0.92000002 3:0.064395063 4:0.0067841583 5:0.0037507392 #
2.0266208299204451215302924538264 1:0.1805 2:0.17647059 3:0.03695 4:0.0062377574 5:0.023114005 #
-2.0266208299204451215302924538264 1:0.18586667 2:0.16981132 3:0.061155554 4:0.0048933974 5:0.04056517 #
2.0266208299204451215302924538264 1:0.4955 2:0.69999999 3:0.049291667 4:0.0043281689 5:0.064723022 #
-2.0266208299204451215302924538264 1:0.45025 2:0.6857143 3:0.090333335 4:0.014900054 5:0.041654486 #
2.0266208299204451215302924538264 1:0.31200001 2:0.36923078 3:0.082400002 4:0.0055135917 5:0.077991448 #
-2.0266208299204451215302924538264 1:0.3624 2:0.36842105 3:0.014866667 4:0.00081189931 5:0.099374093 #
2.0266208299204451215302924538264 1:0.29866666 2:0.6111111 3:0.069416665 4:0.0041274186 5:0.07388296 #
-2.0266208299204451215302924538264 1:0.28492308 2:0.64615387 3:0.059692308 4:0.0019732744 5:0.068650693 #
2.0266208299204451215302924538264 1:0.46826667 2:0.31818181 3:0.044199999 4:0.0024585885 5:0.020634986 #
-2.0266208299204451215302924538264 1:0.39771429 2:0.29411766 3:0.082095236 4:0.0037618494 5:0.12540287 #
2.0266208299204451215302924538264 1:0.192 2:0.72897196 3:0.013041667 4:0.0019894533 5:0.11965746 #
-2.0266208299204451215302924538264 1:0.2854 2:0.75438595 3:0.020276923 4:0.00037000517 5:0.014863972 #
2.0266208299204451215302924538264 1:0.47333333 2:0.16666667 3:0.13866666 4:0.014782985 5:0.11564951 #
-2.0266208299204451215302924538264 1:0.37666667 2:0.22857143 3:0.12688889 4:0.019339083 5:0.03621383 #
2.0266208299204451215302924538264 1:0.25333333 2:0.59574467 3:0.041066665 4:0.012155861 5:0.063955881 #
-2.0266208299204451215302924538264 1:0.28457144 2:0.54098362 3:0.03643956 4:0.00068191142 5:0.13301085 #
2.0266208299204451215302924538264 1:0.14336842 2:0.5 3:0.048757896 4:0.0088012395 5:0.047300968 #
-2.0266208299204451215302924538264 1:0.13254546 2:0.36363637 3:0.050447553 4:0.0018199119 5:0.009456764 #
2.0266208299204451215302924538264 1:0.39866668 2:0.69230771 3:0.056592591 4:0.0037776302 5:0.044158481 #
-2.0266208299204451215302924538264 1:0.382 2:0.58333331 3:0.086599998 4:0.018580841 5:0.012406263 #
2.0266208299204451215302924538264 1:0.12385714 2:0.14285715 3:0.036314286 4:0.0035966607 5:0.0059440671 #
-2.0266208299204451215302924538264 1:0.12991305 2:0.75268817 3:0.033144929 4:0.0010774431 5:0.0015379443 #
2.0266208299204451215302924538264 1:0.53222221 2:0.90909094 3:0.042277779 4:0.0022455363 5:0.028000919 #
-2.0266208299204451215302924538264 1:0.33238095 2:0.67605633 3:0.043912087 4:0.0025925739 5:0.0065276576 #
2.0266208299204451215302924538264 1:0.38092306 2:0.33750001 3:0.02351282 4:0.0021620144 5:0.0033395884 #
-2.0266208299204451215302924538264 1:0.33733332 2:0.10526316 3:0.056148149 4:0.0080456519 5:0.03215472 #
2.0266208299204451215302924538264 1:0.29288888 2:0.71028036 3:0.016555555 4:0.0024534652 5:0.10064218 #
-2.0266208299204451215302924538264 1:0.30085716 2:0.80555558 3:0.0249011 4:0.0011146639 5:0.035534397 #
2.0266208299204451215302924538264 1:0.36633334 2:0.09589041 3:0.068916664 4:0.0060158568 5:0.12585913 #
-2.0266208299204451215302924538264 1:0.39899999 2:0.48571429 3:0.0605 4:0.0075936834 5:0.17542316 #
-2.0266208299204451215302924538264 1:0.454 2:0.54385966 3:0.087333336 4:0.0039496101 5:0.13347256 #
2.0266208299204451215302924538264 1:0.152 2:0.25 3:0.037557896 4:0.0049382648 5:0.034855645 #
-2.0266208299204451215302924538264 1:0.1628 2:0.42857143 3:0.010053333 4:0.00020782724 5:0.022539103 #
2.0266208299204451215302924538264 1:0.34799999 2:0.53750002 3:0.024933333 4:0.0041543045 5:0.12602371 #
-2.0266208299204451215302924538264 1:0.32228571 2:0.52777779 3:0.025318682 4:0.0023365812 5:0.068837658 #
2.0266208299204451215302924538264 1:0.30199999 2:0.38749999 3:0.0239 4:0.0028243114 5:0.045352332 #
-2.0266208299204451215302924538264 1:0.32018182 2:0.38461539 3:0.060606062 4:0.004479805 5:0.013359138 #
2.0266208299204451215302924538264 1:0.28276923 2:0.78260869 3:0.044061538 4:0.0085666981 5:0.064335853 #
-2.0266208299204451215302924538264 1:0.29475001 2:0.83333331 3:0.034846153 4:0.0023379866 5:0.025519604 #
2.0266208299204451215302924538264 1:0.3592 2:0.2 3:0.071958974 4:0.0025103851 5:0.0024397443 #
-2.0266208299204451215302924538264 1:0.35961905 2:0.11627907 3:0.089523807 4:0.010159177 5:0.0038374674 #
2.0266208299204451215302924538264 1:0.30899999 2:0.85000002 3:0.104375 4:0.0061241863 5:0.0093873637 #
-2.0266208299204451215302924538264 1:0.28872728 2:0.94915253 3:0.021146853 4:0.0012801545 5:0.072606713 #
2.0266208299204451215302924538264 1:0.17919999 2:0.25 3:0.030719999 4:0.0043173349 5:0.040946957 #
-2.0266208299204451215302924538264 1:0.19542857 2:0.16363636 3:0.0071904762 4:0.0020895684 5:0.070686646 #
2.0266208299204451215302924538264 1:0.264 2:0.96124029 3:0.089230768 4:0.0039252639 5:0.034335077 #
-2.0266208299204451215302924538264 1:0.236 2:0.87837839 3:0.01575 4:0.00013060503 5:0.038581066 #
2.0266208299204451215302924538264 1:0.22215384 2:0.17391305 3:0.057153847 4:0.0036226313 5:0.071860775 #
-2.0266208299204451215302924538264 1:0.25476924 2:0.16666667 3:0.067589745 4:0.0029558733 5:0.059090458 #
2.0266208299204451215302924538264 1:0.2272 2:0.72000003 3:0.048080001 4:0.0093475627 5:0.081204556 #
-2.0266208299204451215302924538264 1:0.20133333 2:0.75 3:0.058577776 4:0.0011512745 5:0.056722336 #
2.0266208299204451215302924538264 1:0.24114285 2:0.4074074 3:0.041999999 4:0.0025325478 5:0.018571073 #
-2.0266208299204451215302924538264 1:0.2709091 2:0.39130434 3:0.038303029 4:0.00065262371 5:0.011667538 #
2.0266208299204451215302924538264 1:0.34545454 2:0.51249999 3:0.023272727 4:0.0021605424 5:0.071966082 #
-2.0266208299204451215302924538264 1:0.28872728 2:0.48333332 3:0.021146853 4:0.0012801545 5:0.070177265 #
2.0266208299204451215302924538264 1:0.28338462 2:0.48598132 3:0.021564102 4:0.0020322558 5:0.029335227 #
-2.0266208299204451215302924538264 1:0.30884209 2:0.5 3:0.058947369 4:0.0023119422 5:0.011703515 #
2.0266208299204451215302924538264 1:0.20164706 2:0.375 3:0.039482351 4:0.0051829494 5:8.6087639e-05 #
-2.0266208299204451215302924538264 1:0.20559999 2:0.41666666 3:0.017784616 4:0.00061952294 5:0.046777103 #
2.0266208299204451215302924538264 1:0.412 2:0.75757575 3:0.066714287 4:0.010136987 5:0.1078622 #
-2.0266208299204451215302924538264 1:0.41600001 2:0.73913044 3:0.08779487 4:0.0046597356 5:0.041628882 #
2.0266208299204451215302924538264 1:0.23788235 2:0.26086956 3:0.048058823 4:0.0030478439 5:0.047472067 #
-2.0266208299204451215302924538264 1:0.24109091 2:0.25263157 3:0.016727272 4:0.0017820667 5:0.086615652 #
2.0266208299204451215302924538264 1:0.19890909 2:0.80000001 3:0.063709088 4:0.0089395316 5:0.019671064 #
-2.0266208299204451215302924538264 1:0.15700001 2:0.82051283 3:0.076499999 4:0.015964722 5:0.048322331 #
2.0266208299204451215302924538264 1:0.40872726 2:0.34999999 3:0.033090908 4:0.003255798 5:0.0042025531 #
-2.0266208299204451215302924538264 1:0.30379999 2:0.32352942 3:0.067933336 4:0.010314389 5:0.0048720143 #
2.0266208299204451215302924538264 1:0.25924999 2:0.96428573 3:0.046437498 4:0.0028434496 5:0.038217504 #
-2.0266208299204451215302924538264 1:0.25747368 2:0.91803277 3:0.034753036 4:0.0011931084 5:0.017136581 #
2.0266208299204451215302924538264 1:0.29875001 2:0.15887851 3:0.051062498 4:0.0023671761 5:0.074399516 #
-2.0266208299204451215302924538264 1:0.30622223 2:0.16666667 3:0.068923078 4:0.0033800616 5:0.036276098 #
2.0266208299204451215302924538264 1:0.29703704 2:1 3:0.051691357 4:0.0016498668 5:0.00366023 #
-2.0266208299204451215302924538264 1:0.32025 2:1 3:0.051673077 4:0.0014405994 5:0.049911093 #
-2.0266208299204451215302924538264 1:0.42894119 2:1 3:0.08435294 4:0.010684273 5:0.020678084 #
2.0266208299204451215302924538264 1:0.24072728 2:0.27118644 3:0.078090906 4:0.004330439 5:0.013934266 #
-2.0266208299204451215302924538264 1:0.3204 2:0.26666668 3:0.062584616 4:0.001788604 5:0.02701324 #
2.0266208299204451215302924538264 1:0.30239999 2:1 3:0.059 4:0.0054992163 5:0.093445666 #
2.0266208299204451215302924538264 1:0.34771428 2:0.1 3:0.074523807 4:0.0022284344 5:0.021803789 #
-2.0266208299204451215302924538264 1:0.3297143 2:1 3:0.078000002 4:0.0060042278 5:0.075712435 #
-2.0266208299204451215302924538264 1:0.26133335 2:1 3:0.048555557 4:0.0038724074 5:0.10030544 #
2.0266208299204451215302924538264 1:0.16822222 2:0.2 3:0.04328889 4:0.0050730393 5:0.004105675 #
-2.0266208299204451215302924538264 1:0.28378379 2:0.0060975607 3:0.067486487 4:0.0022283415 5:0.020354286 #
2.0266208299204451215302924538264 1:0.28654546 2:1 3:0.072272725 4:0.0055675646 5:0.071363926 #
-2.0266208299204451215302924538264 1:0.26228571 2:0.54838711 3:0.032703295 4:0.0012538246 5:0.0070355372 #
2.0266208299204451215302924538264 1:0.42233333 2:0.58823532 3:0.018102564 4:0.0017587158 5:0.075533472 #
-2.0266208299204451215302924538264 1:0.454 2:0.60000002 3:0.087333336 4:0.0039496101 5:0.13308011 #
2.0266208299204451215302924538264 1:0.33160001 2:0.61538464 3:0.063600004 4:0.0046489858 5:0.084789291 #
-2.0266208299204451215302924538264 1:0.28747827 2:0.44444445 3:0.034434784 4:0.0032215591 5:0.017631141 #
2.0266208299204451215302924538264 1:0.211 2:0.63157892 3:0.055240002 4:0.006654636 5:0.014787782 #
-2.0266208299204451215302924538264 1:0.19653334 2:0.70909089 3:0.016410256 4:0.00044124632 5:0.053490974 #
2.0266208299204451215302924538264 1:0.31625 2:0.30434781 3:0.055687498 4:0.0029691758 5:0.060935933 #
-2.0266208299204451215302924538264 1:0.27946666 2:0.24285714 3:0.032041024 4:0.0037854542 5:0.0056694155 #
2.0266208299204451215302924538264 1:0.34 2:0.875 3:0.038194444 4:0.0026031467 5:0.10847107 #
-2.0266208299204451215302924538264 1:0.37099999 2:0.875 3:0.017846154 4:0.00088305597 5:0.18637444 #
2.0266208299204451215302924538264 1:0.38628572 2:0.23529412 3:0.039119046 4:0.0028569151 5:0.050542727 #
-2.0266208299204451215302924538264 1:0.3664 2:0.52941179 3:0.10791111 4:0.014860697 5:0.040592417 #
2.0266208299204451215302924538264 1:0.244 2:0.68888891 3:0.05242857 4:0.0033093328 5:0.068092488 #
-2.0266208299204451215302924538264 1:0.25371429 2:0.67213112 3:0.017626373 4:0.00026003065 5:0.14203697 #
2.0266208299204451215302924538264 1:0.22707692 2:0.3548387 3:0.064538464 4:0.0037707784 5:0.022523325 #
-2.0266208299204451215302924538264 1:0.23957895 2:0.45945945 3:0.02579757 4:0.0018202054 5:0.037902746 #
2.0266208299204451215302924538264 1:0.33314285 2:0.68965518 3:0.050142858 4:0.0074274559 5:0.13599262 #
-2.0266208299204451215302924538264 1:0.33750001 2:0.85714287 3:0.054166667 4:0.0030048797 5:0.10367721 #
2.0266208299204451215302924538264 1:0.13933334 2:0.25 3:0.035333332 4:0.004809936 5:0.045610934 #
2.0266208299204451215302924538264 1:0.16573334 2:0.27272728 3:0.021815384 4:0.00067922834 5:0.0050369631 #
2.0266208299204451215302924538264 1:0.42872727 2:0.89285713 3:0.086090907 4:0.0045250407 5:0.0176141 #
-2.0266208299204451215302924538264 1:0.38333333 2:0.89130437 3:0.058794871 4:0.0050285659 5:0.048411965 #
2.0266208299204451215302924538264 1:0.1952 2:0.14285715 3:0.064533331 4:0.010627973 5:0.056520149 #
-2.0266208299204451215302924538264 1:0.26800001 2:0.13043478 3:0.049874999 4:0.0030279972 5:0.025306141 #
2.0266208299204451215302924538264 1:0.39873683 2:0.83333331 3:0.058526315 4:0.002440888 5:0.022056721 #
-2.0266208299204451215302924538264 1:0.382 2:0.59090906 3:0.086599998 4:0.018580841 5:0.01329722 #
2.0266208299204451215302924538264 1:0.20766667 2:0.43478259 3:0.061833333 4:0.0038839018 5:0.047370024 #
-2.0266208299204451215302924538264 1:0.1016923 2:0.35714287 3:0.038230769 4:0.0052552815 5:0.0082608545 #
2.0266208299204451215302924538264 1:0.16826667 2:0.35294119 3:0.038011111 4:0.0014048748 5:0.027325775 #
-2.0266208299204451215302924538264 1:0.63800001 2:0.78947371 3:0.28299999 4:0.045185812 5:0.72863287 #
2.0266208299204451215302924538264 1:0.1846 2:0.2857143 3:0.03624 4:0.005006921 5:0.00097843085 #
-2.0266208299204451215302924538264 1:0.17882353 2:0.32142857 3:0.022494117 4:0.0010732586 5:0.00087763218 #
2.0266208299204451215302924538264 1:0.30599999 2:0.63636363 3:0.0319 4:0.0010040716 5:0.098831952 #
-2.0266208299204451215302924538264 1:0.37309092 2:0.89655173 3:0.062060606 4:0.0098900469 5:0.080380529 #
2.0266208299204451215302924538264 1:0.29873684 2:0.31578946 3:0.069789477 4:0.0039772857 5:0.013674047 #
-2.0266208299204451215302924538264 1:0.27353847 2:0.2736842 3:0.031307694 4:0.0021256667 5:0.046689708 #
2.0266208299204451215302924538264 1:0.22916667 2:1 3:0.061000001 4:0.0015011634 5:0.037651502 #
-2.0266208299204451215302924538264 1:0.23323077 2:1 3:0.030130178 4:0.0019539671 5:0.038380072 #
2.0266208299204451215302924538264 1:0.33114284 2:0.1375 3:0.032380953 4:0.0019234281 5:0.021345839 #
-2.0266208299204451215302924538264 1:0.28304762 2:0.11764706 3:0.052825395 4:0.0099238949 5:0.0012342866 #
2.0266208299204451215302924538264 1:0.37200001 2:0.92561984 3:0.083866663 4:0.0046190834 5:0.019731617 #
-2.0266208299204451215302924538264 1:0.38333333 2:0.89130437 3:0.058794871 4:0.0050285659 5:0.048411965 #
2.0266208299204451215302924538264 1:0.25850001 2:0.075000003 3:0.027562501 4:0.0019193897 5:0.056558751 #
-2.0266208299204451215302924538264 1:0.28777778 2:0.083333336 3:0.026307693 4:0.0030612163 5:0.048568416 #
2.0266208299204451215302924538264 1:0.22517647 2:0.87096775 3:0.062294118 4:0.0029479272 5:0.046581492 #
-2.0266208299204451215302924538264 1:0.22524138 2:0.90476191 3:0.02113793 4:0.00061559811 5:0.042132884 #
2.0266208299204451215302924538264 1:0.26584616 2:0.13178295 3:0.056307692 4:0.0037002498 5:0.038826514 #
-2.0266208299204451215302924538264 1:0.27200001 2:0.14102565 3:0.017410256 4:0.0007400614 5:0.081994988 #
2.0266208299204451215302924538264 1:0.17653333 2:0.83333331 3:0.065439999 4:0.0090772286 5:0.0014692062 #
-2.0266208299204451215302924538264 1:0.1954 2:0.85714287 3:0.097400002 4:0.0034060818 5:0.024085371 #
2.0266208299204451215302924538264 1:0.17399999 2:0.048192769 3:0.0416 4:0.0048432979 5:0.054392762 #
-2.0266208299204451215302924538264 1:0.15422222 2:0.092105262 3:0.042518519 4:0.0011417865 5:0.020384651 #
2.0266208299204451215302924538264 1:0.35894737 2:0.7647059 3:0.031947367 4:0.0015047861 5:0.015546182 #
-2.0266208299204451215302924538264 1:0.39966667 2:0.69444442 3:0.066564105 4:0.0044671218 5:0.016237807 #
2.0266208299204451215302924538264 1:0.19644445 2:0.18644068 3:0.030629629 4:0.00063804304 5:0.11083196 #
-2.0266208299204451215302924538264 1:0.12681481 2:0.875 3:0.017866667 4:0.0025118147 5:0.0096669672 #
2.0266208299204451215302924538264 1:0.22378947 2:0.64285713 3:0.026982456 4:0.0014800944 5:0.050447602 #
-2.0266208299204451215302924538264 1:0.24177778 2:0.77499998 3:0.02017094 4:0.00065238489 5:0.11065494 #
2.0266208299204451215302924538264 1:0.36933333 2:0.37037036 3:0.046555556 4:0.0033324636 5:0.011407106 #
-2.0266208299204451215302924538264 1:0.292 2:0.3888889 3:0.064698413 4:0.0098232273 5:0.0035097371 #
2.0266208299204451215302924538264 1:0.271 2:0.58139533 3:0.081416667 4:0.0044721616 5:0.038696922 #
-2.0266208299204451215302924538264 1:0.31726316 2:0.5714286 3:0.070526317 4:0.0092358394 5:0.0055688042 #
2.0266208299204451215302924538264 1:0.25146666 2:0.53125 3:0.056200001 4:0.003495961 5:0.055387922 #
-2.0266208299204451215302924538264 1:0.26875001 2:0.49019608 3:0.0324375 4:0.0027046148 5:0.045956697 #
2.0266208299204451215302924538264 1:0.37345454 2:0.49230769 3:0.097090907 4:0.0051169517 5:0.06775821 #
-2.0266208299204451215302924538264 1:0.36559999 2:0.4852941 3:0.043015383 4:0.0051288991 5:0.12919611 #
2.0266208299204451215302924538264 1:0.18775 2:0.60000002 3:0.038350001 4:0.0070593157 5:0.056325391 #
-2.0266208299204451215302924538264 1:0.25911111 2:0.54166669 3:0.097111113 4:0.010211344 5:0.11672629 #
2.0266208299204451215302924538264 1:0.37 2:0.47499999 3:0.023595238 4:0.0026183145 5:0.052434679 #
-2.0266208299204451215302924538264 1:0.31422222 2:0.46478873 3:0.056786325 4:0.0035691888 5:0.083342716 #
2.0266208299204451215302924538264 1:0.24240001 2:0.33333334 3:0.037866667 4:0.0076627387 5:0.038246494 #
-2.0266208299204451215302924538264 1:0.26622221 2:0.33846155 3:0.034358975 4:0.0015360817 5:0.0013097961 #
2.0266208299204451215302924538264 1:0.25866666 2:0.85714287 3:0.052761905 4:0.0087722111 5:0.0075670397 #
-2.0266208299204451215302924538264 1:0.28752941 2:0.875 3:0.038254902 4:0.00085965107 5:0.056582309 #
2.0266208299204451215302924538264 1:0.27444443 2:0.10526316 3:0.026055556 4:0.0017079671 5:0.0076825963 #
-2.0266208299204451215302924538264 1:0.28304762 2:0.11111111 3:0.052825395 4:0.0099238949 5:0.0038970041 #
2.0266208299204451215302924538264 1:0.33263999 2:0.9285714 3:0.043880001 4:0.0015393782 5:0.03218757 #
-2.0266208299204451215302924538264 1:0.26949999 2:0.97058821 3:0.048250001 4:0.0020063943 5:0.035173163 #
2.0266208299204451215302924538264 1:0.22876923 2:0.055555556 3:0.044846155 4:0.0028984211 5:0.0075246179 #
-2.0266208299204451215302924538264 1:0.26350001 2:0.083333336 3:0.036200002 4:0.0030927418 5:0.0029349008 #
2.0266208299204451215302924538264 1:0.25536841 2:0.98888886 3:0.067684211 4:0.0030466947 5:0.045650873 #
-2.0266208299204451215302924538264 1:0.2432 2:1 3:0.090222225 4:0.0020023345 5:0.039599463 #
2.0266208299204451215302924538264 1:0.39872727 2:0.21052632 3:0.031696972 4:0.0019167645 5:0.0053531229 #
-2.0266208299204451215302924538264 1:0.28861538 2:0.2 3:0.050538462 4:0.0027553197 5:0.0015962367 #
2.0266208299204451215302924538264 1:0.2146087 2:1 3:0.034608696 4:0.0038721778 5:0.0067409882 #
-2.0266208299204451215302924538264 1:0.23984616 2:1 3:0.038269229 4:0.0016979267 5:0.0012265035 #
2.0266208299204451215302924538264 1:0.29374999 2:0.34615386 3:0.0119375 4:0.0013963798 5:0.053842533 #
-2.0266208299204451215302924538264 1:0.3028 2:0.2857143 3:0.051866665 4:0.010936603 5:0.060177427 #
2.0266208299204451215302924538264 1:0.29692307 2:0.77499998 3:0.040692307 4:0.0023342471 5:0.03972932 #
-2.0266208299204451215302924538264 1:0.2854 2:0.7846154 3:0.020276923 4:0.00037000517 5:0.014448562 #
2.0266208299204451215302924538264 1:0.17399999 2:0.11111111 3:0.0416 4:0.0048432979 5:0.054222614 #
-2.0266208299204451215302924538264 1:0.23182608 2:0.14754099 3:0.02322408 4:0.00047166366 5:0.024402769 #
2.0266208299204451215302924538264 1:0.46213335 2:0.94117647 3:0.037907694 4:0.0035342504 5:0.047727052 #
2.0266208299204451215302924538264 1:0.21446154 2:0.36250001 3:0.018615386 4:0.0019674851 5:0.053365622 #
-2.0266208299204451215302924538264 1:0.352 2:0.70909089 3:0.038153846 4:0.002394543 5:0.12165978 #
-2.0266208299204451215302924538264 1:0.21434483 2:0.47540984 3:0.023777189 4:0.0011854476 5:0.00092761492 #
2.0266208299204451215302924538264 1:0.32266667 2:0.60000002 3:0.058333334 4:0.017236305 5:0.12302626 #
2.0266208299204451215302924538264 1:0.14618182 2:0.29032257 3:0.043345455 4:0.005249883 5:0.037834052 #
-2.0266208299204451215302924538264 1:0.34400001 2:0.64788735 3:0.047794871 4:0.0041493173 5:0.21625179 #
2.0266208299204451215302924538264 1:0.28626087 2:0.5 3:0.049289856 4:0.0017503545 5:0.0060420455 #
-1.6271994559367222166201827349141 1:0.14121428 2:0.048780486 3:0.026785715 4:0.00091407594 5:0.013495917 #
2.0266208299204451215302924538264 1:0.30239999 2:0.7368421 3:0.053893335 4:0.0017505002 5:0.044766746 #
-2.0266208299204451215302924538264 1:0.30475 2:0.53846157 3:0.067666665 4:0.013419422 5:0.010498193 #
2.0266208299204451215302924538264 1:0.51753849 2:0.27272728 3:0.019668639 4:0.0017429161 5:0.010747452 #
-2.0266208299204451215302924538264 1:0.28346667 2:0.64285713 3:0.03248889 4:0.00069835153 5:0.0069261161 #
2.0266208299204451215302924538264 1:0.264 2:0.46153846 3:0.053979933 4:0.0014730014 5:0.017143665 #
-2.0266208299204451215302924538264 1:0.31988236 2:0.3611111 3:0.083490193 4:0.0077560889 5:0.04215356 #
2.0266208299204451215302924538264 1:0.26690909 2:0.78787881 3:0.051515151 4:0.0028635592 5:0.089354701 #
-2.0266208299204451215302924538264 1:0.28346667 2:0.84545457 3:0.03248889 4:0.00069835153 5:0.012160573 #
2.0266208299204451215302924538264 1:0.33199999 2:0.175 3:0.044277776 4:0.0027439131 5:0.0045223003 #
2.0266208299204451215302924538264 1:0.21080001 2:0.84375 3:0.0167 4:0.001214936 5:0.032712713 #
-2.0266208299204451215302924538264 1:0.31619999 2:0.24242425 3:0.055 4:0.0027151124 5:0.040123597 #
-2.0266208299204451215302924538264 1:0.27788237 2:0.79487181 3:0.025285067 4:0.00069857406 5:0.026526302 #
-2.0266208299204451215302924538264 1:0.29627585 2:0.35135135 3:0.060710877 4:0.0019060936 5:0.044727594 #
-2.0266208299204451215302924538264 1:0.3145 2:0.44 3:0.027230769 4:0.001250102 5:0.12193964 #
2.0266208299204451215302924538264 1:0.23129411 2:0.55555558 3:0.029458823 4:0.0064835274 5:0.04412321 #
2.0266208299204451215302924538264 1:0.23031579 2:0.37931034 3:0.0431417 4:0.0011097586 5:0.01599513 #
-2.0266208299204451215302924538264 1:0.26699999 2:0.69230771 3:0.03320238 4:0.0025706494 5:0.0080469251 #
-2.0266208299204451215302924538264 1:0.27466667 2:0.25 3:0.032879122 4:0.0031077419 5:0.0050593456 #
2.0266208299204451215302924538264 1:0.4488 2:0.72727275 3:0.032307692 4:0.0017131889 5:0.094972074 #
-2.0266208299204451215302924538264 1:0.41600001 2:0.73913044 3:0.08779487 4:0.0046597356 5:0.041628882 #
2.0266208299204451215302924538264 1:0.18375 2:0.13043478 3:0.0261 4:0.0057239011 5:0.036840212 #
-2.0266208299204451215302924538264 1:0.28479999 2:0.045454547 3:0.0414 4:0.00094009732 5:0.0079303151 #
2.0266208299204451215302924538264 1:0.34111112 2:0.90909094 3:0.031870369 4:0.0021699073 5:0.031528015 #
2.0266208299204451215302924538264 1:0.20911111 2:0.050000001 3:0.03448889 4:0.0062782574 5:0.049471788 #
-2.0266208299204451215302924538264 1:0.23415385 2:0.97916669 3:0.028236687 4:0.0028302891 5:0.072668813 #
-2.0266208299204451215302924538264 1:0.30399999 2:0.94545454 3:0.043576922 4:0.0015078298 5:0.096656099 #
2.0266208299204451215302924538264 1:0.37760001 2:0.1 3:0.068800002 4:0.011924055 5:0.088878691 #
-2.0266208299204451215302924538264 1:0.32499999 2:0.022222223 3:0.069576927 4:0.00099554076 5:0.035564691 #
2.0266208299204451215302924538264 1:0.15739131 2:1 3:0.042295653 4:0.0042443764 5:0.016085284 #
2.0266208299204451215302924538264 1:0.34771428 2:0.40000001 3:0.074523807 4:0.0022284344 5:0.034347128 #
2.0266208299204451215302924538264 1:0.12555556 2:0.1875 3:0.059555557 4:0.0067299902 5:0.0070770392 #
2.0266208299204451215302924538264 1:0.3256 2:0.34375 3:0.1131 4:0.0050239586 5:0.073101006 #
-2.0266208299204451215302924538264 1:0.31288889 2:0.2 3:0.081743591 4:0.003603549 5:0.030664794 #
2.0266208299204451215302924538264 1:0.13542858 2:1 3:0.039314285 4:0.0043161325 5:0.04374335 #
-2.0266208299204451215302924538264 1:0.19956757 2:1 3:0.027126819 4:0.0019893502 5:0.032245487 #
2.0266208299204451215302924538264 1:0.37200001 2:0.25547445 3:0.083866663 4:0.0046190834 5:0.0021716908 #
-2.0266208299204451215302924538264 1:0.32499999 2:0.05882353 3:0.069576927 4:0.00099554076 5:0.019496545 #
2.0266208299204451215302924538264 1:0.15072727 2:1 3:0.045418181 4:0.0054162326 5:0.010750297 #
-2.0266208299204451215302924538264 1:0.29457143 2:0.625 3:0.060142856 4:0.0060164197 5:0.016940674 #
-2.0266208299204451215302924538264 1:0.30666667 2:0.42857143 3:0.048888888 4:0.0025071918 5:0.10909829 #
2.0266208299204451215302924538264 1:0.31654546 2:0.60000002 3:0.048517484 4:0.0018205259 5:0.0078950645 #
2.0266208299204451215302924538264 1:0.19599999 2:0.36363637 3:0.042909089 4:0.0031400127 5:0.088601716 #
-2.0266208299204451215302924538264 1:0.2846154 2:0.5625 3:0.065846153 4:0.0018567856 5:0.0014828544 #
-2.0266208299204451215302924538264 1:0.3028 2:0.33333334 3:0.051866665 4:0.010936603 5:0.076128311 #
2.0266208299204451215302924538264 1:0.39390478 2:0.51851851 3:0.040542126 4:0.0040656459 5:0.041713934 #
-2.0266208299204451215302924538264 1:0.38857144 2:0.65454543 3:0.078637362 4:0.0033974978 5:0.12063764 #
2.0266208299204451215302924538264 1:0.212 2:0.34999999 3:0.034019049 4:0.0075699179 5:0.0069836439 #
-2.0266208299204451215302924538264 1:0.23368421 2:0.31666666 3:0.020064777 4:0.00088620791 5:0.0022917045 #
2.0266208299204451215302924538264 1:0.31784615 2:0.73333335 3:0.049751479 4:0.0017713086 5:0.011594821 #
-2.0266208299204451215302924538264 1:0.078666665 2:1 3:0.071199998 4:0.00075236277 5:0 #
2.0266208299204451215302924538264 1:0.2469091 2:0.037037037 3:0.074909091 4:0.010253095 5:0.01306832 #
-2.0266208299204451215302924538264 1:0.32499999 2:0.033333335 3:0.069576927 4:0.00099554076 5:0.011352586 #
2.0266208299204451215302924538264 1:0.2942 2:0.96666664 3:0.033166666 4:0.0014140756 5:0.023261759 #
-2.0266208299204451215302924538264 1:0.59680003 2:0.95652175 3:0.1132 4:0.018074326 5:0.014598616 #
2.0266208299204451215302924538264 1:0.273 2:0.44615385 3:0.080416664 4:0.0041130236 5:0.052860968 #
-2.0266208299204451215302924538264 1:0.23007999 2:0.25 3:0.027533334 4:0.0019097009 5:0.0055254875 #
2.0266208299204451215302924538264 1:0.65200001 2:0.93333334 3:0.13933334 4:0.035572127 5:0.13156374 #
-2.0266208299204451215302924538264 1:0.59680003 2:0.95833331 3:0.1132 4:0.018074326 5:0.049591977 #
2.0266208299204451215302924538264 1:0.10977778 2:0.25 3:0.040555555 4:0.0016399872 5:0.032421552 #
-2.0266208299204451215302924538264 1:0.099294119 2:0.23809524 3:0.050666668 4:0.0081916042 5:0.033155501 #
2.0266208299204451215302924538264 1:0.3449091 2:0.93103451 3:0.049363635 4:0.0044695302 5:0.0025143968 #
-2.0266208299204451215302924538264 1:0.19980952 2:0.64864862 3:0.019267399 4:0.00039543299 5:0.0011232391 #
2.0266208299204451215302924538264 1:0.31435293 2:0.46153846 3:0.022254903 4:0.0018464014 5:0.03190285 #
-2.0266208299204451215302924538264 1:0.29374999 2:0.45833334 3:0.043583333 4:0.0075019756 5:0.060427193 #
2.0266208299204451215302924538264 1:0.16941176 2:0.82352942 3:0.023529412 4:0.0067644962 5:0.010408533 #
-2.0266208299204451215302924538264 1:0.19828571 2:1 3:0.035174605 4:0.0059707775 5:0.0043445569 #
2.0266208299204451215302924538264 1:0.24588235 2:0.055555556 3:0.015402715 4:0.0010322314 5:0.030917808 #
-2.0266208299204451215302924538264 1:0.3028 2:0.050000001 3:0.051866665 4:0.010936603 5:0.049254891 #
2.0266208299204451215302924538264 1:0.2604 2:0.95934957 3:0.1144 4:0.0035188994 5:0.068995148 #
-2.0266208299204451215302924538264 1:0.29413334 2:0.88095236 3:0.051444445 4:0.0023863045 5:0.011059294 #
2.0266208299204451215302924538264 1:0.27706668 2:0.1 3:0.029111112 4:0.0020402705 5:0.0047356309 #
-2.0266208299204451215302924538264 1:0.28479999 2:0.045454547 3:0.0414 4:0.00094009732 5:0.0079303151 #
2.0266208299204451215302924538264 1:0.26780951 2:0.89999998 3:0.056076191 4:0.0088268584 5:0.0099744806 #
-2.0266208299204451215302924538264 1:0.19458823 2:0.94736844 3:0.12023529 4:0.0200636 5:0.017106548 #
2.0266208299204451215302924538264 1:0.35339999 2:0.22727273 3:0.043266665 4:0.0019098845 5:0.040630162 #
-2.0266208299204451215302924538264 1:0.29481483 2:0.25454545 3:0.051156696 4:0.0022290368 5:0.038994148 #
2.0266208299204451215302924538264 1:0.1105 2:1 3:0.021766666 4:0.0039639371 5:0.017249197 #
2.0266208299204451215302924538264 1:0.14933333 2:0.6857143 3:0.048222221 4:0.0017297232 5:0.082170002 #
2.0266208299204451215302924538264 1:0.21466666 2:0.15686275 3:0.037128206 4:0.0015187187 5:0.02758728 #
-2.0266208299204451215302924538264 1:0.25488889 2:0.16867469 3:0.026735043 4:0.0012921494 5:0.042534951 #
2.0266208299204451215302924538264 1:0.2604 2:0.953125 3:0.1144 4:0.0035188994 5:0.073746525 #
-2.0266208299204451215302924538264 1:0.39771429 2:0.91176468 3:0.082095236 4:0.0037618494 5:0.11752174 #
2.0266208299204451215302924538264 1:0.24027586 2:0.24242425 3:0.041793104 4:0.0040789582 5:0.016988443 #
-2.0266208299204451215302924538264 1:0.26622221 2:0.24561404 3:0.034358975 4:0.0015360817 5:0.0017272605 #
2.0266208299204451215302924538264 1:0.42766666 2:0.8037383 3:0.065972224 4:0.0019198683 5:0.12729663 #
-2.0266208299204451215302924538264 1:0.35699999 2:0.7368421 3:0.0605 4:0.0075936834 5:0.1809981 #
2.0266208299204451215302924538264 1:0.14192593 2:0.2 3:0.028118519 4:0.0033638848 5:0.001437598 #
-2.0266208299204451215302924538264 1:0.032000002 2:0.18181819 3:0.0096000005 4:0.00014036513 5:0.0016386415 #
2.0266208299204451215302924538264 1:0.38517648 2:0.66250002 3:0.031372551 4:0.0029553501 5:0.048115365 #
-2.0266208299204451215302924538264 1:0.34644446 2:0.75 3:0.078814812 4:0.012729318 5:0.0079562552 #
2.0266208299204451215302924538264 1:0.23244445 2:0.4375 3:0.019814815 4:0.0018742731 5:0.033307206 #
-2.0266208299204451215302924538264 1:0.25923809 2:0.36363637 3:0.041904762 4:0.00142511 5:0.013204193 #
2.0266208299204451215302924538264 1:0.2128 2:0.75 3:0.040853333 4:0.0057290178 5:0.065993108 #
-2.0266208299204451215302924538264 1:0.31200001 2:0.77272725 3:0.041999999 4:0.0038431848 5:0.00081772666 #
2.0266208299204451215302924538264 1:0.17014286 2:0.039999999 3:0.033542857 4:0.0051054847 5:0.0049944734 #
-2.0266208299204451215302924538264 1:0.17502703 2:0.083333336 3:0.0063950103 4:0.0012852241 5:0.020008324 #
2.0266208299204451215302924538264 1:0.35214815 2:0.95652175 3:0.099148147 4:0.0056659137 5:0.11479688 #
-2.0266208299204451215302924538264 1:0.40400001 2:1 3:0.07 4:0.0045036776 5:0.21022657 #
2.0266208299204451215302924538264 1:0.20625 2:0.087499999 3:0.016916666 4:0.0014252996 5:0.0023736856 #
-2.0266208299204451215302924538264 1:0.16872728 2:0.090909094 3:0.016461538 4:0.001252426 5:0.0077108475 #
2.0266208299204451215302924538264 1:0.63 2:0.97222221 3:0.048461538 4:0.0013887702 5:0.34713322 #
-2.0266208299204451215302924538264 1:0.41299999 2:0.91666669 3:0.13533333 4:0.022064913 5:0.28119335 #
2.0266208299204451215302924538264 1:0.1714 2:0.375 3:0.041999999 4:0.0051576518 5:0.047790527 #
-2.0266208299204451215302924538264 1:0.24322581 2:0.30000001 3:0.034709677 4:0.0066569247 5:0.0043224432 #
2.0266208299204451215302924538264 1:0.18038096 2:0.91666669 3:0.047047619 4:0.0041661891 5:0.003416176 #
-2.0266208299204451215302924538264 1:0.1144 2:0.98000002 3:0.024836924 4:0.00029230458 5:0.00015611238 #
2.0266208299204451215302924538264 1:0.37614286 2:0.14285715 3:0.060428571 4:0.0090077287 5:0.023417281 #
-2.0266208299204451215302924538264 1:0.32218182 2:0.090909094 3:0.068303034 4:0.010153797 5:0.029978901 #
2.0266208299204451215302924538264 1:0.15674999 2:0.80722892 3:0.0272 4:0.0040973211 5:0.0177199 #
-2.0266208299204451215302924538264 1:0.26283333 2:0.76190478 3:0.029602565 4:0.0012596735 5:0.0056956895 #
2.0266208299204451215302924538264 1:0.25181818 2:0.10344828 3:0.027969697 4:0.001465057 5:0.014201647 #
-2.0266208299204451215302924538264 1:0.25799999 2:0.21428572 3:0.018237762 4:0.0006224133 5:0.029842954 #
2.0266208299204451215302924538264 1:0.26618183 2:0.89915967 3:0.11054546 4:0.0084829489 5:0.089332886 #
-2.0266208299204451215302924538264 1:0.27485713 2:0.93684208 3:0.046 4:0.0011094015 5:0.054758456 #
2.0266208299204451215302924538264 1:0.21933334 2:0.27419356 3:0.06408333 4:0.0023181867 5:0.076502375 #
-2.0266208299204451215302924538264 1:0.25129411 2:0.19672132 3:0.016959276 4:0.00044771249 5:0.056544323 #
2.0266208299204451215302924538264 1:0.22584616 2:0.8125 3:0.078153849 4:0.0038917931 5:0.10561939 #
-2.0266208299204451215302924538264 1:0.11318518 2:1 3:0.04160494 4:0.00061782676 5:0.030089794 #
2.0266208299204451215302924538264 1:0.345 2:0.13084112 3:0.081777781 4:0.0021516171 5:0.011073689 #
-2.0266208299204451215302924538264 1:0.32218182 2:0.083333336 3:0.068303034 4:0.010153797 5:0.03032962 #
2.0266208299204451215302924538264 1:0.17046154 2:0.72222221 3:0.041784614 4:0.0065511577 5:0.015681718 #
-2.0266208299204451215302924538264 1:0.31008697 2:0.70588237 3:0.04805797 4:0.0096502127 5:0.023488039 #
2.0266208299204451215302924538264 1:0.1923077 2:0.018691588 3:0.043641027 4:0.0030964913 5:0.02636501 #
2.0266208299204451215302924538264 1:0.178 2:0.55555558 3:0.0506 4:0.0096674208 5:0.022730902 #
2.0266208299204451215302924538264 1:0.23875 2:0.80000001 3:0.0691875 4:0.0031303463 5:0.026139611 #
-2.0266208299204451215302924538264 1:0.27152941 2:0.79439253 3:0.035627451 4:0.0017358388 5:0.0060863327 #
2.0266208299204451215302924538264 1:0.20033333 2:0.27659574 3:0.047266666 4:0.0075407182 5:0.055003718 #
-2.0266208299204451215302924538264 1:0.278 2:0.25531915 3:0.027641026 4:0.00081050792 5:0.072209977 #
2.0266208299204451215302924538264 1:0.26275 2:0.60000002 3:0.03503846 4:0.0010996599 5:0.03658358 #
2.0266208299204451215302924538264 1:0.14399999 2:0.44999999 3:0.050724637 4:0.0073603294 5:0.0052715424 #
2.0266208299204451215302924538264 1:0.21247059 2:0.41666666 3:0.036058825 4:0.0015684995 5:0.052734435 #
2.0266208299204451215302924538264 1:0.3944 2:0.63235295 3:0.029323077 4:0.0042525632 5:0.028047774 #
-2.0266208299204451215302924538264 1:0.35699999 2:0.52631581 3:0.0265 4:0.000504656 5:0.24795225 #
2.0266208299204451215302924538264 1:0.20618182 2:0.46153846 3:0.049363635 4:0.0032815228 5:0.077286094 #
-2.0266208299204451215302924538264 1:0.26100001 2:0.47474748 3:0.036111113 4:0.010628587 5:0.0033951537 #
2.0266208299204451215302924538264 1:0.63 2:0.35135135 3:0.048461538 4:0.0013887702 5:0.77203906 #
-2.0266208299204451215302924538264 1:0.38 2:0.42857143 3:0.020500001 4:0.007317028 5:0.52482754 #
2.0266208299204451215302924538264 1:0.14063159 2:0.8125 3:0.040926315 4:0.0052169808 5:0.0079976022 #
-2.0266208299204451215302924538264 1:0.20842858 2:0.72857141 3:0.041406594 4:0.002670489 5:0.00011657189 #
2.0266208299204451215302924538264 1:0.63 2:0.97222221 3:0.048461538 4:0.0013887702 5:0.7165218 #
-2.0266208299204451215302924538264 1:0.16 2:1 3:0.020833334 4:0.00017700066 5:1.0330182 #
2.0266208299204451215302924538264 1:0.16857143 2:0.30434781 3:0.046342857 4:0.0070569245 5:0.048205562 #
-2.0266208299204451215302924538264 1:0.25082353 2:0.41843972 3:0.041846152 4:0.0022106611 5:0.010951744 #
2.0266208299204451215302924538264 1:0.63 2:0.85815603 3:0.048461538 4:0.0013887702 5:0.64039397 #
2.0266208299204451215302924538264 1:0.15375 2:0.375 3:0.0407 4:0.0059438408 5:0.042470213 #
-2.0266208299204451215302924538264 1:0.35800001 2:0.92500001 3:0.062666669 4:0.006761435 5:0.32707101 #
2.0266208299204451215302924538264 1:0.26294738 2:0.38317758 3:0.021052632 4:0.0013257513 5:0.017091766 #
-2.0266208299204451215302924538264 1:0.27563637 2:0.2 3:0.052318182 4:0.0025899184 5:0.0033126955 #
2.0266208299204451215302924538264 1:0.23061538 2:1 3:0.049415383 4:0.0067795864 5:0.066418983 #
-2.0266208299204451215302924538264 1:0.259 2:0.94999999 3:0.0405 4:0.0032060205 5:0.0074639595 #
2.0266208299204451215302924538264 1:0.28099999 2:0.2857143 3:0.1105 4:0.0024494512 5:0.055267721 #
-2.0266208299204451215302924538264 1:0.30711111 2:0.25999999 3:0.066222221 4:0.0029890458 5:0.048742287 #
2.0266208299204451215302924538264 1:0.2128 2:0.91666669 3:0.04975 4:0.0029102229 5:0.084212117 #
-2.0266208299204451215302924538264 1:0.228 2:0.88785046 3:0.025422223 4:0.0018887053 5:0.0018849305 #
2.0266208299204451215302924538264 1:0.25311112 2:0.12307692 3:0.065222219 4:0.0032539677 5:0.027615547 #
-2.0266208299204451215302924538264 1:0.29131034 2:0.12 3:0.058114942 4:0.0094104316 5:0.01716424 #
2.0266208299204451215302924538264 1:0.25979999 2:0.87692308 3:0.055 4:0.0029108678 5:0.0004852197 #
-2.0266208299204451215302924538264 1:0.23318519 2:0.82978725 3:0.025356125 4:0.00075362285 5:0.0024561386 #
2.0266208299204451215302924538264 1:0.17479999 2:0.125 3:0.035840001 4:0.0031658113 5:0.011603728 #
-2.0266208299204451215302924538264 1:0.056000002 2:0.13636364 3:0.083166666 4:0.0028816857 5:0.0017613592 #
2.0266208299204451215302924538264 1:0.18015385 2:0.95833331 3:0.052692309 4:0.0042594997 5:0.022311326 #
-2.0266208299204451215302924538264 1:0.40400001 2:1 3:0.07 4:0.0045036776 5:0.13834205 #
-2.0266208299204451215302924538264 1:0.21290909 2:0.969697 3:0.023954546 4:0.00068453123 5:0.013981908 #
2.0266208299204451215302924538264 1:0.2105 2:0.3125 3:0.048799999 4:0.0115857 5:0.083757244 #
-2.0266208299204451215302924538264 1:0.27294117 2:0.2857143 3:0.032705881 4:0.0046289722 5:0.055660143 #
2.0266208299204451215302924538264 1:0.14981818 2:0.94444442 3:0.065772727 4:0.0047733434 5:0.0094635095 #
2.0266208299204451215302924538264 1:0.17161904 2:0.16 3:0.030971428 4:0.004817022 5:0.031715602 #
2.0266208299204451215302924538264 1:0.071125001 2:1 3:0.029182693 4:0.00033273664 5:0.017160106 #
-2.0266208299204451215302924538264 1:0.29949999 2:0.16666667 3:0.03025 4:0.001375252 5:0.12470559 #
2.0266208299204451215302924538264 1:0.31266665 2:0.98750001 3:0.027916666 4:0.0019027005 5:0.017907128 #
2.0266208299204451215302924538264 1:0.21490909 2:0.296875 3:0.033515152 4:0.0013021537 5:0.038044386 #
-2.0266208299204451215302924538264 1:0.29824999 2:1 3:0.079374999 4:0.00589866 5:0.0066748569 #
2.0266208299204451215302924538264 1:0.16949999 2:0.05882353 3:0.0233 4:0.0060966397 5:0.0066483039 #
2.0266208299204451215302924538264 1:0.090666667 2:0.66666669 3:0.047777779 4:0.0032284656 5:0.051421195 #
2.0266208299204451215302924538264 1:0.47600001 2:0.97674417 3:0.064333335 4:0.011463106 5:0.082104683 #
-2.0266208299204451215302924538264 1:0.41435295 2:0.8125 3:0.10062745 4:0.010110158 5:0.032905359 #
2.0266208299204451215302924538264 1:0.087777779 2:0.23809524 3:0.021925926 4:0.00043592596 5:0.019281276 #
-2.0266208299204451215302924538264 1:0.034400001 2:0.16666667 3:0.017200001 4:0.00033085854 5:0.0037644908 #
2.0266208299204451215302924538264 1:0.34380952 2:0.90654206 3:0.037349205 4:0.0015941602 5:0.098143175 #
-2.0266208299204451215302924538264 1:0.30500001 2:0.62962961 3:0.029750001 4:0.0024357133 5:0.078243256 #
2.0266208299204451215302924538264 1:0.2386 2:0.42857143 3:0.043120001 4:0.0059008459 5:0.020512123 #
-2.0266208299204451215302924538264 1:0.2115 2:0.38181818 3:0.027104167 4:0.0017790756 5:0.00046094906 #
2.0266208299204451215302924538264 1:0.2156 2:1 3:0.048640002 4:0.0060635614 5:0.012605445 #
-2.0266208299204451215302924538264 1:0.20346667 2:0.9518072 3:0.014420513 4:0.0013307416 5:0.016179552 #
2.0266208299204451215302924538264 1:0.21254545 2:0.17647059 3:0.035636365 4:0.0062566856 5:2.1645194e-05 #
-2.0266208299204451215302924538264 1:0.22092308 2:0.16666667 3:0.029420119 4:0.0020823905 5:0.0039607012 #
2.0266208299204451215302924538264 1:0.37623531 2:0.86956519 3:0.075764708 4:0.0072868424 5:0.012422072 #
-2.0266208299204451215302924538264 1:0.39771429 2:0.8888889 3:0.082095236 4:0.0037618494 5:0.12018283 #
-2.0266208299204451215302924538264 1:0.20769231 2:0.26666668 3:0.02175148 4:0.00080940616 5:0.0021560602 #
2.0266208299204451215302924538264 1:0.16752942 2:0.69230771 3:0.027294118 4:0.0056451974 5:0.050667677 #
-2.0266208299204451215302924538264 1:0.235 2:0.80000001 3:0.029871795 4:0.0011311051 5:0.0021220304 #
2.0266208299204451215302924538264 1:0.24428572 2:0.3125 3:0.048880953 4:0.0013372959 5:0.031391658 #
-2.0266208299204451215302924538264 1:0.17237499 2:0.27083334 3:0.01451923 4:0.00085023249 5:0.00064512988 #
2.0266208299204451215302924538264 1:0.2163077 2:0.73913044 3:0.048492309 4:0.0073434752 5:0.0093394285 #
2.0266208299204451215302924538264 1:0.13381818 2:0.2820513 3:0.032036364 4:0.0043936721 5:0.017916538 #
-2.0266208299204451215302924538264 1:0.31008697 2:0.72727275 3:0.04805797 4:0.0096502127 5:0.025427602 #
2.0266208299204451215302924538264 1:0.21244444 2:0.25 3:0.019333333 4:0.0027234252 5:0.087060928 #
-2.0266208299204451215302924538264 1:0.02 2:0.25806451 3:0.044833332 4:0.00036804745 5:0.02664382 #
2.0266208299204451215302924538264 1:0.35733333 2:0.54166669 3:0.027051281 4:0.0019173826 5:0.042475425 #
-2.0266208299204451215302924538264 1:0.30857143 2:0.55555558 3:0.061999999 4:0.0060083014 5:0.096991196 #
2.0266208299204451215302924538264 1:0.22274999 2:0.52941179 3:0.041049998 4:0.0061844662 5:0.020490278 #
-2.0266208299204451215302924538264 1:0.26723808 2:0.5 3:0.040952381 4:0.0016626444 5:0.01253697 #
2.0266208299204451215302924538264 1:0.28766668 2:0.51937985 3:0.08691667 4:0.004581227 5:0.014315867 #
-2.0266208299204451215302924538264 1:0.2586 2:0.5714286 3:0.038699999 4:0.0013923938 5:0.0016840448 #
2.0266208299204451215302924538264 1:0.23431578 2:0.44999999 3:0.053389475 4:0.0095200408 5:0.013463819 #
-2.0266208299204451215302924538264 1:0.2832 2:0.46153846 3:0.071000002 4:0.00384686 5:0.016313033 #
2.0266208299204451215302924538264 1:0.233 2:0.73134327 3:0.028541667 4:0.001032232 5:0.060575776 #
-2.0266208299204451215302924538264 1:0.23636363 2:0.71428573 3:0.026111888 4:0.0010704952 5:0.0093055284 #
-2.0266208299204451215302924538264 1:0.25090909 2:0.32499999 3:0.017762238 4:0.0018689673 5:0.070936076 #
2.0266208299204451215302924538264 1:0.233 2:0.73134327 3:0.028541667 4:0.001032232 5:0.060575776 #
-2.0266208299204451215302924538264 1:0.32499999 2:0.74193549 3:0.043666668 4:0.010135314 5:0.08228188 #
2.0266208299204451215302924538264 1:0.23557895 2:0.2 3:0.048757896 4:0.0058097881 5:0.017294994 #
-2.0266208299204451215302924538264 1:0.22666667 2:0.21978022 3:0.02614245 4:0.00095685071 5:0.020607704 #
2.0266208299204451215302924538264 1:0.34914285 2:0.89999998 3:0.057285715 4:0.0018782358 5:0.065932408 #
2.0266208299204451215302924538264 1:0.21625 2:0.3877551 3:0.041076925 4:0.001167025 5:0.010927397 #
-2.0266208299204451215302924538264 1:0.27984616 2:1 3:0.068538465 4:0.0070056599 5:0.010390985 #
2.0266208299204451215302924538264 1:0.17454545 2:0.30000001 3:0.039927274 4:0.0043408475 5:0.04720154 #
-2.0266208299204451215302924538264 1:0.17977142 2:0.24137931 3:0.03658022 4:0.0010305218 5:0.0072419685 #
2.0266208299204451215302924538264 1:0.53418183 2:1 3:0.12236363 4:0.022960441 5:0.067112096 #
-2.0266208299204451215302924538264 1:0.35600001 2:0.75862068 3:0.097641028 4:0.0062948694 5:0.02798276 #
2.0266208299204451215302924538264 1:0.13187097 2:0.30769232 3:0.032129031 4:0.003465954 5:0.00075249362 #
-2.0266208299204451215302924538264 1:0.18342857 2:0.25 3:0.011208791 4:0.00053725258 5:0.02551852 #
2.0266208299204451215302924538264 1:0.21185714 2:1 3:0.058582418 4:0.0020134985 5:0.0078750197 #
-2.0266208299204451215302924538264 1:0.22385715 2:1 3:0.077142857 4:0.0017381937 5:0.00032281911 #
2.0266208299204451215302924538264 1:0.1922963 2:0.083333336 3:0.037096296 4:0.0050541651 5:0.0092068156 #
-2.0266208299204451215302924538264 1:0.13628571 2:0.72602737 3:0.024250001 4:0.00076774281 5:0.0077889478 #
2.0266208299204451215302924538264 1:0.30065116 2:0.95238096 3:0.0401938 4:0.0017578796 5:0.032154996 #
-2.0266208299204451215302924538264 1:0.3168889 2:0.82857144 3:0.041333333 4:0.010132176 5:0.10217811 #
2.0266208299204451215302924538264 1:0.19577777 2:0.39130434 3:0.054611113 4:0.0027685636 5:0.039737299 #
-2.0266208299204451215302924538264 1:0.21130435 2:0.34285715 3:0.023839464 4:0.00095273211 5:0.00030101559 #
2.0266208299204451215302924538264 1:0.24044445 2:0.88636363 3:0.064395063 4:0.006664834 5:0.021232365 #
-2.0266208299204451215302924538264 1:0.24607408 2:0.86000001 3:0.024681481 4:0.0009153196 5:0.016729062 #
2.0266208299204451215302924538264 1:0.31420001 2:0.375 3:0.060249999 4:0.0026599632 5:0.036879484 #
-2.0266208299204451215302924538264 1:0.23368421 2:0.62711865 3:0.020064777 4:0.00088620791 5:0.0041444656 #
2.0266208299204451215302924538264 1:0.23914285 2:0.5 3:0.069428571 4:0.0090060225 5:0.03965294 #
-2.0266208299204451215302924538264 1:0.2976 2:0.47222221 3:0.033466667 4:0.011483306 5:0.095768377 #
2.0266208299204451215302924538264 1:0.27893335 2:0.42857143 3:0.045046154 4:0.0014891264 5:0.03056887 #
-2.0266208299204451215302924538264 1:0.21747369 2:0.38461539 3:0.094105266 4:0.0075153308 5:0.0016643468 #
2.0266208299204451215302924538264 1:0.31040001 2:0.65217394 3:0.081666663 4:0.0047513298 5:0.10369436 #
-2.0266208299204451215302924538264 1:0.32171428 2:0.73282444 3:0.056666669 4:0.0054769362 5:0.13373633 #
2.0266208299204451215302924538264 1:0.16190477 2:0.41666666 3:0.030704763 4:0.004518813 5:0.043241963 #
-1.556387166686761247547110542655 1:0.086666666 2:0.40384614 3:0.059888888 4:0.0010034264 5:0.0032340256 #
2.0266208299204451215302924538264 1:0.40900001 2:0.54545456 3:0.064277776 4:0.0018549672 5:0.013279409 #
-2.0266208299204451215302924538264 1:0.43920001 2:0.64516127 3:0.097666666 4:0.012649331 5:0.019781515 #
2.0266208299204451215302924538264 1:0.12177778 2:0.28260869 3:0.023733333 4:0.0052136881 5:0.038090535 #
-2.0266208299204451215302924538264 1:0.32080001 2:0.21212122 3:0.095466666 4:0.015474711 5:0.054578234 #
2.0266208299204451215302924538264 1:0.31973332 2:0.92500001 3:0.053433333 4:0.003821969 5:0.03799222 #
2.0266208299204451215302924538264 1:0.2192 2:0.16666667 3:0.050560001 4:0.0026829632 5:0.013582912 #
-2.0266208299204451215302924538264 1:0.26899999 2:0.97183096 3:0.054000001 4:0.0033888852 5:0.051010244 #
2.0266208299204451215302924538264 1:0.32550001 2:0.055555556 3:0.11883333 4:0.0073657492 5:0.09590508 #
-2.0266208299204451215302924538264 1:0.28600001 2:0.06666667 3:0.021076923 4:0.0017127269 5:0.1197276 #
2.0266208299204451215302924538264 1:0.20027587 2:1 3:0.045682758 4:0.0061458689 5:0.020743458 #
-2.0266208299204451215302924538264 1:0.22657143 2:0.84375 3:0.030928571 4:0.0019938359 5:0.0045535518 #
2.0266208299204451215302924538264 1:0.30880001 2:0.3898305 3:0.067599997 4:0.003880077 5:0.047230877 #
-2.0266208299204451215302924538264 1:0.31988236 2:0.29411766 3:0.083490193 4:0.0077560889 5:0.050552584 #
2.0266208299204451215302924538264 1:0.1247 2:0.94117647 3:0.030820001 4:0.0032482499 5:0.014655937 #
-0.0620438486445415021686144996238 1:0.092 2:0.68421054 3:0.0535 4:0.01181547 5:1.8850315 #
2.0266208299204451215302924538264 1:0.40346667 2:0.18181819 3:0.048533332 4:0.0017233045 5:0.035984468 #
-2.0266208299204451215302924538264 1:0.3328889 2:0.27272728 3:0.112 4:0.0048268195 5:0.050921336 #
2.0266208299204451215302924538264 1:0.1688 2:1 3:0.022053333 4:0.001169757 5:0.017651895 #
-2.0266208299204451215302924538264 1:0.22352 2:1 3:0.042493332 4:0.0018127926 5:0.031563394 #
2.0266208299204451215302924538264 1:0.25942856 2:0.28749999 3:0.037952382 4:0.0036160722 5:0.058441535 #
-2.0266208299204451215302924538264 1:0.32260871 2:0.086956523 3:0.08017391 4:0.004196703 5:0.0018909539 #
2.0266208299204451215302924538264 1:0.14118518 2:1 3:0.053096298 4:0.0037328433 5:0.028179782 #
-2.0266208299204451215302924538264 1:0.13636364 2:0.47499999 3:0.052083917 4:0.0013997837 5:0.011014721 #
2.0266208299204451215302924538264 1:0.19670588 2:0.12121212 3:0.029929413 4:0.0039459858 5:0.05243773 #
-2.0266208299204451215302924538264 1:0.2755 2:0.068965517 3:0.014615385 4:0.0027253027 5:0.12160271 #
2.0266208299204451215302924538264 1:0.26625001 2:0.86153847 3:0.0625 4:0.0039341277 5:0.046091352 #
-2.0266208299204451215302924538264 1:0.29066667 2:0.62962961 3:0.021944445 4:0.0019614729 5:0.083891898 #
2.0266208299204451215302924538264 1:0.26714286 2:0.44117647 3:0.055028573 4:0.0076092738 5:0.019267699 #
2.0266208299204451215302924538264 1:0.22244444 2:0.41935483 3:0.033162393 4:0.0027604823 5:0.012528411 #
2.0266208299204451215302924538264 1:0.26774999 2:0.625 3:0.075000003 4:0.0035106069 5:0.041950833 #
-2.0266208299204451215302924538264 1:0.34644446 2:0.78787881 3:0.078814812 4:0.012729318 5:0.0068525141 #
2.0266208299204451215302924538264 1:0.15214285 2:0.33333334 3:0.048942856 4:0.0046701157 5:0.010676249 #
-2.0266208299204451215302924538264 1:0.042666666 2:0.375 3:0.050666668 4:0.0022358999 5:0.010868507 #
2.0266208299204451215302924538264 1:0.31674999 2:0.81308413 3:0.045541666 4:0.0020127555 5:0.0206933 #
-2.0266208299204451215302924538264 1:0.29466668 2:0.5 3:0.060111113 4:0.0017754702 5:0.050010413 #
2.0266208299204451215302924538264 1:0.21052632 2:0.72222221 3:0.041263159 4:0.0077800611 5:0.028822755 #
-2.0266208299204451215302924538264 1:0.16758621 2:0.85245901 3:0.048413794 4:0.0093291085 5:8.6190172e-05 #
2.0266208299204451215302924538264 1:0.31422222 2:0.32499999 3:0.024777777 4:0.0030428516 5:0.09085916 #
-2.0266208299204451215302924538264 1:0.26359999 2:0.20967741 3:0.02483077 4:0.00088361662 5:0.081601061 #
2.0266208299204451215302924538264 1:0.17020001 2:0.89999998 3:0.044920001 4:0.0059113717 5:0.032978714 #
-2.0266208299204451215302924538264 1:0.33533335 2:1 3:0.073487177 4:0.0028702961 5:0.13517512 #
2.0266208299204451215302924538264 1:0.11294118 2:0.0625 3:0.020470588 4:0.0023808009 5:0.032973412 #
2.0266208299204451215302924538264 1:0.1524 2:0.055555556 3:0.057333332 4:0.0014834683 5:0.094523437 #
2.0266208299204451215302924538264 1:0.63 2:0.96666664 3:0.048461538 4:0.0013887702 5:0.21481633 #
-2.0266208299204451215302924538264 1:0.39680001 2:1 3:0.138 4:0.013624368 5:0.12720992 #
2.0266208299204451215302924538264 1:0.14666666 2:0.16666667 3:0.025733333 4:0.0039446964 5:0.021343179 #
-2.0266208299204451215302924538264 1:0.24870588 2:0.21686748 3:0.02922353 4:0.0026670699 5:0.027616626 #
2.0266208299204451215302924538264 1:0.292 2:0.86274511 3:0.066142857 4:0.0073113632 5:0.10252486 #
-2.0266208299204451215302924538264 1:0.3028 2:0.84615386 3:0.051866665 4:0.010936603 5:0.059747137 #
2.0266208299204451215302924538264 1:0.32995349 2:0.0625 3:0.078162789 4:0.0041132467 5:0.019058282 #
-2.0266208299204451215302924538264 1:0.26866665 2:0.079365082 3:0.036583334 4:0.0036734783 5:0.082514852 #
2.0266208299204451215302924538264 1:0.27093333 2:0.80000001 3:0.045111112 4:0.0021591091 5:0.076861255 #
-2.0266208299204451215302924538264 1:0.28479999 2:0.83050847 3:0.028033333 4:0.0017713724 5:0.070305161 #
2.0266208299204451215302924538264 1:0.22444445 2:0.083333336 3:0.030666666 4:0.0089619905 5:0.10924561 #
-2.0266208299204451215302924538264 1:0.27314284 2:0.1025641 3:0.029054945 4:0.00085695583 5:0.14258477 #
2.0266208299204451215302924538264 1:0.18376471 2:0.91666669 3:0.046494119 4:0.0043029212 5:0.054990053 #
-2.0266208299204451215302924538264 1:0.27599999 2:0.96363634 3:0.04356923 4:0.0028441034 5:0.089021005 #
2.0266208299204451215302924538264 1:0.23549999 2:0.33333334 3:0.044399999 4:0.0072913421 5:0.029331423 #
-2.0266208299204451215302924538264 1:0.22676922 2:0.72340423 3:0.027195266 4:0.0016069214 5:0.0093810707 #
-2.0266208299204451215302924538264 1:0.12928 2:0.26086956 3:0.038413335 4:0.00069798582 5:0.002855835 #
2.0266208299204451215302924538264 1:0.2557838 2:1 3:0.040117119 4:0.0016063984 5:0.015958264 #
-2.0266208299204451215302924538264 1:0.29300001 2:0.82608694 3:0 4:0 5:0.24936658 #
2.0266208299204451215302924538264 1:0.29426667 2:0.57894737 3:0.063199997 4:0.0034046581 5:0.010302534 #
-2.0266208299204451215302924538264 1:0.2472 2:0.27777779 3:0.067299999 4:0.0095517449 5:0.0014043452 #
2.0266208299204451215302924538264 1:0.18369231 2:0.70909089 3:0.044615384 4:0.004208832 5:0.074255407 #
-2.0266208299204451215302924538264 1:0.14498113 2:1 3:0.055402033 4:0.00085315079 5:0.00065484416 #
2.0266208299204451215302924538264 1:0.39657143 2:0.33333334 3:0.038637362 4:0.0026417787 5:0.11758182 #
-2.0266208299204451215302924538264 1:0.32736841 2:0.31428573 3:0.098736845 4:0.0025760643 5:0.047954619 #
2.0266208299204451215302924538264 1:0.27046153 2:0.92307693 3:0.047846153 4:0.0061829994 5:0.042207293 #
-2.0266208299204451215302924538264 1:0.33199999 2:0.84615386 3:0.076962963 4:0.0021158969 5:0.045794468 #
2.0266208299204451215302924538264 1:0.1574 2:0.27777779 3:0.036559999 4:0.004996975 5:0.0094319629 #
-2.0266208299204451215302924538264 1:0.1772093 2:0.25 3:0.020255813 4:0.0009499013 5:0.00091009261 #
2.0266208299204451215302924538264 1:0.28814813 2:0.94736844 3:0.049777776 4:0.003094187 5:0.046975955 #
-2.0266208299204451215302924538264 1:0.338 2:1 3:0.082000002 4:0.01050176 5:0.20609583 #
2.0266208299204451215302924538264 1:0.20475 2:0.20689656 3:0.036916666 4:0.0017252667 5:0.04332421 #
-2.0266208299204451215302924538264 1:0.2 2:0.25 3:0.023319839 4:0.00073240761 5:0.0019225078 #
2.0266208299204451215302924538264 1:0.63 2:0.96363634 3:0.048461538 4:0.0013887702 5:0.26679289 #
-2.0266208299204451215302924538264 1:0.49692309 2:0.93548387 3:0.090666667 4:0.012294537 5:0.027840123 #
2.0266208299204451215302924538264 1:0.17793548 2:0.25 3:0.042090323 4:0.0049740062 5:0.0008997398 #
-2.0266208299204451215302924538264 1:0.152 2:0.16393442 3:0.010184615 4:0.00014108075 5:0.021365799 #
2.0266208299204451215302924538264 1:0.30063999 2:0.89999998 3:0.079466663 4:0.009197372 5:0.027507722 #
-2.0266208299204451215302924538264 1:0.34959999 2:0.55223882 3:0.091600001 4:0.0046823719 5:0.1726511 #
2.0266208299204451215302924538264 1:0.19283333 2:0.5714286 3:0.054033332 4:0.0098390887 5:0.0058363713 #
-2.0266208299204451215302924538264 1:0.13959999 2:0.37777779 3:0.016164102 4:0.00059834082 5:0.01099865 #
-2.0266208299204451215302924538264 1:0.19341177 2:0.51999998 3:0.021274509 4:0.00045290426 5:0.00095843419 #
2.0266208299204451215302924538264 1:0.377 2:0.5 3:0.056604166 4:0.0017952299 5:0.042050105 #
-2.0266208299204451215302924538264 1:0.3048 2:0.62857145 3:0.043900002 4:0.0026652864 5:0.099685736 #
2.0266208299204451215302924538264 1:0.193 2:0.30000001 3:0.028423076 4:0.0011323018 5:0.058030467 #
-2.0266208299204451215302924538264 1:0.26633334 2:0.17391305 3:0.041000001 4:0.0081802187 5:0.014855856 #
2.0266208299204451215302924538264 1:0.28240001 2:0.73333335 3:0.047733333 4:0.0017734329 5:0.050547022 #
-2.0266208299204451215302924538264 1:0.29578948 2:0.82499999 3:0.046052631 4:0.0011557995 5:0.028704641 #
2.0266208299204451215302924538264 1:0.28044444 2:0.13235295 3:0.071333334 4:0.0054681534 5:0.050679047 #
-2.0266208299204451215302924538264 1:0.28525001 2:0.17142858 3:0.049333334 4:0.013155728 5:0.047953732 #
2.0266208299204451215302924538264 1:0.20592593 2:0.953125 3:0.035358023 4:0.0011796872 5:0.023575844 #
-2.0266208299204451215302924538264 1:0.19695652 2:1 3:0.031337794 4:0.0015187402 5:0.018545156 #
2.0266208299204451215302924538264 1:0.20553847 2:0.21428572 3:0.04253846 4:0.0042560422 5:0.035194218 #
-2.0266208299204451215302924538264 1:0.24104348 2:0.1875 3:0.035050169 4:0.0028978789 5:0.015353402 #
2.0266208299204451215302924538264 1:0.33011764 2:0.82608694 3:0.061117645 4:0.0045704152 5:0.0071033412 #
-2.0266208299204451215302924538264 1:0.33942857 2:0.875 3:0.090928569 4:0.0067927898 5:0.045457464 #
2.0266208299204451215302924538264 1:0.1974 2:0.27956989 3:0.051600002 4:0.0026180865 5:0.029762378 #
-2.0266208299204451215302924538264 1:0.12419048 2:0.26923078 3:0.021561904 4:0.0018219909 5:0.00072555599 #
2.0266208299204451215302924538264 1:0.228 2:1 3:0.0584375 4:0.0036405139 5:0.012063066 #
-2.0266208299204451215302924538264 1:0.22109091 2:0.96453899 3:0.028125875 4:0.0018243724 5:0.022107216 #
2.0266208299204451215302924538264 1:0.23169231 2:0.074074075 3:0.062076923 4:0.001549091 5:0.062959209 #
-2.0266208299204451215302924538264 1:0.28436363 2:0.098039217 3:0.052999999 4:0.0039260969 5:0.041922934 #
2.0266208299204451215302924538264 1:0.23266667 2:0.92000002 3:0.047033332 4:0.0012297222 5:0.013567467 #
-2.0266208299204451215302924538264 1:0.24243478 2:0.9375 3:0.054043479 4:0.0029423996 5:0.0059276042 #
2.0266208299204451215302924538264 1:0.31527272 2:0.12121212 3:0.040363636 4:0.0023146218 5:0.026334368 #
-2.0266208299204451215302924538264 1:0.29499999 2:0.1388889 3:0.065916665 4:0.0034151447 5:0.054154005 #
2.0266208299204451215302924538264 1:0.29666665 2:0.89473683 3:0.048933335 4:0.0099057546 5:0.080725811 #
-2.0266208299204451215302924538264 1:0.338 2:1 3:0.082000002 4:0.01050176 5:0.26193121 #
2.0266208299204451215302924538264 1:0.21924999 2:0.2857143 3:0.058937501 4:0.0030467873 5:0.010682118 #
-2.0266208299204451215302924538264 1:0.22849999 2:0.2820513 3:0.031320512 4:0.0010534686 5:0.0021780266 #
2.0266208299204451215302924538264 1:0.093999997 2:0.97297299 3:0.0094999997 4:0.0013687592 5:0.21055289 #
-0.027651075038829908692150638671592 1:0.1 2:0.016129032 3:0.034615386 4:0.00021411243 5:1.354552 #
2.0266208299204451215302924538264 1:0.35835293 2:0.33333334 3:0.029509803 4:0.0017658123 5:0.038398784 #
-2.0266208299204451215302924538264 1:0.32736841 2:0.33333334 3:0.098736845 4:0.0025760643 5:0.047930893 #
2.0266208299204451215302924538264 1:0.12514286 2:0.66666669 3:0.045523811 4:0.0050164135 5:0.0087958211 #
-2.0266208299204451215302924538264 1:0.198 2:0.625 3:0.012115384 4:0.00048090678 5:0.0070567783 #
2.0266208299204451215302924538264 1:0.24959999 2:0.1 3:0.057584614 4:0.0018310824 5:0.0038980697 #
-2.0266208299204451215302924538264 1:0.26350001 2:0.11111111 3:0.036200002 4:0.0030927418 5:0.032961875 #
2.0266208299204451215302924538264 1:0.12514286 2:0.875 3:0.030994285 4:0.0041833487 5:0.0054364344 #
-2.0266208299204451215302924538264 1:0.1508 2:0.41111112 3:0.062861539 4:0.0026274968 5:0.025309306 #
2.0266208299204451215302924538264 1:0.28707692 2:0.12149533 3:0.068089746 4:0.0020992835 5:0.067225829 #
-2.0266208299204451215302924538264 1:0.29499999 2:0.14705883 3:0.065916665 4:0.0034151447 5:0.053174503 #
2.0266208299204451215302924538264 1:0.164 2:1 3:0.058499999 4:0.0019495215 5:0.064428277 #
-2.0266208299204451215302924538264 1:0.22622222 2:0.98989898 3:0.041999999 4:0.0074799214 5:0.030765662 #
2.0266208299204451215302924538264 1:0.20900001 2:0.1875 3:0.030208332 4:0.0010089615 5:0.030949943 #
-2.0266208299204451215302924538264 1:0.20186667 2:0.18181819 3:0.018020513 4:0.00030655775 5:0.02509434 #
2.0266208299204451215302924538264 1:0.27875 2:0.98630136 3:0.042531248 4:0.0033671556 5:0.044261754 #
-2.0266208299204451215302924538264 1:0.26699999 2:0.92647058 3:0.051653847 4:0.0039643766 5:0.053177923 #
2.0266208299204451215302924538264 1:0.14463158 2:0.16666667 3:0.022105264 4:0.0034604555 5:0.048543356 #
-2.0266208299204451215302924538264 1:0.089333333 2:0.15789473 3:0.076266669 4:0.0091488957 5:0.047783028 #
2.0266208299204451215302924538264 1:0.41786668 2:0.95238096 3:0.073600002 4:0.0067632268 5:0.040135331 #
-2.0266208299204451215302924538264 1:0.34799999 2:0.97058821 3:0.10986666 4:0.0024072349 5:0.13792542 #
2.0266208299204451215302924538264 1:0.21085714 2:0.15151516 3:0.039142858 4:0.002983581 5:0.065241404 #
-2.0266208299204451215302924538264 1:0.28171429 2:0.18604651 3:0.047523808 4:0.0083031394 5:0.047743354 #
2.0266208299204451215302924538264 1:0.20091428 2:1 3:0.064754285 4:0.007571015 5:0.023985881 #
2.0266208299204451215302924538264 1:0.23043478 2:0.1923077 3:0.048173912 4:0.01073821 5:0.0010572487 #
-2.0266208299204451215302924538264 1:0.19777778 2:0.97826087 3:0.039316241 4:0.0010217373 5:0.0050611533 #
-2.0266208299204451215302924538264 1:0.28114286 2:0.8611111 3:0.04657143 4:0.0084076989 5:0.01770618 #
2.0266208299204451215302924538264 1:0.228 2:0.3125 3:0.04822807 4:0.0018828332 5:0.0078833411 #
-2.0266208299204451215302924538264 1:0.2008 2:0.083333336 3:0.023372307 4:0.00073650491 5:0.0084804939 #
2.0266208299204451215302924538264 1:0.23733333 2:1 3:0.085666664 4:0.0035960239 5:0.015124064 #
-2.0266208299204451215302924538264 1:0.32847059 2:0.79310346 3:0.078274511 4:0.01384119 5:0.022477726 #
2.0266208299204451215302924538264 1:0.29362962 2:0.53333336 3:0.042160492 4:0.0014248273 5:0.0013653802 #
-2.0266208299204451215302924538264 1:0.27200001 2:0.38461539 3:0.057500001 4:0.0079708658 5:0.013807392 #
2.0266208299204451215302924538264 1:0.22568421 2:0.61702126 3:0.03288421 4:0.0062892549 5:0.029976873 #
-2.0266208299204451215302924538264 1:0.18725 2:0.62105262 3:0.023499999 4:0.0009076483 5:5.1297371e-05 #
2.0266208299204451215302924538264 1:0.27739131 2:0.58333331 3:0.047014493 4:0.0013048039 5:0.0052361437 #
-2.0266208299204451215302924538264 1:0.25545454 2:0.52941179 3:0.037318181 4:0.0030009593 5:0.008517052 #
2.0266208299204451215302924538264 1:0.14822222 2:0.51851851 3:0.033022221 4:0.0032667131 5:0.024826726 #
-2.0266208299204451215302924538264 1:0.18234482 2:0.55555558 3:0.020643678 4:0.0034314294 5:0.0032003815 #
2.0266208299204451215302924538264 1:0.33914286 2:0.54054052 3:0.036175825 4:0.0031071519 5:0.023662647 #
-2.0266208299204451215302924538264 1:0.27885714 2:0.5 3:0.040285714 4:0.010887162 5:0.059656907 #
2.0266208299204451215302924538264 1:0.18611765 2:0.60000002 3:0.026047058 4:0.0035278818 5:0.00058524223 #
-2.0266208299204451215302924538264 1:0.23791304 2:0.67123288 3:0.038391303 4:0.003255358 5:0.0048926016 #
-2.0266208299204451215302924538264 1:0.24295652 2:0.43859649 3:0.024949832 4:0.00168289 5:0.031667929 #
2.0266208299204451215302924538264 1:0.27835295 2:0.59375 3:0.063058823 4:0.002174153 5:0.046985172 #
-2.0266208299204451215302924538264 1:0.24214286 2:0.62857145 3:0.044461537 4:0.0026968599 5:0.001811714 #
2.0266208299204451215302924538264 1:0.206 2:0.42500001 3:0.023 4:0.002234783 5:0.023576468 #
-2.0266208299204451215302924538264 1:0.26609525 2:0.3888889 3:0.062031746 4:0.0016918185 5:0.015589405 #
2.0266208299204451215302924538264 1:0.32218182 2:0.65384614 3:0.056545455 4:0.0090135653 5:0.014139164 #
2.0266208299204451215302924538264 1:0.22514285 2:0.36363637 3:0.041771427 4:0.0055573564 5:0.05616869 #
-2.0266208299204451215302924538264 1:0.31109092 2:0.85185188 3:0.074303031 4:0.0056033093 5:0.0095334165 #
-2.0266208299204451215302924538264 1:0.2308 2:0.28333333 3:0.026007691 4:0.0021608328 5:0.026104907 #
2.0266208299204451215302924538264 1:0.17018181 2:1 3:0.058872726 4:0.0050983964 5:0.032795273 #
-2.0266208299204451215302924538264 1:0.11846154 2:1 3:0.035615385 4:0.0018357316 5:0.0011469505 #
2.0266208299204451215302924538264 1:0.29550001 2:0.096774191 3:0.036249999 4:0.0011344092 5:0.12421589 #
-2.0266208299204451215302924538264 1:0.29066667 2:0.13636364 3:0.026666667 4:0.00018489874 5:0.20486328 #
2.0266208299204451215302924538264 1:0.13537499 2:1 3:0.042599998 4:0.0033365095 5:0.020589674 #
2.0266208299204451215302924538264 1:0.19810526 2:0.22222222 3:0.043494739 4:0.0054399972 5:0.024990059 #
-2.0266208299204451215302924538264 1:0.14907692 2:1 3:0.030153846 4:0.00080632203 5:0.0034445946 #
-2.0266208299204451215302924538264 1:0.24929032 2:0.18644068 3:0.057667494 4:0.0020453387 5:0.0059975153 #
2.0266208299204451215302924538264 1:0.28757143 2:0.96296299 3:0.083571427 4:0.0045758206 5:0.027477238 #
-2.0266208299204451215302924538264 1:0.2784 2:0.96296299 3:0.074773334 4:0.0080984626 5:0.029268114 #
2.0266208299204451215302924538264 1:0.17973334 2:0.14285715 3:0.064533331 4:0.010627973 5:0.056520149 #
-2.0266208299204451215302924538264 1:0.44960001 2:0.83720928 3:0.099466667 4:0.020906212 5:0.075772293 #
2.0266208299204451215302924538264 1:0.26733333 2:0.89473683 3:0.049333334 4:0.0053553944 5:0.002754384 #
2.0266208299204451215302924538264 1:0.152375 2:0.125 3:0.044500001 4:0.0040491396 5:0.043989815 #
-2.0266208299204451215302924538264 1:0.28717646 2:0.83687943 3:0.039040726 4:0.002265851 5:0.038542323 #
-2.0266208299204451215302924538264 1:0.32499999 2:0.82926828 3:0.067777775 4:0.015790841 5:0.067412227 #
2.0266208299204451215302924538264 1:0.19142857 2:0.12903225 3:0.021904763 4:0.00076027756 5:7.3061463e-05 #
-2.0266208299204451215302924538264 1:0.15127273 2:0.011111111 3:0.029832168 4:0.0012334828 5:0.0053813136 #
2.0266208299204451215302924538264 1:0.24699999 2:0.94827586 3:0.062433332 4:0.0014886028 5:0.013373118 #
2.0266208299204451215302924538264 1:0.25400001 2:0.40000001 3:0.019625001 4:0.0027043789 5:0.003863448 #
-2.0266208299204451215302924538264 1:0.22133334 2:0.40298507 3:0.036076922 4:0.00092648645 5:0.0052370904 #
2.0266208299204451215302924538264 1:0.30355555 2:0.59523809 3:0.050277777 4:0.0026764695 5:0.020830518 #
-2.0266208299204451215302924538264 1:0.27599999 2:0.75 3:0.052888889 4:0.0038818652 5:0.021674398 #
-2.0266208299204451215302924538264 1:0.24173333 2:0.69444442 3:0.048888888 4:0.0020020627 5:0.00066014391 #
2.0266208299204451215302924538264 1:0.20923077 2:0.45454547 3:0.04713846 4:0.0060237283 5:0.073878847 #
-2.0266208299204451215302924538264 1:0.25325 2:0.5 3:0.050875001 4:0.0023373689 5:0.013102854 #
2.0266208299204451215302924538264 1:0.186 2:0.51219511 3:0.048999999 4:0.0058605317 5:0.07511463 #
2.0266208299204451215302924538264 1:0.30273685 2:0.21052632 3:0.035666667 4:0.00093070156 5:0.013405533 #
-2.0266208299204451215302924538264 1:0.22066666 2:0.28 3:0.0176 4:0.0012795876 5:0.16205549 #
2.0266208299204451215302924538264 1:0.28072727 2:0.71052629 3:0.048318181 4:0.0033243543 5:0.028910361 #
-2.0266208299204451215302924538264 1:0.24704 2:0.56521738 3:0.034221537 4:0.0017553095 5:0.015568166 #
2.0266208299204451215302924538264 1:0.36511111 2:0.43478259 3:0.041777778 4:0.0053001991 5:0.03424244 #
-2.0266208299204451215302924538264 1:0.27880001 2:0.44444445 3:0.032400001 4:0.011890596 5:0.074671872 #
2.0266208299204451215302924538264 1:0.15428571 2:0.75 3:0.041104764 4:0.0041566319 5:0.018373957 #
-2.0266208299204451215302924538264 1:0.2472 2:0.90322578 3:0.0458 4:0.010139955 5:0.0092331599 #
2.0266208299204451215302924538264 1:0.090000004 2:0.045454547 3:0.020923076 4:0.00016851454 5:0.390203 #
-2.0266208299204451215302924538264 1:0.059555557 2:0.047619049 3:0.069555558 4:0.0093977973 5:0.10662952 #
2.0266208299204451215302924538264 1:0.23311999 2:0.87931037 3:0.02104 4:0.0011568492 5:0.032479148 #
-2.0266208299204451215302924538264 1:0.29066667 2:0.16666667 3:0.026666667 4:0.00018489874 5:0.20748554 #
2.0266208299204451215302924538264 1:0.2364706 2:0.78512394 3:0.07088235 4:0.0030800225 5:0.033406932 #
-2.0266208299204451215302924538264 1:0.21114285 2:1 3:0.072238095 4:0.0026746851 5:0.0015404647 #
2.0266208299204451215302924538264 1:0.21780001 2:0.025641026 3:0.050560001 4:0.005278206 5:0.040023409 #
-2.0266208299204451215302924538264 1:0.1223077 2:0.60606062 3:0.061794873 4:0.011060402 5:0.014518777 #
2.0266208299204451215302924538264 1:0.28590477 2:1 3:0.049904764 4:0.0074487007 5:0.016052989 #
-2.0266208299204451215302924538264 1:0.29544446 2:0.98701298 3:0.10233333 4:0.016339744 5:0.018580431 #
2.0266208299204451215302924538264 1:0.15793549 2:0.16666667 3:0.046348386 4:0.0051608882 5:0.00074002176 #
-2.0266208299204451215302924538264 1:0.19958621 2:0.43636364 3:0.023936339 4:0.001194239 5:0.0048134425 #
2.0266208299204451215302924538264 1:0.29854545 2:0.5714286 3:0.038484849 4:0.0033189929 5:0.085383251 #
-2.0266208299204451215302924538264 1:0.31200001 2:0.60869563 3:0.080777779 4:0.0026938627 5:0.056507464 #
2.0266208299204451215302924538264 1:0.20346667 2:0.33333334 3:0.04448 4:0.006424766 5:0.00237111 #
-2.0266208299204451215302924538264 1:0.21971428 2:0.32051283 3:0.026362637 4:0.0011243548 5:0.0019182622 #
2.0266208299204451215302924538264 1:0.23415385 2:0.60606062 3:0.069230773 4:0.0059066084 5:0.058399748 #
-2.0266208299204451215302924538264 1:0.26719999 2:0.97142857 3:0.060600001 4:0.0027752863 5:0.055816136 #
2.0266208299204451215302924538264 1:0.21439999 2:0.2 3:0.032633334 4:0.0025001641 5:0.069263279 #
-2.0266208299204451215302924538264 1:0.2701818 2:0.11764706 3:0.037454545 4:0.0028283822 5:0.063556172 #
2.0266208299204451215302924538264 1:0.16066666 2:0.95348835 3:0.092148148 4:0.0040830579 5:0.0050553726 #
-2.0266208299204451215302924538264 1:0.23221053 2:0.75 3:0.040473685 4:0.0028129907 5:0.0039763413 #
-2.0266208299204451215302924538264 1:0.2176 2:0.64705884 3:0.036533333 4:0.0021253887 5:0.00047018283 #
2.0266208299204451215302924538264 1:0.29866666 2:0.16216215 3:0.15306666 4:0.012574936 5:0.01950662 #
2.0266208299204451215302924538264 1:0.2469091 2:0.10909091 3:0.037621211 4:0.0010405637 5:0.024936372 #
-2.0266208299204451215302924538264 1:0.35963637 2:0.03846154 3:0.17127272 4:0.037232649 5:0.046874218 #
2.0266208299204451215302924538264 1:0.17353846 2:0.92941177 3:0.042830769 4:0.0052688099 5:0.047002643 #
-2.0266208299204451215302924538264 1:0.23475 2:0.47222221 3:0.036038462 4:0.0012497989 5:0.019253915 #
2.0266208299204451215302924538264 1:0.47485715 2:0.47058824 3:0.10590477 4:0.027134836 5:0.037237071 #
-2.0266208299204451215302924538264 1:0.69 2:0.34751773 3:0.088923074 4:0.0058509498 5:0.24441156 #
2.0266208299204451215302924538264 1:0.1487619 2:0.56521738 3:0.030704763 4:0.0047882106 5:0.032556083 #
2.0266208299204451215302924538264 1:0.072210528 2:0.44444445 3:0.012561403 4:0.0001170771 5:0.035035819 #
2.0266208299204451215302924538264 1:0.38064 2:0.092307694 3:0.02308923 4:0.0012172498 5:0.020628609 #
-2.0266208299204451215302924538264 1:0.24341464 2:0.21428572 3:0.046273921 4:0.0014495775 5:0.010948859 #
2.0266208299204451215302924538264 1:0.63 2:0.97619045 3:0.048461538 4:0.0013887702 5:0.43511146 #
-2.0266208299204451215302924538264 1:0.242 2:0.98901099 3:0.045538463 4:0.0061358633 5:0.57863504 #
2.0266208299204451215302924538264 1:0.16144 2:0.27272728 3:0.026688 4:0.0070378622 5:0.0033602463 #
-2.0266208299204451215302924538264 1:0.25514287 2:0.29166666 3:0.047523808 4:0.0065938421 5:0.011473655 #
2.0266208299204451215302924538264 1:0.075999998 2:0.7962963 3:0.024888888 4:0.00030848585 5:0.10996013 #
-2.0266208299204451215302924538264 1:0.28 2:0.93023258 3:0.094666667 4:0.0074072029 5:0.010740534 #
2.0266208299204451215302924538264 1:0.21866667 2:0.11764706 3:0.031179488 4:0.0060676741 5:0.1727155 #
-2.0266208299204451215302924538264 1:0.214 2:0.15000001 3:0.020357143 4:0.0017242111 5:0.070235796 #
2.0266208299204451215302924538264 1:0.15925926 2:0.94736844 3:0.030962963 4:0.0037633241 5:0.014750175 #
-2.0266208299204451215302924538264 1:0.17146666 2:0.98571426 3:0.0174 4:0.00074162602 5:0.0060145669 #
2.0266208299204451215302924538264 1:0.28933334 2:0.11538462 3:0.033628207 4:0.0027795513 5:0.03243003 #
-2.0266208299204451215302924538264 1:0.26723808 2:0.083333336 3:0.040952381 4:0.0016626444 5:0.015992554 #
2.0266208299204451215302924538264 1:0.21775 2:1 3:0.069250003 4:0.0068097203 5:0.028927693 #
-2.0266208299204451215302924538264 1:0.24888889 2:0.84210527 3:0.029092593 4:0.00046752012 5:0.030159123 #
-2.0266208299204451215302924538264 1:0.25155556 2:0.80000001 3:0.023504274 4:0.00046869804 5:0.032093678 #
2.0266208299204451215302924538264 1:0.24126315 2:0.25 3:0.050280701 4:0.0018363582 5:0.036557317 #
2.0266208299204451215302924538264 1:0.16381818 2:0.21052632 3:0.033636365 4:0.0014291921 5:0.033306025 #
-2.0266208299204451215302924538264 1:0.26333332 2:0.16666667 3:0.035923079 4:0.0027429974 5:0.052710697 #
2.0266208299204451215302924538264 1:0.23538461 2:0.80000001 3:0.061415385 4:0.0066017653 5:0.069901355 #
-2.0266208299204451215302924538264 1:0.088 2:0.48979592 3:0.069200002 4:0.012120889 5:0.019546598 #
2.0266208299204451215302924538264 1:0.2705 2:0.48750001 3:0.044374999 4:0.0033247473 5:0.027202759 #
-2.0266208299204451215302924538264 1:0.28092307 2:0.52808988 3:0.052871794 4:0.0022448169 5:0.050780006 #
2.0266208299204451215302924538264 1:0.17408696 2:0.47368422 3:0.036069565 4:0.0045678057 5:0.024302553 #
-2.0266208299204451215302924538264 1:0.24870588 2:0.5 3:0.02922353 4:0.0026670699 5:0.028479967 #
2.0266208299204451215302924538264 1:0.27571428 2:0.45454547 3:0.066 4:0.0015582679 5:0.043902513 #
-2.0266208299204451215302924538264 1:0.26215383 2:0.38297874 3:0.037112426 4:0.0013850858 5:0.053416859 #
-2.0266208299204451215302924538264 1:0.25775 2:0.5625 3:0.035687499 4:0.0017118576 5:0.034084365 #
2.0266208299204451215302924538264 1:0.34072727 2:0.38095239 3:0.048363637 4:0.0019554463 5:0.013785722 #
2.0266208299204451215302924538264 1:0.23538461 2:0.80000001 3:0.061415385 4:0.0066017653 5:0.069901355 #
-2.0266208299204451215302924538264 1:0.2656 2:0.35294119 3:0.054533333 4:0.0059532933 5:0.018434174 #
-2.0266208299204451215302924538264 1:0.32944444 2:1 3:0.138 4:0.024905812 5:0.035206005 #
2.0266208299204451215302924538264 1:0.21511111 2:0.2647059 3:0.042133335 4:0.0062459814 5:0.017946143 #
-2.0266208299204451215302924538264 1:0.23466666 2:0.15000001 3:0.039185185 4:0.0011182927 5:0.019107189 #
2.0266208299204451215302924538264 1:0.18818182 2:1 3:0.046167832 4:0.0012411234 5:0.0099643106 #
2.0266208299204451215302924538264 1:0.17626667 2:0.29166666 3:0.061733332 4:0.0082402155 5:0.017983235 #
-2.0266208299204451215302924538264 1:0.156 2:0.4852941 3:0.015891403 4:0.00034391272 5:0.0014014217 #
2.0266208299204451215302924538264 1:0.29028571 2:0.44 3:0.042285714 4:0.0048825489 5:0.035665631 #
2.0266208299204451215302924538264 1:0.15619047 2:0.63157892 3:0.02695238 4:0.0015569351 5:0.018341355 #
-2.0266208299204451215302924538264 1:0.29885715 2:0.40425533 3:0.021318682 4:0.0010582702 5:0.14171538 #
-2.0266208299204451215302924538264 1:0.068666667 2:0.71641791 3:0.055833332 4:0.0013082061 5:0.00095927296 #
2.0266208299204451215302924538264 1:0.2588 2:0.1981132 3:0.031107692 4:0.0017236199 5:0.079148352 #
-2.0266208299204451215302924538264 1:0.27200001 2:0.15789473 3:0.048833333 4:0.0070966389 5:0.036182761 #
2.0266208299204451215302924538264 1:0.17 2:0.875 3:0.039519999 4:0.0054511866 5:0.014177524 #
-2.0266208299204451215302924538264 1:0.21511111 2:0.95744681 3:0.041422222 4:0.0037439785 5:0.012546896 #
2.0266208299204451215302924538264 1:0.22188236 2:0.05172414 3:0.045313727 4:0.0011646501 5:0.052646738 #
-2.0266208299204451215302924538264 1:0.22504348 2:0.10638298 3:0.032628763 4:0.001837434 5:0.02885334 #
2.0266208299204451215302924538264 1:0.33612499 2:0.89361703 3:0.056875002 4:0.0050736042 5:0.045643207 #
-2.0266208299204451215302924538264 1:0.27599999 2:0.82051283 3:0.052888889 4:0.0038818652 5:0.02300516 #
-2.0266208299204451215302924538264 1:0.31236362 2:0.80952382 3:0.048242424 4:0.0051155933 5:0.088969082 #
2.0266208299204451215302924538264 1:0.15107693 2:0.28125 3:0.060923077 4:0.0067563332 5:0.038421415 #
-2.0266208299204451215302924538264 1:0.15975 2:0.15000001 3:0.047499999 4:0.0097215222 5:0.01811693 #
2.0266208299204451215302924538264 1:0.29757896 2:0.95238096 3:0.055912282 4:0.0020927009 5:0.018914586 #
2.0266208299204451215302924538264 1:0.38064 2:0.10526316 3:0.02308923 4:0.0012172498 5:0.019920178 #
-2.0266208299204451215302924538264 1:0.2447 2:0.969697 3:0.069200002 4:0.0029160397 5:0.014283593 #
-2.0266208299204451215302924538264 1:0.24947369 2:0.92307693 3:0.051210526 4:0.0025391432 5:0.03689459 #
2.0266208299204451215302924538264 1:0.23125 2:0.14285715 3:0.055500001 4:0.0066245417 5:0.037461024 #
-2.0266208299204451215302924538264 1:0.27450001 2:0.07692308 3:0.055 4:0.0018833776 5:0.067314163 #
2.0266208299204451215302924538264 1:0.14262857 2:1 3:0.033485714 4:0.0013218015 5:0.0079842778 #
-2.0266208299204451215302924538264 1:0.19563636 2:0.94117647 3:0.037 4:0.002372771 5:0.0009775724 #
-2.0266208299204451215302924538264 1:0.26742858 2:0.1627907 3:0.067428574 4:0.0056314776 5:0.015035009 #
2.0266208299204451215302924538264 1:0.14 2:0.8888889 3:0.015923077 4:0.0016394953 5:0.0017528032 #
2.0266208299204451215302924538264 1:0.17513044 2:0.10526316 3:0.037999999 4:0.0017952234 5:0.013269853 #
-2.0266208299204451215302924538264 1:0.098370373 2:0.98913044 3:0.021913581 4:0.00056316645 5:0.0025846327 #
2.0266208299204451215302924538264 1:0.36436364 2:0.32142857 3:0.060242426 4:0.0061552823 5:0.023594715 #
-2.0266208299204451215302924538264 1:0.10213333 2:0.96923077 3:0.016577778 4:0.0019009567 5:0.00010439253 #
2.0266208299204451215302924538264 1:0.27833334 2:0.34999999 3:0.061583333 4:0.0048605208 5:0.071287259 #
-2.0266208299204451215302924538264 1:0.28233334 2:0.21428572 3:0.059999999 4:0.0023880571 5:0.046554122 #
2.0266208299204451215302924538264 1:0.20270967 2:1 3:0.044851612 4:0.0050865351 5:0.022278246 #
-2.0266208299204451215302924538264 1:0.35705262 2:0.75757575 3:0.12294737 4:0.01019451 5:0.010715035 #
2.0266208299204451215302924538264 1:0.16949999 2:0.2682927 3:0.038550001 4:0.0053617759 5:0.059198171 #
-2.0266208299204451215302924538264 1:0.25090909 2:0.22413793 3:0.02330303 4:0.0012758652 5:0.07940834 #
-2.0266208299204451215302924538264 1:0.16457143 2:0.92537314 3:0.050952382 4:0.0010188153 5:0.058706645 #
-2.0266208299204451215302924538264 1:0.49263158 2:0.7962963 3:0.034380566 4:0.0013760205 5:0.027039532 #
2.0266208299204451215302924538264 1:0.14361905 2:0.34782609 3:0.050171427 4:0.0057954667 5:0.038448125 #
-1.8215732829372086598596069961786 1:0.13866666 2:0.18085106 3:0.047746032 4:0.00080255314 5:0.0094391238 #
2.0266208299204451215302924538264 1:0.21805714 2:0.97368419 3:0.058028571 4:0.0024706954 5:0.013357537 #
-2.0266208299204451215302924538264 1:0.30461538 2:0.80645162 3:0.050358973 4:0.01476045 5:0.075674705 #
2.0266208299204451215302924538264 1:0.15529412 2:0.048780486 3:0.039215688 4:0.0028766259 5:0.05790554 #
-2.0266208299204451215302924538264 1:0.083400004 2:0.052631579 3:0.046866667 4:0.007515782 5:0.012188493 #
2.0266208299204451215302924538264 1:0.29538462 2:0.79166669 3:0.096615382 4:0.020669531 5:0.11593994 #
-2.0266208299204451215302924538264 1:0.28400001 2:0.69565219 3:0.016000001 4:0.0017275437 5:0.19893317 #
2.0266208299204451215302924538264 1:0.29028571 2:0.44 3:0.042285714 4:0.0048825489 5:0.035665631 #
2.0266208299204451215302924538264 1:0.222 2:0.73333335 3:0.048 4:0.0039487998 5:0.067717932 #
-2.0266208299204451215302924538264 1:0.26861539 2:0.375 3:0.072153844 4:0.0038764668 5:0.008460924 #
-2.0266208299204451215302924538264 1:0.25507692 2:0.81967211 3:0.027775148 4:0.0005815897 5:0.031384841 #
2.0266208299204451215302924538264 1:0.21283333 2:0.0625 3:0.04788889 4:0.0016690296 5:0.00028066232 #
-2.0266208299204451215302924538264 1:0.25221053 2:0.055555556 3:0.04785965 4:0.0039335075 5:0.0035545416 #
2.0266208299204451215302924538264 1:0.20633334 2:0.93846154 3:0.046416666 4:0.0020483024 5:0.012983828 #
-2.0266208299204451215302924538264 1:0.14914286 2:0.69565219 3:0.027460318 4:0.00089932827 5:0.023427472 #
-2.0266208299204451215302924538264 1:0.25999999 2:0.33333334 3:0.039700001 4:0.0019752898 5:0.030771419 #
2.0266208299204451215302924538264 1:0.18133333 2:0.5 3:0.057518519 4:0.0016286771 5:0.10553009 #
2.0266208299204451215302924538264 1:0.30042857 2:0.42857143 3:0.065250002 4:0.0031303931 5:0.013736676 #
-2.0266208299204451215302924538264 1:0.27966666 2:0.61702126 3:0.038205128 4:0.0025135155 5:0.081764348 #
-2.0266208299204451215302924538264 1:0.25025001 2:0.32857144 3:0.047833335 4:0.013007005 5:0.0092358356 #
2.0266208299204451215302924538264 1:0.2540606 2:0.80165291 3:0.069484845 4:0.0040705111 5:0.030403819 #
-2.0266208299204451215302924538264 1:0.31783783 2:0.94285715 3:0.12172973 4:0.016995452 5:0.035629801 #
2.0266208299204451215302924538264 1:0.24586667 2:0.032258064 3:0.045933332 4:0.0040895357 5:0.029483953 #
-2.0266208299204451215302924538264 1:0.228 2:0.098039217 3:0.038655173 4:0.004510174 5:0.0038872613 #
2.0266208299204451215302924538264 1:0.24303448 2:0.82051283 3:0.066206895 4:0.0046905158 5:0.037227888 #
-2.0266208299204451215302924538264 1:0.11318919 2:0.84615386 3:0.039495494 4:0.0078857699 5:0.012996221 #
2.0266208299204451215302924538264 1:0.35299999 2:0.25 3:0.053160001 4:0.0048939283 5:0.048618197 #
2.0266208299204451215302924538264 1:0.16 2:0.85185188 3:0.049980391 4:0.0014267182 5:0.041897301 #
-2.0266208299204451215302924538264 1:0.34720001 2:0.30555555 3:0.10826667 4:0.01765193 5:0.1462308 #
2.0266208299204451215302924538264 1:0.17314285 2:0.92307693 3:0.043709889 4:0.0011592672 5:0.0063683339 #
-2.0266208299204451215302924538264 1:0.20452175 2:1 3:0.045275364 4:0.00090471259 5:0.015295479 #
2.0266208299204451215302924538264 1:0.35168001 2:0.18518518 3:0.076880001 4:0.0063218633 5:0.0018931358 #
-2.0266208299204451215302924538264 1:0.27408695 2:0.30769232 3:0.10034782 4:0.0054767244 5:0.0037054832 #
2.0266208299204451215302924538264 1:0.20276923 2:0.71875 3:0.043000001 4:0.00086341245 5:0.073565885 #
-2.0266208299204451215302924538264 1:0.24589473 2:0.8611111 3:0.017813765 4:0.00067223172 5:0.051022418 #
2.0266208299204451215302924538264 1:0.2352 2:0.2857143 3:0.051666666 4:0.0015956577 5:0.022245098 #
-2.0266208299204451215302924538264 1:0.22747827 2:0.23529412 3:0.026478261 4:0.0020344616 5:0.018938417 #
-2.0266208299204451215302924538264 1:0.2265 2:0.36170211 3:0.030653846 4:0.0021910297 5:0.010485635 #
2.0266208299204451215302924538264 1:0.38533333 2:0.59523809 3:0.067555554 4:0.019307673 5:0.10359793 #
2.0266208299204451215302924538264 1:0.21408695 2:0.40000001 3:0.04821739 4:0.0026026545 5:0.0091401348 #
-2.0266208299204451215302924538264 1:0.35705262 2:0.77142859 3:0.12294737 4:0.01019451 5:0.010395276 #
2.0266208299204451215302924538264 1:0.34133333 2:0.9285714 3:0.081666663 4:0.010450962 5:0.028445093 #
-2.0266208299204451215302924538264 1:0.26066667 2:0.30952382 3:0.038972221 4:0.00060147844 5:0.034533896 #
2.0266208299204451215302924538264 1:0.24879999 2:0.8888889 3:0.047499999 4:0.010693097 5:0.011646352 #
2.0266208299204451215302924538264 1:0.084363639 2:0.0625 3:0.030109091 4:0.0028247258 5:0.029533209 #
-2.0266208299204451215302924538264 1:0.2268889 2:1 3:0.052111112 4:0.001677673 5:0.040534325 #
-2.0266208299204451215302924538264 1:0.20281819 2:1 3:0.041636363 4:0.00078952766 5:0.023182882 #
2.0266208299204451215302924538264 1:0.1664 2:0.078125 3:0.033399999 4:0.0027061256 5:0.039124861 #
-2.0266208299204451215302924538264 1:0.21600001 2:0.054545455 3:0.017142856 4:0.0065154159 5:0.070893377 #
-2.0266208299204451215302924538264 1:0.26333332 2:0.42372882 3:0.035923079 4:0.0027429974 5:0.056299202 #
2.0266208299204451215302924538264 1:0.28168422 2:0.609375 3:0.05068421 4:0.0020685152 5:0.012856998 #
2.0266208299204451215302924538264 1:0.32022223 2:0.3611111 3:0.017008547 4:0.00060868764 5:0.018446026 #
-2.0266208299204451215302924538264 1:0.26376471 2:0.42105263 3:0.043348417 4:0.0019782369 5:0.0507272 #
2.0266208299204451215302924538264 1:0.20373334 2:0.5 3:0.043760002 4:0.0053778412 5:0.015804609 #
-2.0266208299204451215302924538264 1:0.22815999 2:0.5625 3:0.035310768 4:0.0026514882 5:0.0027086919 #
2.0266208299204451215302924538264 1:0.36742857 2:0.41176471 3:0.10361905 4:0.0025461493 5:0.0097825537 #
2.0266208299204451215302924538264 1:0.20032001 2:1 3:0.04564923 4:0.0013351656 5:0.0036791696 #
-2.0266208299204451215302924538264 1:0.32307693 2:0.34615386 3:0.12707692 4:0.012325667 5:0.031440552 #
2.0266208299204451215302924538264 1:0.1688 2:0.80000001 3:0.041359998 4:0.005766694 5:4.861609e-05 #
2.0266208299204451215302924538264 1:0.29688889 2:0.07692308 3:0.029213674 4:0.0028728568 5:0.02104722 #
-2.0266208299204451215302924538264 1:0.20461538 2:1 3:0.05802564 4:0.0014575113 5:0.010157226 #
-2.0266208299204451215302924538264 1:0.30076191 2:0.05882353 3:0.069968253 4:0.0084200688 5:0.013188025 #
-2.0266208299204451215302924538264 1:0.24259999 2:0.83333331 3:0.039046153 4:0.0015167576 5:0.0047250697 #
-2.0266208299204451215302924538264 1:0.23363636 2:0.5 3:0.043636363 4:0.0021216867 5:0.0044361553 #
2.0266208299204451215302924538264 1:0.22977778 2:0.5 3:0.048577778 4:0.0074663558 5:0.032290466 #
-2.0266208299204451215302924538264 1:0.24295652 2:0.50769234 3:0.024949832 4:0.00168289 5:0.032556377 #
2.0266208299204451215302924538264 1:0.35483333 2:0.58064514 3:0.074333332 4:0.0038126677 5:0.064970076 #
-2.0266208299204451215302924538264 1:0.2757647 2:0.76190478 3:0.052921567 4:0.0021385343 5:0.0260546 #
2.0266208299204451215302924538264 1:0.28371429 2:0.29411766 3:0.033314284 4:0.0053035435 5:0.053995002 #
-2.0266208299204451215302924538264 1:0.33750001 2:0.53846157 3:0.1345 4:0.023110284 5:0.015393441 #
2.0266208299204451215302924538264 1:0.18417391 2:0.42857143 3:0.055130433 4:0.011341214 5:0.0011460239 #
2.0266208299204451215302924538264 1:0.20593104 2:1 3:0.034151725 4:0.0044772532 5:0.012838834 #
-2.0266208299204451215302924538264 1:0.23833333 2:0.074074075 3:0.032736111 4:0.0010063985 5:0.016523469 #
-2.0266208299204451215302924538264 1:0.2255 2:0.86250001 3:0.0088750003 4:0.00035542352 5:0.036457609 #
2.0266208299204451215302924538264 1:0.24114285 2:0.19607843 3:0.046959706 4:0.0015057444 5:0.018574232 #
-2.0266208299204451215302924538264 1:0.23566666 2:0.15873016 3:0.039666668 4:0.0014792554 5:0.0022713409 #
2.0266208299204451215302924538264 1:0.17094737 2:0.87804878 3:0.031873684 4:0.0036078293 5:0.04931885 #
-2.0266208299204451215302924538264 1:0.13866666 2:0.93457943 3:0.036238097 4:0.00064875168 5:0.039405461 #
2.0266208299204451215302924538264 1:0.24228571 2:0.10280374 3:0.04204762 4:0.0012029471 5:0.0055708191 #
-2.0266208299204451215302924538264 1:0.30076191 2:0.060606062 3:0.069968253 4:0.0084200688 5:0.016528714 #
2.0266208299204451215302924538264 1:0.1128 2:0.96610171 3:0.0056666667 4:0.00092169578 5:0.050855998 #
-2.0266208299204451215302924538264 1:0.264 2:0.95454544 3:0.011133334 4:0.0010942578 5:0.18389863 #
2.0266208299204451215302924538264 1:0.25773913 2:0.094339624 3:0.086840577 4:0.0067244149 5:0.0037091943 #
-2.0266208299204451215302924538264 1:0.21685715 2:0.13235295 3:0.028725274 4:0.0024073368 5:0.010106646 #
2.0266208299204451215302924538264 1:0.27000001 2:0.89999998 3:0.056133334 4:0.0016554919 5:0.09389504 #
-2.0266208299204451215302924538264 1:0.23175758 2:0.87341774 3:0.028757576 4:0.00052912539 5:0.018782988 #
2.0266208299204451215302924538264 1:0.1855 2:0.93333334 3:0.033179488 4:0.0015075025 5:0.023497125 #
-2.0266208299204451215302924538264 1:0.044 2:0.25 3:0.035054546 4:0.00096243602 5:0.0031746028 #
2.0266208299204451215302924538264 1:0.42246154 2:0.74193549 3:0.06246154 4:0.0045217611 5:0.031179413 #
-2.0266208299204451215302924538264 1:0.37040001 2:0.89999998 3:0.052307691 4:0.0026017749 5:0.0093565639 #
2.0266208299204451215302924538264 1:0.046857145 2:0.21951219 3:0.010666667 4:0.00012718902 5:0.13272585 #
-2.0266208299204451215302924538264 1:0.26949999 2:0.41025642 3:0.013807693 4:0.00088583218 5:0.12017754 #
2.0266208299204451215302924538264 1:0.31617391 2:0.55000001 3:0.059652176 4:0.0096180756 5:0.0065736421 #
-2.0266208299204451215302924538264 1:0.25075001 2:0.63636363 3:0.020291667 4:0.0010304303 5:0.041189816 #
2.0266208299204451215302924538264 1:0.1908 2:0.32291666 3:0.02045 4:0.00066184078 5:0.047798418 #
-2.0266208299204451215302924538264 1:0.22853333 2:0.28421053 3:0.041466668 4:0.0037640007 5:0.0056946315 #
2.0266208299204451215302924538264 1:0.15788889 2:0.875 3:0.038088888 4:0.0043537179 5:0.030960521 #
-2.0266208299204451215302924538264 1:0.090896554 2:1 3:0.039779309 4:0.00082493515 5:0.0043254364 #
2.0266208299204451215302924538264 1:0.257 2:0.12903225 3:0.069499999 4:0.0019675167 5:0.043995705 #
-2.0266208299204451215302924538264 1:0.28279999 2:0.15492958 3:0.049246155 4:0.0028499267 5:0.087070525 #
-2.0266208299204451215302924538264 1:0.27900001 2:0.7037037 3:0.030416667 4:0.0015070775 5:0.079590842 #
2.0266208299204451215302924538264 1:0.34363636 2:0.48275861 3:0.07609091 4:0.0057528131 5:0.069025218 #
-2.0266208299204451215302924538264 1:0.28375 2:0.39583334 3:0.10375 4:0.012758734 5:0.026925135 #
2.0266208299204451215302924538264 1:0.21858823 2:0.67647058 3:0.062823527 4:0.0070783305 5:0.031309221 #
-2.0266208299204451215302924538264 1:0.28099999 2:0.74545455 3:0.059 4:0.010301103 5:0.037136968 #
2.0266208299204451215302924538264 1:0.41566667 2:0.35714287 3:0.075319447 4:0.0023113387 5:0.02619873 #
2.0266208299204451215302924538264 1:0.14413333 2:1 3:0.043786667 4:0.0041868272 5:0.043396898 #
-2.0266208299204451215302924538264 1:0.30914286 2:0.3125 3:0.083428569 4:0.016916033 5:0.090420231 #
2.0266208299204451215302924538264 1:0.14962962 2:0.88461536 3:0.03928889 4:0.0055992343 5:0.019379791 #
2.0266208299204451215302924538264 1:0.24963637 2:0.059999999 3:0.026223777 4:0.0015507842 5:0.04163171 #
-2.0266208299204451215302924538264 1:0.13846155 2:1 3:0.044512819 4:0.0013583374 5:0.0036035869 #
-2.0266208299204451215302924538264 1:0.16599999 2:1 3:0.070451923 4:0.0011571258 5:0 #
2.0266208299204451215302924538264 1:0.21272728 2:0.12 3:0.044945456 4:0.0061946725 5:0.026300175 #
-2.0266208299204451215302924538264 1:0.21573333 2:0.10204082 3:0.034186665 4:0.0053647747 5:0.003529706 #
2.0266208299204451215302924538264 1:0.22285715 2:0.8888889 3:0.044095237 4:0.0014758948 5:0.03184158 #
-2.0266208299204451215302924538264 1:0.22976001 2:0.97368419 3:0.058359999 4:0.002991434 5:0.010616985 #
-2.0266208299204451215302924538264 1:0.24575 2:0.25 3:0.032083333 4:0.008533204 5:0.045884777 #
2.0266208299204451215302924538264 1:0.2694 2:0.87878788 3:0.051150002 4:0.0039268825 5:0.036034137 #
2.0266208299204451215302924538264 1:0.21272728 2:0.12 3:0.044945456 4:0.0061946725 5:0.026300175 #
-2.0266208299204451215302924538264 1:0.2192 2:0.22222222 3:0.02565 4:0.00095080491 5:0.020512404 #
2.0266208299204451215302924538264 1:0.23516667 2:0.8888889 3:0.056444444 4:0.0041973726 5:0.019767305 #
-2.0266208299204451215302924538264 1:0.24092308 2:0.97500002 3:0.039928995 4:0.001130154 5:0.070806652 #
2.0266208299204451215302924538264 1:0.18166667 2:0.14814815 3:0.10144445 4:0.0033760557 5:0.027185408 #
2.0266208299204451215302924538264 1:0.22416 2:0.88235295 3:0.064400002 4:0.0040797689 5:0.002807834 #
2.0266208299204451215302924538264 1:0.19741176 2:0.97727275 3:0.061058823 4:0.0079198414 5:0.03081831 #
-2.0266208299204451215302924538264 1:0.26875001 2:0.88709676 3:0.049942307 4:0.002692478 5:0.055428341 #
2.0266208299204451215302924538264 1:0.16047999 2:0.16129032 3:0.032480001 4:0.0049782614 5:0.054563988 #
-2.0266208299204451215302924538264 1:0.24704 2:0.56521738 3:0.034221537 4:0.0017553095 5:0.015568166 #
2.0266208299204451215302924538264 1:0.29725 2:0.53191489 3:0.04425 4:0.009348142 5:0.017531557 #
-2.0266208299204451215302924538264 1:0.24666667 2:0.53333336 3:0.038371794 4:0.0022317949 5:0.017738819 #
